svm_type c_svc
kernel_type rbf
gamma 16
nr_class 2
total_sv 1963
rho 0.174084
label 0 1
nr_sv 987 976
SV
1.117398041799439 1:0.0625 5:0.7 8:0.22222222 19:0.071428571 22:0.056842199 23:0.5633326 24:0.4 25:0.39621669 
0.2038554321673434 3:0.05 5:0.25 8:0.055555556 9:0.16666667 13:0.16666667 16:0.5 17:0.071428571 18:0.032258065 22:0.018596025 23:0.444929 24:0.2 25:0.17230973 
1.270313367373937 1:0.125 3:0.05 5:0.25 6:0.04 7:0.027777778 8:0.38888889 10:0.1 15:0.16666667 17:0.071428571 18:0.032258065 19:0.14285714 22:-0.061270492 23:0.55634826 24:0.5 25:0.21352863 
0.4487682080217653 1:0.0625 5:0.6 8:0.16666667 9:0.33333333 14:0.25 18:0.064516129 22:-0.33996804 23:0.56964528 24:0.4 25:0.31554541 
8 5:0.35 8:0.27777778 18:0.064516129 19:0.071428571 22:-0.038830326 23:0.49263465 24:0.2 25:0.3395407 
8 1:0.1875 5:0.05 8:0.27777778 11:0.22222222 22:0.029999028 23:0.43095787 24:0.1 25:0.14036508 
6.53803661975389 1:0.0625 2:0.33333333 7:0.055555556 18:0.032258065 22:-0.0020449742 23:0.26646366 25:0.066686295 
8 3:0.15 11:0.22222222 22:0.077877419 23:0.36771242 25:-0.16715737 
1.844155083445555 1:0.0625 4:0.055555556 5:0.2 7:0.083333333 8:0.33333333 14:0.5 18:0.064516129 19:0.071428571 22:-0.047614694 23:0.5280911 24:0.4 25:0.06477256 
0.3423550898245248 5:0.2 6:0.08 8:0.22222222 22:0.10428584 23:0.43155652 24:0.4 25:0.13543353 
0.8157875071618725 1:0.3125 3:0.05 5:0.1 6:0.2 7:0.055555556 8:0.55555556 10:0.2 15:0.16666667 17:0.35714286 18:0.064516129 19:0.21428571 22:-0.1350954 23:0.65461203 24:0.6 25:0.069336081 
0.1589395335688398 1:0.125 3:0.05 5:0.35 7:0.027777778 8:0.055555556 9:0.33333333 14:0.5 15:0.16666667 18:0.032258065 22:0.014957497 23:0.53538457 24:0.3 25:0.17709407 
1.576170380569008 3:0.15 19:0.21428571 21:0.5 22:-0.14704854 23:0.42736663 25:0.076622994 
7.500607945624756 1:0.0625 5:0.2 7:0.027777778 8:0.055555556 9:0.16666667 14:0.25 18:0.032258065 19:0.071428571 22:-0.05113352 23:0.44209657 24:0.2 25:0.12152216 
0.6924146590628877 1:0.0625 3:0.1 5:0.2 7:0.055555556 8:0.055555556 13:0.16666667 14:0.25 15:0.16666667 18:0.096774194 19:0.071428571 22:-0.083915167 23:0.50434442 24:0.1 25:0.11349919 
8 3:0.1 22:0.15234666 23:0.26602623 24:0.1 25:0.090387163 
8 1:0.0625 5:0.2 8:0.11111111 18:0.064516129 19:0.071428571 22:-0.048183497 23:0.39562971 24:0.1 25:0.12571765 
3.563864819690952 1:0.125 5:0.75 8:0.72222222 9:0.33333333 11:0.11111111 13:0.66666667 17:0.28571429 18:0.12903226 19:0.14285714 22:-0.49351194 23:0.70519337 24:0.6 25:0.47968497 
3.276983927932579 1:0.0625 3:0.025 5:0.4 8:0.22222222 18:0.12903226 19:0.071428571 22:-0.38237506 23:0.52389488 24:0.2 25:0.23303401 
1.425816924758729 1:0.125 3:0.1 4:0.055555556 5:0.2 7:0.083333333 8:0.38888889 14:0.25 15:0.33333333 18:0.064516129 22:-0.038585844 23:0.57953105 24:0.5 25:0.18695716 
0.9493408309236141 4:0.22222222 6:0.24 7:0.11111111 8:0.22222222 17:0.14285714 18:0.064516129 19:0.14285714 22:-0.05665304 23:0.5760681 24:0.7 25:0.031723833 
8 5:0.7 8:0.22222222 22:0.090744004 23:0.51280458 24:0.3 25:0.36287355 
1.010687298066995 1:0.0625 4:0.11111111 5:0.15 6:0.08 8:0.11111111 16:0.5 19:0.071428571 22:0.054921454 23:0.41412082 24:0.3 25:0.081848962 
1.934473757559151 1:0.0625 5:0.45 6:0.08 7:0.055555556 8:0.16666667 18:0.064516129 19:0.071428571 22:-0.011204458 23:0.52369203 24:0.3 25:0.15457088 
0.2170002925056269 1:0.0625 3:0.1 5:0.15 8:0.16666667 9:0.16666667 15:0.16666667 18:0.064516129 19:0.071428571 20:0.5 21:0.33333333 22:-0.031389399 23:0.52914075 24:0.2 25:0.26696599 
2.525384257478976 5:0.35 8:0.055555556 9:0.33333333 14:0.5 18:0.064516129 22:-0.033159413 23:0.48313194 24:0.3 25:0.21742971 
6.085309932955639 1:0.125 6:0.04 18:0.064516129 22:-0.36092861 23:0.30136071 25:0.065435007 
0.9241704203514381 1:0.0625 5:0.65 8:0.27777778 9:0.5 22:0.11411528 23:0.56610531 24:0.6 25:0.45988518 
8 5:0.2 8:0.11111111 11:0.11111111 18:0.064516129 22:-0.037958847 23:0.37458822 24:0.1 25:0.071985868 
0.4041171504365113 1:0.125 3:0.1 4:0.055555556 7:0.083333333 8:0.27777778 9:0.16666667 14:0.25 18:0.064516129 19:0.071428571 22:-0.050861983 23:0.53846185 24:0.4 25:0.18371853 
1.149286728694476 1:0.25 5:0.2 7:0.13888889 8:0.66666667 11:0.22222222 14:0.5 17:0.14285714 18:0.096774194 19:0.21428571 22:-0.11121517 23:0.64400326 24:0.4 25:0.11452966 
1.278378294216486 1:0.3125 3:0.375 5:0.1 6:0.76 7:0.22222222 8:0.44444444 11:0.55555556 14:1 17:0.57142857 18:0.25806452 19:0.35714286 22:-0.23604064 23:0.84728533 24:0.6 25:-0.53496246 
3.923766333239513 5:0.35 8:0.055555556 9:0.16666667 22:0.057671938 23:0.39587505 24:0.2 25:0.25047843 
1.343959414057825 1:0.125 5:0.55 8:0.16666667 9:0.16666667 13:0.33333333 15:0.16666667 22:0.057274847 23:0.52410808 24:0.3 25:0.38789931 
8 1:0.1875 18:0.032258065 19:0.21428571 22:-0.34917026 23:0.32883593 25:-0.025835419 
8 3:0.05 5:0.15 8:0.16666667 18:0.064516129 22:-0.025443967 23:0.41201596 24:0.2 25:0.11835713 
1.588248590157455 1:0.0625 3:0.075 5:0.05 6:0.04 8:0.11111111 10:0.1 14:0.25 16:0.5 17:0.14285714 18:0.064516129 19:0.071428571 22:-0.095660379 23:0.49525789 24:0.2 25:-0.10451936 
0.08381815205206791 1:0.0625 5:0.55 8:0.22222222 9:0.33333333 14:0.25 17:0.071428571 19:0.071428571 22:-0.019336761 23:0.55645581 24:0.4 25:0.34005594 
8 1:0.0625 5:0.2 7:0.027777778 8:0.11111111 17:0.071428571 18:0.032258065 19:0.071428571 22:-0.05253405 23:0.39498324 24:0.1 25:0.10437215 
1.188530275863321 1:0.1875 3:0.075 6:0.24 18:0.032258065 19:0.21428571 22:-0.40333762 23:0.54701486 25:0.42146327 
0.2348686030303294 3:0.025 4:0.16666667 5:0.1 7:0.055555556 8:0.11111111 13:0.16666667 15:0.16666667 18:0.12903226 20:0.5 22:-0.10188099 23:0.50214446 24:0.2 25:0.049977918 
0.8184985917481804 1:0.0625 5:0.35 8:0.16666667 9:0.16666667 11:0.11111111 14:0.5 16:0.5 22:0.027590091 23:0.48322316 24:0.3 25:0.1405859 
1.695468750678135 1:0.125 2:0.33333333 4:0.055555556 5:0.25 7:0.027777778 8:0.27777778 18:0.032258065 22:0.013210231 23:0.47372277 24:0.2 25:0.29309583 
0.8063987042803651 3:0.025 5:0.45 8:0.27777778 9:0.16666667 21:0.16666667 22:0.094418752 23:0.49722749 24:0.4 25:0.33446195 
0.08438332507077942 3:0.025 5:0.65 8:0.16666667 9:0.33333333 15:0.16666667 22:0.11569923 23:0.53715195 24:0.5 25:0.34116002 
0.7685105058078142 5:0.45 6:0.08 8:0.16666667 9:0.5 17:0.14285714 18:0.064516129 22:-0.072350831 23:0.56742598 24:0.5 25:0.22942735 
1.186772223450639 1:0.1875 4:0.22222222 5:0.2 7:0.11111111 8:0.11111111 12:0.5 15:0.16666667 19:0.071428571 22:0.012784981 23:0.54323504 24:0.2 25:0.2044752 
8 7:0.027777778 11:0.11111111 17:0.071428571 18:0.032258065 22:-0.10377976 23:0.22488127 25:-0.10297365 
2.758973125711267 3:0.025 5:0.5 6:0.04 7:0.027777778 8:0.11111111 18:0.032258065 21:0.16666667 22:-0.032832221 23:0.49315184 24:0.2 25:0.24400118 
8 1:0.25 3:0.05 6:0.04 10:0.2 15:0.16666667 17:0.14285714 22:-0.035147076 23:0.41608712 24:0.1 25:0.02612984 
8 1:0.0625 5:0.45 7:0.027777778 8:0.16666667 18:0.032258065 22:0.014660452 23:0.47992172 24:0.2 25:0.2258943 
2.688594116748293 1:0.0625 3:0.025 5:0.45 7:0.027777778 8:0.16666667 15:0.16666667 17:0.071428571 18:0.032258065 22:-0.014200308 23:0.49287492 24:0.2 25:0.2045488 
6.061526923052519 3:0.025 4:0.11111111 7:0.083333333 17:0.14285714 18:0.032258065 19:0.071428571 22:-0.06029455 23:0.3741944 24:0.1 25:-0.10761078 
2.836606686834985 3:0.05 22:0.13803217 23:0.11148285 24:0.1 25:-0.029221257 
1.33211245467035 1:0.1875 2:0.33333333 3:0.45 4:0.11111111 6:0.04 7:0.11111111 18:0.032258065 19:0.071428571 22:0.00011053616 23:0.62463623 24:0.2 25:0.79839541 
0.3396690854862531 4:0.055555556 5:0.4 7:0.055555556 8:0.22222222 9:0.16666667 13:0.5 15:0.16666667 17:0.071428571 18:0.064516129 22:-0.079379871 23:0.55914961 24:0.4 25:0.2699102 
8 5:0.45 8:0.16666667 17:0.071428571 22:0.040714962 23:0.4547789 24:0.2 25:0.23516856 
0.5803048110009568 1:0.0625 4:0.16666667 5:0.1 7:0.027777778 8:0.11111111 9:0.16666667 14:0.5 16:0.5 17:0.071428571 22:-0.0035364946 23:0.47204325 24:0.3 25:0.14286766 
8 5:0.2 8:0.055555556 14:0.25 22:0.028501103 23:0.29927555 24:0.1 25:0.11430885 
8 5:0.3 8:0.055555556 9:0.16666667 14:0.25 22:-0.058091114 23:0.39465012 24:0.2 25:0.16355071 
0.7371991552287545 1:0.125 3:0.05 5:0.35 7:0.083333333 8:0.27777778 15:0.16666667 18:0.096774194 22:-0.039369204 23:0.55431346 24:0.3 25:0.15861917 
8 3:0.1 6:0.04 18:0.064516129 22:-0.02044919 23:0.3274462 24:0.1 25:0.12461357 
6.086772239883226 5:0.2 8:0.11111111 11:0.22222222 22:0.048546466 23:0.32703268 24:0.1 25:0.024804946 
0.8051031690358447 5:0.4 8:0.11111111 9:0.33333333 18:0.12903226 22:-0.056803771 23:0.51916678 24:0.3 25:0.2529074 
1.144247802124928 1:0.1875 3:0.025 5:0.25 7:0.083333333 8:0.055555556 15:0.5 17:0.071428571 18:0.096774194 22:-0.45991855 23:0.52810263 24:0.2 25:0.030104519 
0.8298597687319559 5:0.6 8:0.11111111 9:0.66666667 22:0.10626092 23:0.54932904 24:0.6 25:0.31885765 
8 5:0.15 8:0.11111111 9:0.16666667 11:0.11111111 14:0.25 22:0.038229831 23:0.39544557 24:0.2 25:0.15964964 
8 5:0.3 8:0.055555556 9:0.16666667 14:0.25 17:0.071428571 22:-0.0013752421 23:0.39587505 24:0.2 25:0.12873546 
8 1:0.1875 3:0.075 6:0.12 7:0.027777778 18:0.032258065 22:0.040509902 23:0.39478552 24:0.1 25:0.19115266 
8 1:0.0625 3:0.075 4:0.16666667 18:0.032258065 22:0.090012324 23:0.32127659 25:0.16826145 
8 1:0.0625 5:0.2 7:0.027777778 8:0.11111111 11:0.11111111 18:0.032258065 22:0.0065539882 23:0.39296046 24:0.1 25:0.015015457 
1.356514965248677 5:0.15 8:0.16666667 12:0.25 13:0.16666667 18:0.064516129 22:-0.14982277 23:0.4286733 24:0.1 25:0.055645517 
4.664573423521506 3:0.025 4:0.11111111 21:0.33333333 22:0.055596266 23:0.22131367 25:0.11165906 
1.057880356695322 1:0.0625 3:0.05 5:0.3 6:0.04 8:0.11111111 9:0.16666667 22:0.092849602 23:0.46003363 24:0.3 25:0.1988076 
2.932449333186507 1:0.0625 3:0.05 4:0.055555556 5:0.1 7:0.083333333 8:0.22222222 15:0.16666667 17:0.071428571 18:0.064516129 19:0.14285714 22:-0.12651786 23:0.50888247 24:0.3 25:0.091859267 
0.9012409467539929 3:0.225 7:0.055555556 10:0.1 15:0.33333333 18:0.064516129 22:-0.060447379 23:0.48349621 24:0.3 25:0.068526424 
8 1:0.0625 3:0.025 5:0.25 8:0.055555556 11:0.11111111 15:0.16666667 22:0.075023024 23:0.37373819 24:0.1 25:0.12093331 
5.523321245309415 1:0.0625 4:0.11111111 5:0.45 7:0.055555556 8:0.16666667 18:0.064516129 22:0.0073073126 23:0.51298647 24:0.2 25:0.20771382 
5.075057133924791 3:0.1 5:0.35 8:0.16666667 9:0.33333333 18:0.064516129 22:-0.022103588 23:0.52610082 24:0.4 25:0.39430296 
8 3:0.05 7:0.027777778 22:0.086909139 23:0.26701771 24:0.1 25:0.0064036508 
0.1415831641455238 3:0.1 5:0.35 8:0.16666667 9:0.5 13:0.16666667 18:0.032258065 22:0.018918468 23:0.53847247 24:0.5 25:0.41991756 
3.113932050815963 1:0.0625 5:0.45 6:0.08 7:0.027777778 8:0.16666667 18:0.032258065 19:0.14285714 22:-0.0053991559 23:0.50371939 24:0.3 25:0.21809215 
8 1:0.125 4:0.055555556 7:0.055555556 18:0.032258065 22:0.033741246 23:0.2990191 25:0.12755778 
0.7326197586554666 3:0.1 5:0.3 8:0.11111111 9:0.33333333 15:0.16666667 18:0.064516129 20:0.5 21:0.33333333 22:-0.0006462114 23:0.54436403 24:0.3 25:0.33505079 
8 3:0.025 5:0.25 7:0.027777778 8:0.055555556 18:0.032258065 22:-0.017698816 23:0.37249771 24:0.1 25:0.15243633 
4.145096129213269 5:0.65 9:0.66666667 14:0.25 22:0.099765566 23:0.5373453 24:0.5 25:0.38053879 
8 4:0.11111111 5:0.4 8:0.22222222 18:0.064516129 22:-0.02900343 23:0.49110466 24:0.2 25:0.32202267 
8 1:0.125 5:0.45 8:0.27777778 9:0.16666667 13:0.33333333 17:0.071428571 22:-0.02700108 23:0.52641734 24:0.3 25:0.42786692 
5.459825028173831 5:0.1 8:0.22222222 17:0.071428571 18:0.19354839 22:-0.18897112 23:0.47439366 24:0.1 25:0.091712057 
2.231113847919995 5:0.5 8:0.22222222 9:0.16666667 22:0.12914698 23:0.47446181 24:0.4 25:0.29037244 
8 3:0.025 5:0.4 7:0.027777778 8:0.22222222 18:0.032258065 22:0.053484926 23:0.45981431 24:0.3 25:0.24871191 
0.8481367430974205 3:0.025 5:0.2 6:0.2 7:0.027777778 8:0.44444444 17:0.5 18:0.032258065 19:0.21428571 22:-0.18151009 23:0.60148897 24:0.4 25:-0.00073605182 
0.8583583944075968 3:0.225 15:0.33333333 18:0.032258065 19:0.071428571 21:0.5 22:-0.32796101 23:0.48634349 24:0.1 25:0.15177388 
1.50465345116123 3:0.1 5:0.35 8:0.27777778 13:0.33333333 15:0.16666667 17:0.14285714 18:0.12903226 22:-0.10996162 23:0.57580954 24:0.2 25:0.22611512 
4.239727202539916 5:0.05 8:0.11111111 9:0.16666667 11:0.11111111 14:0.75 17:0.071428571 22:-0.037820814 23:0.41411569 24:0.2 25:-0.059914618 
8 1:0.125 11:0.11111111 15:0.16666667 22:0.1656386 23:0.17607372 25:-0.027822759 
2.582742610460063 1:0.125 5:0.25 7:0.083333333 8:0.055555556 13:0.16666667 15:0.33333333 18:0.064516129 22:-0.025878492 23:0.47303501 24:0.2 25:0.11563374 
0.07122703735762873 3:0.1 7:0.027777778 13:0.16666667 15:0.16666667 18:0.064516129 21:0.33333333 22:-0.063770862 23:0.410996 25:0.088252613 
3.811157531437677 1:0.1875 5:0.35 8:0.16666667 9:0.33333333 22:0.11104335 23:0.48616385 24:0.3 25:0.37575445 
4.08710325285515 1:0.125 13:0.16666667 15:0.16666667 18:0.032258065 22:0.13189736 23:0.22488127 25:0.0066980715 
0.8131780753130439 1:0.25 3:0.1 5:0.3 8:0.33333333 15:0.33333333 22:0.061455345 23:0.55330249 24:0.3 25:0.36611217 
8 1:0.0625 3:0.125 15:0.16666667 19:0.071428571 22:0.10208241 23:0.32652815 24:0.1 25:0.02627705 
0.4611304053931486 1:0.3125 5:0.1 8:0.22222222 9:0.16666667 14:0.5 15:0.16666667 22:0.064886604 23:0.47239951 24:0.2 25:0.1846018 
8 5:0.15 7:0.027777778 8:0.16666667 11:0.22222222 17:0.071428571 18:0.032258065 22:-0.094608243 23:0.3965913 24:0.1 25:-0.0043427057 
8 5:0.35 8:0.27777778 17:0.071428571 22:0.043598068 23:0.45781623 24:0.3 25:0.20160459 
3.462685313116556 1:0.0625 5:0.35 7:0.055555556 8:0.22222222 9:0.16666667 13:0.16666667 14:0.25 17:0.071428571 18:0.032258065 19:0.071428571 22:-0.078983553 23:0.55255705 24:0.3 25:0.24643015 
3.253853284664099 5:0.45 8:0.27777778 9:0.16666667 11:0.11111111 22:0.059484687 23:0.48638253 24:0.4 25:0.23546298 
3.817426594010425 4:0.055555556 5:0.2 8:0.11111111 15:0.16666667 17:0.071428571 18:0.096774194 22:-0.052523559 23:0.42655057 24:0.1 25:0.032459885 
8 4:0.11111111 5:0.25 7:0.027777778 8:0.055555556 18:0.032258065 22:0.070889788 23:0.39215327 24:0.1 25:0.17679965 
2.697713451702593 3:0.1 5:0.2 6:0.08 8:0.11111111 19:0.28571429 22:0.041528138 23:0.46831464 24:0.3 25:0.090534374 
0.004280132147993463 1:0.0625 5:0.15 8:0.16666667 13:0.33333333 18:0.064516129 22:-0.0022135943 23:0.42787792 24:0.1 25:0.14993376 
0.7135885100393689 3:0.175 5:0.2 7:0.027777778 8:0.11111111 15:0.16666667 17:0.071428571 18:0.032258065 21:0.33333333 22:-0.074733046 23:0.5032987 24:0.1 25:0.28499926 
8 1:0.0625 5:0.35 7:0.027777778 8:0.055555556 9:0.16666667 18:0.032258065 19:0.071428571 22:-0.028503753 23:0.4584008 24:0.2 25:0.18416016 
7.705174022683653 1:0.1875 3:0.025 7:0.027777778 15:0.16666667 18:0.032258065 19:0.071428571 22:-0.031440636 23:0.32611259 25:0.042102164 
8 5:0.15 7:0.027777778 8:0.16666667 18:0.032258065 22:-0.035932645 23:0.39478552 24:0.1 25:0.24768144 
1.231887926404973 1:0.3125 3:0.1 4:0.16666667 5:0.2 6:0.24 7:0.11111111 8:0.11111111 10:0.4 17:0.28571429 18:0.096774194 19:0.28571429 22:-0.18037282 23:0.67352629 24:0.5 25:0.15523333 
3.86828605193975 1:0.0625 10:0.1 18:0.064516129 19:0.071428571 22:-0.58919285 23:0.3553438 25:0.12969233 
8 1:0.125 5:0.15 8:0.16666667 17:0.071428571 22:0.037953767 23:0.37457198 24:0.1 25:0.15081702 
8 1:0.0625 4:0.055555556 7:0.027777778 18:0.064516129 22:-0.047033192 23:0.22488127 25:-0.032827911 
8 3:0.025 5:0.25 8:0.055555556 21:0.16666667 22:0.094109008 23:0.32652815 24:0.1 25:0.17878699 
3.673858680177548 5:0.4 7:0.11111111 8:0.22222222 18:0.064516129 22:0.012625195 23:0.5175841 24:0.4 25:0.15508612 
4.15271831300648 3:0.05 5:0.5 8:0.11111111 9:0.5 17:0.14285714 22:0.044243506 23:0.54017464 24:0.4 25:0.24628294 
2.6075020684402 5:0.35 8:0.055555556 9:0.33333333 11:0.11111111 20:0.5 22:0.045642932 23:0.44453237 24:0.3 25:0.19041661 
0.6796727202607717 3:0.125 5:0.4 6:0.04 8:0.11111111 9:0.33333333 15:0.16666667 22:0.1101193 23:0.52884857 24:0.5 25:0.36140144 
8 5:0.45 8:0.16666667 17:0.071428571 22:0.04241585 23:0.44147788 24:0.2 25:0.19100545 
1.273808587012982 1:0.0625 3:0.1 5:0.2 6:0.12 8:0.11111111 9:0.16666667 15:0.16666667 22:0.086331723 23:0.50878414 24:0.4 25:0.25276019 
1.194156741019581 1:0.125 5:0.4 8:0.16666667 9:0.16666667 13:0.33333333 14:0.25 15:0.16666667 22:0.050307315 23:0.51289011 24:0.3 25:0.32717503 
0.9573166726132175 1:0.125 3:0.025 5:0.2 7:0.027777778 8:0.11111111 13:0.33333333 15:0.16666667 18:0.032258065 19:0.14285714 22:-0.26019174 23:0.50569441 24:0.2 25:0.21536876 
6.193292001977543 5:0.15 8:0.16666667 17:0.071428571 18:0.12903226 22:-0.15324122 23:0.43173222 24:0.1 25:0.099440601 
8 5:0.35 8:0.16666667 9:0.33333333 17:0.21428571 22:-0.066840698 23:0.48571875 24:0.3 25:0.20940674 
4.79123924681198 1:0.0625 3:0.025 5:0.35 7:0.055555556 8:0.27777778 13:0.16666667 15:0.16666667 18:0.096774194 22:-0.10202432 23:0.54877035 24:0.3 25:0.20756661 
1.524942543241537 1:0.1875 5:0.9 8:0.77777778 9:0.16666667 13:0.66666667 17:0.21428571 18:0.19354839 19:0.071428571 22:-0.51611752 23:0.71461659 24:0.6 25:0.68077433 
7.764204171121323 3:0.025 5:0.55 8:0.055555556 9:0.66666667 21:0.16666667 22:0.095792669 23:0.53910663 24:0.5 25:0.40136906 
4.394741696344878 5:0.15 8:0.11111111 11:0.22222222 14:0.25 22:0.015209047 23:0.32804034 24:0.1 25:0.019431768 
1.157011070832857 4:0.16666667 5:0.2 7:0.027777778 8:0.22222222 13:0.16666667 18:0.16129032 20:1 22:-0.11047852 23:0.54092198 24:0.2 25:0.14566465 
8 3:0.075 5:0.2 6:0.04 8:0.11111111 17:0.071428571 19:0.071428571 22:0.01728472 23:0.41368607 24:0.2 25:0.19564257 
4.069455419099673 3:0.025 5:0.2 8:0.11111111 18:0.064516129 21:0.16666667 22:-0.032974339 23:0.3940865 24:0.1 25:0.17105844 
8 1:0.0625 7:0.027777778 17:0.071428571 18:0.032258065 22:-0.048566895 23:0.22488127 25:-0.087516561 
8 1:0.125 3:0.025 5:0.2 6:0.04 7:0.027777778 8:0.11111111 18:0.032258065 19:0.071428571 22:-0.0099368806 23:0.45451359 24:0.1 25:0.16259385 
8 3:0.05 5:0.2 8:0.11111111 9:0.16666667 17:0.071428571 18:0.064516129 22:-0.039811901 23:0.45666747 24:0.2 25:0.12770499 
7.348022389800071 5:0.3 9:0.16666667 14:0.5 22:0.087675936 23:0.37521304 24:0.2 25:0.095245105 
0.5329929835849146 5:0.55 7:0.027777778 8:0.22222222 9:0.33333333 12:0.25 13:0.16666667 14:0.25 17:0.071428571 18:0.032258065 22:-0.068545229 23:0.57824267 24:0.4 25:0.24539968 
8 1:0.1875 4:0.16666667 7:0.083333333 10:0.1 18:0.064516129 22:-0.026346255 23:0.41435027 24:0.1 25:0.13020757 
2.381899902709726 1:0.0625 3:0.025 5:0.25 8:0.055555556 10:0.1 19:0.071428571 22:0.035320886 23:0.37443848 24:0.2 25:0.12409834 
1.170012955818962 5:0.15 8:0.11111111 9:0.16666667 11:0.11111111 14:0.25 22:0.033613373 23:0.39629863 24:0.2 25:0.15964964 
8 5:0.2 8:0.11111111 13:0.16666667 17:0.071428571 18:0.032258065 22:-0.019631266 23:0.35070734 24:0.1 25:0.13315177 
2.075949594671798 4:0.22222222 7:0.055555556 12:0.25 18:0.032258065 22:-0.0058893357 23:0.35070734 24:0.1 25:0.062711615 
8 4:0.055555556 5:0.45 7:0.083333333 8:0.16666667 18:0.064516129 22:-0.0033392742 23:0.50641101 24:0.3 25:0.20955395 
4.740243988501061 4:0.055555556 7:0.083333333 17:0.071428571 18:0.064516129 22:-0.12944602 23:0.35275909 25:0.069262476 
5.694225421537949 1:0.125 5:0.2 8:0.11111111 13:0.33333333 15:0.16666667 18:0.064516129 22:-0.036726164 23:0.44019583 24:0.1 25:0.15515972 
0.7879658317873235 1:0.0625 3:0.1 6:0.04 7:0.083333333 13:0.16666667 15:0.33333333 17:0.071428571 18:0.12903226 22:-0.14669021 23:0.48523588 24:0.1 25:-0.035845724 
8 1:0.0625 3:0.05 5:0.15 6:0.04 8:0.16666667 17:0.071428571 19:0.14285714 22:-0.027466193 23:0.42763483 24:0.2 25:0.11180627 
2.657436201196453 5:0.7 9:0.66666667 22:0.12704779 23:0.53641284 24:0.5 25:0.40217871 
0.08063780942648398 1:0.125 3:0.125 5:0.15 6:0.16 7:0.083333333 8:0.5 10:0.1 11:0.11111111 17:0.28571429 18:0.096774194 19:0.21428571 22:-0.22471173 23:0.65104886 24:0.5 25:0.04063006 
1.276389591231309 1:0.125 3:0.05 5:0.2 6:0.08 7:0.083333333 8:0.44444444 10:0.1 17:0.28571429 18:0.096774194 19:0.071428571 22:-0.16656706 23:0.60290536 24:0.4 25:0.11762108 
1.177664033888532 5:0.6 7:0.11111111 8:0.44444444 9:0.16666667 13:0.33333333 15:0.33333333 18:0.064516129 22:0.011482951 23:0.61373668 24:0.8 25:0.3877521 
8 1:0.125 3:0.05 5:0.2 6:0.04 7:0.027777778 8:0.11111111 17:0.071428571 18:0.032258065 19:0.071428571 22:-0.061371753 23:0.46771965 24:0.1 25:0.09104961 
2.401669180794617 1:0.3125 2:0.33333333 3:0.05 4:0.11111111 6:0.12 7:0.13888889 10:0.1 18:0.064516129 19:0.071428571 22:-0.043075975 23:0.53595909 24:0.2 25:0.28735463 
2.406907671931348 1:0.25 3:0.025 6:0.08 7:0.083333333 15:0.16666667 18:0.032258065 22:-0.0017654867 23:0.47110318 25:0.29147652 
8 1:0.125 5:0.4 7:0.055555556 8:0.22222222 18:0.064516129 19:0.14285714 22:-0.046900791 23:0.53425332 24:0.2 25:0.25172972 
8 3:0.025 5:0.4 7:0.027777778 8:0.22222222 18:0.032258065 19:0.071428571 22:-0.068850556 23:0.49675679 24:0.3 25:0.29147652 
1.286535745680288 1:0.125 4:0.055555556 5:0.2 7:0.083333333 8:0.38888889 14:0.25 18:0.064516129 19:0.071428571 22:-0.043423595 23:0.53918492 24:0.4 25:0.17024879 
8 1:0.0625 5:0.15 8:0.16666667 11:0.11111111 17:0.071428571 22:-0.026711765 23:0.35319315 24:0.1 25:0.095833947 
1.139531042750745 1:0.25 3:0.05 6:0.04 8:0.11111111 14:0.5 16:0.5 19:0.21428571 22:-0.30132456 23:0.49577066 24:0.1 25:0.22802885 
1.114633564074514 3:0.15 5:0.25 8:0.27777778 9:0.33333333 18:0.064516129 22:-0.021433856 23:0.54622946 24:0.5 25:0.43853967 
0.5395066298436993 3:0.15 15:0.5 22:-0.14007714 23:0.39669765 24:0.3 25:0.059767408 
2.163290521012843 1:0.0625 3:0.075 5:0.2 6:0.04 8:0.11111111 19:0.071428571 22:0.072528286 23:0.40821646 24:0.2 25:0.20204622 
2.944777773933378 5:0.55 8:0.055555556 9:0.5 17:0.071428571 22:0.0034844841 23:0.50737183 24:0.4 25:0.31561902 
1.918573321322409 3:0.025 5:0.35 8:0.11111111 9:0.16666667 11:0.11111111 14:0.75 16:0.5 22:-0.00062821201 23:0.48270836 24:0.3 25:0.08891506 
8 3:0.05 6:0.04 17:0.14285714 22:-0.057707716 23:0.26447141 25:0.034741646 
0.9420732690191151 1:0.125 3:0.125 4:0.055555556 5:0.05 7:0.083333333 8:0.27777778 15:0.66666667 17:0.071428571 18:0.064516129 19:0.071428571 22:-0.13941337 23:0.57223174 24:0.4 25:0.099808627 
0.5926011678263904 5:0.55 9:0.5 14:0.25 22:0.1150412 23:0.49604624 24:0.4 25:0.25062564 
8 3:0.025 5:0.25 8:0.055555556 22:0.11080913 23:0.32652815 24:0.1 25:0.18953334 
2.012490249333518 3:0.025 5:0.2 7:0.055555556 8:0.11111111 15:0.16666667 18:0.064516129 21:0.16666667 22:-0.0061348122 23:0.43106753 24:0.2 25:0.095613131 
8 1:0.125 4:0.11111111 5:0.45 8:0.16666667 15:0.16666667 22:0.092975488 23:0.47969966 24:0.2 25:0.29280141 
5.702670605733712 1:0.125 5:0.2 8:0.11111111 18:0.064516129 19:0.21428571 22:-0.28940178 23:0.46946649 24:0.1 25:0.16229943 
3.446508761061867 4:0.22222222 7:0.055555556 13:0.33333333 17:0.14285714 22:0.04830099 23:0.37190104 24:0.1 25:0.042838216 
8 5:0.35 8:0.055555556 9:0.16666667 17:0.071428571 22:0.043388149 23:0.41179306 24:0.2 25:0.14610629 
1.186421310158791 3:0.1 6:0.08 7:0.22222222 11:0.11111111 17:0.14285714 18:0.12903226 22:-0.14282166 23:0.59385865 25:0.096496393 
7.594274311620092 1:0.0625 3:0.1 5:0.05 6:0.08 7:0.11111111 8:0.27777778 18:0.064516129 19:0.28571429 22:-0.048912638 23:0.54861209 24:0.5 25:0.11960842 
0.1716510857183693 1:0.0625 5:0.2 8:0.055555556 9:0.16666667 11:0.11111111 14:0.25 16:0.5 22:0.056107537 23:0.39594286 24:0.2 25:0.09914618 
0.2253520484528064 4:0.11111111 5:0.2 8:0.27777778 14:0.25 16:0.5 18:0.064516129 22:-0.066140378 23:0.49630811 24:0.3 25:0.2741057 
0.8641176208209794 1:0.125 2:0.33333333 3:0.025 5:0.25 6:0.04 7:0.055555556 8:0.38888889 15:0.16666667 17:0.071428571 18:0.032258065 19:0.071428571 22:-0.061046218 23:0.54786404 24:0.4 25:0.29758575 
2.977639788159647 5:0.2 7:0.055555556 8:0.11111111 10:0.1 18:0.064516129 22:-0.5174603 23:0.50604575 24:0.1 25:0.38156926 
5.153610925066184 6:0.04 12:0.25 21:0.16666667 22:-0.058024638 23:0.22488127 25:0.10643309 
8 5:0.45 8:0.055555556 9:0.33333333 18:0.064516129 22:-0.019973807 23:0.48658686 24:0.3 25:0.26063595 
6.753818824773224 5:0.3 8:0.33333333 11:0.11111111 19:0.071428571 22:-0.0072237203 23:0.48269795 24:0.2 25:0.34130723 
8 5:0.3 8:0.055555556 9:0.16666667 14:0.25 22:-0.061956015 23:0.39587505 24:0.2 25:0.16355071 
8 1:0.0625 5:0.25 7:0.027777778 8:0.055555556 18:0.032258065 22:-0.00045263509 23:0.39106373 24:0.1 25:0.059472987 
6.533560149227915 5:0.3 8:0.11111111 9:0.16666667 17:0.071428571 18:0.064516129 22:-0.074961737 23:0.44657976 24:0.2 25:0.17407625 
2.188859879888716 1:0.3125 3:0.05 7:0.083333333 15:0.16666667 18:0.064516129 19:0.21428571 22:-0.40758768 23:0.49616117 25:0.047328132 
8 1:0.125 3:0.125 5:0.1 7:0.027777778 8:0.22222222 9:0.16666667 10:0.1 17:0.14285714 18:0.032258065 19:0.071428571 22:-0.090554403 23:0.53911789 24:0.3 25:0.25246577 
2.3597824971043 4:0.11111111 5:0.45 8:0.16666667 11:0.11111111 22:0.054121972 23:0.45437664 24:0.2 25:0.22596791 
8 1:0.0625 3:0.05 6:0.04 19:0.14285714 22:0.047033192 23:0.26164629 24:0.1 25:-0.017150007 
1.965347930623587 3:0.075 5:0.2 6:0.04 8:0.055555556 13:0.16666667 14:0.25 15:0.16666667 18:0.032258065 22:0.046552619 23:0.42892391 24:0.2 25:0.074562049 
2.788977564686696 1:0.125 2:0.33333333 3:0.075 7:0.055555556 15:0.16666667 22:0.071521755 23:0.4108772 25:0.24753423 
7.021797646623282 2:0.33333333 3:0.025 4:0.055555556 7:0.027777778 11:0.11111111 18:0.032258065 22:-0.05675673 23:0.29512674 25:-0.016119535 
0.6949066950948355 5:0.45 6:0.16 8:0.11111111 9:0.5 14:0.25 17:0.14285714 19:0.071428571 22:-0.072408915 23:0.56247652 24:0.6 25:0.19682026 
1.01631588570823 5:0.95 7:0.055555556 8:0.72222222 9:0.16666667 13:1 17:0.35714286 18:0.12903226 22:-0.46287023 23:0.70806118 24:0.6 25:0.66259385 
5.995227799744423 3:0.025 4:0.11111111 18:0.064516129 22:0.0030674061 23:0.22131367 25:-0.025761814 
1.139516726190721 5:0.9 8:0.22222222 9:0.33333333 22:0.090208771 23:0.58114572 24:0.5 25:0.49661416 
8 1:0.0625 3:0.025 5:0.2 7:0.027777778 8:0.11111111 18:0.096774194 19:0.071428571 22:-0.039510107 23:0.44019583 24:0.1 25:0.11033417 
0.3195256886943462 3:0.2 11:0.22222222 22:0.078005181 23:0.42183984 25:-0.19637863 
0.8583797673394084 1:0.0625 5:0.45 7:0.027777778 8:0.055555556 9:0.5 15:0.16666667 17:0.071428571 18:0.032258065 22:-0.018754265 23:0.52911683 24:0.4 25:0.19939644 
4.500584380794161 5:0.5 7:0.027777778 8:0.22222222 9:0.16666667 18:0.032258065 22:0.054589514 23:0.49672606 24:0.4 25:0.28198145 
8 5:0.15 8:0.11111111 14:0.25 22:-0.00097980755 23:0.32868203 24:0.1 25:0.16318269 
8 5:0.2 8:0.11111111 12:0.25 18:0.064516129 22:-0.048219275 23:0.3940865 24:0.1 25:0.11798911 
0.4687656636866553 1:0.125 3:0.05 5:0.35 7:0.055555556 8:0.27777778 15:0.16666667 18:0.064516129 19:0.071428571 22:-0.020453717 23:0.54498273 24:0.3 25:0.17010158 
1.197076399290707 3:0.15 6:0.12 18:0.032258065 19:0.21428571 21:1 22:-0.44099235 23:0.52007385 25:0.27381128 
0.7798793467688016 1:0.25 3:0.175 5:0.3 7:0.055555556 8:0.16666667 9:0.33333333 14:0.25 15:0.33333333 18:0.12903226 19:0.14285714 22:-0.063723379 23:0.64536514 24:0.3 25:0.22810246 
8 1:0.125 3:0.025 5:0.15 6:0.04 7:0.027777778 8:0.16666667 17:0.071428571 18:0.032258065 19:0.071428571 22:-0.039155089 23:0.46940009 24:0.1 25:0.14294126 
0.7730789369875399 1:0.0625 3:0.125 4:0.055555556 5:0.05 7:0.083333333 8:0.16666667 14:0.5 15:0.33333333 17:0.071428571 18:0.064516129 22:-0.12666969 23:0.5368279 24:0.3 25:0.025393788 
2.85113555398907 1:0.1875 5:0.15 8:0.16666667 18:0.096774194 19:0.21428571 22:-0.3843508 23:0.48296763 24:0.1 25:0.13190049 
8 4:0.11111111 5:0.25 8:0.055555556 18:0.064516129 22:0.053663815 23:0.39106373 24:0.1 25:0.13322538 
0.4322425383544449 1:0.125 3:0.025 5:0.3 7:0.027777778 8:0.22222222 9:0.33333333 18:0.032258065 19:0.28571429 22:-0.0070037523 23:0.5484335 24:0.4 25:0.23951126 
0.8446241229146793 3:0.075 4:0.055555556 7:0.027777778 19:0.071428571 21:0.33333333 22:0.038098535 23:0.34788194 25:0.12917709 
1.539523435267681 1:0.0625 5:0.3 9:0.33333333 14:0.5 16:0.5 22:0.065084708 23:0.44536622 24:0.3 25:0.12792581 
8 1:0.125 5:0.35 8:0.27777778 22:0.11340381 23:0.46012893 24:0.3 25:0.31142352 
0.6704592814297621 5:0.15 8:0.11111111 9:0.16666667 14:0.25 18:0.064516129 22:-0.039209639 23:0.42839448 24:0.2 25:0.20683056 
8 1:0.125 5:0.1 8:0.22222222 19:0.14285714 22:0.0025510553 23:0.4129236 24:0.1 25:0.2300898 
8 3:0.05 5:0.25 6:0.04 7:0.055555556 8:0.055555556 11:0.11111111 17:0.071428571 18:0.064516129 22:-0.11829467 23:0.48027319 24:0.1 25:0.0083909907 
5.673161722701689 2:0.33333333 4:0.055555556 5:0.2 8:0.11111111 18:0.064516129 19:0.071428571 22:-0.035820342 23:0.40915075 24:0.1 25:0.13190049 
5.749684565235531 1:0.0625 5:0.4 8:0.22222222 17:0.071428571 19:0.071428571 22:-0.024958314 23:0.47499427 24:0.3 25:0.23170911 
0.3469348633223873 4:0.11111111 5:0.4 8:0.22222222 12:0.25 18:0.064516129 22:-0.031972336 23:0.50287358 24:0.2 25:0.2642426 
2.375767939612611 4:0.16666667 5:0.45 8:0.16666667 15:0.16666667 17:0.071428571 18:0.032258065 22:0.0047882807 23:0.49137138 24:0.2 25:0.18644193 
1.298308538528383 1:0.0625 5:0.45 7:0.027777778 8:0.16666667 18:0.032258065 22:0.0154511 23:0.4681184 24:0.2 25:0.18173119 
6.016099088566189 1:0.125 18:0.064516129 19:0.071428571 22:-0.34917026 23:0.26713623 25:-0.027601943 
8 1:0.0625 5:0.3 7:0.027777778 8:0.055555556 9:0.16666667 14:0.25 18:0.032258065 22:0.013518871 23:0.44250256 24:0.2 25:0.083689092 
0.4167182550816779 1:0.0625 5:0.35 8:0.055555556 9:0.33333333 16:0.5 18:0.064516129 22:-0.025528111 23:0.48489193 24:0.3 25:0.25202414 
8 1:0.0625 3:0.175 6:0.04 19:0.14285714 22:0.047664606 23:0.38743859 24:0.1 25:0.14779921 
8 3:0.025 5:0.25 6:0.04 8:0.055555556 22:0.079015798 23:0.37373819 24:0.1 25:0.25121449 
5.201157259618046 3:0.075 13:0.16666667 17:0.071428571 22:0.015597635 23:0.26055261 25:0.026718681 
8 1:0.0625 3:0.025 5:0.3 6:0.04 7:0.055555556 8:0.33333333 17:0.14285714 18:0.064516129 22:-0.069171233 23:0.53153343 24:0.3 25:0.19549536 
3.767200854324665 3:0.075 4:0.055555556 6:0.12 7:0.083333333 15:0.16666667 17:0.21428571 18:0.064516129 19:0.14285714 22:-0.099038634 23:0.5070067 24:0.2 25:-0.14073311 
8 5:0.2 8:0.055555556 9:0.16666667 11:0.11111111 14:0.25 22:0.043582388 23:0.37643269 24:0.2 25:0.095392316 
5.937602013810133 4:0.11111111 7:0.027777778 17:0.071428571 18:0.032258065 21:0.16666667 22:-0.11298187 23:0.26318507 25:0.03849551 
1.193130961945378 1:0.0625 3:0.1 5:0.15 8:0.16666667 10:0.1 15:0.16666667 17:0.35714286 18:0.064516129 21:0.33333333 22:-0.60328064 23:0.5571568 24:0.1 25:0.083321066 
8 4:0.055555556 7:0.083333333 17:0.071428571 18:0.064516129 22:-0.15554006 23:0.35275909 25:0.056896806 
0.0736821730465284 1:0.125 5:0.45 7:0.055555556 8:0.16666667 9:0.66666667 18:0.12903226 19:0.14285714 22:-0.077469285 23:0.61164012 24:0.5 25:0.31525099 
5.504638460144082 3:0.025 18:0.064516129 21:0.16666667 22:-0.052145462 23:0.22488127 25:0.053584572 
3.355763013207653 1:0.1875 3:0.05 6:0.08 7:0.055555556 18:0.064516129 19:0.071428571 22:-0.060964171 23:0.45778021 25:0.082732224 
0.5701676777889626 3:0.05 5:0.25 7:0.027777778 8:0.055555556 18:0.032258065 21:0.16666667 22:-0.0043719757 23:0.40903322 24:0.1 25:0.12527602 
1.252891332029999 1:0.1875 3:0.2 5:0.2 6:0.04 7:0.055555556 8:0.27777778 14:0.25 15:0.16666667 16:0.5 18:0.064516129 22:-0.11656088 23:0.60380575 24:0.3 25:0.20587369 
6.688025645143779 1:0.0625 3:0.025 6:0.04 22:0.067738017 23:0.22488127 25:0.16031209 
0.03454452612328365 1:0.125 3:0.1 4:0.055555556 5:0.4 8:0.22222222 13:0.16666667 19:0.071428571 22:0.058402184 23:0.52164309 24:0.2 25:0.41815104 
1.436765064805352 3:0.025 5:0.2 6:0.16 8:0.11111111 13:0.16666667 15:0.16666667 17:0.21428571 18:0.096774194 19:0.071428571 22:-0.16181489 23:0.52672591 24:0.2 25:-0.0061092301 
4.91426506911044 1:0.0625 3:0.025 5:0.25 8:0.055555556 13:0.16666667 15:0.16666667 18:0.032258065 22:0.078877765 23:0.39215327 24:0.1 25:0.12321507 
0.7705789158535481 5:0.1 7:0.027777778 8:0.11111111 11:0.11111111 18:0.096774194 22:-0.066715585 23:0.39322838 24:0.1 25:0.037759458 
4.233601922411135 5:0.4 6:0.04 8:0.22222222 17:0.071428571 19:0.071428571 22:-0.0067124492 23:0.45981431 24:0.3 25:0.18901811 
2.600069144600629 5:0.3 7:0.027777778 8:0.33333333 17:0.071428571 18:0.096774194 22:-0.074103288 23:0.5258341 24:0.2 25:0.2628441 
8 5:0.3 8:0.055555556 9:0.16666667 14:0.25 22:0.045402314 23:0.39587505 24:0.2 25:0.19733549 
7.770786840919826 1:0.125 3:0.025 4:0.11111111 7:0.13888889 18:0.096774194 19:0.071428571 22:-0.048234624 23:0.45748458 24:0.1 25:-0.067495952 
0.8082272891207208 5:0.65 9:0.66666667 14:0.25 22:0.1147934 23:0.53900457 24:0.5 25:0.31745915 
8 3:0.025 5:0.2 7:0.027777778 8:0.11111111 17:0.071428571 18:0.096774194 22:-0.1012901 23:0.42975144 24:0.1 25:0.10039747 
0.6794196558002116 1:0.1875 3:0.075 5:0.2 8:0.33333333 9:0.33333333 15:0.16666667 19:0.28571429 22:0.024659171 23:0.56623389 24:0.5 25:0.26637715 
8 3:0.05 7:0.027777778 17:0.071428571 18:0.096774194 22:-0.12347232 23:0.32439663 25:-0.00029442073 
8 5:0.15 8:0.16666667 17:0.21428571 22:-0.078857226 23:0.35319315 24:0.1 25:0.075666127 
1.620066605766034 6:0.08 7:0.083333333 17:0.071428571 18:0.032258065 21:0.33333333 22:-0.15139909 23:0.41487977 25:0.20609451 
0.01163073807395712 1:0.0625 4:0.055555556 5:0.2 7:0.027777778 8:0.27777778 14:0.25 16:0.5 18:0.12903226 22:-0.080607253 23:0.52646833 24:0.3 25:0.22810246 
8 1:0.0625 5:0.2 8:0.11111111 11:0.11111111 19:0.071428571 22:0.048710007 23:0.35070734 24:0.1 25:0.078536729 
2.844265967843906 3:0.075 5:0.2 6:0.04 7:0.055555556 8:0.11111111 11:0.11111111 17:0.14285714 18:0.064516129 22:-0.12084617 23:0.50246745 24:0.1 25:-0.036140144 
4.63158662326618 5:0.15 8:0.16666667 10:0.1 22:-0.13765473 23:0.41341906 24:0.1 25:0.34528191 
8 5:0.2 8:0.11111111 11:0.11111111 22:0.04547906 23:0.32703268 24:0.1 25:0.12866186 
1.356166258595527 1:0.3125 3:0.1 4:0.11111111 6:0.2 7:0.13888889 10:0.1 18:0.096774194 19:0.35714286 22:-0.099702292 23:0.60130292 24:0.3 25:0.1477256 
8 1:0.125 5:0.1 8:0.22222222 18:0.12903226 22:-0.079255973 23:0.44646265 24:0.1 25:0.19071103 
8 5:0.3 8:0.055555556 9:0.16666667 14:0.25 17:0.071428571 22:-0.0067431475 23:0.39587505 24:0.2 25:0.12873546 
8 5:0.5 7:0.027777778 8:0.11111111 22:0.061075701 23:0.4687475 24:0.2 25:0.25923745 
3.897180676041008 5:0.35 7:0.055555556 8:0.27777778 11:0.11111111 18:0.064516129 22:-0.0040284413 23:0.48616385 24:0.3 25:0.15177388 
0.6927402008308154 5:0.35 8:0.055555556 9:0.33333333 18:0.064516129 20:0.5 22:-0.030108791 23:0.4716905 24:0.3 25:0.23759753 
8 5:0.3 8:0.11111111 9:0.16666667 11:0.22222222 22:0.031118635 23:0.41310261 24:0.2 25:0.091638451 
4.93311722475055 5:0.3 8:0.055555556 9:0.16666667 14:0.25 22:0.05077033 23:0.39587505 24:0.2 25:0.19733549 
8 1:0.0625 5:0.4 7:0.055555556 8:0.16666667 9:0.16666667 14:0.25 18:0.064516129 19:0.071428571 22:-0.056774288 23:0.5342605 24:0.3 25:0.22486383 
2.217169655465009 1:0.125 3:0.025 5:0.2 7:0.055555556 8:0.11111111 15:0.16666667 18:0.064516129 19:0.14285714 22:-0.26761964 23:0.50667626 24:0.2 25:0.14397174 
8 1:0.125 7:0.055555556 15:0.16666667 17:0.071428571 18:0.064516129 22:-0.091765884 23:0.35275909 25:-0.088547034 
8 1:0.0625 3:0.025 5:0.2 7:0.027777778 8:0.11111111 17:0.071428571 18:0.032258065 22:-0.0056969741 23:0.4248107 24:0.1 25:0.014941852 
1.770761684874078 5:0.3 8:0.11111111 9:0.16666667 14:0.5 22:0.055785425 23:0.44302031 24:0.3 25:0.15861917 
4.369810793626879 1:0.0625 3:0.075 6:0.04 19:0.14285714 22:0.047539273 23:0.29383949 24:0.1 25:0.0085382011 
0.9723933111972058 1:0.25 5:0.4 7:0.027777778 8:0.22222222 13:0.33333333 15:0.33333333 18:0.032258065 22:0.018683261 23:0.53185593 24:0.2 25:0.27145591 
8 1:0.125 3:0.05 7:0.055555556 18:0.064516129 22:-0.02837323 23:0.32717301 25:0.06079788 
0.9319482237940033 3:0.125 5:0.45 8:0.055555556 9:0.5 14:0.5 21:0.16666667 22:0.076712538 23:0.56980698 24:0.4 25:0.27071986 
4.840199194732886 3:0.025 22:0.096622518 23:0.10550673 25:0.11011335 
0.4114502724480759 1:0.1875 5:0.2 8:0.11111111 13:0.33333333 15:0.16666667 22:0.054047214 23:0.40866964 24:0.1 25:0.19873399 
0.8479017274778849 1:0.125 3:0.05 4:0.16666667 5:0.2 7:0.11111111 8:0.11111111 13:0.16666667 15:0.33333333 18:0.064516129 22:-0.018198824 23:0.54498273 24:0.3 25:0.047475342 
8 1:0.1875 3:0.025 5:0.15 6:0.04 7:0.027777778 8:0.16666667 18:0.032258065 19:0.14285714 22:-0.014208479 23:0.48192262 24:0.1 25:0.16141616 
1.306833016145282 5:0.15 8:0.16666667 10:0.1 22:-0.13144075 23:0.41286769 24:0.1 25:0.34528191 
0.8269302986178746 5:0.15 8:0.16666667 12:0.25 18:0.12903226 22:-0.10229719 23:0.45905938 24:0.1 25:0.15405565 
0.239006303023051 5:0.2 8:0.11111111 11:0.11111111 18:0.064516129 22:-0.033782104 23:0.39205578 24:0.1 25:0.061460327 
0.8020102443521868 5:0.2 7:0.055555556 8:0.44444444 11:0.44444444 18:0.064516129 22:-0.050218201 23:0.52123196 24:0.3 25:-0.013101722 
8 3:0.05 5:0.2 8:0.11111111 19:0.071428571 22:0.10416316 23:0.35365203 24:0.2 25:0.10216399 
1.513850875108818 3:0.2 5:0.2 7:0.055555556 8:0.44444444 17:0.28571429 18:0.064516129 22:-0.097779118 23:0.61319895 24:0.3 25:0.0013248933 
8 5:0.15 8:0.16666667 18:0.064516129 22:-0.049844962 23:0.39428457 24:0.1 25:0.22471662 
0.3113355974084428 1:0.125 5:0.45 8:0.11111111 9:0.5 14:0.25 22:0.095408498 23:0.51803631 24:0.4 25:0.38524952 
8 5:0.7 9:0.66666667 22:0.12706292 23:0.53900457 24:0.5 25:0.40217871 
1.088752118064038 1:0.125 4:0.11111111 5:0.2 6:0.08 7:0.055555556 8:0.44444444 18:0.064516129 19:0.35714286 22:-0.048041489 23:0.58081119 24:0.5 25:0.17098484 
4.567592746058363 3:0.1 6:0.08 19:0.071428571 22:0.077579159 23:0.30002915 24:0.2 25:0.095686736 
1.710867340712912 3:0.1 5:0.4 8:0.22222222 13:0.33333333 17:0.14285714 22:0.024043106 23:0.53107356 24:0.2 25:0.20153099 
0.08186328047140445 5:0.6 7:0.027777778 8:0.33333333 18:0.032258065 22:0.036566488 23:0.53408845 24:0.4 25:0.31488297 
8 1:0.0625 4:0.055555556 5:0.2 7:0.083333333 8:0.11111111 18:0.064516129 22:0.0020397842 23:0.43133031 24:0.2 25:0.16222582 
4.532792018226371 1:0.25 3:0.025 4:0.055555556 5:0.45 6:0.08 7:0.055555556 8:0.16666667 10:0.1 18:0.032258065 19:0.14285714 22:0.0007998136 23:0.56825083 24:0.3 25:0.40828794 
8 1:0.1875 3:0.025 6:0.04 18:0.064516129 19:0.071428571 22:-0.35727838 23:0.35170276 25:0.064404534 
8 1:0.0625 3:0.05 5:0.3 6:0.04 7:0.055555556 8:0.33333333 17:0.14285714 18:0.064516129 22:-0.069194753 23:0.54059751 24:0.3 25:0.22905933 
0.9215489249042914 4:0.11111111 5:0.5 6:0.08 8:0.11111111 9:0.5 17:0.14285714 22:-0.06934162 23:0.55382637 24:0.5 25:0.27160312 
0.8270625458653063 5:0.35 7:0.055555556 8:0.27777778 12:0.25 18:0.064516129 22:-0.029590011 23:0.49856412 24:0.3 25:0.21544237 
1.221558934728577 3:0.075 5:0.45 6:0.04 8:0.16666667 19:0.14285714 22:0.047775142 23:0.49473486 24:0.3 25:0.25798616 
8 1:0.0625 3:0.05 6:0.04 7:0.027777778 17:0.14285714 18:0.032258065 22:-0.10924484 23:0.34968252 25:-0.091785662 
0.2722488284918616 1:0.0625 3:0.025 5:0.5 8:0.11111111 9:0.5 21:0.16666667 22:0.095195487 23:0.53001498 24:0.4 25:0.41520683 
1.590816536891579 1:0.125 3:0.025 5:0.15 8:0.22222222 9:0.33333333 14:0.25 19:0.28571429 20:0.5 22:-0.0041870126 23:0.52021811 24:0.4 25:0.15567496 
1.316923361612181 6:0.04 7:0.027777778 10:0.1 18:0.032258065 21:0.16666667 22:-0.2214905 23:0.35423267 25:0.19314 
8 5:0.2 7:0.027777778 8:0.11111111 17:0.071428571 18:0.096774194 22:-0.11174466 23:0.41428506 24:0.1 25:0.097821287 
0.06731358366639749 4:0.11111111 5:0.4 8:0.22222222 11:0.11111111 12:0.25 22:0.036024188 23:0.47940523 24:0.2 25:0.21706168 
8 5:0.2 7:0.027777778 8:0.11111111 17:0.071428571 18:0.096774194 22:-0.089583982 23:0.41021377 24:0.1 25:0.097821287 
5.595546944996248 4:0.055555556 5:0.2 7:0.083333333 8:0.11111111 17:0.071428571 18:0.12903226 22:-0.48195975 23:0.47474654 24:0.2 25:0.02031503 
2.174878914915011 1:0.0625 4:0.11111111 5:0.4 8:0.22222222 18:0.064516129 19:0.071428571 22:-0.02942614 23:0.50287358 24:0.2 25:0.27189754 
0.875905173887971 5:0.1 8:0.055555556 9:0.16666667 14:0.75 17:0.071428571 22:-0.017637419 23:0.39572727 24:0.2 25:-0.043353452 
1.670039765376447 1:0.25 5:0.2 8:0.11111111 15:0.33333333 22:0.092144092 23:0.41021377 24:0.1 25:0.15854556 
1.748530692435045 3:0.15 6:0.12 18:0.032258065 19:0.21428571 22:-0.39455469 23:0.51798777 25:0.3380686 
8 1:0.0625 3:0.025 5:0.2 8:0.11111111 17:0.071428571 22:-0.0048260463 23:0.37285475 24:0.1 25:0.12660091 
4.596783979300632 5:0.25 8:0.11111111 9:0.16666667 14:0.25 22:-0.09025261 23:0.41452309 24:0.2 25:0.17863978 
0.4914088363722622 1:0.1875 5:0.2 8:0.44444444 11:0.11111111 19:0.071428571 22:0.043426135 23:0.49729945 24:0.3 25:0.26004711 
1.488326777914904 5:0.25 6:0.16 8:0.11111111 9:0.16666667 14:0.25 17:0.14285714 19:0.071428571 22:-0.071941262 23:0.4858711 24:0.4 25:0.031503018 
1.871769947682651 3:0.05 6:0.04 21:0.5 22:-0.0068163598 23:0.26447141 25:0.16215222 
0.1032732265324622 1:0.0625 4:0.055555556 5:0.2 7:0.027777778 8:0.27777778 13:0.16666667 14:0.25 16:0.5 18:0.096774194 22:-0.042266996 23:0.51571438 24:0.3 25:0.25401148 
8 1:0.0625 4:0.055555556 5:0.2 7:0.083333333 8:0.11111111 17:0.071428571 18:0.064516129 19:0.071428571 22:-0.12210193 23:0.46946818 24:0.1 25:0.16369792 
1.450836206154855 3:0.1 5:0.3 8:0.22222222 9:0.16666667 14:0.5 15:0.16666667 17:0.14285714 18:0.064516129 22:-0.051929138 23:0.56438766 24:0.3 25:0.19159429 
1.902744733128583 1:0.125 3:0.075 4:0.11111111 6:0.08 7:0.055555556 10:0.4 17:0.14285714 18:0.064516129 19:0.071428571 22:-0.13959525 23:0.52136884 24:0.4 25:0.023700869 
8 5:0.1 8:0.22222222 11:0.11111111 18:0.064516129 22:-0.066480378 23:0.41347512 24:0.1 25:0.16980715 
1.657755344534366 3:0.05 19:0.071428571 22:0.11042574 23:0.11148285 24:0.1 25:-0.0096422788 
1.937008977572266 1:0.1875 5:0.1 7:0.11111111 8:0.22222222 13:0.33333333 15:0.16666667 18:0.064516129 22:-0.065797837 23:0.50814807 24:0.3 25:0.1690711 
8 3:0.05 7:0.055555556 17:0.14285714 22:-0.009076885 23:0.32717301 25:0.035036067 
5.964331066478278 5:0.2 7:0.027777778 8:0.44444444 17:0.28571429 18:0.032258065 19:0.071428571 22:-0.10342496 23:0.50925948 24:0.3 25:0.13948182 
2.795738204530263 4:0.11111111 6:0.16 17:0.14285714 19:0.071428571 22:-0.080390929 23:0.35408855 24:0.2 25:-0.059546592 
1.988907280291954 1:0.0625 3:0.025 5:0.2 8:0.11111111 10:0.1 12:0.25 19:0.071428571 22:0.021518332 23:0.41021236 24:0.2 25:0.11519211 
7.729805296535044 3:0.05 6:0.04 17:0.14285714 21:0.16666667 22:-0.082137643 23:0.26447141 25:-0.015015457 
3.558414604344253 1:0.0625 3:0.025 5:0.25 7:0.083333333 8:0.055555556 10:0.1 18:0.096774194 22:-0.11411429 23:0.48682495 24:0.2 25:0.097232445 
6.671753194382478 1:0.0625 2:0.33333333 3:0.05 6:0.04 7:0.055555556 18:0.032258065 19:0.071428571 22:-0.037278955 23:0.39178195 25:0.20705138 
0.6249520075851027 1:0.125 3:0.225 5:0.25 8:0.16666667 9:0.33333333 14:0.5 15:0.16666667 19:0.071428571 21:0.16666667 22:0.021892896 23:0.5997256 24:0.3 25:0.45414397 
0.6185279598490758 3:0.075 6:0.2 13:0.16666667 15:0.16666667 17:0.35714286 18:0.032258065 22:-0.18662954 23:0.48456605 24:0.1 25:-0.13683203 
1.222638581180633 1:0.0625 3:0.05 5:0.45 8:0.16666667 12:0.25 13:0.33333333 15:0.16666667 22:0.05036065 23:0.51264491 24:0.2 25:0.31944649 
0.8522069346630606 5:0.2 8:0.44444444 18:0.38709677 22:-0.20185548 23:0.61021149 24:0.2 25:0.20219343 
1.265912199007906 1:0.0625 3:0.075 5:0.2 8:0.11111111 13:0.16666667 18:0.032258065 19:0.071428571 22:0.0067507669 23:0.42397783 24:0.1 25:0.24944796 
8 3:0.075 19:0.071428571 22:0.11042574 23:0.17584456 24:0.1 25:-0.0050051524 
8 5:0.2 7:0.027777778 8:0.11111111 18:0.032258065 22:-0.023992089 23:0.37458822 24:0.1 25:0.1988076 
0.1331268067177531 1:0.125 3:0.025 4:0.16666667 5:0.15 6:0.04 7:0.055555556 8:0.5 10:0.1 17:0.21428571 18:0.032258065 19:0.21428571 22:-0.15913729 23:0.59362886 24:0.5 25:0.23487414 
8 1:0.0625 5:0.2 8:0.11111111 18:0.064516129 19:0.071428571 22:-0.032064321 23:0.39205578 24:0.1 25:0.12571765 
8 1:0.0625 2:0.33333333 3:0.05 4:0.055555556 7:0.027777778 18:0.032258065 22:0.076940125 23:0.29655657 25:0.13793611 
0.6172975133049198 4:0.055555556 5:0.4 7:0.027777778 8:0.22222222 9:0.16666667 13:0.5 15:0.16666667 18:0.032258065 22:-0.019255046 23:0.54279529 24:0.4 25:0.34793169 
0.7636919610449234 3:0.025 4:0.055555556 7:0.055555556 11:0.11111111 12:0.25 18:0.064516129 22:-0.069861614 23:0.3710356 25:-0.096938024 
8 5:0.35 7:0.055555556 8:0.27777778 17:0.071428571 18:0.064516129 22:-0.062055509 23:0.48696851 24:0.3 25:0.18703077 
8 1:0.125 5:0.1 8:0.11111111 14:0.5 22:0.071955618 23:0.32804034 24:0.1 25:0.0069188871 
5.010871062056054 5:0.45 8:0.16666667 13:0.16666667 18:0.032258065 22:0.014642232 23:0.4547789 24:0.2 25:0.30877374 
8 5:0.2 7:0.027777778 8:0.11111111 18:0.032258065 22:-0.029170835 23:0.37554939 24:0.1 25:0.1988076 
4.610620998023859 5:0.45 8:0.16666667 11:0.11111111 19:0.071428571 22:0.049201401 23:0.44111198 24:0.2 25:0.1946121 
4.483068055184349 3:0.075 4:0.11111111 18:0.064516129 22:0.056608539 23:0.29323747 25:0.010378331 
0.6813533969098835 1:0.0625 3:0.1 5:0.15 8:0.16666667 9:0.16666667 15:0.16666667 18:0.064516129 19:0.071428571 20:0.5 21:0.33333333 22:-0.015270333 23:0.52971492 24:0.2 25:0.26696599 
8 5:0.2 9:0.16666667 14:0.5 22:0.056618698 23:0.35365203 24:0.2 25:0.10562344 
0.9140464015781625 4:0.22222222 7:0.11111111 11:0.22222222 13:0.33333333 22:-0.024139176 23:0.46677931 24:0.1 25:-0.0026497865 
7.209983752552938 1:0.0625 3:0.025 5:0.4 8:0.11111111 9:0.33333333 22:0.11214352 23:0.48711559 24:0.3 25:0.35904608 
8 1:0.0625 5:0.15 8:0.16666667 11:0.11111111 22:0.042922925 23:0.35319315 24:0.1 25:0.16443398 
1.604091190534198 1:0.0625 3:0.075 13:0.16666667 18:0.032258065 19:0.071428571 22:0.050611759 23:0.29323747 25:-0.045488002 
1.181649997568164 1:0.125 5:0.55 8:0.22222222 9:0.16666667 13:0.33333333 16:1 22:0.035075741 23:0.55608471 24:0.4 25:0.41277786 
1.688119203355404 3:0.1 7:0.055555556 15:0.33333333 18:0.096774194 19:0.14285714 22:-0.40970841 23:0.46037413 24:0.2 25:0.012365671 
8 5:0.3 8:0.055555556 9:0.16666667 14:0.25 22:0.05077033 23:0.39587505 24:0.2 25:0.19733549 
0.8103171717595317 5:0.85 8:0.61111111 9:0.33333333 11:0.22222222 13:0.66666667 17:0.21428571 18:0.12903226 22:-0.46303918 23:0.68663572 24:0.6 25:0.44678345 
0.9415737569572274 5:0.6 9:1 22:0.12967382 23:0.55919483 24:0.7 25:0.40114824 
8 3:0.05 6:0.04 7:0.055555556 11:0.11111111 17:0.071428571 18:0.064516129 22:-0.12067954 23:0.39209679 25:-0.091564846 
2.386124005556565 1:0.0625 5:0.35 7:0.027777778 8:0.22222222 13:0.16666667 14:0.25 15:0.16666667 17:0.071428571 22:0.027682186 23:0.49474337 24:0.3 25:0.21971147 
1.146013295594497 5:0.3 7:0.055555556 8:0.33333333 17:0.071428571 18:0.19354839 22:-0.46784358 23:0.54700543 24:0.3 25:0.12262623 
1.592353714805 1:0.125 3:0.1 5:0.4 6:0.08 8:0.22222222 10:0.1 19:0.28571429 22:0.044277186 23:0.55854147 24:0.4 25:0.26961578 
1.297256278858376 1:0.0625 3:0.025 5:0.2 7:0.055555556 8:0.11111111 18:0.064516129 21:0.16666667 22:0.0012391976 23:0.4409751 24:0.1 25:0.10562344 
0.8768894434845097 1:0.125 5:0.3 7:0.027777778 8:0.38888889 9:0.16666667 14:0.25 17:0.071428571 18:0.032258065 19:0.14285714 22:-0.070831042 23:0.54806936 24:0.4 25:0.20675696 
8 1:0.25 3:0.05 6:0.04 10:0.2 11:0.11111111 15:0.16666667 17:0.071428571 22:-0.021343859 23:0.41608712 24:0.1 25:0.004857942 
6.056652677970647 3:0.075 5:0.2 6:0.04 8:0.11111111 19:0.071428571 22:0.051984461 23:0.40821646 24:0.2 25:0.21514795 
8 4:0.11111111 5:0.2 7:0.027777778 8:0.11111111 18:0.032258065 19:0.071428571 22:-0.017570943 23:0.39465012 24:0.2 25:0.13984985 
1.576322614706508 5:0.45 9:0.5 14:0.25 22:0.11665253 23:0.47450282 24:0.4 25:0.20572648 
2.70519161485062 5:0.65 8:0.055555556 9:0.66666667 17:0.071428571 22:0.0031819176 23:0.5482068 24:0.5 25:0.38245252 
8 3:0.025 5:0.45 7:0.027777778 8:0.16666667 18:0.096774194 19:0.071428571 22:-0.03933442 23:0.50287358 24:0.2 25:0.23281319 
8 1:0.0625 6:0.04 7:0.027777778 11:0.11111111 18:0.032258065 22:-0.03578611 23:0.26646366 25:0.032091859 
2.392538162185376 5:0.35 7:0.055555556 8:0.16666667 9:0.33333333 18:0.12903226 22:-0.086978045 23:0.53109804 24:0.4 25:0.22088915 
6.968985754201252 1:0.125 5:0.15 8:0.11111111 9:0.33333333 11:0.11111111 14:0.75 16:0.5 22:0.03719205 23:0.47216338 24:0.3 25:0.080450464 
1.185763966732438 1:0.3125 3:0.225 5:0.35 6:0.8 7:0.22222222 8:0.5 11:0.55555556 14:1 17:0.57142857 18:0.25806452 19:0.35714286 22:-0.23594457 23:0.84772452 24:0.7 25:-0.46378625 
7.341220895844938 5:0.25 8:0.11111111 9:0.16666667 14:0.25 17:0.14285714 18:0.064516129 22:-0.43847961 23:0.46085827 24:0.2 25:0.052406889 
8 5:0.25 7:0.027777778 8:0.38888889 17:0.21428571 18:0.032258065 19:0.071428571 22:-0.089846685 23:0.49709076 24:0.3 25:0.1591344 
1.384244468783105 1:0.125 3:0.05 5:0.3 6:0.04 8:0.11111111 9:0.16666667 15:0.16666667 22:0.098473143 23:0.47318385 24:0.3 25:0.23825997 
8 5:0.2 8:0.11111111 17:0.071428571 18:0.064516129 22:-0.039916805 23:0.39205578 24:0.1 25:0.071470632 
0.8069656008974285 1:0.0625 5:0.1 8:0.22222222 11:0.22222222 18:0.064516129 19:0.071428571 22:-0.076541378 23:0.4296856 24:0.1 25:0.015825114 
1.341205114647483 1:0.1875 7:0.027777778 13:0.16666667 15:0.33333333 18:0.064516129 22:-0.047033192 23:0.35275909 25:0.005667599 
4.382625238582555 5:0.4 8:0.22222222 13:0.16666667 18:0.064516129 19:0.071428571 22:-0.036040199 23:0.50212758 24:0.2 25:0.29765936 
2.057719092506109 1:0.0625 3:0.1 5:0.2 8:0.11111111 15:0.16666667 17:0.14285714 22:0.022134839 23:0.44356578 24:0.1 25:0.10304725 
4.15663914289973 1:0.0625 3:0.025 5:0.15 7:0.027777778 8:0.055555556 18:0.032258065 19:0.071428571 20:0.5 22:-0.024999172 23:0.37092433 24:0.1 25:0.073605182 
4.486945902205286 3:0.05 5:0.2 7:0.16666667 8:0.11111111 11:0.22222222 18:0.064516129 22:-0.015904398 23:0.49911248 24:0.3 25:0.0061092301 
8 1:0.0625 5:0.15 7:0.027777778 8:0.055555556 18:0.032258065 20:0.5 22:-0.0081796759 23:0.3274462 24:0.1 25:0.071029 
1.256550583249558 5:0.5 7:0.027777778 8:0.33333333 17:0.071428571 18:0.096774194 20:0.5 22:-0.1220688 23:0.54968375 24:0.3 25:0.28595613 
1.468604893322432 1:0.1875 5:0.4 8:0.16666667 9:0.5 14:0.25 22:0.092852363 23:0.52815046 24:0.4 25:0.42102164 
0.5419262421813014 5:0.2 8:0.33333333 11:0.11111111 14:0.5 18:0.064516129 22:-0.036038212 23:0.50468766 24:0.3 25:0.080744884 
4.722273388007904 5:0.45 8:0.055555556 9:0.33333333 18:0.064516129 22:-0.018470802 23:0.48692082 24:0.3 25:0.26063595 
3.479000749270676 1:0.0625 5:0.55 8:0.055555556 9:0.66666667 22:0.11671382 23:0.53007969 24:0.5 25:0.39305167 
8 1:0.0625 3:0.05 5:0.25 7:0.055555556 8:0.055555556 10:0.1 18:0.064516129 22:-0.087566062 23:0.47478748 24:0.2 25:0.068526424 
7.358679799233286 3:0.075 18:0.064516129 19:0.071428571 22:-0.33638948 23:0.30139061 24:0.1 25:-0.03636096 
3.496534519084561 5:0.3 8:0.055555556 9:0.16666667 11:0.11111111 14:0.25 22:0.046966715 23:0.39465012 24:0.2 25:0.093478581 
2.489022744926287 3:0.025 21:0.16666667 22:0.05904707 23:0.10550673 25:0.094509053 
2.611066103913465 1:0.0625 3:0.025 6:0.04 7:0.027777778 18:0.032258065 19:0.071428571 22:-0.0074128796 23:0.26400838 24:0.1 25:0.024510526 
0.3547620820269729 5:0.35 8:0.16666667 9:0.33333333 18:0.19354839 22:-0.0898998 23:0.54979229 24:0.3 25:0.24510526 
1.795830806257655 1:0.1875 3:0.05 4:0.16666667 5:0.4 6:0.04 7:0.027777778 8:0.22222222 13:0.16666667 18:0.032258065 19:0.14285714 22:-0.021767563 23:0.56530424 24:0.2 25:0.39606948 
0.9677220485406345 5:0.5 9:0.66666667 20:0.5 22:0.063175447 23:0.50919168 24:0.5 25:0.31274842 
0.03768352638976468 1:0.0625 3:0.05 5:0.15 6:0.04 8:0.11111111 9:0.16666667 14:0.25 19:0.21428571 22:0.041383149 23:0.4682986 24:0.3 25:0.16671574 
5.660007574664665 1:0.0625 3:0.05 5:0.35 7:0.027777778 8:0.16666667 9:0.33333333 18:0.032258065 19:0.071428571 22:0.038479283 23:0.51956207 24:0.4 25:0.27204475 
0.4975746948131965 5:0.15 8:0.16666667 11:0.22222222 18:0.064516129 22:-0.048587324 23:0.39428457 24:0.1 25:0.017002797 
1.009743234596745 5:0.4 8:0.11111111 9:0.33333333 19:0.071428571 22:0.079204957 23:0.46034811 24:0.4 25:0.20476962 
8 1:0.0625 3:0.05 7:0.027777778 18:0.032258065 22:-0.033552087 23:0.29512674 25:0.18003827 
0.3103943946928448 1:0.125 3:0.075 4:0.11111111 6:0.12 7:0.055555556 10:0.3 17:0.071428571 18:0.064516129 19:0.071428571 22:-0.12564892 23:0.51018759 24:0.4 25:0.098336523 
0.03980830316128809 5:0.35 8:0.11111111 9:0.33333333 11:0.11111111 14:0.25 17:0.071428571 22:-0.011324711 23:0.47270548 24:0.3 25:0.17216252 
6.278097157271382 1:0.0625 3:0.025 5:0.2 8:0.11111111 13:0.16666667 15:0.16666667 18:0.032258065 22:-0.067917349 23:0.40960767 24:0.1 25:0.13837774 
2.918981855807456 1:0.0625 2:0.33333333 3:0.05 6:0.04 7:0.055555556 18:0.032258065 19:0.14285714 22:-0.037268686 23:0.37142492 24:0.1 25:0.06491977 
0.5156320267236432 3:0.05 5:0.4 8:0.11111111 9:0.33333333 21:0.33333333 22:0.089131237 23:0.49923297 24:0.3 25:0.35661711 
3.122766432354568 1:0.0625 2:1 3:0.1 4:0.16666667 7:0.083333333 10:0.1 18:0.096774194 19:0.21428571 22:-0.092458585 23:0.52883457 25:0.19225673 
3.500667169374314 1:0.0625 3:0.05 13:0.16666667 18:0.032258065 19:0.071428571 22:0.047927861 23:0.26055261 25:-0.07912557 
1.432737899250219 1:0.125 5:0.25 8:0.38888889 18:0.064516129 22:-0.031826464 23:0.49792532 24:0.3 25:0.30840571 
2.169701185682189 1:0.0625 3:0.025 5:0.5 8:0.11111111 9:0.5 22:0.11189572 23:0.53001498 24:0.4 25:0.42587958 
0.3753536585981097 3:0.15 6:0.04 15:0.16666667 17:0.071428571 18:0.032258065 19:0.071428571 21:0.33333333 22:-0.34765533 23:0.45978787 24:0.1 25:0.052627705 
0.7232125566505727 5:0.3 8:0.33333333 11:0.44444444 22:0.020507936 23:0.47051009 24:0.2 25:0.026645076 
1.990136478532992 3:0.025 6:0.04 7:0.083333333 17:0.14285714 18:0.032258065 21:0.16666667 22:-0.15009552 23:0.3960094 25:0.084793169 
0.7714620246418968 1:0.1875 5:0.05 7:0.027777778 8:0.11111111 13:0.33333333 14:0.25 15:0.33333333 16:0.5 18:0.096774194 22:-0.073065065 23:0.47352358 24:0.1 25:0.022081555 
0.8425618945476719 1:0.0625 3:0.1 4:0.16666667 6:0.04 7:0.083333333 12:0.25 13:0.16666667 15:0.16666667 17:0.071428571 18:0.064516129 22:-0.10473517 23:0.50562548 24:0.1 25:0.10856764 
4.865541801592019 4:0.11111111 5:0.1 7:0.055555556 8:0.22222222 17:0.14285714 18:0.064516129 22:-0.086929568 23:0.44764763 24:0.2 25:0.090019137 
1.280703526810378 1:0.0625 5:0.3 8:0.055555556 9:0.33333333 14:0.25 19:0.071428571 20:0.5 22:0.017821499 23:0.46071991 24:0.3 25:0.17392904 
1.105320511849703 1:0.0625 5:0.3 7:0.027777778 8:0.33333333 18:0.032258065 22:0.0076187132 23:0.49517454 24:0.3 25:0.24127779 
8 1:0.125 3:0.025 5:0.15 8:0.16666667 17:0.071428571 22:-0.0066204645 23:0.3940865 24:0.1 25:0.16237303 
0.7380397385780332 5:0.4 6:0.16 8:0.11111111 9:0.33333333 17:0.14285714 19:0.071428571 22:-0.069110167 23:0.52847936 24:0.5 25:0.15155307 
3.468181653472953 6:0.04 7:0.083333333 17:0.071428571 18:0.032258065 19:0.071428571 22:-0.15115373 23:0.35472285 24:0.1 25:0.057853673 
0.02021879984900686 1:0.0625 5:0.45 7:0.027777778 8:0.055555556 9:0.5 18:0.032258065 22:0.020610411 23:0.51866259 24:0.4 25:0.22567349 
8 1:0.0625 3:0.025 5:0.15 7:0.027777778 8:0.16666667 10:0.1 11:0.11111111 17:0.21428571 18:0.032258065 22:-0.12963208 23:0.47159766 24:0.1 25:0.02642426 
2.972597400519685 1:0.125 3:0.025 5:0.4 7:0.027777778 8:0.11111111 9:0.33333333 18:0.032258065 19:0.071428571 22:-0.010394264 23:0.51944588 24:0.3 25:0.28764905 
4.077702606166996 1:0.125 3:0.175 6:0.08 19:0.14285714 22:0.046387091 23:0.42556746 24:0.1 25:0.20491683 
2.592673773614775 3:0.025 5:0.3 6:0.16 8:0.16666667 9:0.16666667 11:0.11111111 14:0.75 16:0.5 17:0.14285714 18:0.064516129 19:0.071428571 22:-0.089514083 23:0.5794453 24:0.4 25:0.0018401295 
0.5987528458568717 1:0.125 3:0.05 5:0.4 8:0.11111111 9:0.33333333 15:0.16666667 18:0.032258065 19:0.14285714 22:-0.34000691 23:0.54850138 24:0.4 25:0.24635654 
8 1:0.0625 5:0.2 8:0.11111111 11:0.11111111 22:0.055596266 23:0.32868203 24:0.1 25:0.11556014 
0.2694303899906117 3:0.075 5:0.2 6:0.04 7:0.055555556 8:0.27777778 9:0.33333333 17:0.28571429 18:0.064516129 22:-0.15930447 23:0.57516258 24:0.5 25:0.090534374 
2.412568585368172 5:0.1 7:0.027777778 8:0.11111111 17:0.071428571 18:0.096774194 20:0.5 22:-0.1232116 23:0.39322838 24:0.1 25:0.062490799 
0.820671685276623 1:0.125 3:0.35 5:0.2 6:0.2 7:0.055555556 8:0.11111111 10:0.2 15:0.16666667 18:0.064516129 19:0.14285714 21:0.33333333 22:-0.021809193 23:0.64861601 24:0.5 25:0.45900191 
8 5:0.3 7:0.083333333 8:0.33333333 17:0.28571429 18:0.032258065 19:0.071428571 22:-0.10857224 23:0.52769418 24:0.3 25:0.13035478 
6.511147871633664 3:0.1 10:0.1 17:0.14285714 22:-0.042943354 23:0.35438383 25:0.039305167 
5.264393641903727 2:0.33333333 3:0.05 4:0.055555556 7:0.027777778 18:0.032258065 19:0.071428571 22:-0.040954697 23:0.32390054 25:0.11246872 
0.9897248604466684 3:0.05 5:0.15 8:0.16666667 18:0.064516129 22:-0.027928546 23:0.41201596 24:0.2 25:0.11835713 
2.048686023131007 5:0.2 8:0.055555556 9:0.16666667 14:0.25 18:0.064516129 22:-0.00082819302 23:0.41201596 24:0.2 25:0.13116443 
0.5678741262501352 1:0.0625 3:0.125 5:0.3 8:0.16666667 9:0.33333333 14:0.25 19:0.071428571 21:0.16666667 22:0.038446266 23:0.56201672 24:0.3 25:0.30465185 
1.301734275805639 1:0.25 5:0.3 8:0.22222222 9:0.33333333 22:0.10746478 23:0.49787397 24:0.3 25:0.41160018 
0.7696909020254957 1:0.125 3:0.025 5:0.5 7:0.027777778 8:0.11111111 9:0.5 18:0.032258065 19:0.071428571 22:-0.0088050169 23:0.55695148 24:0.4 25:0.35448256 
1.489506619611819 3:0.15 4:0.055555556 5:0.1 6:0.04 7:0.083333333 8:0.22222222 15:0.33333333 17:0.071428571 18:0.064516129 22:-0.13151539 23:0.55595163 24:0.4 25:0.10378331 
8 1:0.0625 5:0.25 7:0.083333333 8:0.38888889 17:0.28571429 18:0.032258065 19:0.14285714 22:-0.10033724 23:0.54648289 24:0.3 25:0.12917709 
8 1:0.0625 3:0.075 5:0.45 6:0.04 7:0.055555556 8:0.16666667 15:0.33333333 17:0.071428571 18:0.064516129 22:-0.050741951 23:0.55657447 24:0.3 25:0.27138231 
3.579882085894969 5:0.45 8:0.16666667 17:0.071428571 22:0.043643674 23:0.44472791 24:0.2 25:0.19100545 
0.7928403221986179 5:0.15 8:0.11111111 9:0.16666667 11:0.11111111 12:0.25 14:0.25 22:0.020214093 23:0.41164444 24:0.2 25:0.075077285 
3.674747433520861 1:0.125 3:0.025 5:0.3 7:0.055555556 8:0.33333333 18:0.064516129 22:3.8428156e-05 23:0.54231559 24:0.2 25:0.24834388 
2.277764107440512 2:0.33333333 3:0.025 4:0.055555556 6:0.04 19:0.071428571 22:0.043965786 23:0.22333124 24:0.1 25:0.037906669 
1.063730654778573 1:0.125 5:0.3 7:0.055555556 8:0.33333333 18:0.064516129 22:0.01222711 23:0.52459833 24:0.3 25:0.12763139 
1.457025746606094 1:0.0625 3:0.175 4:0.055555556 5:0.1 6:0.04 7:0.083333333 8:0.22222222 15:0.5 17:0.071428571 18:0.064516129 22:-0.131149 23:0.5709608 24:0.4 25:0.16892389 
2.585374692730889 4:0.11111111 5:0.3 6:0.08 8:0.11111111 9:0.16666667 17:0.14285714 22:-0.068873856 23:0.47273664 24:0.3 25:0.13786251 
1.688770859121198 1:0.125 3:0.05 6:0.04 13:0.16666667 18:0.032258065 19:0.071428571 22:0.049205929 23:0.32264205 25:-0.027013102 
1.24030079878638 5:0.3 8:0.22222222 9:0.33333333 17:0.28571429 22:-0.063809069 23:0.49911248 24:0.3 25:0.18968055 
0.832113642581354 1:0.25 3:0.125 5:0.25 6:0.04 8:0.11111111 9:0.16666667 14:0.25 15:0.16666667 19:0.071428571 22:0.048722706 23:0.54409689 24:0.2 25:0.26976299 
8 1:0.0625 8:0.33333333 19:0.071428571 22:-0.047571628 23:0.4320562 24:0.1 25:0.37803621 
1.338988133973002 1:0.125 5:0.2 8:0.11111111 13:0.33333333 15:0.16666667 17:0.071428571 18:0.064516129 22:-0.47543171 23:0.45466833 24:0.1 25:0.13226851 
7.704801752800304 1:0.0625 2:0.33333333 3:0.025 4:0.055555556 7:0.027777778 18:0.032258065 22:0.011758243 23:0.26447141 25:0.082511409 
2.044206185982621 2:0.33333333 3:0.05 4:0.055555556 7:0.027777778 18:0.032258065 19:0.071428571 21:0.16666667 22:-0.046966715 23:0.32390054 25:0.10179597 
1.9024640408758 1:0.0625 3:0.025 4:0.5 6:0.04 17:0.071428571 18:0.032258065 22:-0.040020274 23:0.43768407 25:0.15685264 
8 5:0.2 7:0.027777778 8:0.055555556 11:0.11111111 14:0.25 18:0.032258065 22:-0.0029140247 23:0.37373819 24:0.1 25:-0.059620197 
3.01635417136833 1:0.0625 13:0.33333333 17:0.071428571 22:0.15336909 23:0.17207719 25:0.064257324 
0.8321121513433255 5:0.45 8:0.27777778 9:0.16666667 18:0.064516129 22:-0.021289751 23:0.50801703 24:0.4 25:0.2826439 
0.6975489283415991 1:0.0625 5:0.15 8:0.11111111 9:0.16666667 11:0.11111111 12:0.25 14:0.25 16:0.5 22:0.020377634 23:0.42872697 24:0.2 25:0.090166348 
1.539742456140613 3:0.05 5:0.25 8:0.055555556 12:0.25 13:0.16666667 22:0.083713971 23:0.38983718 24:0.1 25:0.072427499 
8 1:0.0625 5:0.1 8:0.22222222 11:0.11111111 17:0.071428571 18:0.064516129 22:-0.44336529 23:0.43071105 24:0.1 25:0.088105403 
8 3:0.075 4:0.055555556 6:0.12 7:0.083333333 15:0.16666667 17:0.21428571 18:0.064516129 19:0.071428571 22:-0.096990126 23:0.49604638 24:0.2 25:-0.17135286 
1.707918242170965 4:0.055555556 5:0.1 7:0.027777778 8:0.11111111 12:0.5 18:0.064516129 20:0.5 22:-0.10788131 23:0.44219884 24:0.1 25:0.10525541 
8 1:0.0625 5:0.2 7:0.027777778 8:0.11111111 18:0.096774194 22:-0.041348254 23:0.41021377 24:0.1 25:0.10775799 
8 1:0.0625 3:0.05 4:0.16666667 18:0.032258065 22:0.08847862 23:0.29323747 25:0.13469748 
0.3692177033429321 1:0.125 5:0.25 7:0.083333333 8:0.055555556 13:0.33333333 15:0.33333333 17:0.071428571 18:0.096774194 22:-0.088545097 23:0.50980509 24:0.1 25:0.044310319 
8 3:0.025 7:0.083333333 18:0.032258065 19:0.071428571 22:-0.058621048 23:0.32952517 24:0.1 25:0.082879435 
0.9081833446670335 2:0.33333333 3:0.075 4:0.055555556 6:0.04 19:0.14285714 22:0.042427003 23:0.32160478 24:0.1 25:0.02826439 
0.3800331036120204 3:0.05 5:0.55 8:0.38888889 11:0.33333333 22:0.050778281 23:0.54356232 24:0.3 25:0.26048874 
8 1:0.0625 3:0.025 7:0.027777778 11:0.11111111 18:0.032258065 19:0.071428571 22:-0.078473828 23:0.26318507 25:0.011776829 
2.318408365902723 5:0.25 7:0.027777778 8:0.055555556 9:0.16666667 17:0.071428571 18:0.096774194 22:-0.12110291 23:0.46044356 24:0.2 25:-0.026571471 
8 5:0.2 8:0.11111111 11:0.11111111 22:-0.061879269 23:0.32703268 24:0.1 25:0.094877079 
0.931752072391849 2:0.33333333 3:0.025 4:0.055555556 5:0.4 8:0.11111111 9:0.33333333 15:0.16666667 22:0.10660688 23:0.49749907 24:0.4 25:0.26998381 
1.886543526751805 1:0.25 3:0.05 6:0.08 11:0.11111111 15:0.16666667 22:0.074000592 23:0.37245354 25:0.14765199 
8 5:0.2 8:0.11111111 11:0.11111111 17:0.071428571 18:0.064516129 22:-0.43066799 23:0.39617378 24:0.1 25:0.0034594435 
8 5:0.4 7:0.055555556 8:0.22222222 18:0.064516129 22:0.012330911 23:0.47415317 24:0.3 25:0.20668335 
8 1:0.0625 3:0.025 6:0.04 17:0.071428571 21:0.16666667 22:-0.038683129 23:0.22488127 25:0.050345944 
0.7631333733428461 1:0.0625 5:0.35 7:0.083333333 8:0.16666667 9:0.33333333 18:0.096774194 22:-0.0091944884 23:0.53890962 24:0.4 25:0.16391874 
1.136766589424407 5:0.35 8:0.27777778 11:0.11111111 22:0.061281204 23:0.44562113 24:0.3 25:0.20211983 
7.336219369246744 1:0.125 5:0.45 8:0.16666667 13:0.33333333 15:0.16666667 22:0.057577414 23:0.47969966 24:0.2 25:0.3210658 
2.62157177871286 3:0.2 7:0.055555556 15:0.33333333 18:0.064516129 22:0.018860826 23:0.46840664 24:0.1 25:0.047622553 
3.106217113914611 1:0.0625 5:0.35 7:0.055555556 8:0.27777778 18:0.064516129 19:0.071428571 22:-0.014253091 23:0.49856412 24:0.3 25:0.20550567 
8 3:0.05 5:0.45 8:0.16666667 11:0.11111111 22:0.05786419 23:0.45437664 24:0.2 25:0.25864861 
8 1:0.125 5:0.2 7:0.11111111 8:0.11111111 18:0.064516129 19:0.14285714 22:-0.06894475 23:0.53588425 24:0.1 25:0.19983807 
0.7099889034227227 3:0.025 5:0.25 8:0.055555556 9:0.16666667 12:0.25 13:0.16666667 16:0.5 18:0.032258065 22:0.026543034 23:0.444929 24:0.2 25:0.18680995 
1.112127788737645 1:0.0625 4:0.11111111 5:0.35 7:0.083333333 8:0.5 14:0.5 18:0.096774194 19:0.071428571 22:-0.048190233 23:0.59489184 24:0.5 25:0.29721772 
8 1:0.0625 5:0.2 7:0.027777778 8:0.11111111 18:0.032258065 22:-0.014600712 23:0.37554939 24:0.1 25:0.18570587 
3.441832458663489 1:0.0625 5:0.15 7:0.027777778 8:0.055555556 16:0.5 18:0.096774194 22:-0.050356233 23:0.39576765 24:0.1 25:0.081260121 
0.1198168535237334 3:0.025 5:0.35 7:0.027777778 8:0.33333333 9:0.16666667 14:0.25 18:0.032258065 19:0.14285714 22:0.012090624 23:0.53118427 24:0.5 25:0.21176211 
1.842922853614851 1:0.0625 3:0.05 5:0.05 6:0.16 7:0.11111111 8:0.27777778 18:0.064516129 19:0.35714286 22:-0.052157388 23:0.55726083 24:0.6 25:0.096864419 
4.950472112144741 1:0.0625 5:0.5 8:0.22222222 9:0.16666667 13:0.33333333 17:0.071428571 22:-0.026379825 23:0.51688502 24:0.3 25:0.3920948 
5.913878142331915 3:0.075 6:0.04 7:0.027777778 11:0.11111111 17:0.071428571 18:0.032258065 21:0.16666667 22:-0.10561272 23:0.37071345 25:0.024216105 
0.5582481408417308 3:0.05 5:0.2 8:0.27777778 14:0.25 16:0.5 18:0.064516129 22:-0.056554761 23:0.49630811 24:0.3 25:0.2543059 
8 1:0.0625 5:0.2 8:0.11111111 12:0.25 22:0.041532334 23:0.35070734 24:0.1 25:0.17922862 
0.6563987021839398 1:0.125 5:0.3 8:0.33333333 11:0.22222222 19:0.14285714 22:0.024060553 23:0.49523574 24:0.2 25:0.13410864 
8 1:0.1875 5:0.6 8:0.33333333 18:0.032258065 19:0.21428571 22:-0.39055948 23:0.57356626 24:0.3 25:0.47085235 
0.2052392871989101 5:0.35 7:0.027777778 8:0.16666667 9:0.33333333 18:0.096774194 19:0.071428571 22:-0.070363058 23:0.52039656 24:0.4 25:0.23134109 
8 5:0.15 8:0.16666667 17:0.21428571 22:-0.10135139 23:0.35427572 24:0.1 25:0.075666127 
0.6783174699705268 2:0.33333333 3:0.1 4:0.055555556 6:0.08 7:0.027777778 15:0.16666667 18:0.032258065 19:0.14285714 22:-0.0039875837 23:0.42923227 24:0.2 25:-0.021345503 
0.0445951977727865 4:0.11111111 5:0.35 6:0.08 8:0.16666667 9:0.33333333 11:0.11111111 17:0.14285714 22:-0.073362221 23:0.52822706 24:0.4 25:0.14978654 
0.7834320291703061 5:0.35 6:0.08 8:0.16666667 9:0.33333333 17:0.14285714 18:0.064516129 22:-0.072048154 23:0.53044854 24:0.4 25:0.16252024 
1.139544149496168 1:0.125 3:0.075 4:0.55555556 19:0.071428571 22:0.086618499 23:0.46443762 25:0.27506256 
8 3:0.025 5:0.45 8:0.27777778 9:0.16666667 17:0.071428571 22:0.050031361 23:0.49722749 24:0.4 25:0.24591491 
0.9166996204257898 1:0.1875 4:0.11111111 5:0.2 7:0.083333333 8:0.11111111 13:0.5 22:0.053628369 23:0.4938491 24:0.2 25:0.19630502 
8 3:0.1 22:0.14723428 23:0.26602623 24:0.1 25:0.093625791 
8 1:0.0625 5:0.1 7:0.027777778 8:0.22222222 18:0.032258065 22:-0.033698622 23:0.41390953 24:0.1 25:0.26225526 
0.8733858082108369 1:0.0625 3:0.05 4:0.11111111 5:0.05 6:0.08 7:0.11111111 8:0.27777778 18:0.064516129 19:0.35714286 22:-0.064640134 23:0.55740523 24:0.5 25:0.092227293 
0.2708561579102013 3:0.025 6:0.04 7:0.027777778 11:0.11111111 12:0.25 13:0.16666667 17:0.071428571 18:0.032258065 22:-0.12551729 23:0.34968252 25:-0.15103783 
2.416200297313988 1:0.125 3:0.025 4:0.055555556 6:0.56 7:0.055555556 10:0.1 11:0.22222222 17:0.5 18:0.032258065 19:0.28571429 22:-0.26367236 23:0.66126514 24:0.3 25:-0.43905491 
3.891300277568898 3:0.15 4:0.11111111 5:0.05 7:0.027777778 8:0.27777778 15:0.16666667 18:0.032258065 19:0.071428571 22:-0.013533999 23:0.49781327 24:0.4 25:0.22994259 
0.4039920685330023 1:0.125 5:0.1 8:0.22222222 11:0.22222222 22:0.042411654 23:0.37586211 24:0.1 25:0.096349183 
8 5:0.2 8:0.44444444 17:0.14285714 18:0.032258065 22:-0.162728 23:0.51906626 24:0.2 25:0.34977182 
3.278989843216852 3:0.1 7:0.055555556 18:0.064516129 19:0.14285714 22:-0.10476134 23:0.40928299 25:0.12085971 
0.2616073419385861 3:0.025 5:0.5 7:0.027777778 8:0.33333333 18:0.096774194 20:0.5 22:-0.10653765 23:0.55854548 24:0.3 25:0.36147505 
3.895309277748075 1:0.0625 5:0.2 7:0.027777778 8:0.44444444 17:0.21428571 18:0.032258065 19:0.14285714 22:-0.089115667 23:0.51918148 24:0.3 25:0.15795672 
0.07674124757178812 1:0.0625 3:0.05 5:0.35 8:0.27777778 9:0.5 19:0.071428571 22:0.07854174 23:0.53833348 24:0.6 25:0.35161195 
1.582449286012889 3:0.05 6:0.08 7:0.027777778 15:0.33333333 17:0.28571429 18:0.032258065 22:-0.16465195 23:0.4147137 24:0.1 25:-0.16148977 
8 1:0.0625 3:0.05 5:0.25 7:0.027777778 8:0.055555556 10:0.1 18:0.032258065 19:0.071428571 22:-0.054263427 23:0.44134184 24:0.2 25:0.070660975 
8 3:0.025 5:0.2 7:0.027777778 8:0.11111111 11:0.11111111 17:0.071428571 18:0.032258065 22:-0.07459137 23:0.39171499 24:0.1 25:0.053216546 
0.310522064224278 3:0.15 6:0.08 7:0.13888889 11:0.11111111 17:0.14285714 18:0.16129032 21:0.16666667 22:-0.14075527 23:0.57119004 25:-0.09502429 
2.491352499949592 1:0.125 3:0.05 4:0.11111111 5:0.15 6:0.08 7:0.027777778 8:0.5 10:0.1 17:0.21428571 18:0.032258065 19:0.21428571 22:-0.09534423 23:0.59346455 24:0.5 25:0.19902841 
0.3120149793663766 3:0.1 5:0.35 8:0.055555556 9:0.16666667 15:0.16666667 21:0.33333333 22:0.081448145 23:0.48368781 24:0.2 25:0.31127631 
0.6543553099052535 1:0.0625 3:0.025 5:0.55 7:0.027777778 8:0.055555556 9:0.5 18:0.032258065 19:0.071428571 22:-0.0086054776 23:0.54766604 24:0.4 25:0.31871044 
1.541497840829975 1:0.0625 3:0.025 5:0.05 6:0.04 7:0.027777778 8:0.11111111 14:0.25 15:0.16666667 18:0.096774194 22:-0.069465959 23:0.45808049 24:0.2 25:0.026792286 
8 5:0.2 8:0.11111111 11:0.11111111 18:0.064516129 22:-0.032227972 23:0.3731859 24:0.1 25:0.071985868 
1.748753976900458 3:0.05 5:0.05 7:0.027777778 8:0.16666667 14:0.5 18:0.032258065 21:0.16666667 22:-0.0038342024 23:0.46974812 24:0.2 25:0.074341234 
3.209423099419764 1:0.0625 5:0.45 7:0.027777778 8:0.16666667 15:0.16666667 17:0.071428571 18:0.032258065 22:-0.024704335 23:0.4921453 24:0.2 25:0.19961725 
8 1:0.0625 6:0.04 7:0.027777778 18:0.032258065 19:0.071428571 21:0.16666667 22:-0.11604928 23:0.2990191 25:0.089135875 
8 5:0.15 8:0.16666667 11:0.22222222 22:0.013930979 23:0.35319315 24:0.1 25:0.073678787 
8 1:0.0625 5:0.2 7:0.027777778 8:0.11111111 17:0.071428571 18:0.032258065 22:0.023577993 23:0.39205578 24:0.1 25:0.060061828 
0.4741777454211987 4:0.11111111 5:0.45 6:0.08 8:0.11111111 9:0.5 14:0.25 17:0.14285714 22:-0.072440497 23:0.55566915 24:0.5 25:0.2499632 
8 5:0.45 8:0.16666667 18:0.064516129 22:-0.024211284 23:0.46800501 24:0.2 25:0.28286471 
3.389973158747205 3:0.05 4:0.11111111 6:0.08 7:0.055555556 10:0.1 15:0.16666667 18:0.064516129 22:-0.18642636 23:0.47290327 24:0.2 25:0.29604004 
1.684661611623602 4:0.055555556 5:0.35 8:0.27777778 18:0.032258065 22:0.053566972 23:0.4700555 24:0.3 25:0.1888709 
8 3:0.05 22:0.11579364 23:0.17207719 25:0.13256293 
1.236707907703993 1:0.0625 3:0.05 4:0.055555556 7:0.055555556 12:0.25 18:0.064516129 19:0.071428571 22:-0.064614073 23:0.40878774 25:-0.0084645959 
0.03701975869981253 5:0.5 6:0.08 7:0.027777778 8:0.22222222 9:0.33333333 19:0.071428571 22:0.062824072 23:0.54927207 24:0.7 25:0.30737524 
0.4386675966102497 1:0.1875 7:0.055555556 10:0.3 17:0.071428571 18:0.064516129 19:0.14285714 22:-0.18346772 23:0.44718481 24:0.2 25:-0.10312086 
1.794074957662246 3:0.05 17:0.071428571 21:0.16666667 22:0.0093726051 23:0.17207719 25:0.022523186 
0.4438445471350817 1:0.0625 3:0.15 5:0.5 8:0.055555556 9:0.5 14:0.25 15:0.16666667 21:0.16666667 22:0.083435698 23:0.58537535 24:0.4 25:0.38892978 
1.48912632023254 1:0.0625 3:0.025 5:0.4 6:0.2 7:0.027777778 8:0.22222222 15:0.16666667 17:0.28571429 18:0.032258065 19:0.21428571 22:-0.17163196 23:0.59800014 24:0.3 25:0.07883115 
8 1:0.0625 3:0.075 5:0.2 7:0.027777778 8:0.11111111 18:0.096774194 19:0.071428571 22:-0.039610816 23:0.46732274 24:0.1 25:0.19299279 
3.820402881338711 1:0.25 3:0.025 5:0.2 6:0.08 7:0.027777778 8:0.11111111 13:0.16666667 18:0.064516129 19:0.071428571 22:-0.036415868 23:0.51525121 24:0.1 25:0.25047843 
2.353412613027386 3:0.2 6:0.16 7:0.055555556 18:0.064516129 19:0.28571429 22:-0.040374741 23:0.51660746 24:0.3 25:0.072942735 
1.313496068542614 3:0.025 4:0.055555556 6:0.04 7:0.055555556 11:0.11111111 17:0.071428571 18:0.032258065 21:0.16666667 22:-0.11538065 23:0.39178195 25:0.060282644 
0.6735356710550282 1:0.1875 3:0.1 6:0.04 7:0.027777778 13:0.16666667 15:0.16666667 18:0.096774194 19:0.14285714 21:0.16666667 22:-0.38303342 23:0.50741164 25:0.052038864 
0.818587854787163 5:0.45 8:0.33333333 9:0.16666667 11:0.11111111 14:0.75 16:0.5 18:0.12903226 22:-0.044197348 23:0.5841239 24:0.4 25:0.19210952 
0.1074678855457253 1:0.1875 10:0.1 13:0.16666667 18:0.032258065 19:0.071428571 22:-0.047352653 23:0.29826951 25:-0.074782865 
1.196854641648121 1:0.125 5:0.15 7:0.027777778 8:0.16666667 18:0.096774194 19:0.071428571 22:-0.056750877 23:0.45814787 24:0.1 25:0.060945091 
0.3408255449485835 1:0.0625 5:0.05 7:0.027777778 8:0.16666667 16:0.5 18:0.22580645 22:-0.19656808 23:0.4879645 24:0.1 25:0.07485647 
5.548832082892599 1:0.125 3:0.05 5:0.15 6:0.04 8:0.16666667 19:0.21428571 22:0.031951907 23:0.44304578 24:0.2 25:0.13028117 
0.2771274366676902 1:0.0625 3:0.2 5:0.25 8:0.16666667 9:0.33333333 14:0.5 19:0.071428571 21:0.16666667 22:0.022003763 23:0.58514246 24:0.3 25:0.38900339 
1.174989089939451 1:0.375 3:0.275 5:0.2 6:0.32 7:0.083333333 8:0.11111111 10:0.3 15:0.33333333 18:0.096774194 19:0.071428571 22:-0.027471494 23:0.67398454 24:0.7 25:0.5540262 
0.5703706593668209 1:0.0625 5:0.6 8:0.16666667 9:0.33333333 14:0.25 19:0.071428571 22:0.057352918 23:0.54604771 24:0.4 25:0.35970852 
4.388574539995462 5:0.3 7:0.055555556 8:0.33333333 17:0.14285714 18:0.064516129 22:-0.075633789 23:0.4990363 24:0.3 25:0.16737818 
0.4637003066134435 1:0.0625 3:0.025 5:0.2 6:0.2 7:0.027777778 8:0.44444444 17:0.42857143 18:0.032258065 19:0.28571429 22:-0.17724236 23:0.6086675 24:0.4 25:0.017738849 
0.7368930101943681 1:0.125 3:0.125 5:0.2 6:0.12 8:0.11111111 9:0.16666667 12:0.25 15:0.16666667 16:0.5 22:0.054602103 23:0.53837181 24:0.4 25:0.31767996 
8 3:0.05 7:0.027777778 18:0.032258065 19:0.071428571 22:-0.007157244 23:0.22527939 24:0.1 25:-0.0033122332 
8 4:0.11111111 5:0.45 7:0.027777778 8:0.16666667 18:0.096774194 22:-0.043825324 23:0.50307749 24:0.2 25:0.26468423 
8 1:0.0625 4:0.055555556 5:0.15 7:0.083333333 8:0.16666667 17:0.071428571 18:0.064516129 22:-0.06803959 23:0.44709717 24:0.2 25:0.14257324 
8 1:0.1875 10:0.1 17:0.071428571 19:0.071428571 22:-0.044477057 23:0.26713623 25:0.07286913 
2.616383204629487 4:0.11111111 5:0.4 7:0.055555556 8:0.11111111 9:0.33333333 18:0.064516129 22:-0.02631125 23:0.51850138 24:0.4 25:0.25209775 
0.1432846435529502 1:0.125 4:0.11111111 5:0.4 8:0.22222222 15:0.16666667 18:0.064516129 22:-0.028099264 23:0.51236426 24:0.2 25:0.28507287 
3.368410740584047 1:0.125 5:0.15 8:0.16666667 11:0.11111111 22:0.053040131 23:0.35319315 24:0.1 25:0.15133225 
8 1:0.125 7:0.055555556 18:0.064516129 19:0.071428571 22:-0.0761529 23:0.34931774 25:-0.059914618 
0.6495497865508546 1:0.0625 5:0.6 8:0.22222222 9:0.33333333 15:0.16666667 18:0.064516129 22:-0.33819052 23:0.56407572 24:0.5 25:0.3451347 
0.350691130622787 1:0.125 13:0.33333333 22:0.17752472 23:0.22131367 25:0.031723833 
8 1:0.25 3:0.05 5:0.15 6:0.04 7:0.055555556 8:0.16666667 10:0.1 11:0.11111111 17:0.071428571 18:0.064516129 19:0.071428571 22:-0.068678513 23:0.54382813 24:0.1 25:0.035845724 
0.02667532769198089 1:0.125 3:0.125 4:0.055555556 5:0.1 7:0.083333333 8:0.22222222 15:0.5 17:0.071428571 18:0.064516129 22:-0.13409571 23:0.55481441 24:0.3 25:0.13285735 
8 1:0.125 3:0.05 5:0.15 8:0.16666667 11:0.11111111 22:0.055085105 23:0.39532255 24:0.1 25:0.21846018 
0.4753194673996466 1:0.0625 5:0.55 8:0.22222222 9:0.33333333 12:0.25 13:0.16666667 14:0.25 18:0.064516129 22:-0.34507534 23:0.59265524 24:0.4 25:0.22913293 
0.3335098487999909 1:0.125 5:0.3 8:0.33333333 11:0.22222222 13:0.16666667 18:0.032258065 22:0.00018142948 23:0.50477073 24:0.2 25:0.13182688 
0.4418074695151481 3:0.1 21:0.33333333 22:0.081455985 23:0.29323747 25:0.15633741 
0.6997064173596093 1:0.3125 3:0.075 5:0.2 6:0.24 7:0.083333333 8:0.44444444 10:0.1 15:0.16666667 17:0.28571429 18:0.096774194 19:0.21428571 22:-0.16897755 23:0.66671288 24:0.5 25:0.16075372 
8 1:0.0625 5:0.3 8:0.055555556 9:0.16666667 14:0.25 22:0.097389315 23:0.39465012 24:0.2 25:0.18423377 
0.7577683301592425 3:0.025 5:0.55 8:0.055555556 9:0.66666667 17:0.071428571 18:0.064516129 19:0.071428571 22:-0.47845495 23:0.5732963 24:0.5 25:0.27013102 
8 3:0.1 7:0.055555556 18:0.064516129 22:-0.018787724 23:0.32868203 24:0.1 25:0.033416753 
5.810204794145737 5:0.55 8:0.055555556 9:0.5 18:0.064516129 22:-0.022103588 23:0.52609146 24:0.4 25:0.32754306 
1.027867466534324 4:0.16666667 5:0.6 7:0.083333333 8:0.22222222 13:0.16666667 15:0.16666667 18:0.096774194 20:0.5 22:-0.10330283 23:0.59340989 24:0.4 25:0.30686 
8 1:0.0625 3:0.15 7:0.027777778 18:0.032258065 22:-0.021829732 23:0.36845955 25:0.2443692 
6.314601650193223 4:0.11111111 5:0.45 7:0.027777778 8:0.16666667 18:0.096774194 22:-0.036941936 23:0.50287358 24:0.2 25:0.26468423 
1.327831447104157 3:0.075 7:0.027777778 13:0.16666667 15:0.16666667 17:0.14285714 18:0.064516129 22:-0.12647324 23:0.37341225 25:-0.057338437 
8 4:0.055555556 5:0.2 7:0.083333333 8:0.11111111 11:0.11111111 18:0.064516129 22:-0.044410581 23:0.43133031 24:0.2 25:0.030325335 
1.164275964430357 3:0.4 7:0.11111111 15:1 18:0.12903226 19:0.14285714 22:-0.023493627 23:0.60945803 24:0.4 25:-0.11769469 
4.08798947152635 1:0.0625 5:0.15 7:0.055555556 8:0.5 17:0.28571429 18:0.064516129 22:-0.15922773 23:0.53008088 24:0.3 25:0.16377153 
1.036575195501557 1:0.125 4:0.11111111 5:0.15 6:0.08 7:0.027777778 8:0.5 18:0.032258065 19:0.35714286 22:-0.035255625 23:0.57288454 24:0.5 25:0.22935375 
0.4429119846582911 1:0.0625 5:0.45 8:0.055555556 9:0.5 16:0.5 17:0.071428571 22:-0.0011770279 23:0.50876001 24:0.4 25:0.2855145 
1.940208872743559 3:0.125 5:0.5 6:0.04 7:0.027777778 8:0.11111111 10:0.1 18:0.032258065 19:0.071428571 22:-0.07519573 23:0.56459551 24:0.3 25:0.45039011 
8 5:0.15 7:0.027777778 8:0.16666667 17:0.21428571 18:0.032258065 22:-0.093447779 23:0.41192966 24:0.1 25:-0.0043427057 
5.77804704293892 3:0.05 5:0.15 8:0.16666667 11:0.11111111 17:0.071428571 18:0.064516129 22:-0.063873116 23:0.44410802 24:0.1 25:0.01818048 
0.1419442398157245 3:0.15 5:0.15 8:0.16666667 15:0.16666667 17:0.21428571 18:0.064516129 22:-0.073598201 23:0.51757707 24:0.1 25:0.005667599 
6.19159936069132 1:0.25 4:0.11111111 5:0.1 8:0.22222222 19:0.21428571 22:0.017019477 23:0.45949364 24:0.1 25:0.20131017 
8 1:0.0625 5:0.15 8:0.16666667 11:0.11111111 17:0.071428571 22:-0.025950048 23:0.35319315 24:0.1 25:0.095833947 
1.720424736344631 3:0.1 5:0.15 6:0.08 7:0.027777778 8:0.16666667 15:0.16666667 18:0.032258065 19:0.21428571 22:0.02308461 23:0.5040286 24:0.4 25:0.073457971 
0.4742096223098897 5:0.2 7:0.055555556 8:0.11111111 10:0.1 15:0.16666667 18:0.064516129 22:-0.18417279 23:0.47290327 24:0.2 25:0.32754306 
0.6278833699319534 1:0.3125 3:0.25 4:0.11111111 6:0.28 10:0.3 17:0.14285714 19:0.071428571 22:-0.078030027 23:0.59840381 24:0.4 25:0.48049463 
3.217391672909307 1:0.25 3:0.125 5:0.15 6:0.04 7:0.027777778 8:0.16666667 15:0.16666667 18:0.096774194 19:0.071428571 22:-0.072250786 23:0.54428258 24:0.1 25:0.35028706 
1.174869434783168 1:0.25 3:0.1 4:0.16666667 5:0.3 7:0.11111111 8:0.33333333 15:0.16666667 17:0.14285714 18:0.12903226 19:0.071428571 22:-0.50500218 23:0.65096122 24:0.4 25:0.13248933 
1.538120469796354 1:0.125 3:0.125 5:0.4 6:0.04 7:0.027777778 8:0.22222222 10:0.1 18:0.032258065 19:0.071428571 22:-0.078922598 23:0.58052893 24:0.3 25:0.52200795 
7.63538375878411 3:0.075 21:0.16666667 22:0.084928102 23:0.22131367 25:0.1264537 
3.22551805846252 3:0.025 5:0.25 6:0.16 8:0.22222222 9:0.16666667 11:0.11111111 14:0.75 16:0.5 17:0.21428571 18:0.064516129 19:0.071428571 22:-0.13100125 23:0.58518058 24:0.4 25:-0.037244222 
7.20711000384849 1:0.125 3:0.025 5:0.15 7:0.027777778 8:0.16666667 11:0.11111111 18:0.032258065 19:0.071428571 22:0.0027667168 23:0.4418641 24:0.1 25:0.039452377 
0.7969747357034968 1:0.0625 3:0.075 5:0.2 6:0.24 7:0.055555556 8:0.44444444 10:0.1 17:0.42857143 18:0.064516129 19:0.14285714 22:-0.1801375 23:0.63952661 24:0.5 25:0.12240542 
1.046298095034367 1:0.0625 2:0.33333333 3:0.1 4:0.11111111 5:0.2 6:0.08 7:0.027777778 8:0.11111111 9:0.16666667 15:0.16666667 16:0.5 17:0.071428571 22:0.024501925 23:0.53793586 24:0.4 25:0.21006919 
0.02416980521486055 1:0.0625 3:0.125 4:0.55555556 6:0.04 17:0.14285714 19:0.071428571 22:-0.090585544 23:0.51024316 25:0.20072133 
8 1:0.1875 5:0.25 7:0.027777778 8:0.055555556 10:0.1 18:0.032258065 19:0.14285714 22:-0.045536702 23:0.44209558 24:0.1 25:0.22324452 
0.6365407722185012 5:0.55 7:0.083333333 8:0.38888889 18:0.096774194 22:-0.034558396 23:0.57126178 24:0.4 25:0.31341086 
0.8779536692643554 1:0.125 4:0.11111111 5:0.1 7:0.027777778 8:0.11111111 15:0.16666667 18:0.096774194 20:0.5 22:-0.098758594 23:0.45515654 24:0.1 25:0.082879435 
8 5:0.5 8:0.11111111 22:0.083399699 23:0.4405874 24:0.2 25:0.22618872 
8 3:0.075 5:0.45 6:0.04 8:0.16666667 19:0.071428571 22:0.073095101 23:0.47970465 24:0.3 25:0.27800677 
2.279915223252272 5:0.2 8:0.11111111 11:0.22222222 22:0.031057238 23:0.32868203 24:0.1 25:0.024804946 
8 1:0.125 5:0.15 8:0.16666667 17:0.071428571 22:0.03719205 23:0.37514143 24:0.1 25:0.15081702 
8 1:0.0625 3:0.025 4:0.055555556 5:0.2 7:0.055555556 8:0.11111111 18:0.032258065 19:0.071428571 22:0.0019835775 23:0.42933229 24:0.2 25:0.1874724 
1.594533037208539 5:0.55 8:0.16666667 9:0.16666667 13:0.33333333 17:0.071428571 22:-0.025388643 23:0.50592287 24:0.3 25:0.35624908 
0.6082133340155985 5:0.45 8:0.055555556 9:0.33333333 11:0.11111111 22:0.058988434 23:0.45953451 24:0.3 25:0.21345503 
8 1:0.125 5:0.15 8:0.16666667 18:0.064516129 22:-0.027734196 23:0.3955944 24:0.1 25:0.19851318 
5.741157168862732 1:0.125 3:0.075 4:0.055555556 6:0.2 7:0.055555556 10:0.2 17:0.14285714 18:0.032258065 19:0.14285714 22:-0.1000222 23:0.518954 24:0.4 25:-0.00036802591 
8 1:0.125 15:0.16666667 18:0.064516129 22:0.044988218 23:0.26646366 25:0.029957309 
8 1:0.1875 3:0.025 5:0.15 7:0.083333333 8:0.16666667 18:0.096774194 19:0.14285714 22:-0.039720137 23:0.49637099 24:0.1 25:0.081848962 
1.928652421436989 1:0.0625 5:0.7 7:0.027777778 8:0.55555556 15:0.16666667 18:0.032258065 22:0.029250342 23:0.60491948 24:0.6 25:0.43544826 
8 4:0.11111111 5:0.2 6:0.08 7:0.027777778 8:0.44444444 17:0.14285714 18:0.032258065 19:0.21428571 22:-0.085208473 23:0.54804974 24:0.5 25:0.1434565 
0.7533282304713809 1:0.0625 3:0.075 4:0.055555556 5:0.1 6:0.04 8:0.11111111 13:0.16666667 15:0.16666667 18:0.12903226 20:0.5 22:-0.32613159 23:0.50351126 24:0.2 25:0.086412483 
1.183514549926868 1:0.125 5:0.15 7:0.055555556 8:0.5 17:0.21428571 18:0.064516129 19:0.071428571 22:-0.10226726 23:0.53955215 24:0.3 25:0.18224643 
3.657785363232054 3:0.125 10:0.1 19:0.14285714 22:0.033549436 23:0.32801523 24:0.2 25:-0.031944649 
3.960548088798626 1:0.125 5:0.4 7:0.055555556 8:0.22222222 18:0.064516129 22:0.011171992 23:0.51272228 24:0.2 25:0.11695863 
0.576815441091836 1:0.1875 5:0.3 8:0.11111111 9:0.33333333 16:0.5 22:0.10090152 23:0.4747834 24:0.3 25:0.33137053 
8 1:0.125 5:0.2 8:0.11111111 9:0.16666667 14:0.5 22:0.075145707 23:0.42984829 24:0.2 25:0.11695863 
1.019000310991692 5:0.5 8:0.055555556 9:0.66666667 18:0.096774194 22:-0.031985366 23:0.55672021 24:0.5 25:0.26571471 
8 5:0.1 8:0.22222222 11:0.11111111 17:0.071428571 18:0.064516129 22:-0.091871451 23:0.41366117 24:0.1 25:0.10120712 
8 5:0.25 8:0.055555556 11:0.11111111 22:0.06786578 23:0.32652815 24:0.1 25:0.069262476 
8 1:0.0625 5:0.35 7:0.027777778 8:0.27777778 17:0.14285714 18:0.032258065 19:0.071428571 22:-0.066937762 23:0.49534026 24:0.2 25:0.1974827 
8 1:0.125 3:0.05 5:0.2 8:0.11111111 15:0.16666667 17:0.071428571 22:-0.0041563143 23:0.41264225 24:0.1 25:0.17827175 
1.202122356546518 1:0.3125 3:0.325 6:0.32 10:0.3 18:0.12903226 22:-0.4093683 23:0.63774453 24:0.5 25:0.5241425 
0.3257090235253918 1:0.125 4:0.16666667 5:0.05 7:0.027777778 8:0.16666667 9:0.16666667 14:0.5 16:0.5 18:0.064516129 22:-0.057746697 23:0.4965327 24:0.3 25:0.18666274 
1.361305349733277 5:0.6 8:0.16666667 9:0.33333333 14:0.25 17:0.071428571 22:-0.0034834902 23:0.53774433 24:0.4 25:0.34123362 
5.359122480395471 1:0.125 5:0.4 8:0.11111111 9:0.33333333 22:0.11164517 23:0.47333226 24:0.3 25:0.33998233 
1.924357571948803 5:0.15 8:0.16666667 11:0.22222222 22:0.01333457 23:0.35319315 24:0.1 25:0.073678787 
0.9814214158049192 1:0.125 3:0.05 5:0.5 7:0.027777778 8:0.16666667 9:0.16666667 14:0.25 15:0.16666667 18:0.032258065 22:0.021195889 23:0.55353995 24:0.3 25:0.24363315 
7.775625225913018 5:0.4 8:0.055555556 9:0.5 14:0.25 17:0.071428571 22:-0.023215907 23:0.48636494 24:0.4 25:0.25725011 
3.533924402672794 1:0.125 3:0.075 4:0.055555556 5:0.4 8:0.22222222 13:0.16666667 19:0.071428571 22:0.056097709 23:0.51191424 24:0.2 25:0.38753128 
2.772073619739241 1:0.0625 3:0.05 4:0.11111111 5:0.25 7:0.027777778 8:0.055555556 22:0.10262438 23:0.42696634 24:0.2 25:0.056602385 
0.8196641486268469 3:0.1 5:0.05 8:0.16666667 14:0.5 15:0.16666667 17:0.14285714 21:0.33333333 22:-0.094567054 23:0.458904 24:0.1 25:0.15214191 
0.4810410108633411 5:0.2 7:0.11111111 8:0.11111111 18:0.064516129 22:-0.057552126 23:0.51633462 24:0.1 25:0.43449139 
8 5:0.2 7:0.027777778 8:0.11111111 17:0.071428571 18:0.096774194 22:-0.097936364 23:0.41249553 24:0.1 25:0.097821287 
1.365986334566889 1:0.0625 5:0.65 8:0.27777778 17:0.071428571 19:0.071428571 22:-0.030578101 23:0.57211181 24:0.4 25:0.3764905 
8 3:0.05 17:0.071428571 22:0.026072731 23:0.17207719 25:0.033269542 
0.7509199881751327 1:0.25 2:1 3:0.1 7:0.16666667 10:0.1 18:0.096774194 19:0.21428571 22:-0.094943164 23:0.55646418 25:0.29088768 
3.704321495328422 1:0.0625 3:0.025 6:0.04 21:0.33333333 22:0.013462443 23:0.22488127 25:0.13889298 
2.289715623002959 10:0.1 18:0.064516129 22:-0.25766001 23:0.30136071 25:0.24201384 
8 1:0.125 6:0.04 22:0.071316584 23:0.17607372 25:0.1263801 
0.3433381095272368 1:0.1875 3:0.15 4:0.055555556 5:0.2 6:0.08 7:0.027777778 8:0.11111111 9:0.16666667 15:0.16666667 16:0.5 22:0.084408438 23:0.54548536 24:0.4 25:0.37634329 
2.94171202595763 4:0.16666667 5:0.1 8:0.11111111 18:0.096774194 20:0.5 22:-0.095978184 23:0.4089408 24:0.1 25:0.10039747 
2.583035335213031 5:0.35 8:0.055555556 9:0.33333333 11:0.11111111 14:0.5 22:0.047615025 23:0.45813029 24:0.3 25:0.17024879 
0.7281948864839717 1:0.3125 3:0.05 4:0.33333333 6:0.04 7:0.19444444 10:0.2 17:0.14285714 18:0.096774194 19:0.14285714 22:-0.19206326 23:0.60337128 24:0.2 25:0.14802002 
1.70422281500367 1:0.125 3:0.025 5:0.2 7:0.027777778 8:0.44444444 17:0.14285714 18:0.032258065 19:0.071428571 22:-0.066081631 23:0.51867209 24:0.3 25:0.24392757 
7.437634751573501 3:0.05 5:0.25 6:0.04 7:0.027777778 8:0.055555556 18:0.032258065 19:0.071428571 22:-0.013436051 23:0.42557604 24:0.2 25:0.055571912 
1.967281253216472 1:0.25 5:0.4 7:0.027777778 8:0.22222222 15:0.33333333 18:0.032258065 22:0.040602549 23:0.51397971 24:0.2 25:0.26196084 
0.5631228864095761 1:0.1875 3:0.025 6:0.08 7:0.083333333 13:0.16666667 15:0.16666667 17:0.071428571 18:0.12903226 22:-0.14996621 23:0.48593208 25:0.0027969969 
1.176869168157834 1:0.125 2:0.33333333 3:0.3 6:0.68 7:0.055555556 10:0.4 17:0.78571429 18:0.032258065 19:0.42857143 22:-0.19955642 23:0.72632967 24:0.7 25:-0.12726336 
6.250288874211937 1:0.0625 7:0.027777778 11:0.11111111 18:0.032258065 19:0.071428571 22:-0.069527356 23:0.26447141 25:-0.050125129 
1.24675645813572 7:0.055555556 11:0.22222222 13:0.33333333 18:0.064516129 22:-0.11463826 23:0.32439663 25:0.014279405 
0.1295954958467739 1:0.125 5:0.35 8:0.27777778 22:0.1128646 23:0.45992974 24:0.3 25:0.31142352 
8 5:0.15 8:0.16666667 11:0.11111111 17:0.071428571 22:-0.035274839 23:0.35319315 24:0.1 25:0.10893567 
8 1:0.0625 5:0.4 8:0.22222222 22:0.11866681 23:0.44629032 24:0.3 25:0.27565141 
1.82752873365234 1:0.125 5:0.1 8:0.22222222 18:0.12903226 22:-0.077471825 23:0.44587343 24:0.1 25:0.19071103 
1.904138657727813 1:0.0625 4:0.055555556 5:0.25 7:0.027777778 8:0.16666667 9:0.16666667 18:0.064516129 19:0.14285714 22:-0.00022836042 23:0.49688319 24:0.3 25:0.22920654 
0.08857631966956203 3:0.1 6:0.08 7:0.16666667 11:0.11111111 17:0.14285714 18:0.12903226 22:-0.13954114 23:0.56341644 25:0.0078021493 
0.8187347776672843 1:0.125 3:0.3 4:0.16666667 5:0.2 6:0.16 7:0.083333333 8:0.11111111 10:0.2 15:0.16666667 18:0.064516129 19:0.071428571 21:0.33333333 22:-0.020984423 23:0.64948722 24:0.5 25:0.47144119 
8 1:0.0625 5:0.25 6:0.04 7:0.027777778 8:0.055555556 18:0.032258065 22:-0.0061934482 23:0.41063263 24:0.1 25:0.16325629 
1.823292690489446 1:0.125 10:0.1 13:0.16666667 18:0.096774194 22:-0.18097552 23:0.32941495 25:0.052186074 
8 1:0.0625 3:0.025 6:0.04 7:0.083333333 17:0.14285714 18:0.032258065 19:0.071428571 22:-0.13305274 23:0.37656809 24:0.1 25:-0.075077285 
1.131543366595986 3:0.025 5:0.45 8:0.16666667 18:0.032258065 19:0.21428571 22:-0.36122676 23:0.49441335 24:0.3 25:0.21551597 
6.848276053836327 1:0.1875 3:0.025 6:0.04 7:0.11111111 18:0.064516129 19:0.14285714 22:-0.066848427 23:0.43113273 24:0.1 25:0.10923009 
4.192490837009731 1:0.125 3:0.075 4:0.055555556 7:0.055555556 15:0.16666667 18:0.032258065 19:0.071428571 22:-0.021824432 23:0.3940865 24:0.1 25:0.05468865 
8 3:0.025 5:0.55 8:0.055555556 9:0.66666667 21:0.16666667 22:0.096125934 23:0.53973011 24:0.5 25:0.40136906 
0.251408614368631 1:0.125 5:0.3 8:0.33333333 11:0.22222222 13:0.33333333 22:0.010617876 23:0.49412848 24:0.2 25:0.27079346 
8 5:0.2 8:0.11111111 17:0.071428571 18:0.064516129 22:-0.051762063 23:0.37458822 24:0.1 25:0.10724275 
8 1:0.1875 3:0.075 18:0.064516129 19:0.14285714 22:-0.32748066 23:0.42654586 25:0.017959664 
1.018503793741395 5:0.5 8:0.11111111 9:0.5 19:0.071428571 22:0.080286687 23:0.52821517 24:0.6 25:0.28463124 
8 1:0.0625 3:0.025 5:0.55 8:0.055555556 9:0.5 22:0.12289225 23:0.51917381 24:0.4 25:0.40468129 
1.246278735304257 1:0.125 3:0.125 6:0.04 7:0.19444444 11:0.11111111 15:0.33333333 18:0.096774194 19:0.14285714 22:-0.10496562 23:0.54891144 24:0.3 25:-0.040041219 
8 1:0.0625 3:0.025 5:0.2 8:0.11111111 11:0.11111111 19:0.071428571 22:0.048741367 23:0.37157446 24:0.1 25:0.10422494 
1.187131740537554 3:0.2 6:0.08 19:0.28571429 22:0.04276601 23:0.43699989 24:0.2 25:-0.00036802591 
8 5:0.3 8:0.055555556 9:0.16666667 17:0.071428571 18:0.032258065 22:0.020827508 23:0.43077302 24:0.2 25:0.030766966 
8 3:0.1 11:0.11111111 17:0.071428571 22:0.021471622 23:0.29323747 25:-0.11659061 
1.814291636887475 1:0.0625 5:0.35 7:0.027777778 8:0.27777778 15:0.16666667 18:0.032258065 22:0.0010766509 23:0.49465158 24:0.3 25:0.2357574 
0.007777926728350323 5:0.5 8:0.055555556 9:0.66666667 14:0.25 18:0.064516129 22:-0.023002343 23:0.54747613 24:0.5 25:0.32783748 
0.2157841166133501 3:0.125 7:0.027777778 13:0.16666667 17:0.071428571 22:0.10850863 23:0.32652815 24:0.1 25:0.092816134 
0.02314089493694077 3:0.075 4:0.055555556 5:0.1 7:0.027777778 8:0.11111111 13:0.16666667 15:0.16666667 18:0.096774194 20:0.5 22:-0.10105666 23:0.48099627 24:0.2 25:0.037980274 
0.04347617614916678 1:0.0625 3:0.075 4:0.66666667 6:0.04 17:0.14285714 19:0.071428571 22:-0.091112606 23:0.51024316 25:0.16796702 
0.7651058739255706 2:0.33333333 3:0.025 7:0.027777778 21:0.16666667 22:0.055212868 23:0.22488127 25:0.14095392 
0.5123862088316065 1:0.0625 3:0.075 5:0.05 7:0.027777778 8:0.16666667 11:0.11111111 13:0.16666667 14:0.5 15:0.16666667 18:0.064516129 21:0.16666667 22:-0.06170833 23:0.49388209 24:0.1 25:0.006477256 
8 5:0.2 8:0.055555556 14:0.25 22:-0.078857226 23:0.29927555 24:0.1 25:0.09318416 
0.4726893931493252 1:0.125 3:0.1 7:0.027777778 13:0.16666667 15:0.33333333 18:0.12903226 21:0.16666667 22:-0.37249704 23:0.48211274 25:0.01832769 
0.7835913293917426 1:0.125 3:0.075 5:0.05 8:0.11111111 14:0.25 16:0.5 18:0.12903226 22:-0.33794847 23:0.47165934 24:0.1 25:0.011040777 
1.947183452173114 5:0.25 6:0.04 7:0.083333333 8:0.055555556 10:0.1 11:0.22222222 18:0.096774194 19:0.071428571 22:-0.20764742 23:0.48456999 24:0.2 25:-0.045119976 
2.535180778835091 1:0.125 3:0.05 13:0.33333333 22:0.083586098 23:0.29323747 25:0.08310025 
8 5:0.3 7:0.055555556 8:0.33333333 17:0.14285714 18:0.064516129 22:-0.072061074 23:0.49892763 24:0.3 25:0.16737818 
8 1:0.125 3:0.025 5:0.2 7:0.027777778 8:0.11111111 15:0.16666667 17:0.071428571 18:0.032258065 19:0.071428571 22:-0.030176924 23:0.44128768 24:0.1 25:0.068158398 
8 3:0.05 17:0.071428571 18:0.064516129 22:-0.037831084 23:0.26318507 25:-0.018254085 
8 3:0.05 7:0.055555556 15:0.16666667 18:0.064516129 22:-0.015848191 23:0.32952517 24:0.1 25:-0.0069188871 
0.103735331598102 3:0.025 5:0.1 7:0.027777778 8:0.055555556 13:0.16666667 14:0.25 16:0.5 17:0.071428571 18:0.064516129 22:-0.052120064 23:0.40965057 24:0.1 25:-0.049536287 
0.20753562037241 3:0.05 6:0.04 12:0.25 13:0.16666667 17:0.14285714 22:-0.096203342 23:0.32390054 25:-0.14507581 
8 1:0.0625 5:0.2 7:0.027777778 8:0.11111111 18:0.032258065 22:-0.01463141 23:0.3731859 24:0.1 25:0.18570587 
3.360152685824392 1:0.125 3:0.075 5:0.15 7:0.027777778 8:0.16666667 18:0.032258065 21:0.16666667 22:-0.0014859991 23:0.45991251 24:0.1 25:0.26350655 
8 1:0.0625 5:0.2 8:0.11111111 11:0.11111111 19:0.071428571 22:0.032590941 23:0.35291616 24:0.1 25:0.078536729 
8 5:0.15 14:0.25 22:0.12883006 23:0.2279103 24:0.1 25:0.021051082 
8 1:0.1875 5:0.4 8:0.22222222 13:0.33333333 15:0.16666667 22:0.056586343 23:0.49165709 24:0.2 25:0.35683792 
0.6546083848632223 1:0.125 5:0.2 7:0.027777778 8:0.27777778 11:0.11111111 14:0.25 16:0.5 18:0.032258065 22:-0.10719921 23:0.48547376 24:0.2 25:0.12880907 
4.845983746808394 1:0.125 5:0.15 8:0.16666667 17:0.071428571 22:0.038214482 23:0.37496917 24:0.1 25:0.15081702 
7.540867236408872 1:0.125 5:0.4 8:0.22222222 13:0.16666667 18:0.032258065 19:0.14285714 22:0.0098717295 23:0.5030879 24:0.2 25:0.16774621 
0.9773274917039098 1:0.375 4:0.22222222 7:0.22222222 10:0.2 18:0.12903226 22:-0.058583392 23:0.55712022 24:0.2 25:0.2315619 
0.7495630438410752 1:0.0625 3:0.05 4:0.55555556 5:0.25 6:0.04 8:0.055555556 17:0.071428571 19:0.071428571 22:-0.035771975 23:0.53000626 24:0.1 25:0.2897836 
8 1:0.125 5:0.2 7:0.027777778 8:0.11111111 15:0.16666667 17:0.071428571 18:0.032258065 22:-0.026711765 23:0.4133585 24:0.1 25:0.079493596 
1.467857421842054 1:0.25 3:0.05 4:0.055555556 5:0.1 6:0.08 7:0.055555556 8:0.11111111 10:0.1 18:0.032258065 19:0.071428571 20:0.5 22:-0.010071269 23:0.52448439 24:0.2 25:0.35588105 
4.41328181486058 3:0.025 4:0.055555556 6:0.04 18:0.032258065 19:0.071428571 22:-0.0051122698 23:0.22333124 24:0.1 25:-0.028337995 
8 1:0.1875 3:0.05 5:0.2 6:0.04 8:0.11111111 10:0.1 19:0.14285714 22:0.046556705 23:0.45432824 24:0.2 25:0.21566318 
6.456328643344184 5:0.35 8:0.055555556 9:0.33333333 20:0.5 22:0.042575526 23:0.44453237 24:0.3 25:0.29427352 
1.461844647787948 3:0.025 5:0.4 8:0.055555556 14:0.25 16:0.5 22:0.11182141 23:0.4098056 24:0.2 25:0.11092301 
0.5786545475369969 3:0.025 5:0.55 8:0.055555556 9:0.5 17:0.071428571 18:0.064516129 19:0.071428571 22:-0.47703288 23:0.55671669 24:0.4 25:0.24812307 
2.126370634679227 1:0.0625 5:0.45 8:0.27777778 9:0.16666667 13:0.33333333 17:0.071428571 18:0.064516129 22:-0.063864282 23:0.54590007 24:0.3 25:0.38429265 
0.2886508223395197 3:0.125 5:0.2 7:0.027777778 8:0.11111111 15:0.16666667 17:0.071428571 18:0.032258065 19:0.071428571 21:0.33333333 22:-0.09938007 23:0.49289032 24:0.1 25:0.21890181 
1.223302933034869 3:0.05 5:0.1 6:0.04 8:0.055555556 9:0.16666667 11:0.11111111 12:0.25 13:0.16666667 14:0.75 16:0.5 17:0.071428571 22:-0.073391152 23:0.48189821 24:0.2 25:-0.1463271 
0.1330997905188997 1:0.3125 8:0.27777778 9:0.33333333 11:0.11111111 14:0.75 16:0.5 22:0.031046968 23:0.50945383 24:0.3 25:0.17282497 
8 3:0.025 5:0.2 8:0.11111111 12:0.25 18:0.064516129 22:-0.047708003 23:0.4130346 24:0.1 25:0.12056529 
2.081693510180684 1:0.25 6:0.08 7:0.055555556 10:0.2 18:0.064516129 19:0.21428571 22:-0.16600157 23:0.46056862 24:0.2 25:0.063889298 
2.360977382806239 1:0.0625 3:0.025 4:0.27777778 7:0.027777778 19:0.071428571 22:0.10007332 23:0.35241402 24:0.1 25:0.090239953 
8 3:0.05 5:0.25 7:0.027777778 8:0.055555556 18:0.032258065 22:0.01232815 23:0.40903322 24:0.1 25:0.13602238 
0.398382299157822 1:0.0625 3:0.05 5:0.45 8:0.16666667 9:0.5 22:0.11643985 23:0.528245 24:0.5 25:0.41528044 
8 5:0.15 7:0.027777778 8:0.16666667 18:0.032258065 22:-0.043996484 23:0.3965913 24:0.1 25:0.24768144 
0.7886661224978625 3:0.05 5:0.35 7:0.027777778 8:0.11111111 14:0.25 16:0.5 18:0.096774194 22:-0.098112162 23:0.50411807 24:0.2 25:0.089503901 
0.713713894888886 1:0.25 3:0.425 5:0.1 6:0.84 7:0.25 8:0.44444444 11:0.55555556 14:1 17:0.57142857 18:0.25806452 19:0.35714286 21:0.16666667 22:-0.23648709 23:0.85765088 24:0.7 25:-0.47247166 
3.496561198834881 1:0.0625 22:0.20014665 25:0.072942735 
1.190001968053663 3:0.05 4:0.11111111 5:0.15 6:0.08 7:0.027777778 8:0.27777778 9:0.16666667 10:0.1 17:0.14285714 18:0.032258065 22:-0.47768969 23:0.55748267 24:0.4 25:0.21205653 
3.035419360762432 1:0.1875 3:0.1 4:0.11111111 6:0.08 7:0.027777778 10:0.3 17:0.071428571 18:0.032258065 22:-0.034909329 23:0.48650759 24:0.3 25:0.14338289 
6.143837062026966 3:0.05 4:0.055555556 7:0.055555556 18:0.032258065 19:0.071428571 21:0.16666667 22:-0.030607364 23:0.32648996 24:0.1 25:0.069777712 
7.655263798977424 1:0.25 3:0.1 19:0.35714286 22:-0.3171119 23:0.48600397 25:0.17959664 
1.107132980208975 3:0.025 5:0.25 6:0.04 7:0.027777778 8:0.055555556 9:0.16666667 13:0.16666667 16:0.5 17:0.14285714 18:0.064516129 22:-0.15383652 23:0.48444345 24:0.2 25:0.15015457 
1.807558900996558 3:0.05 6:0.24 10:0.4 19:0.071428571 21:0.16666667 22:-0.14361905 23:0.51167425 24:0.5 25:0.21293979 
0.7136431353957419 1:0.125 5:0.35 7:0.027777778 8:0.33333333 9:0.16666667 14:0.25 18:0.032258065 19:0.14285714 22:0.0090544686 23:0.54087781 24:0.4 25:0.22640954 
7.407526034605788 5:0.2 8:0.44444444 18:0.064516129 19:0.14285714 22:-0.081875493 23:0.51684654 24:0.3 25:0.36861475 
8 5:0.55 8:0.055555556 9:0.5 17:0.071428571 22:0.0034578715 23:0.50669257 24:0.4 25:0.31561902 
8 1:0.0625 2:0.33333333 4:0.055555556 7:0.027777778 18:0.032258065 22:0.0020449742 23:0.22488127 25:0.033416753 
8 1:0.0625 3:0.05 6:0.04 7:0.027777778 17:0.14285714 18:0.032258065 19:0.071428571 22:-0.10491472 23:0.34931774 25:-0.075739732 
2.288227524822565 1:0.3125 3:0.25 4:0.055555556 6:0.32 7:0.027777778 10:0.2 17:0.14285714 19:0.071428571 22:-0.024884219 23:0.59922831 24:0.4 25:0.49742382 
3.162269871392815 1:0.0625 6:0.04 7:0.027777778 18:0.032258065 21:0.16666667 22:-0.093043952 23:0.26646366 25:0.069630502 
0.4424394022820391 1:0.0625 3:0.1 5:0.2 6:0.2 7:0.083333333 8:0.44444444 10:0.1 11:0.11111111 17:0.35714286 18:0.096774194 19:0.14285714 22:-0.22795792 23:0.64546846 24:0.5 25:-0.00036802591 
8 1:0.0625 5:0.45 7:0.027777778 8:0.16666667 18:0.032258065 19:0.071428571 22:0.010904431 23:0.47992172 24:0.2 25:0.18482261 
3.034432702036638 1:0.1875 3:0.1 4:0.055555556 6:0.28 7:0.055555556 10:0.3 17:0.35714286 18:0.032258065 19:0.14285714 22:-0.17287458 23:0.58869628 24:0.4 25:-0.068526424 
8 1:0.125 3:0.075 6:0.04 7:0.055555556 18:0.064516129 19:0.071428571 22:-0.059655405 23:0.44365378 25:0.054909466 
0.9451971451829208 1:0.1875 6:0.04 18:0.064516129 19:0.071428571 22:-0.35594411 23:0.32734322 25:0.025909024 
8 1:0.1875 5:0.2 8:0.11111111 15:0.16666667 22:0.09623393 23:0.3731859 24:0.1 25:0.18239364 
8 1:0.0625 5:0.45 7:0.027777778 8:0.16666667 18:0.032258065 19:0.071428571 22:-0.030048389 23:0.4803735 24:0.2 25:0.22905933 
0.7406217805148557 3:0.1 5:0.5 8:0.33333333 9:0.33333333 22:0.12795759 23:0.55790266 24:0.6 25:0.46864419 
8 5:0.45 8:0.16666667 18:0.064516129 19:0.071428571 22:-0.031573037 23:0.46800501 24:0.2 25:0.24179302 
8 1:0.0625 3:0.05 5:0.2 8:0.11111111 21:0.16666667 22:0.081948815 23:0.39040263 24:0.1 25:0.20528485 
2.930388980352055 5:0.35 8:0.055555556 9:0.16666667 13:0.16666667 18:0.032258065 22:0.017315418 23:0.41179306 24:0.2 25:0.21971147 
0.6617830034528014 1:0.0625 5:0.25 8:0.055555556 9:0.33333333 11:0.11111111 14:0.5 16:0.5 22:0.05077033 23:0.45970585 24:0.3 25:0.081260121 
1.73301069468719 5:0.35 8:0.27777778 17:0.071428571 18:0.064516129 22:-0.040790715 23:0.48451513 24:0.3 25:0.17819815 
3.274531478804152 3:0.05 5:0.2 6:0.04 8:0.055555556 9:0.16666667 14:0.25 19:0.14285714 22:0.044409918 23:0.44089879 24:0.3 25:0.12822023 
3.21430310515332 1:0.125 5:0.25 7:0.027777778 8:0.38888889 17:0.071428571 18:0.032258065 19:0.21428571 22:-0.07105366 23:0.51756701 24:0.3 25:0.1960842 
1.151062963997807 1:0.125 7:0.027777778 15:0.16666667 18:0.032258065 22:-0.048055624 23:0.26646366 25:0.042249374 
