<?xml version="1.0" encoding="UTF-8"?>
<PMML version="4.2" xmlns="http://www.dmg.org/PMML-4_2">
  <Header copyright="CToma">
    <Application name="KNIME" version="3.5.1"/>
  </Header>
  <DataDictionary numberOfFields="6">
    <DataField dataType="double" name="ATS5p" optype="continuous">
      <Interval closure="closedClosed" leftMargin="-1.384482708473" rightMargin="1.76759693490132"/>
    </DataField>
    <DataField dataType="double" name="ALogP" optype="continuous">
      <Interval closure="closedClosed" leftMargin="-2.65569269902367" rightMargin="2.63034553435872"/>
    </DataField>
    <DataField dataType="double" name="X3sol" optype="continuous">
      <Interval closure="closedClosed" leftMargin="-1.64329282198172" rightMargin="2.75637762790671"/>
    </DataField>
    <DataField dataType="double" name="X1v" optype="continuous">
      <Interval closure="closedClosed" leftMargin="-1.45494114844325" rightMargin="3.26490587804565"/>
    </DataField>
    <DataField dataType="double" name="BEH4m" optype="continuous">
      <Interval closure="closedClosed" leftMargin="-2.91453906857932" rightMargin="1.37815572408498"/>
    </DataField>
    <DataField dataType="double" name="Exp" optype="continuous">
      <Interval closure="closedClosed" leftMargin="-12.44440288" rightMargin="0.519249489"/>
    </DataField>
  </DataDictionary>
  <MiningModel functionName="regression">
    <MiningSchema>
      <MiningField invalidValueTreatment="asIs" name="ATS5p" highValue="0.0" lowValue="0.0"/>
      <MiningField invalidValueTreatment="asIs" name="X3sol" highValue="0.0" lowValue="0.0"/>
      <MiningField invalidValueTreatment="asIs" name="ALogP" highValue="0.0" lowValue="0.0"/>
      <MiningField invalidValueTreatment="asIs" name="X1v" highValue="0.0" lowValue="0.0"/>
      <MiningField invalidValueTreatment="asIs" name="BEH4m" highValue="0.0" lowValue="0.0"/>
      <MiningField invalidValueTreatment="asIs" name="Exp" usageType="target" highValue="0.0" lowValue="0.0"/>
    </MiningSchema>
    <Segmentation multipleModelMethod="average">
      <Segment>
        <True/>
        <TreeModel functionName="regression" missingValueStrategy="none" modelName="DecisionTree" noTrueChildStrategy="returnLastPrediction" splitCharacteristic="binarySplit">
          <MiningSchema>
            <MiningField invalidValueTreatment="asIs" name="ATS5p"/>
            <MiningField invalidValueTreatment="asIs" name="ALogP"/>
            <MiningField invalidValueTreatment="asIs" name="X3sol"/>
            <MiningField invalidValueTreatment="asIs" name="X1v"/>
            <MiningField invalidValueTreatment="asIs" name="BEH4m"/>
            <MiningField invalidValueTreatment="asIs" name="Exp" usageType="target"/>
          </MiningSchema>
          <Node id="0" score="-6.289016411599999">
            <True/>
            <Node id="1" score="-3.2161212470000002">
              <SimplePredicate field="X3sol" operator="lessOrEqual" value="-0.4841397702693939"/>
              <Node id="2" score="-2.5569126475263166">
                <CompoundPredicate booleanOperator="or">
                  <SimplePredicate field="X1v" operator="lessOrEqual" value="-0.44357380270957947"/>
                  <SimplePredicate field="X1v" operator="isMissing"/>
                </CompoundPredicate>
                <Node id="3" score="-1.9034596949285718">
                  <CompoundPredicate booleanOperator="or">
                    <SimplePredicate field="ALogP" operator="lessOrEqual" value="-0.589253306388855"/>
                    <SimplePredicate field="ALogP" operator="isMissing"/>
                  </CompoundPredicate>
                  <Node id="4" score="-1.225204963">
                    <CompoundPredicate booleanOperator="or">
                      <SimplePredicate field="BEH4m" operator="lessOrEqual" value="-0.8981643617153168"/>
                      <SimplePredicate field="BEH4m" operator="isMissing"/>
                    </CompoundPredicate>
                    <Node id="5" score="-3.3074171115">
                      <SimplePredicate field="X3sol" operator="lessOrEqual" value="-1.3586242198944092"/>
                      <Node id="6" score="-4.419888705">
                        <CompoundPredicate booleanOperator="or">
                          <SimplePredicate field="X3sol" operator="lessOrEqual" value="-1.5163596868515015"/>
                          <SimplePredicate field="X3sol" operator="isMissing"/>
                        </CompoundPredicate>
                        <Node id="7" score="-3.742613556">
                          <CompoundPredicate booleanOperator="or">
                            <SimplePredicate field="ALogP" operator="lessOrEqual" value="-0.7887908518314362"/>
                            <SimplePredicate field="ALogP" operator="isMissing"/>
                          </CompoundPredicate>
                        </Node>
                        <Node id="8" score="-5.097163854">
                          <SimplePredicate field="ALogP" operator="greaterThan" value="-0.7887908518314362"/>
                        </Node>
                      </Node>
                      <Node id="9" score="-2.194945518">
                        <SimplePredicate field="X3sol" operator="greaterThan" value="-1.5163596868515015"/>
                        <Node id="10" score="-2.216716515">
                          <CompoundPredicate booleanOperator="or">
                            <SimplePredicate field="ALogP" operator="lessOrEqual" value="-1.8656108975410461"/>
                            <SimplePredicate field="ALogP" operator="isMissing"/>
                          </CompoundPredicate>
                        </Node>
                        <Node id="11" score="-2.173174521">
                          <SimplePredicate field="ALogP" operator="greaterThan" value="-1.8656108975410461"/>
                        </Node>
                      </Node>
                    </Node>
                    <Node id="12" score="0.16293646933333333">
                      <CompoundPredicate booleanOperator="or">
                        <SimplePredicate field="X3sol" operator="greaterThan" value="-1.3586242198944092"/>
                        <SimplePredicate field="X3sol" operator="isMissing"/>
                      </CompoundPredicate>
                      <Node id="13" score="-0.152359958">
                        <SimplePredicate field="ALogP" operator="lessOrEqual" value="-1.453191876411438"/>
                      </Node>
                      <Node id="14" score="0.320584683">
                        <CompoundPredicate booleanOperator="or">
                          <SimplePredicate field="ALogP" operator="greaterThan" value="-1.453191876411438"/>
                          <SimplePredicate field="ALogP" operator="isMissing"/>
                        </CompoundPredicate>
                        <Node id="15" score="0.519249489">
                          <CompoundPredicate booleanOperator="or">
                            <SimplePredicate field="ALogP" operator="lessOrEqual" value="-0.9299876987934113"/>
                            <SimplePredicate field="ALogP" operator="isMissing"/>
                          </CompoundPredicate>
                        </Node>
                        <Node id="16" score="0.121919877">
                          <SimplePredicate field="ALogP" operator="greaterThan" value="-0.9299876987934113"/>
                        </Node>
                      </Node>
                    </Node>
                  </Node>
                  <Node id="17" score="-3.59909652475">
                    <SimplePredicate field="BEH4m" operator="greaterThan" value="-0.8981643617153168"/>
                    <Node id="18" score="-5.273731898">
                      <CompoundPredicate booleanOperator="or">
                        <SimplePredicate field="X3sol" operator="lessOrEqual" value="-0.7877637445926666"/>
                        <SimplePredicate field="X3sol" operator="isMissing"/>
                      </CompoundPredicate>
                    </Node>
                    <Node id="19" score="-1.9244611515">
                      <SimplePredicate field="X3sol" operator="greaterThan" value="-0.7877637445926666"/>
                      <Node id="20" score="-2.597745283">
                        <CompoundPredicate booleanOperator="or">
                          <SimplePredicate field="ALogP" operator="lessOrEqual" value="-0.9091961085796356"/>
                          <SimplePredicate field="ALogP" operator="isMissing"/>
                        </CompoundPredicate>
                      </Node>
                      <Node id="21" score="-1.25117702">
                        <SimplePredicate field="ALogP" operator="greaterThan" value="-0.9091961085796356"/>
                      </Node>
                    </Node>
                  </Node>
                </Node>
                <Node id="22" score="-4.3865809148">
                  <SimplePredicate field="ALogP" operator="greaterThan" value="-0.589253306388855"/>
                  <Node id="23" score="-5.922252509">
                    <SimplePredicate field="X1v" operator="lessOrEqual" value="-0.847244918346405"/>
                  </Node>
                  <Node id="24" score="-4.00266301625">
                    <CompoundPredicate booleanOperator="or">
                      <SimplePredicate field="X1v" operator="greaterThan" value="-0.847244918346405"/>
                      <SimplePredicate field="X1v" operator="isMissing"/>
                    </CompoundPredicate>
                    <Node id="25" score="-3.9247826663333334">
                      <CompoundPredicate booleanOperator="or">
                        <SimplePredicate field="BEH4m" operator="lessOrEqual" value="-0.19898321479558945"/>
                        <SimplePredicate field="BEH4m" operator="isMissing"/>
                      </CompoundPredicate>
                      <Node id="26" score="-3.874827051">
                        <CompoundPredicate booleanOperator="or">
                          <SimplePredicate field="ALogP" operator="lessOrEqual" value="-0.24696727842092514"/>
                          <SimplePredicate field="ALogP" operator="isMissing"/>
                        </CompoundPredicate>
                      </Node>
                      <Node id="27" score="-4.024693897">
                        <SimplePredicate field="ALogP" operator="greaterThan" value="-0.24696727842092514"/>
                      </Node>
                    </Node>
                    <Node id="28" score="-4.236304066">
                      <SimplePredicate field="BEH4m" operator="greaterThan" value="-0.19898321479558945"/>
                    </Node>
                  </Node>
                </Node>
              </Node>
              <Node id="29" score="-6.347362094499999">
                <SimplePredicate field="X1v" operator="greaterThan" value="-0.44357380270957947"/>
                <Node id="30" score="-5.133278109">
                  <CompoundPredicate booleanOperator="or">
                    <SimplePredicate field="X1v" operator="lessOrEqual" value="-0.2817470580339432"/>
                    <SimplePredicate field="X1v" operator="isMissing"/>
                  </CompoundPredicate>
                </Node>
                <Node id="31" score="-7.56144608">
                  <SimplePredicate field="X1v" operator="greaterThan" value="-0.2817470580339432"/>
                </Node>
              </Node>
            </Node>
            <Node id="32" score="-7.648181580557692">
              <CompoundPredicate booleanOperator="or">
                <SimplePredicate field="X3sol" operator="greaterThan" value="-0.4841397702693939"/>
                <SimplePredicate field="X3sol" operator="isMissing"/>
              </CompoundPredicate>
              <Node id="33" score="-7.217608109222224">
                <CompoundPredicate booleanOperator="or">
                  <SimplePredicate field="BEH4m" operator="lessOrEqual" value="1.0611867308616638"/>
                  <SimplePredicate field="BEH4m" operator="isMissing"/>
                </CompoundPredicate>
                <Node id="34" score="-6.211783730473684">
                  <SimplePredicate field="X1v" operator="lessOrEqual" value="-0.11972126737236977"/>
                  <Node id="35" score="-7.203892151750001">
                    <SimplePredicate field="ATS5p" operator="lessOrEqual" value="-0.236657552421093"/>
                    <Node id="36" score="-7.428898151666667">
                      <CompoundPredicate booleanOperator="or">
                        <SimplePredicate field="X1v" operator="lessOrEqual" value="-0.36614377796649933"/>
                        <SimplePredicate field="X1v" operator="isMissing"/>
                      </CompoundPredicate>
                      <Node id="37" score="-7.044383371">
                        <SimplePredicate field="X1v" operator="lessOrEqual" value="-0.6844229400157928"/>
                      </Node>
                      <Node id="38" score="-7.5058011078">
                        <CompoundPredicate booleanOperator="or">
                          <SimplePredicate field="X1v" operator="greaterThan" value="-0.6844229400157928"/>
                          <SimplePredicate field="X1v" operator="isMissing"/>
                        </CompoundPredicate>
                        <Node id="39" score="-7.66792465">
                          <CompoundPredicate booleanOperator="or">
                            <SimplePredicate field="ATS5p" operator="lessOrEqual" value="-0.6031221300363541"/>
                            <SimplePredicate field="ATS5p" operator="isMissing"/>
                          </CompoundPredicate>
                          <Node id="40" score="-7.830592644">
                            <CompoundPredicate booleanOperator="or">
                              <SimplePredicate field="ALogP" operator="lessOrEqual" value="0.17258911224780604"/>
                              <SimplePredicate field="ALogP" operator="isMissing"/>
                            </CompoundPredicate>
                          </Node>
                          <Node id="41" score="-7.342588662">
                            <SimplePredicate field="ALogP" operator="greaterThan" value="0.17258911224780604"/>
                          </Node>
                        </Node>
                        <Node id="42" score="-7.2626157945">
                          <SimplePredicate field="ATS5p" operator="greaterThan" value="-0.6031221300363541"/>
                          <Node id="43" score="-7.046270067">
                            <CompoundPredicate booleanOperator="or">
                              <SimplePredicate field="ATS5p" operator="lessOrEqual" value="-0.3613685220479965"/>
                              <SimplePredicate field="ATS5p" operator="isMissing"/>
                            </CompoundPredicate>
                          </Node>
                          <Node id="44" score="-7.478961522">
                            <SimplePredicate field="ATS5p" operator="greaterThan" value="-0.3613685220479965"/>
                          </Node>
                        </Node>
                      </Node>
                    </Node>
                    <Node id="45" score="-6.528874152">
                      <SimplePredicate field="X1v" operator="greaterThan" value="-0.36614377796649933"/>
                    </Node>
                  </Node>
                  <Node id="46" score="-5.490250333181818">
                    <CompoundPredicate booleanOperator="or">
                      <SimplePredicate field="ATS5p" operator="greaterThan" value="-0.236657552421093"/>
                      <SimplePredicate field="ATS5p" operator="isMissing"/>
                    </CompoundPredicate>
                    <Node id="47" score="-5.03926050925">
                      <CompoundPredicate booleanOperator="or">
                        <SimplePredicate field="BEH4m" operator="lessOrEqual" value="0.30035849660634995"/>
                        <SimplePredicate field="BEH4m" operator="isMissing"/>
                      </CompoundPredicate>
                      <Node id="48" score="-5.4754015274">
                        <CompoundPredicate booleanOperator="or">
                          <SimplePredicate field="ATS5p" operator="lessOrEqual" value="0.43008196353912354"/>
                          <SimplePredicate field="ATS5p" operator="isMissing"/>
                        </CompoundPredicate>
                        <Node id="49" score="-4.485357619">
                          <SimplePredicate field="ALogP" operator="lessOrEqual" value="-1.0780117213726044"/>
                        </Node>
                        <Node id="50" score="-5.7229125045">
                          <CompoundPredicate booleanOperator="or">
                            <SimplePredicate field="ALogP" operator="greaterThan" value="-1.0780117213726044"/>
                            <SimplePredicate field="ALogP" operator="isMissing"/>
                          </CompoundPredicate>
                          <Node id="51" score="-5.512842799">
                            <CompoundPredicate booleanOperator="or">
                              <SimplePredicate field="ATS5p" operator="lessOrEqual" value="0.22505552880465984"/>
                              <SimplePredicate field="ATS5p" operator="isMissing"/>
                            </CompoundPredicate>
                          </Node>
                          <Node id="52" score="-5.93298221">
                            <SimplePredicate field="ATS5p" operator="greaterThan" value="0.22505552880465984"/>
                          </Node>
                        </Node>
                      </Node>
                      <Node id="53" score="-4.312358812333333">
                        <SimplePredicate field="ATS5p" operator="greaterThan" value="0.43008196353912354"/>
                        <Node id="54" score="-4.505875432">
                          <CompoundPredicate booleanOperator="or">
                            <SimplePredicate field="ATS5p" operator="lessOrEqual" value="0.5430886447429657"/>
                            <SimplePredicate field="ATS5p" operator="isMissing"/>
                          </CompoundPredicate>
                        </Node>
                        <Node id="55" score="-3.925325573">
                          <SimplePredicate field="ATS5p" operator="greaterThan" value="0.5430886447429657"/>
                        </Node>
                      </Node>
                    </Node>
                    <Node id="56" score="-6.692889863666666">
                      <SimplePredicate field="BEH4m" operator="greaterThan" value="0.30035849660634995"/>
                      <Node id="57" score="-4.952899006">
                        <SimplePredicate field="ATS5p" operator="lessOrEqual" value="-0.18055779486894608"/>
                      </Node>
                      <Node id="58" score="-7.5628852925">
                        <CompoundPredicate booleanOperator="or">
                          <SimplePredicate field="ATS5p" operator="greaterThan" value="-0.18055779486894608"/>
                          <SimplePredicate field="ATS5p" operator="isMissing"/>
                        </CompoundPredicate>
                        <Node id="59" score="-7.193406132">
                          <CompoundPredicate booleanOperator="or">
                            <SimplePredicate field="ALogP" operator="lessOrEqual" value="-0.5901842713356018"/>
                            <SimplePredicate field="ALogP" operator="isMissing"/>
                          </CompoundPredicate>
                        </Node>
                        <Node id="60" score="-7.932364453">
                          <SimplePredicate field="ALogP" operator="greaterThan" value="-0.5901842713356018"/>
                        </Node>
                      </Node>
                    </Node>
                  </Node>
                </Node>
                <Node id="61" score="-7.952633616769231">
                  <CompoundPredicate booleanOperator="or">
                    <SimplePredicate field="X1v" operator="greaterThan" value="-0.11972126737236977"/>
                    <SimplePredicate field="X1v" operator="isMissing"/>
                  </CompoundPredicate>
                  <Node id="62" score="-8.455337572777777">
                    <CompoundPredicate booleanOperator="or">
                      <SimplePredicate field="ATS5p" operator="lessOrEqual" value="1.263909935951233"/>
                      <SimplePredicate field="ATS5p" operator="isMissing"/>
                    </CompoundPredicate>
                    <Node id="63" score="-6.720447973">
                      <SimplePredicate field="BEH4m" operator="lessOrEqual" value="0.28957024216651917"/>
                      <Node id="64" score="-5.553979673">
                        <SimplePredicate field="BEH4m" operator="lessOrEqual" value="0.2114838883280754"/>
                      </Node>
                      <Node id="65" score="-7.303682123">
                        <CompoundPredicate booleanOperator="or">
                          <SimplePredicate field="BEH4m" operator="greaterThan" value="0.2114838883280754"/>
                          <SimplePredicate field="BEH4m" operator="isMissing"/>
                        </CompoundPredicate>
                        <Node id="66" score="-7.736500011">
                          <CompoundPredicate booleanOperator="or">
                            <SimplePredicate field="ALogP" operator="lessOrEqual" value="-0.13028591498732567"/>
                            <SimplePredicate field="ALogP" operator="isMissing"/>
                          </CompoundPredicate>
                        </Node>
                        <Node id="67" score="-6.870864235">
                          <SimplePredicate field="ALogP" operator="greaterThan" value="-0.13028591498732567"/>
                        </Node>
                      </Node>
                    </Node>
                    <Node id="68" score="-8.802315492733333">
                      <CompoundPredicate booleanOperator="or">
                        <SimplePredicate field="BEH4m" operator="greaterThan" value="0.28957024216651917"/>
                        <SimplePredicate field="BEH4m" operator="isMissing"/>
                      </CompoundPredicate>
                      <Node id="69" score="-8.1270415305">
                        <CompoundPredicate booleanOperator="or">
                          <SimplePredicate field="ALogP" operator="lessOrEqual" value="0.852816641330719"/>
                          <SimplePredicate field="ALogP" operator="isMissing"/>
                        </CompoundPredicate>
                        <Node id="70" score="-7.256889607">
                          <SimplePredicate field="X3sol" operator="lessOrEqual" value="-0.1150183156132698"/>
                        </Node>
                        <Node id="71" score="-8.417092171666667">
                          <CompoundPredicate booleanOperator="or">
                            <SimplePredicate field="X3sol" operator="greaterThan" value="-0.1150183156132698"/>
                            <SimplePredicate field="X3sol" operator="isMissing"/>
                          </CompoundPredicate>
                          <Node id="72" score="-8.9476568025">
                            <CompoundPredicate booleanOperator="or">
                              <SimplePredicate field="ALogP" operator="lessOrEqual" value="0.6871042847633362"/>
                              <SimplePredicate field="ALogP" operator="isMissing"/>
                            </CompoundPredicate>
                            <Node id="73" score="-8.492589142">
                              <CompoundPredicate booleanOperator="or">
                                <SimplePredicate field="ALogP" operator="lessOrEqual" value="0.5130131989717484"/>
                                <SimplePredicate field="ALogP" operator="isMissing"/>
                              </CompoundPredicate>
                              <Node id="74" score="-8.292996488">
                                <CompoundPredicate booleanOperator="or">
                                  <SimplePredicate field="ATS5p" operator="lessOrEqual" value="0.4571228474378586"/>
                                  <SimplePredicate field="ATS5p" operator="isMissing"/>
                                </CompoundPredicate>
                              </Node>
                              <Node id="75" score="-8.692181796">
                                <SimplePredicate field="ATS5p" operator="greaterThan" value="0.4571228474378586"/>
                              </Node>
                            </Node>
                            <Node id="76" score="-9.402724463">
                              <SimplePredicate field="ALogP" operator="greaterThan" value="0.5130131989717484"/>
                            </Node>
                          </Node>
                          <Node id="77" score="-7.35596291">
                            <SimplePredicate field="ALogP" operator="greaterThan" value="0.6871042847633362"/>
                          </Node>
                        </Node>
                      </Node>
                      <Node id="78" score="-9.574057163857143">
                        <SimplePredicate field="ALogP" operator="greaterThan" value="0.852816641330719"/>
                        <Node id="79" score="-10.503096209999999">
                          <SimplePredicate field="X3sol" operator="lessOrEqual" value="0.49476827681064606"/>
                          <Node id="80" score="-10.41854613">
                            <CompoundPredicate booleanOperator="or">
                              <SimplePredicate field="ALogP" operator="lessOrEqual" value="1.0802832245826721"/>
                              <SimplePredicate field="ALogP" operator="isMissing"/>
                            </CompoundPredicate>
                          </Node>
                          <Node id="81" score="-10.58764629">
                            <SimplePredicate field="ALogP" operator="greaterThan" value="1.0802832245826721"/>
                          </Node>
                        </Node>
                        <Node id="82" score="-9.202441545400001">
                          <CompoundPredicate booleanOperator="or">
                            <SimplePredicate field="X3sol" operator="greaterThan" value="0.49476827681064606"/>
                            <SimplePredicate field="X3sol" operator="isMissing"/>
                          </CompoundPredicate>
                          <Node id="83" score="-8.90329902675">
                            <CompoundPredicate booleanOperator="or">
                              <SimplePredicate field="ALogP" operator="lessOrEqual" value="1.4734622240066528"/>
                              <SimplePredicate field="ALogP" operator="isMissing"/>
                            </CompoundPredicate>
                            <Node id="84" score="-9.4558802225">
                              <CompoundPredicate booleanOperator="or">
                                <SimplePredicate field="ALogP" operator="lessOrEqual" value="1.18455171585083"/>
                                <SimplePredicate field="ALogP" operator="isMissing"/>
                              </CompoundPredicate>
                              <Node id="85" score="-9.442189868">
                                <CompoundPredicate booleanOperator="or">
                                  <SimplePredicate field="X1v" operator="lessOrEqual" value="0.2025388814508915"/>
                                  <SimplePredicate field="X1v" operator="isMissing"/>
                                </CompoundPredicate>
                              </Node>
                              <Node id="86" score="-9.469570577">
                                <SimplePredicate field="X1v" operator="greaterThan" value="0.2025388814508915"/>
                              </Node>
                            </Node>
                            <Node id="87" score="-8.350717831">
                              <SimplePredicate field="ALogP" operator="greaterThan" value="1.18455171585083"/>
                            </Node>
                          </Node>
                          <Node id="88" score="-10.39901162">
                            <SimplePredicate field="ALogP" operator="greaterThan" value="1.4734622240066528"/>
                          </Node>
                        </Node>
                      </Node>
                    </Node>
                  </Node>
                  <Node id="89" score="-6.821549715750001">
                    <SimplePredicate field="ATS5p" operator="greaterThan" value="1.263909935951233"/>
                    <Node id="90" score="-7.2285307215">
                      <CompoundPredicate booleanOperator="or">
                        <SimplePredicate field="ALogP" operator="lessOrEqual" value="1.41294926404953"/>
                        <SimplePredicate field="ALogP" operator="isMissing"/>
                      </CompoundPredicate>
                      <Node id="91" score="-7.377930372">
                        <CompoundPredicate booleanOperator="or">
                          <SimplePredicate field="ATS5p" operator="lessOrEqual" value="1.427769660949707"/>
                          <SimplePredicate field="ATS5p" operator="isMissing"/>
                        </CompoundPredicate>
                      </Node>
                      <Node id="92" score="-7.079131071">
                        <SimplePredicate field="ATS5p" operator="greaterThan" value="1.427769660949707"/>
                      </Node>
                    </Node>
                    <Node id="93" score="-6.41456871">
                      <SimplePredicate field="ALogP" operator="greaterThan" value="1.41294926404953"/>
                    </Node>
                  </Node>
                </Node>
              </Node>
              <Node id="94" score="-10.416153896285715">
                <SimplePredicate field="BEH4m" operator="greaterThan" value="1.0611867308616638"/>
                <Node id="95" score="-11.034348540000002">
                  <CompoundPredicate booleanOperator="or">
                    <SimplePredicate field="ALogP" operator="lessOrEqual" value="2.6073817014694214"/>
                    <SimplePredicate field="ALogP" operator="isMissing"/>
                  </CompoundPredicate>
                  <Node id="96" score="-10.32932137">
                    <CompoundPredicate booleanOperator="or">
                      <SimplePredicate field="X1v" operator="lessOrEqual" value="1.4266895055770874"/>
                      <SimplePredicate field="X1v" operator="isMissing"/>
                    </CompoundPredicate>
                    <Node id="97" score="-10.52256737">
                      <CompoundPredicate booleanOperator="or">
                        <SimplePredicate field="ATS5p" operator="lessOrEqual" value="1.3337319493293762"/>
                        <SimplePredicate field="ATS5p" operator="isMissing"/>
                      </CompoundPredicate>
                    </Node>
                    <Node id="98" score="-10.13607537">
                      <SimplePredicate field="ATS5p" operator="greaterThan" value="1.3337319493293762"/>
                    </Node>
                  </Node>
                  <Node id="99" score="-12.44440288">
                    <SimplePredicate field="X1v" operator="greaterThan" value="1.4266895055770874"/>
                  </Node>
                </Node>
                <Node id="100" score="-6.706986034">
                  <SimplePredicate field="ALogP" operator="greaterThan" value="2.6073817014694214"/>
                </Node>
              </Node>
            </Node>
          </Node>
        </TreeModel>
      </Segment>
      <Segment>
        <True/>
        <TreeModel functionName="regression" missingValueStrategy="none" modelName="DecisionTree" noTrueChildStrategy="returnLastPrediction" splitCharacteristic="binarySplit">
          <MiningSchema>
            <MiningField invalidValueTreatment="asIs" name="ATS5p"/>
            <MiningField invalidValueTreatment="asIs" name="ALogP"/>
            <MiningField invalidValueTreatment="asIs" name="X3sol"/>
            <MiningField invalidValueTreatment="asIs" name="X1v"/>
            <MiningField invalidValueTreatment="asIs" name="BEH4m"/>
            <MiningField invalidValueTreatment="asIs" name="Exp" usageType="target"/>
          </MiningSchema>
          <Node id="0" score="-6.3175610620133344">
            <True/>
            <Node id="1" score="-3.425311649520001">
              <SimplePredicate field="X3sol" operator="lessOrEqual" value="-0.4841397702693939"/>
              <Node id="2" score="-4.786560677374999">
                <SimplePredicate field="X3sol" operator="lessOrEqual" value="-1.396704077720642"/>
                <Node id="3" score="-3.853216663">
                  <CompoundPredicate booleanOperator="or">
                    <SimplePredicate field="ALogP" operator="lessOrEqual" value="-2.002773642539978"/>
                    <SimplePredicate field="ALogP" operator="isMissing"/>
                  </CompoundPredicate>
                </Node>
                <Node id="4" score="-5.719904691749999">
                  <SimplePredicate field="ALogP" operator="greaterThan" value="-2.002773642539978"/>
                  <Node id="5" score="-7.63108908">
                    <CompoundPredicate booleanOperator="or">
                      <SimplePredicate field="ALogP" operator="lessOrEqual" value="-1.1326285004615784"/>
                      <SimplePredicate field="ALogP" operator="isMissing"/>
                    </CompoundPredicate>
                  </Node>
                  <Node id="6" score="-3.8087203035">
                    <SimplePredicate field="ALogP" operator="greaterThan" value="-1.1326285004615784"/>
                    <Node id="7" score="-3.742613556">
                      <CompoundPredicate booleanOperator="or">
                        <SimplePredicate field="ALogP" operator="lessOrEqual" value="-0.7254849970340729"/>
                        <SimplePredicate field="ALogP" operator="isMissing"/>
                      </CompoundPredicate>
                    </Node>
                    <Node id="8" score="-3.874827051">
                      <SimplePredicate field="ALogP" operator="greaterThan" value="-0.7254849970340729"/>
                    </Node>
                  </Node>
                </Node>
              </Node>
              <Node id="9" score="-2.784723871705883">
                <CompoundPredicate booleanOperator="or">
                  <SimplePredicate field="X3sol" operator="greaterThan" value="-1.396704077720642"/>
                  <SimplePredicate field="X3sol" operator="isMissing"/>
                </CompoundPredicate>
                <Node id="10" score="-1.2973362570909088">
                  <CompoundPredicate booleanOperator="or">
                    <SimplePredicate field="ALogP" operator="lessOrEqual" value="-0.539601668715477"/>
                    <SimplePredicate field="ALogP" operator="isMissing"/>
                  </CompoundPredicate>
                  <Node id="11" score="-0.312996171857143">
                    <CompoundPredicate booleanOperator="or">
                      <SimplePredicate field="X3sol" operator="lessOrEqual" value="-0.6995875537395477"/>
                      <SimplePredicate field="X3sol" operator="isMissing"/>
                    </CompoundPredicate>
                    <Node id="12" score="-2.194945518">
                      <SimplePredicate field="ALogP" operator="lessOrEqual" value="-1.4727422595024109"/>
                      <Node id="13" score="-2.173174521">
                        <CompoundPredicate booleanOperator="or">
                          <SimplePredicate field="BEH4m" operator="lessOrEqual" value="-2.599111318588257"/>
                          <SimplePredicate field="BEH4m" operator="isMissing"/>
                        </CompoundPredicate>
                      </Node>
                      <Node id="14" score="-2.216716515">
                        <SimplePredicate field="BEH4m" operator="greaterThan" value="-2.599111318588257"/>
                      </Node>
                    </Node>
                    <Node id="15" score="0.4397835666">
                      <CompoundPredicate booleanOperator="or">
                        <SimplePredicate field="ALogP" operator="greaterThan" value="-1.4727422595024109"/>
                        <SimplePredicate field="ALogP" operator="isMissing"/>
                      </CompoundPredicate>
                      <Node id="16" score="0.519249489">
                        <CompoundPredicate booleanOperator="or">
                          <SimplePredicate field="X3sol" operator="lessOrEqual" value="-1.0424761474132538"/>
                          <SimplePredicate field="X3sol" operator="isMissing"/>
                        </CompoundPredicate>
                      </Node>
                      <Node id="17" score="0.121919877">
                        <SimplePredicate field="X3sol" operator="greaterThan" value="-1.0424761474132538"/>
                      </Node>
                    </Node>
                  </Node>
                  <Node id="18" score="-3.01993140625">
                    <SimplePredicate field="X3sol" operator="greaterThan" value="-0.6995875537395477"/>
                    <Node id="19" score="-4.115401661">
                      <CompoundPredicate booleanOperator="or">
                        <SimplePredicate field="X1v" operator="lessOrEqual" value="-0.8595859706401825"/>
                        <SimplePredicate field="X1v" operator="isMissing"/>
                      </CompoundPredicate>
                    </Node>
                    <Node id="20" score="-1.9244611515">
                      <SimplePredicate field="X1v" operator="greaterThan" value="-0.8595859706401825"/>
                      <Node id="21" score="-2.597745283">
                        <CompoundPredicate booleanOperator="or">
                          <SimplePredicate field="X3sol" operator="lessOrEqual" value="-0.6068417727947235"/>
                          <SimplePredicate field="X3sol" operator="isMissing"/>
                        </CompoundPredicate>
                      </Node>
                      <Node id="22" score="-1.25117702">
                        <SimplePredicate field="X3sol" operator="greaterThan" value="-0.6068417727947235"/>
                      </Node>
                    </Node>
                  </Node>
                </Node>
                <Node id="23" score="-5.511601165166667">
                  <SimplePredicate field="ALogP" operator="greaterThan" value="-0.539601668715477"/>
                  <Node id="24" score="-4.3828316455">
                    <CompoundPredicate booleanOperator="or">
                      <SimplePredicate field="ALogP" operator="lessOrEqual" value="0.41153766214847565"/>
                      <SimplePredicate field="ALogP" operator="isMissing"/>
                    </CompoundPredicate>
                    <Node id="25" score="-4.132682824333333">
                      <CompoundPredicate booleanOperator="or">
                        <SimplePredicate field="ATS5p" operator="lessOrEqual" value="-0.5659913569688797"/>
                        <SimplePredicate field="ATS5p" operator="isMissing"/>
                      </CompoundPredicate>
                      <Node id="26" score="-4.236304066">
                        <CompoundPredicate booleanOperator="or">
                          <SimplePredicate field="ALogP" operator="lessOrEqual" value="-0.3909570574760437"/>
                          <SimplePredicate field="ALogP" operator="isMissing"/>
                        </CompoundPredicate>
                      </Node>
                      <Node id="27" score="-3.925440341">
                        <SimplePredicate field="ALogP" operator="greaterThan" value="-0.3909570574760437"/>
                      </Node>
                    </Node>
                    <Node id="28" score="-5.133278109">
                      <SimplePredicate field="ATS5p" operator="greaterThan" value="-0.5659913569688797"/>
                    </Node>
                  </Node>
                  <Node id="29" score="-7.769140204499999">
                    <SimplePredicate field="ALogP" operator="greaterThan" value="0.41153766214847565"/>
                    <Node id="30" score="-7.976834329">
                      <CompoundPredicate booleanOperator="or">
                        <SimplePredicate field="X3sol" operator="lessOrEqual" value="-1.0778481364250183"/>
                        <SimplePredicate field="X3sol" operator="isMissing"/>
                      </CompoundPredicate>
                    </Node>
                    <Node id="31" score="-7.56144608">
                      <SimplePredicate field="X3sol" operator="greaterThan" value="-1.0778481364250183"/>
                    </Node>
                  </Node>
                </Node>
              </Node>
            </Node>
            <Node id="32" score="-7.763685768259999">
              <CompoundPredicate booleanOperator="or">
                <SimplePredicate field="X3sol" operator="greaterThan" value="-0.4841397702693939"/>
                <SimplePredicate field="X3sol" operator="isMissing"/>
              </CompoundPredicate>
              <Node id="33" score="-7.258091421837837">
                <CompoundPredicate booleanOperator="or">
                  <SimplePredicate field="BEH4m" operator="lessOrEqual" value="0.9543317258358002"/>
                  <SimplePredicate field="BEH4m" operator="isMissing"/>
                </CompoundPredicate>
                <Node id="34" score="-7.410178066939394">
                  <CompoundPredicate booleanOperator="or">
                    <SimplePredicate field="X1v" operator="lessOrEqual" value="1.7612906694412231"/>
                    <SimplePredicate field="X1v" operator="isMissing"/>
                  </CompoundPredicate>
                  <Node id="35" score="-7.205180117064516">
                    <CompoundPredicate booleanOperator="or">
                      <SimplePredicate field="ALogP" operator="lessOrEqual" value="1.1954129934310913"/>
                      <SimplePredicate field="ALogP" operator="isMissing"/>
                    </CompoundPredicate>
                    <Node id="36" score="-7.353881721153847">
                      <CompoundPredicate booleanOperator="or">
                        <SimplePredicate field="BEH4m" operator="lessOrEqual" value="0.6620216071605682"/>
                        <SimplePredicate field="BEH4m" operator="isMissing"/>
                      </CompoundPredicate>
                      <Node id="37" score="-5.512842799">
                        <SimplePredicate field="ALogP" operator="lessOrEqual" value="-0.7282779216766357"/>
                      </Node>
                      <Node id="38" score="-7.427523278040001">
                        <CompoundPredicate booleanOperator="or">
                          <SimplePredicate field="ALogP" operator="greaterThan" value="-0.7282779216766357"/>
                          <SimplePredicate field="ALogP" operator="isMissing"/>
                        </CompoundPredicate>
                        <Node id="39" score="-5.93298221">
                          <SimplePredicate field="BEH4m" operator="lessOrEqual" value="-0.009932037442922592"/>
                        </Node>
                        <Node id="40" score="-7.489795822541668">
                          <CompoundPredicate booleanOperator="or">
                            <SimplePredicate field="BEH4m" operator="greaterThan" value="-0.009932037442922592"/>
                            <SimplePredicate field="BEH4m" operator="isMissing"/>
                          </CompoundPredicate>
                          <Node id="41" score="-7.604229729318182">
                            <CompoundPredicate booleanOperator="or">
                              <SimplePredicate field="ATS5p" operator="lessOrEqual" value="1.068569839000702"/>
                              <SimplePredicate field="ATS5p" operator="isMissing"/>
                            </CompoundPredicate>
                            <Node id="42" score="-7.416920705153847">
                              <CompoundPredicate booleanOperator="or">
                                <SimplePredicate field="ATS5p" operator="lessOrEqual" value="0.5749726891517639"/>
                                <SimplePredicate field="ATS5p" operator="isMissing"/>
                              </CompoundPredicate>
                              <Node id="43" score="-7.343914389916667">
                                <CompoundPredicate booleanOperator="or">
                                  <SimplePredicate field="X3sol" operator="lessOrEqual" value="0.22803954407572746"/>
                                  <SimplePredicate field="X3sol" operator="isMissing"/>
                                </CompoundPredicate>
                                <Node id="44" score="-7.493459164142856">
                                  <CompoundPredicate booleanOperator="or">
                                    <SimplePredicate field="X3sol" operator="lessOrEqual" value="-0.0903086643666029"/>
                                    <SimplePredicate field="X3sol" operator="isMissing"/>
                                  </CompoundPredicate>
                                  <Node id="45" score="-6.988223778">
                                    <SimplePredicate field="ALogP" operator="lessOrEqual" value="-0.5572900474071503"/>
                                  </Node>
                                  <Node id="46" score="-7.577665061833333">
                                    <CompoundPredicate booleanOperator="or">
                                      <SimplePredicate field="ALogP" operator="greaterThan" value="-0.5572900474071503"/>
                                      <SimplePredicate field="ALogP" operator="isMissing"/>
                                    </CompoundPredicate>
                                    <Node id="47" score="-7.898440516666667">
                                      <CompoundPredicate booleanOperator="or">
                                        <SimplePredicate field="X1v" operator="lessOrEqual" value="-0.07553242146968842"/>
                                        <SimplePredicate field="X1v" operator="isMissing"/>
                                      </CompoundPredicate>
                                      <Node id="48" score="-7.830592644">
                                        <SimplePredicate field="ATS5p" operator="lessOrEqual" value="-0.4360336512327194"/>
                                      </Node>
                                      <Node id="49" score="-7.932364453">
                                        <CompoundPredicate booleanOperator="or">
                                          <SimplePredicate field="ATS5p" operator="greaterThan" value="-0.4360336512327194"/>
                                          <SimplePredicate field="ATS5p" operator="isMissing"/>
                                        </CompoundPredicate>
                                      </Node>
                                    </Node>
                                    <Node id="50" score="-7.256889607000001">
                                      <SimplePredicate field="X1v" operator="greaterThan" value="-0.07553242146968842"/>
                                    </Node>
                                  </Node>
                                </Node>
                                <Node id="51" score="-7.134551706">
                                  <SimplePredicate field="X3sol" operator="greaterThan" value="-0.0903086643666029"/>
                                  <Node id="52" score="-7.046270067">
                                    <SimplePredicate field="X3sol" operator="lessOrEqual" value="0.02816222421824932"/>
                                  </Node>
                                  <Node id="53" score="-7.193406132">
                                    <CompoundPredicate booleanOperator="or">
                                      <SimplePredicate field="X3sol" operator="greaterThan" value="0.02816222421824932"/>
                                      <SimplePredicate field="X3sol" operator="isMissing"/>
                                    </CompoundPredicate>
                                  </Node>
                                </Node>
                              </Node>
                              <Node id="54" score="-8.292996488">
                                <SimplePredicate field="X3sol" operator="greaterThan" value="0.22803954407572746"/>
                              </Node>
                            </Node>
                            <Node id="55" score="-7.874787208666667">
                              <SimplePredicate field="ATS5p" operator="greaterThan" value="0.5749726891517639"/>
                              <Node id="56" score="-8.692181796">
                                <SimplePredicate field="ATS5p" operator="lessOrEqual" value="0.6347047984600067"/>
                              </Node>
                              <Node id="57" score="-7.772612885250001">
                                <CompoundPredicate booleanOperator="or">
                                  <SimplePredicate field="ATS5p" operator="greaterThan" value="0.6347047984600067"/>
                                  <SimplePredicate field="ATS5p" operator="isMissing"/>
                                </CompoundPredicate>
                                <Node id="58" score="-8.011426657000001">
                                  <CompoundPredicate booleanOperator="or">
                                    <SimplePredicate field="X3sol" operator="lessOrEqual" value="0.22059281170368195"/>
                                    <SimplePredicate field="X3sol" operator="isMissing"/>
                                  </CompoundPredicate>
                                  <Node id="59" score="-7.994259203000001">
                                    <CompoundPredicate booleanOperator="or">
                                      <SimplePredicate field="X3sol" operator="lessOrEqual" value="0.07385814283043146"/>
                                      <SimplePredicate field="X3sol" operator="isMissing"/>
                                    </CompoundPredicate>
                                  </Node>
                                  <Node id="60" score="-8.062929019">
                                    <SimplePredicate field="X3sol" operator="greaterThan" value="0.07385814283043146"/>
                                  </Node>
                                </Node>
                                <Node id="61" score="-7.5337991135">
                                  <SimplePredicate field="X3sol" operator="greaterThan" value="0.22059281170368195"/>
                                  <Node id="62" score="-7.443178841">
                                    <CompoundPredicate booleanOperator="or">
                                      <SimplePredicate field="ATS5p" operator="lessOrEqual" value="0.8260089755058289"/>
                                      <SimplePredicate field="ATS5p" operator="isMissing"/>
                                    </CompoundPredicate>
                                  </Node>
                                  <Node id="63" score="-7.624419386">
                                    <SimplePredicate field="ATS5p" operator="greaterThan" value="0.8260089755058289"/>
                                  </Node>
                                </Node>
                              </Node>
                            </Node>
                          </Node>
                          <Node id="64" score="-6.231022848">
                            <SimplePredicate field="ATS5p" operator="greaterThan" value="1.068569839000702"/>
                            <Node id="65" score="-5.458126251">
                              <CompoundPredicate booleanOperator="or">
                                <SimplePredicate field="ALogP" operator="lessOrEqual" value="-0.12004526425153017"/>
                                <SimplePredicate field="ALogP" operator="isMissing"/>
                              </CompoundPredicate>
                            </Node>
                            <Node id="66" score="-7.003919445">
                              <SimplePredicate field="ALogP" operator="greaterThan" value="-0.12004526425153017"/>
                            </Node>
                          </Node>
                        </Node>
                      </Node>
                    </Node>
                    <Node id="67" score="-6.4319317758">
                      <SimplePredicate field="BEH4m" operator="greaterThan" value="0.6620216071605682"/>
                      <Node id="68" score="-4.952899006">
                        <SimplePredicate field="ALogP" operator="lessOrEqual" value="0.38547055423259735"/>
                      </Node>
                      <Node id="69" score="-6.80168996825">
                        <CompoundPredicate booleanOperator="or">
                          <SimplePredicate field="ALogP" operator="greaterThan" value="0.38547055423259735"/>
                          <SimplePredicate field="ALogP" operator="isMissing"/>
                        </CompoundPredicate>
                        <Node id="70" score="-6.528874152">
                          <CompoundPredicate booleanOperator="or">
                            <SimplePredicate field="ALogP" operator="lessOrEqual" value="0.9009166955947876"/>
                            <SimplePredicate field="ALogP" operator="isMissing"/>
                          </CompoundPredicate>
                        </Node>
                        <Node id="71" score="-7.620137417">
                          <SimplePredicate field="ALogP" operator="greaterThan" value="0.9009166955947876"/>
                        </Node>
                      </Node>
                    </Node>
                  </Node>
                  <Node id="72" score="-10.58764629">
                    <SimplePredicate field="ALogP" operator="greaterThan" value="1.1954129934310913"/>
                  </Node>
                </Node>
                <Node id="73" score="-6.00337659975">
                  <SimplePredicate field="X1v" operator="greaterThan" value="1.7612906694412231"/>
                  <Node id="74" score="-3.440675547">
                    <SimplePredicate field="ATS5p" operator="lessOrEqual" value="1.253012865781784"/>
                  </Node>
                  <Node id="75" score="-6.857610284">
                    <CompoundPredicate booleanOperator="or">
                      <SimplePredicate field="ATS5p" operator="greaterThan" value="1.253012865781784"/>
                      <SimplePredicate field="ATS5p" operator="isMissing"/>
                    </CompoundPredicate>
                    <Node id="76" score="-7.079131071">
                      <CompoundPredicate booleanOperator="or">
                        <SimplePredicate field="ALogP" operator="lessOrEqual" value="0.3082001507282257"/>
                        <SimplePredicate field="ALogP" operator="isMissing"/>
                      </CompoundPredicate>
                    </Node>
                    <Node id="77" score="-6.41456871">
                      <SimplePredicate field="ALogP" operator="greaterThan" value="0.3082001507282257"/>
                    </Node>
                  </Node>
                </Node>
              </Node>
              <Node id="78" score="-9.202685061923075">
                <SimplePredicate field="BEH4m" operator="greaterThan" value="0.9543317258358002"/>
                <Node id="79" score="-9.951394770299999">
                  <CompoundPredicate booleanOperator="or">
                    <SimplePredicate field="X3sol" operator="lessOrEqual" value="2.419920325279236"/>
                    <SimplePredicate field="X3sol" operator="isMissing"/>
                  </CompoundPredicate>
                  <Node id="80" score="-8.950593825499999">
                    <CompoundPredicate booleanOperator="or">
                      <SimplePredicate field="ALogP" operator="lessOrEqual" value="1.3347479104995728"/>
                      <SimplePredicate field="ALogP" operator="isMissing"/>
                    </CompoundPredicate>
                    <Node id="81" score="-7.478961522">
                      <SimplePredicate field="ATS5p" operator="lessOrEqual" value="-0.1987195909023285"/>
                    </Node>
                    <Node id="82" score="-9.2449202862">
                      <CompoundPredicate booleanOperator="or">
                        <SimplePredicate field="ATS5p" operator="greaterThan" value="-0.1987195909023285"/>
                        <SimplePredicate field="ATS5p" operator="isMissing"/>
                      </CompoundPredicate>
                      <Node id="83" score="-9.442189868">
                        <SimplePredicate field="X1v" operator="lessOrEqual" value="-0.0305473655462265"/>
                      </Node>
                      <Node id="84" score="-9.19560289075">
                        <CompoundPredicate booleanOperator="or">
                          <SimplePredicate field="X1v" operator="greaterThan" value="-0.0305473655462265"/>
                          <SimplePredicate field="X1v" operator="isMissing"/>
                        </CompoundPredicate>
                        <Node id="85" score="-9.146003057">
                          <CompoundPredicate booleanOperator="or">
                            <SimplePredicate field="ATS5p" operator="lessOrEqual" value="0.8853375017642975"/>
                            <SimplePredicate field="ATS5p" operator="isMissing"/>
                          </CompoundPredicate>
                        </Node>
                        <Node id="86" score="-9.344402392">
                          <SimplePredicate field="ATS5p" operator="greaterThan" value="0.8853375017642975"/>
                        </Node>
                      </Node>
                    </Node>
                  </Node>
                  <Node id="87" score="-11.4525961875">
                    <SimplePredicate field="ALogP" operator="greaterThan" value="1.3347479104995728"/>
                    <Node id="88" score="-10.460789495">
                      <CompoundPredicate booleanOperator="or">
                        <SimplePredicate field="ATS5p" operator="lessOrEqual" value="1.3292924165725708"/>
                        <SimplePredicate field="ATS5p" operator="isMissing"/>
                      </CompoundPredicate>
                      <Node id="89" score="-10.39901162">
                        <CompoundPredicate booleanOperator="or">
                          <SimplePredicate field="X3sol" operator="lessOrEqual" value="1.6808311939239502"/>
                          <SimplePredicate field="X3sol" operator="isMissing"/>
                        </CompoundPredicate>
                      </Node>
                      <Node id="90" score="-10.52256737">
                        <SimplePredicate field="X3sol" operator="greaterThan" value="1.6808311939239502"/>
                      </Node>
                    </Node>
                    <Node id="91" score="-12.44440288">
                      <SimplePredicate field="ATS5p" operator="greaterThan" value="1.3292924165725708"/>
                    </Node>
                  </Node>
                </Node>
                <Node id="92" score="-6.706986034">
                  <SimplePredicate field="X3sol" operator="greaterThan" value="2.419920325279236"/>
                </Node>
              </Node>
            </Node>
          </Node>
        </TreeModel>
      </Segment>
      <Segment>
        <True/>
        <TreeModel functionName="regression" missingValueStrategy="none" modelName="DecisionTree" noTrueChildStrategy="returnLastPrediction" splitCharacteristic="binarySplit">
          <MiningSchema>
            <MiningField invalidValueTreatment="asIs" name="ATS5p"/>
            <MiningField invalidValueTreatment="asIs" name="ALogP"/>
            <MiningField invalidValueTreatment="asIs" name="X3sol"/>
            <MiningField invalidValueTreatment="asIs" name="X1v"/>
            <MiningField invalidValueTreatment="asIs" name="BEH4m"/>
            <MiningField invalidValueTreatment="asIs" name="Exp" usageType="target"/>
          </MiningSchema>
          <Node id="0" score="-6.228665498000002">
            <True/>
            <Node id="1" score="-3.7779182146000005">
              <SimplePredicate field="BEH4m" operator="lessOrEqual" value="0.13596615940332413"/>
              <Node id="2" score="-3.232608411818182">
                <CompoundPredicate booleanOperator="or">
                  <SimplePredicate field="ATS5p" operator="lessOrEqual" value="-0.3803374767303467"/>
                  <SimplePredicate field="ATS5p" operator="isMissing"/>
                </CompoundPredicate>
                <Node id="3" score="-4.035644237">
                  <SimplePredicate field="X3sol" operator="lessOrEqual" value="-1.4317376613616943"/>
                  <Node id="4" score="-4.0812511305">
                    <CompoundPredicate booleanOperator="or">
                      <SimplePredicate field="X3sol" operator="lessOrEqual" value="-1.5586707592010498"/>
                      <SimplePredicate field="X3sol" operator="isMissing"/>
                    </CompoundPredicate>
                    <Node id="5" score="-3.742613556">
                      <CompoundPredicate booleanOperator="or">
                        <SimplePredicate field="ALogP" operator="lessOrEqual" value="-0.7887908518314362"/>
                        <SimplePredicate field="ALogP" operator="isMissing"/>
                      </CompoundPredicate>
                    </Node>
                    <Node id="6" score="-5.097163854">
                      <SimplePredicate field="ALogP" operator="greaterThan" value="-0.7887908518314362"/>
                    </Node>
                  </Node>
                  <Node id="7" score="-3.853216663">
                    <SimplePredicate field="X3sol" operator="greaterThan" value="-1.5586707592010498"/>
                  </Node>
                </Node>
                <Node id="8" score="-2.9964214044117647">
                  <CompoundPredicate booleanOperator="or">
                    <SimplePredicate field="X3sol" operator="greaterThan" value="-1.4317376613616943"/>
                    <SimplePredicate field="X3sol" operator="isMissing"/>
                  </CompoundPredicate>
                  <Node id="9" score="-1.6433981178">
                    <SimplePredicate field="X3sol" operator="lessOrEqual" value="-1.163147211074829"/>
                    <Node id="10" score="-2.1840600195">
                      <CompoundPredicate booleanOperator="or">
                        <SimplePredicate field="ALogP" operator="lessOrEqual" value="-1.4727422595024109"/>
                        <SimplePredicate field="ALogP" operator="isMissing"/>
                      </CompoundPredicate>
                      <Node id="11" score="-2.173174521">
                        <CompoundPredicate booleanOperator="or">
                          <SimplePredicate field="X3sol" operator="lessOrEqual" value="-1.3782564997673035"/>
                          <SimplePredicate field="X3sol" operator="isMissing"/>
                        </CompoundPredicate>
                      </Node>
                      <Node id="12" score="-2.216716515">
                        <SimplePredicate field="X3sol" operator="greaterThan" value="-1.3782564997673035"/>
                      </Node>
                    </Node>
                    <Node id="13" score="0.519249489">
                      <SimplePredicate field="ALogP" operator="greaterThan" value="-1.4727422595024109"/>
                    </Node>
                  </Node>
                  <Node id="14" score="-3.560181107166667">
                    <CompoundPredicate booleanOperator="or">
                      <SimplePredicate field="X3sol" operator="greaterThan" value="-1.163147211074829"/>
                      <SimplePredicate field="X3sol" operator="isMissing"/>
                    </CompoundPredicate>
                    <Node id="15" score="-3.8873250983000003">
                      <CompoundPredicate booleanOperator="or">
                        <SimplePredicate field="BEH4m" operator="lessOrEqual" value="-0.11832822859287262"/>
                        <SimplePredicate field="BEH4m" operator="isMissing"/>
                      </CompoundPredicate>
                      <Node id="16" score="-5.273731898">
                        <SimplePredicate field="X1v" operator="lessOrEqual" value="-1.0665967762470245"/>
                      </Node>
                      <Node id="17" score="-3.7332798983333335">
                        <CompoundPredicate booleanOperator="or">
                          <SimplePredicate field="X1v" operator="greaterThan" value="-1.0665967762470245"/>
                          <SimplePredicate field="X1v" operator="isMissing"/>
                        </CompoundPredicate>
                        <Node id="18" score="-3.2901571525">
                          <SimplePredicate field="X3sol" operator="lessOrEqual" value="-0.6831708550453186"/>
                          <Node id="19" score="-3.276794856">
                            <CompoundPredicate booleanOperator="or">
                              <SimplePredicate field="ALogP" operator="lessOrEqual" value="-0.5560487806797028"/>
                              <SimplePredicate field="ALogP" operator="isMissing"/>
                            </CompoundPredicate>
                          </Node>
                          <Node id="20" score="-3.303519449">
                            <SimplePredicate field="ALogP" operator="greaterThan" value="-0.5560487806797028"/>
                          </Node>
                        </Node>
                        <Node id="21" score="-4.087778095">
                          <CompoundPredicate booleanOperator="or">
                            <SimplePredicate field="X3sol" operator="greaterThan" value="-0.6831708550453186"/>
                            <SimplePredicate field="X3sol" operator="isMissing"/>
                          </CompoundPredicate>
                          <Node id="22" score="-3.925440341">
                            <SimplePredicate field="X3sol" operator="lessOrEqual" value="-0.6567687690258026"/>
                          </Node>
                          <Node id="23" score="-4.196003264333333">
                            <CompoundPredicate booleanOperator="or">
                              <SimplePredicate field="X3sol" operator="greaterThan" value="-0.6567687690258026"/>
                              <SimplePredicate field="X3sol" operator="isMissing"/>
                            </CompoundPredicate>
                            <Node id="24" score="-4.115401661">
                              <SimplePredicate field="X1v" operator="lessOrEqual" value="-0.7901178896427155"/>
                            </Node>
                            <Node id="25" score="-4.236304066">
                              <CompoundPredicate booleanOperator="or">
                                <SimplePredicate field="X1v" operator="greaterThan" value="-0.7901178896427155"/>
                                <SimplePredicate field="X1v" operator="isMissing"/>
                              </CompoundPredicate>
                            </Node>
                          </Node>
                        </Node>
                      </Node>
                    </Node>
                    <Node id="26" score="-1.9244611515">
                      <SimplePredicate field="BEH4m" operator="greaterThan" value="-0.11832822859287262"/>
                      <Node id="27" score="-2.597745283">
                        <CompoundPredicate booleanOperator="or">
                          <SimplePredicate field="ATS5p" operator="lessOrEqual" value="-0.6002969443798065"/>
                          <SimplePredicate field="ATS5p" operator="isMissing"/>
                        </CompoundPredicate>
                      </Node>
                      <Node id="28" score="-1.25117702">
                        <SimplePredicate field="ATS5p" operator="greaterThan" value="-0.6002969443798065"/>
                      </Node>
                    </Node>
                  </Node>
                </Node>
              </Node>
              <Node id="29" score="-5.27752017225">
                <SimplePredicate field="ATS5p" operator="greaterThan" value="-0.3803374767303467"/>
                <Node id="30" score="-6.957467249666667">
                  <SimplePredicate field="ATS5p" operator="lessOrEqual" value="-0.2124418243765831"/>
                  <Node id="31" score="-7.510608850000001">
                    <CompoundPredicate booleanOperator="or">
                      <SimplePredicate field="ATS5p" operator="lessOrEqual" value="-0.24190428107976913"/>
                      <SimplePredicate field="ATS5p" operator="isMissing"/>
                    </CompoundPredicate>
                    <Node id="32" score="-7.044383371">
                      <CompoundPredicate booleanOperator="or">
                        <SimplePredicate field="ALogP" operator="lessOrEqual" value="0.11455877125263214"/>
                        <SimplePredicate field="ALogP" operator="isMissing"/>
                      </CompoundPredicate>
                    </Node>
                    <Node id="33" score="-7.976834329">
                      <SimplePredicate field="ALogP" operator="greaterThan" value="0.11455877125263214"/>
                    </Node>
                  </Node>
                  <Node id="34" score="-5.851184049">
                    <SimplePredicate field="ATS5p" operator="greaterThan" value="-0.24190428107976913"/>
                  </Node>
                </Node>
                <Node id="35" score="-4.2695519258">
                  <CompoundPredicate booleanOperator="or">
                    <SimplePredicate field="ATS5p" operator="greaterThan" value="-0.2124418243765831"/>
                    <SimplePredicate field="ATS5p" operator="isMissing"/>
                  </CompoundPredicate>
                  <Node id="36" score="-4.499036161">
                    <CompoundPredicate booleanOperator="or">
                      <SimplePredicate field="ATS5p" operator="lessOrEqual" value="0.5430886447429657"/>
                      <SimplePredicate field="ATS5p" operator="isMissing"/>
                    </CompoundPredicate>
                    <Node id="37" score="-4.485357619">
                      <SimplePredicate field="ATS5p" operator="lessOrEqual" value="0.13222859799861908"/>
                    </Node>
                    <Node id="38" score="-4.505875432">
                      <CompoundPredicate booleanOperator="or">
                        <SimplePredicate field="ATS5p" operator="greaterThan" value="0.13222859799861908"/>
                        <SimplePredicate field="ATS5p" operator="isMissing"/>
                      </CompoundPredicate>
                    </Node>
                  </Node>
                  <Node id="39" score="-3.925325573">
                    <SimplePredicate field="ATS5p" operator="greaterThan" value="0.5430886447429657"/>
                  </Node>
                </Node>
              </Node>
            </Node>
            <Node id="40" score="-7.862497020266667">
              <CompoundPredicate booleanOperator="or">
                <SimplePredicate field="BEH4m" operator="greaterThan" value="0.13596615940332413"/>
                <SimplePredicate field="BEH4m" operator="isMissing"/>
              </CompoundPredicate>
              <Node id="41" score="-7.4018822720857145">
                <CompoundPredicate booleanOperator="or">
                  <SimplePredicate field="BEH4m" operator="lessOrEqual" value="0.9543317258358002"/>
                  <SimplePredicate field="BEH4m" operator="isMissing"/>
                </CompoundPredicate>
                <Node id="42" score="-6.765067551857143">
                  <CompoundPredicate booleanOperator="or">
                    <SimplePredicate field="ALogP" operator="lessOrEqual" value="0.26568594574928284"/>
                    <SimplePredicate field="ALogP" operator="isMissing"/>
                  </CompoundPredicate>
                  <Node id="43" score="-7.06422475717647">
                    <CompoundPredicate booleanOperator="or">
                      <SimplePredicate field="BEH4m" operator="lessOrEqual" value="0.5757156610488892"/>
                      <SimplePredicate field="BEH4m" operator="isMissing"/>
                    </CompoundPredicate>
                    <Node id="44" score="-7.318685406">
                      <CompoundPredicate booleanOperator="or">
                        <SimplePredicate field="X1v" operator="lessOrEqual" value="1.7612906694412231"/>
                        <SimplePredicate field="X1v" operator="isMissing"/>
                      </CompoundPredicate>
                      <Node id="45" score="-7.521971919727273">
                        <CompoundPredicate booleanOperator="or">
                          <SimplePredicate field="BEH4m" operator="lessOrEqual" value="0.38460956513881683"/>
                          <SimplePredicate field="BEH4m" operator="isMissing"/>
                        </CompoundPredicate>
                        <Node id="46" score="-6.988223778">
                          <SimplePredicate field="ATS5p" operator="lessOrEqual" value="0.08742950856685638"/>
                        </Node>
                        <Node id="47" score="-7.5753467339">
                          <CompoundPredicate booleanOperator="or">
                            <SimplePredicate field="ATS5p" operator="greaterThan" value="0.08742950856685638"/>
                            <SimplePredicate field="ATS5p" operator="isMissing"/>
                          </CompoundPredicate>
                          <Node id="48" score="-8.062929019">
                            <SimplePredicate field="X1v" operator="lessOrEqual" value="0.07415234111249447"/>
                          </Node>
                          <Node id="49" score="-7.521170924444445">
                            <CompoundPredicate booleanOperator="or">
                              <SimplePredicate field="X1v" operator="greaterThan" value="0.07415234111249447"/>
                              <SimplePredicate field="X1v" operator="isMissing"/>
                            </CompoundPredicate>
                            <Node id="50" score="-7.620822438">
                              <CompoundPredicate booleanOperator="or">
                                <SimplePredicate field="BEH4m" operator="lessOrEqual" value="0.31936635076999664"/>
                                <SimplePredicate field="BEH4m" operator="isMissing"/>
                              </CompoundPredicate>
                              <Node id="51" score="-7.736500011">
                                <SimplePredicate field="ATS5p" operator="lessOrEqual" value="0.5874841511249542"/>
                              </Node>
                              <Node id="52" score="-7.543704056">
                                <CompoundPredicate booleanOperator="or">
                                  <SimplePredicate field="ATS5p" operator="greaterThan" value="0.5874841511249542"/>
                                  <SimplePredicate field="ATS5p" operator="isMissing"/>
                                </CompoundPredicate>
                              </Node>
                            </Node>
                            <Node id="53" score="-7.396606532500001">
                              <SimplePredicate field="BEH4m" operator="greaterThan" value="0.31936635076999664"/>
                              <Node id="54" score="-7.256889607">
                                <SimplePredicate field="ATS5p" operator="lessOrEqual" value="0.6052423417568207"/>
                              </Node>
                              <Node id="55" score="-7.443178841000001">
                                <CompoundPredicate booleanOperator="or">
                                  <SimplePredicate field="ATS5p" operator="greaterThan" value="0.6052423417568207"/>
                                  <SimplePredicate field="ATS5p" operator="isMissing"/>
                                </CompoundPredicate>
                              </Node>
                            </Node>
                          </Node>
                        </Node>
                      </Node>
                      <Node id="56" score="-6.75964749325">
                        <SimplePredicate field="BEH4m" operator="greaterThan" value="0.38460956513881683"/>
                        <Node id="57" score="-7.932364453">
                          <SimplePredicate field="ALogP" operator="lessOrEqual" value="-0.4340919107198715"/>
                        </Node>
                        <Node id="58" score="-6.36874184">
                          <CompoundPredicate booleanOperator="or">
                            <SimplePredicate field="ALogP" operator="greaterThan" value="-0.4340919107198715"/>
                            <SimplePredicate field="ALogP" operator="isMissing"/>
                          </CompoundPredicate>
                          <Node id="59" score="-5.09838663">
                            <SimplePredicate field="X3sol" operator="lessOrEqual" value="0.4563498869538307"/>
                          </Node>
                          <Node id="60" score="-7.003919445">
                            <CompoundPredicate booleanOperator="or">
                              <SimplePredicate field="X3sol" operator="greaterThan" value="0.4563498869538307"/>
                              <SimplePredicate field="X3sol" operator="isMissing"/>
                            </CompoundPredicate>
                          </Node>
                        </Node>
                      </Node>
                    </Node>
                    <Node id="61" score="-5.155769891">
                      <SimplePredicate field="X1v" operator="greaterThan" value="1.7612906694412231"/>
                      <Node id="62" score="-6.870864235">
                        <CompoundPredicate booleanOperator="or">
                          <SimplePredicate field="X3sol" operator="lessOrEqual" value="0.8004231750965118"/>
                          <SimplePredicate field="X3sol" operator="isMissing"/>
                        </CompoundPredicate>
                      </Node>
                      <Node id="63" score="-3.440675547">
                        <SimplePredicate field="X3sol" operator="greaterThan" value="0.8004231750965118"/>
                      </Node>
                    </Node>
                  </Node>
                  <Node id="64" score="-5.4936494292499995">
                    <SimplePredicate field="BEH4m" operator="greaterThan" value="0.5757156610488892"/>
                    <Node id="65" score="-7.079131071">
                      <SimplePredicate field="ALogP" operator="lessOrEqual" value="-0.6556623876094818"/>
                    </Node>
                    <Node id="66" score="-4.965155548666667">
                      <CompoundPredicate booleanOperator="or">
                        <SimplePredicate field="ALogP" operator="greaterThan" value="-0.6556623876094818"/>
                        <SimplePredicate field="ALogP" operator="isMissing"/>
                      </CompoundPredicate>
                      <Node id="67" score="-4.97128382">
                        <CompoundPredicate booleanOperator="or">
                          <SimplePredicate field="ATS5p" operator="lessOrEqual" value="-0.8037090227007866"/>
                          <SimplePredicate field="ATS5p" operator="isMissing"/>
                        </CompoundPredicate>
                      </Node>
                      <Node id="68" score="-4.952899006">
                        <SimplePredicate field="ATS5p" operator="greaterThan" value="-0.8037090227007866"/>
                      </Node>
                    </Node>
                  </Node>
                </Node>
                <Node id="69" score="-8.357104352428571">
                  <SimplePredicate field="ALogP" operator="greaterThan" value="0.26568594574928284"/>
                  <Node id="70" score="-7.627214229400001">
                    <SimplePredicate field="X3sol" operator="lessOrEqual" value="0.34769514203071594"/>
                    <Node id="71" score="-6.528874152">
                      <SimplePredicate field="X1v" operator="lessOrEqual" value="0.023195818066596985"/>
                    </Node>
                    <Node id="72" score="-7.901799248750001">
                      <CompoundPredicate booleanOperator="or">
                        <SimplePredicate field="X1v" operator="greaterThan" value="0.023195818066596985"/>
                        <SimplePredicate field="X1v" operator="isMissing"/>
                      </CompoundPredicate>
                      <Node id="73" score="-7.994259203000001">
                        <CompoundPredicate booleanOperator="or">
                          <SimplePredicate field="X1v" operator="lessOrEqual" value="0.6615455746650696"/>
                          <SimplePredicate field="X1v" operator="isMissing"/>
                        </CompoundPredicate>
                      </Node>
                      <Node id="74" score="-7.624419386">
                        <SimplePredicate field="X1v" operator="greaterThan" value="0.6615455746650696"/>
                      </Node>
                    </Node>
                  </Node>
                  <Node id="75" score="-8.762598865222222">
                    <CompoundPredicate booleanOperator="or">
                      <SimplePredicate field="X3sol" operator="greaterThan" value="0.34769514203071594"/>
                      <SimplePredicate field="X3sol" operator="isMissing"/>
                    </CompoundPredicate>
                    <Node id="76" score="-7.824479698999999">
                      <SimplePredicate field="ALogP" operator="lessOrEqual" value="0.852816641330719"/>
                      <Node id="77" score="-8.292996488">
                        <CompoundPredicate booleanOperator="or">
                          <SimplePredicate field="X3sol" operator="lessOrEqual" value="0.6002074033021927"/>
                          <SimplePredicate field="X3sol" operator="isMissing"/>
                        </CompoundPredicate>
                      </Node>
                      <Node id="78" score="-7.35596291">
                        <SimplePredicate field="X3sol" operator="greaterThan" value="0.6002074033021927"/>
                      </Node>
                    </Node>
                    <Node id="79" score="-9.513094198200001">
                      <CompoundPredicate booleanOperator="or">
                        <SimplePredicate field="ALogP" operator="greaterThan" value="0.852816641330719"/>
                        <SimplePredicate field="ALogP" operator="isMissing"/>
                      </CompoundPredicate>
                      <Node id="80" score="-9.9863333935">
                        <CompoundPredicate booleanOperator="or">
                          <SimplePredicate field="BEH4m" operator="lessOrEqual" value="0.8757316470146179"/>
                          <SimplePredicate field="BEH4m" operator="isMissing"/>
                        </CompoundPredicate>
                        <Node id="81" score="-9.469570577">
                          <CompoundPredicate booleanOperator="or">
                            <SimplePredicate field="BEH4m" operator="lessOrEqual" value="0.3948840796947479"/>
                            <SimplePredicate field="BEH4m" operator="isMissing"/>
                          </CompoundPredicate>
                        </Node>
                        <Node id="82" score="-10.503096209999999">
                          <SimplePredicate field="BEH4m" operator="greaterThan" value="0.3948840796947479"/>
                          <Node id="83" score="-10.41854613">
                            <CompoundPredicate booleanOperator="or">
                              <SimplePredicate field="ALogP" operator="lessOrEqual" value="1.0802832245826721"/>
                              <SimplePredicate field="ALogP" operator="isMissing"/>
                            </CompoundPredicate>
                          </Node>
                          <Node id="84" score="-10.58764629">
                            <SimplePredicate field="ALogP" operator="greaterThan" value="1.0802832245826721"/>
                          </Node>
                        </Node>
                      </Node>
                      <Node id="85" score="-7.620137417">
                        <SimplePredicate field="BEH4m" operator="greaterThan" value="0.8757316470146179"/>
                      </Node>
                    </Node>
                  </Node>
                </Node>
              </Node>
              <Node id="86" score="-9.4746486389">
                <SimplePredicate field="BEH4m" operator="greaterThan" value="0.9543317258358002"/>
                <Node id="87" score="-8.768643502714285">
                  <CompoundPredicate booleanOperator="or">
                    <SimplePredicate field="ALogP" operator="lessOrEqual" value="1.383158266544342"/>
                    <SimplePredicate field="ALogP" operator="isMissing"/>
                  </CompoundPredicate>
                  <Node id="88" score="-8.000964983666666">
                    <SimplePredicate field="X3sol" operator="lessOrEqual" value="1.3574056029319763"/>
                    <Node id="89" score="-8.3124822895">
                      <CompoundPredicate booleanOperator="or">
                        <SimplePredicate field="ATS5p" operator="lessOrEqual" value="0.8026004731655121"/>
                        <SimplePredicate field="ATS5p" operator="isMissing"/>
                      </CompoundPredicate>
                      <Node id="90" score="-7.478961522">
                        <CompoundPredicate booleanOperator="or">
                          <SimplePredicate field="ALogP" operator="lessOrEqual" value="1.0396309792995453"/>
                          <SimplePredicate field="ALogP" operator="isMissing"/>
                        </CompoundPredicate>
                      </Node>
                      <Node id="91" score="-9.146003057">
                        <SimplePredicate field="ALogP" operator="greaterThan" value="1.0396309792995453"/>
                      </Node>
                    </Node>
                    <Node id="92" score="-7.377930372">
                      <SimplePredicate field="ATS5p" operator="greaterThan" value="0.8026004731655121"/>
                    </Node>
                  </Node>
                  <Node id="93" score="-9.344402392">
                    <CompoundPredicate booleanOperator="or">
                      <SimplePredicate field="X3sol" operator="greaterThan" value="1.3574056029319763"/>
                      <SimplePredicate field="X3sol" operator="isMissing"/>
                    </CompoundPredicate>
                  </Node>
                </Node>
                <Node id="94" score="-11.121993956666667">
                  <SimplePredicate field="ALogP" operator="greaterThan" value="1.383158266544342"/>
                  <Node id="95" score="-10.460789495">
                    <CompoundPredicate booleanOperator="or">
                      <SimplePredicate field="X1v" operator="lessOrEqual" value="1.4266895055770874"/>
                      <SimplePredicate field="X1v" operator="isMissing"/>
                    </CompoundPredicate>
                    <Node id="96" score="-10.39901162">
                      <CompoundPredicate booleanOperator="or">
                        <SimplePredicate field="ATS5p" operator="lessOrEqual" value="0.6407587588764727"/>
                        <SimplePredicate field="ATS5p" operator="isMissing"/>
                      </CompoundPredicate>
                    </Node>
                    <Node id="97" score="-10.52256737">
                      <SimplePredicate field="ATS5p" operator="greaterThan" value="0.6407587588764727"/>
                    </Node>
                  </Node>
                  <Node id="98" score="-12.44440288">
                    <SimplePredicate field="X1v" operator="greaterThan" value="1.4266895055770874"/>
                  </Node>
                </Node>
              </Node>
            </Node>
          </Node>
        </TreeModel>
      </Segment>
      <Segment>
        <True/>
        <TreeModel functionName="regression" missingValueStrategy="none" modelName="DecisionTree" noTrueChildStrategy="returnLastPrediction" splitCharacteristic="binarySplit">
          <MiningSchema>
            <MiningField invalidValueTreatment="asIs" name="ATS5p"/>
            <MiningField invalidValueTreatment="asIs" name="ALogP"/>
            <MiningField invalidValueTreatment="asIs" name="X3sol"/>
            <MiningField invalidValueTreatment="asIs" name="X1v"/>
            <MiningField invalidValueTreatment="asIs" name="BEH4m"/>
            <MiningField invalidValueTreatment="asIs" name="Exp" usageType="target"/>
          </MiningSchema>
          <Node id="0" score="-6.401738481520001">
            <True/>
            <Node id="1" score="-3.971795810166667">
              <SimplePredicate field="X3sol" operator="lessOrEqual" value="-0.4841397702693939"/>
              <Node id="2" score="-6.3466089299999995">
                <SimplePredicate field="X3sol" operator="lessOrEqual" value="-1.396704077720642"/>
                <Node id="3" score="-7.63108908">
                  <CompoundPredicate booleanOperator="or">
                    <SimplePredicate field="X1v" operator="lessOrEqual" value="-1.243153154850006"/>
                    <SimplePredicate field="X1v" operator="isMissing"/>
                  </CompoundPredicate>
                </Node>
                <Node id="4" score="-4.419888705">
                  <SimplePredicate field="X1v" operator="greaterThan" value="-1.243153154850006"/>
                  <Node id="5" score="-3.742613556">
                    <CompoundPredicate booleanOperator="or">
                      <SimplePredicate field="BEH4m" operator="lessOrEqual" value="-2.1927539110183716"/>
                      <SimplePredicate field="BEH4m" operator="isMissing"/>
                    </CompoundPredicate>
                  </Node>
                  <Node id="6" score="-5.097163854">
                    <SimplePredicate field="BEH4m" operator="greaterThan" value="-2.1927539110183716"/>
                  </Node>
                </Node>
              </Node>
              <Node id="7" score="-3.346844989157894">
                <CompoundPredicate booleanOperator="or">
                  <SimplePredicate field="X3sol" operator="greaterThan" value="-1.396704077720642"/>
                  <SimplePredicate field="X3sol" operator="isMissing"/>
                </CompoundPredicate>
                <Node id="8" score="-2.7083677828125">
                  <CompoundPredicate booleanOperator="or">
                    <SimplePredicate field="X1v" operator="lessOrEqual" value="-0.44357380270957947"/>
                    <SimplePredicate field="X1v" operator="isMissing"/>
                  </CompoundPredicate>
                  <Node id="9" score="-1.0184790695">
                    <SimplePredicate field="BEH4m" operator="lessOrEqual" value="-0.855011373758316"/>
                    <Node id="10" score="-2.173174521">
                      <SimplePredicate field="X3sol" operator="lessOrEqual" value="-1.3567624688148499"/>
                    </Node>
                    <Node id="11" score="-0.7875399792">
                      <CompoundPredicate booleanOperator="or">
                        <SimplePredicate field="X3sol" operator="greaterThan" value="-1.3567624688148499"/>
                        <SimplePredicate field="X3sol" operator="isMissing"/>
                      </CompoundPredicate>
                      <Node id="12" score="0.320584683">
                        <SimplePredicate field="BEH4m" operator="lessOrEqual" value="-1.137046992778778"/>
                        <Node id="13" score="0.519249489">
                          <CompoundPredicate booleanOperator="or">
                            <SimplePredicate field="ALogP" operator="lessOrEqual" value="-0.9299876987934113"/>
                            <SimplePredicate field="ALogP" operator="isMissing"/>
                          </CompoundPredicate>
                        </Node>
                        <Node id="14" score="0.121919877">
                          <SimplePredicate field="ALogP" operator="greaterThan" value="-0.9299876987934113"/>
                        </Node>
                      </Node>
                      <Node id="15" score="-1.5262897539999998">
                        <CompoundPredicate booleanOperator="or">
                          <SimplePredicate field="BEH4m" operator="greaterThan" value="-1.137046992778778"/>
                          <SimplePredicate field="BEH4m" operator="isMissing"/>
                        </CompoundPredicate>
                      </Node>
                    </Node>
                  </Node>
                  <Node id="16" score="-3.7223010108000003">
                    <CompoundPredicate booleanOperator="or">
                      <SimplePredicate field="BEH4m" operator="greaterThan" value="-0.855011373758316"/>
                      <SimplePredicate field="BEH4m" operator="isMissing"/>
                    </CompoundPredicate>
                    <Node id="17" score="-4.588987255">
                      <CompoundPredicate booleanOperator="or">
                        <SimplePredicate field="BEH4m" operator="lessOrEqual" value="-0.11832822859287262"/>
                        <SimplePredicate field="BEH4m" operator="isMissing"/>
                      </CompoundPredicate>
                      <Node id="18" score="-4.9219623725999995">
                        <CompoundPredicate booleanOperator="or">
                          <SimplePredicate field="ATS5p" operator="lessOrEqual" value="-1.234345257282257"/>
                          <SimplePredicate field="ATS5p" operator="isMissing"/>
                        </CompoundPredicate>
                        <Node id="19" score="-5.1462794915">
                          <CompoundPredicate booleanOperator="or">
                            <SimplePredicate field="ALogP" operator="lessOrEqual" value="-0.16473174840211868"/>
                            <SimplePredicate field="ALogP" operator="isMissing"/>
                          </CompoundPredicate>
                          <Node id="20" score="-5.489905435">
                            <CompoundPredicate booleanOperator="or">
                              <SimplePredicate field="X1v" operator="lessOrEqual" value="-0.9013862311840057"/>
                              <SimplePredicate field="X1v" operator="isMissing"/>
                            </CompoundPredicate>
                            <Node id="21" score="-5.273731898">
                              <CompoundPredicate booleanOperator="or">
                                <SimplePredicate field="X1v" operator="lessOrEqual" value="-1.0532605051994324"/>
                                <SimplePredicate field="X1v" operator="isMissing"/>
                              </CompoundPredicate>
                            </Node>
                            <Node id="22" score="-5.922252509">
                              <SimplePredicate field="X1v" operator="greaterThan" value="-1.0532605051994324"/>
                            </Node>
                          </Node>
                          <Node id="23" score="-4.115401661">
                            <SimplePredicate field="X1v" operator="greaterThan" value="-0.9013862311840057"/>
                          </Node>
                        </Node>
                        <Node id="24" score="-4.024693897">
                          <SimplePredicate field="ALogP" operator="greaterThan" value="-0.16473174840211868"/>
                        </Node>
                      </Node>
                      <Node id="25" score="-3.7565494609999996">
                        <SimplePredicate field="ATS5p" operator="greaterThan" value="-1.234345257282257"/>
                        <Node id="26" score="-3.276794856">
                          <CompoundPredicate booleanOperator="or">
                            <SimplePredicate field="ALogP" operator="lessOrEqual" value="-0.5333952158689499"/>
                            <SimplePredicate field="ALogP" operator="isMissing"/>
                          </CompoundPredicate>
                        </Node>
                        <Node id="27" score="-4.236304066">
                          <SimplePredicate field="ALogP" operator="greaterThan" value="-0.5333952158689499"/>
                        </Node>
                      </Node>
                    </Node>
                    <Node id="28" score="-1.7000331076666666">
                      <SimplePredicate field="BEH4m" operator="greaterThan" value="-0.11832822859287262"/>
                      <Node id="29" score="-2.597745283">
                        <SimplePredicate field="ATS5p" operator="lessOrEqual" value="-0.6002969443798065"/>
                      </Node>
                      <Node id="30" score="-1.25117702">
                        <CompoundPredicate booleanOperator="or">
                          <SimplePredicate field="ATS5p" operator="greaterThan" value="-0.6002969443798065"/>
                          <SimplePredicate field="ATS5p" operator="isMissing"/>
                        </CompoundPredicate>
                      </Node>
                    </Node>
                  </Node>
                </Node>
                <Node id="31" score="-6.752056756333333">
                  <SimplePredicate field="X1v" operator="greaterThan" value="-0.44357380270957947"/>
                  <Node id="32" score="-5.133278109">
                    <SimplePredicate field="X1v" operator="lessOrEqual" value="-0.2817470580339432"/>
                  </Node>
                  <Node id="33" score="-7.56144608">
                    <CompoundPredicate booleanOperator="or">
                      <SimplePredicate field="X1v" operator="greaterThan" value="-0.2817470580339432"/>
                      <SimplePredicate field="X1v" operator="isMissing"/>
                    </CompoundPredicate>
                  </Node>
                </Node>
              </Node>
            </Node>
            <Node id="34" score="-7.54524091509804">
              <CompoundPredicate booleanOperator="or">
                <SimplePredicate field="X3sol" operator="greaterThan" value="-0.4841397702693939"/>
                <SimplePredicate field="X3sol" operator="isMissing"/>
              </CompoundPredicate>
              <Node id="35" score="-6.664731233933333">
                <SimplePredicate field="X3sol" operator="lessOrEqual" value="0.1224312074482441"/>
                <Node id="36" score="-7.4072762198">
