43	43	29	3	0	0
1.436628	-0.240408	-0.230244	2.517954	0.845278	-2.112889	0.866512	5.338911	-0.686578	1.624748	-0.851654	0.755193	-0.144902	-0.273596	-0.422607	-0.342549	1.331919	-0.181722	-0.041008	-0.313913	-0.15324	2.497818	0.775415	-0.078027	-0.078299	-0.108422	0.669028	0.256248	0.074724	40	40	40	40	40
1.443697	-0.240408	-0.230244	2.519501	0.852947	-2.058637	-0.083698	5.339018	-0.739629	1.549517	-0.217066	1.342249	-0.341647	-0.273596	-0.422607	-0.342549	1.288427	-0.181722	-0.041008	-0.313913	-0.15324	2.503628	0.869986	-0.078027	-0.078299	-0.108422	0.684657	0.315343	0	40	40	40	40	40
0.809441	-0.240408	-0.230244	2.427623	0.623039	-1.069578	0.373108	2.933554	0.507812	1.769526	0.011909	2.744177	-0.341646	-0.273596	-0.422607	-0.342547	-0.124168	-0.181722	-0.041008	2.933072	-0.15324	3.079967	0.353857	-0.078027	-0.078299	-0.108422	2E-06	0.999998	0	40	40	40	40	40
0.65492	-0.240408	-0.230244	3.173811	1.011598	-0.030657	-0.191666	4.133577	0.354074	0.945995	1.188383	2.975596	0.816188	-0.273596	-0.422607	1.051069	2.774814	-0.181722	-0.041008	1.850743	-0.15324	5.248548	1.137627	-0.078027	-0.078299	-0.108422	0	1	0	40	40	40	40	40
0.459104	-0.240408	-0.230244	3.75825	0.632555	-2.218052	0.422064	5.545212	0.314133	1.022588	2.437787	5.345813	-0.341647	-0.273596	-0.422607	4.676304	-0.248526	-0.181722	-0.041008	-0.313913	-0.15324	6.896957	1.137628	-0.078027	-0.078299	-0.108422	0	1	0	40	40	40	40	40
0.3328	-0.240408	-0.230244	3.324948	0.178847	-1.61922	0.124694	4.589463	0.304853	0.703766	2.295011	4.681413	-0.083643	-0.273596	0.080943	4.599893	-0.288807	-0.181722	-0.041008	-0.31391	-0.15324	5.501178	2.258592	-0.078027	-0.078299	-0.108422	3E-06	0.999996	1E-06	40	40	40	40	40
-0.152008	-0.240408	-0.230244	2.271327	-1.416911	0.256424	-0.853266	2.377792	0.261831	-0.309894	2.493945	3.233662	0.816197	-0.273596	1.837201	5.23187	-0.432582	-0.181722	-0.041008	-0.313913	-0.15324	2.212536	6.493419	-0.078027	-0.078299	-0.108422	0	0.999999	1E-06	40	40	40	40	40
0.280577	-0.240408	-0.230244	2.640351	-0.348368	-0.270914	-0.157244	3.208947	0.59539	-0.097884	3.025861	4.301391	1.974035	-0.273596	1.837201	6.625469	-0.432582	-0.181722	-0.041008	-0.313913	-0.15324	3.079965	7.225103	-0.078027	-0.078299	-0.108422	0	0.601258	0.398742	40	40	40	40	40
0.311546	-0.240408	-0.230244	2.427622	-0.542648	-0.454419	-0.498262	2.65506	0.892168	0.291283	5.54793	6.567611	-0.341642	-0.273591	1.837198	6.625467	-0.432581	-0.181722	-0.041008	-0.31391	-0.15324	2.863107	6.75467	-0.078027	-0.078299	-0.108422	1E-06	0.999998	2E-06	40	40	40	40	40
-0.255019	-0.240408	-0.230244	2.916675	0.283043	1.14498	0.066516	3.338375	0.484756	0.237754	5.771758	9.087182	-0.341647	4.952508	-0.422602	6.625465	-0.432581	-0.181722	-0.041008	2.933073	-0.15324	1.887249	3.619584	-0.078027	-0.078299	-0.108422	1E-06	2E-06	0.999997	40	40	40	40	40
0.576403	-0.240408	-0.230244	1.433122	-0.448562	0.557282	0.187752	1.757593	0.58298	-0.145348	4.901654	7.144298	-0.341647	0.890924	-0.422597	3.750543	-0.23314	-0.181722	-0.041008	1.691686	-0.15324	0.712157	3.049269	-0.078027	-0.078299	-0.108422	0.184893	0	0.815107	40	40	40	40	40
0.613738	-0.240408	-0.230244	0.80696	-0.551855	0.541802	-0.030409	0.982806	0.571071	-0.009305	4.431032	6.996969	-0.341647	-0.273596	-0.422607	3.000277	-0.432582	-0.181722	-0.041008	1.850751	-0.15324	-0.238103	2.913498	-0.078027	-0.078299	-0.108422	0	0	1	40	40	40	40	40
0.92962	-0.240408	-0.230244	0.219311	-0.445508	0.652859	0.034243	0.368653	0.830672	-0.256365	2.142765	5.136443	-0.341647	-0.273596	-0.422607	2.444659	-0.432581	-0.181722	-0.041008	2.933078	-0.15324	-0.606618	1.790775	-0.078027	-0.078299	-0.108422	0	0	1	40	40	40	40	40
1.066971	-0.240408	-0.230244	0.146203	-0.299796	0.77589	1.712436	0.212782	1.414886	-0.276954	1.109593	3.570309	-0.341647	-0.273596	-0.422607	2.444655	0.457595	-0.181722	-0.041008	2.933077	-0.15324	-0.60662	1.398884	-0.078027	-0.078299	-0.108422	0	2E-06	0.999998	40	40	40	40	40
1.427512	-0.240408	-0.230244	-0.254619	-0.008374	0.885249	-0.998493	0.272516	0.1619	0.097752	1.367951	2.230272	-0.341647	-0.273596	-0.422607	1.051056	-0.432581	-0.181722	-0.041008	1.850744	-0.15324	-0.823476	0.615111	-0.078027	-0.078299	-0.108422	2E-06	0.999995	3E-06	40	40	40	40	40
1.066969	-0.240408	-0.230244	0.796594	0.914457	-0.632127	-0.449854	0.316722	0.600059	0.093638	-0.155787	1.672791	-0.341647	-0.273596	-0.422607	1.051052	-0.432582	-0.181722	-0.041008	-0.31391	-0.15324	0.152383	0.223224	-0.078027	-0.078299	-0.108422	1E-06	4E-06	0.999995	40	40	40	40	40
0.139863	-0.240408	-0.230244	1.313378	0.768747	0.283766	-0.191669	1.006969	0.108089	1.464814	0.910455	0.7438	-0.341647	-0.273596	-0.422607	1.051048	-0.432582	-0.181722	-0.041008	-0.313912	-0.15324	0.911385	-0.429918	-0.078027	-0.078299	-0.108422	0	0.999999	0	40	40	40	40	40
0.637862	-0.240408	-0.230244	1.139375	0.428757	0.480249	-0.217612	0.967254	0.186565	0.129449	1.637386	1.492725	-0.341647	-0.273596	-0.422607	-0.342549	-0.432582	-0.181722	-0.041008	0.768419	-0.15324	1.236673	-0.064493	-0.078027	-0.078299	-0.108422	0	1	0	40	40	40	40	40
1.685039	-0.240408	-0.230244	0.910038	0.040198	0.256426	1.260618	1.090911	0.600058	-1.429892	0.735751	1.514653	-0.341647	-0.273596	-0.422607	-0.342549	-0.432582	-0.181722	-0.041008	1.850748	-0.15324	1.019816	0.353853	-0.078027	-0.078299	-0.108422	0	4E-06	0.999996	40	40	40	40	40
1.032626	-0.240408	-0.230244	1.169687	0.96303	-0.331379	1.793119	1.240664	0.254145	1.440115	-0.833845	1.900098	-0.341647	-0.273596	-0.422607	-0.342549	-0.09556	-0.181722	-0.041008	2.933073	-0.15324	0.911383	-0.168659	-0.078027	-0.078299	-0.108422	0	0.999999	1E-06	40	40	40	40	40
0.559123	-0.240408	-0.230244	0.547651	0.374052	-0.307559	0.459403	0.479295	-0.033653	1.684442	1.202388	0.689907	-0.341647	-0.273596	-0.422607	-0.342549	-0.395286	-0.181722	-0.041008	2.496587	-0.15324	0.624039	-0.159782	-0.078027	-0.078299	-0.108422	0	0.806265	0.193735	40	40	40	40	40
0.650225	-0.240408	-0.230244	0.445479	-0.170964	-1.142972	-0.320795	0.340567	-0.10506	1.691229	1.812712	0.324441	-0.341647	-0.273596	-0.422607	-0.342549	-0.432582	-0.181722	-0.041008	2.933083	-0.15324	0.952342	-0.3678	-0.078027	-0.078299	-0.108422	0	1	0	40	40	40	40	40
-1.405318	-0.240408	-0.230244	0.854575	-0.494078	-0.946542	0.502199	0.003183	0.331012	-0.363418	2.210905	-0.767076	-0.341647	-0.273596	-0.422607	-0.342549	-0.432581	-0.181722	-0.041008	2.933086	-0.15324	0.911384	-0.952433	-0.078027	-0.078299	-0.108422	0	5E-06	0.999995	40	40	40	40	40
-0.504343	-0.240408	-0.230244	0.870027	-0.525217	0.876851	-0.559754	0.132078	0.377339	0.093621	0.554869	0.897366	-0.341647	-0.273596	-0.422607	-0.342549	-0.007378	-0.181722	-0.041008	4.015415	-0.15324	0.565563	-0.037167	-0.078027	-0.078299	-0.108422	0	1	0	40	40	40	40	40
1.444676	-0.240407	-0.230244	0.292415	-0.299798	0.051375	0.066515	0.434917	-0.453065	1.048933	-0.326388	-0.669458	-0.341647	-0.273596	-0.422607	-0.342549	-0.432581	-0.181722	-0.041008	5.097747	-0.15324	0.152383	-0.560549	-0.078027	-0.078299	-0.108422	0	1	0	40	40	40	40	40
0.448897	-0.240407	-0.230244	0.073097	0.040192	0.160734	0.098788	-0.073429	0.008158	0.328343	-0.83385	0.724639	-0.341647	-0.273596	-0.422607	-0.342549	-0.432582	-0.181722	-0.041008	7.262411	-0.15324	0.260812	-0.691177	-0.078027	-0.078299	-0.108422	0	1	0	40	40	40	40	40
0.071186	-0.240407	-0.230244	0.738614	-0.63979	-0.39974	0.276288	0.270345	0.438632	0.707166	-0.495537	0.540897	-0.341647	-0.273596	-0.422607	-0.342549	-0.432582	-0.181722	-0.041008	9.427067	-0.15324	0.47767	-0.560549	-0.078027	-0.078299	-0.108422	0	1	0	40	40	40	40	40
-0.134838	-0.240408	-0.230244	0.910035	-0.73693	-0.823512	-1.014631	0.1199	-0.453065	-0.594014	0.688568	0.320084	-0.341647	-0.273596	-0.422607	-0.342549	-0.432582	-0.181722	-0.041008	8.344742	-0.15324	1.236669	-0.42992	-0.078027	-0.078299	-0.108422	0	1	0	40	40	40	40	40
0.308539	-0.240373	-0.230244	0.295384	-0.571518	-1.533195	-0.960063	0.126847	-0.730372	-1.150125	0.866903	1.105146	-0.34162	-0.273596	-0.422607	-0.342549	-0.432582	-0.181722	9.681197	4.546955	-0.15324	-0.133299	-0.258526	-0.078027	-0.078299	-0.108422	0	0.60211	0.39789	40	40	40	40	40
-0.031826	-0.240408	-0.230244	-0.34285	0.040194	-2.600624	-1.014629	-0.234271	-1.314015	-1.4999	2.542453	2.927898	-0.341647	-0.273596	-0.422607	-0.342549	-0.432582	-0.181722	24.372127	-0.313896	-0.15324	-1.582473	-0.429921	-0.078027	-0.078299	-0.108422	0	2E-06	0.999998	40	40	40	40	40
0.905494	-0.240408	-0.230244	0.442352	-0.173452	-0.134825	0.503997	0.451278	0.281424	-0.963205	0.011908	-0.50349	-0.341647	-0.273596	-0.422607	-0.342549	-0.432582	-0.181722	24.372127	5.317044	-0.15324	0.717915	-0.743259	-0.078027	-0.078299	-0.108422	0	0.601308	0.398692	40	40	40	40	40
0.493524	-0.240408	-0.230244	0.123784	-1.355735	0.930309	0.614622	0.134014	0.769861	0.050457	0.996405	0.932653	-0.226701	-0.273596	-0.422607	-0.342549	1.268465	-0.181722	6.408498	1.142358	4.75856	0.440521	0.131818	-0.078027	-0.078299	1.248633	0	0.318414	0.681586	40	40	40	40	40
0.434627	-0.240408	-0.230244	-0.005052	-1.805477	1.35271	0.649799	-0.031665	1.008705	0.526504	1.513132	1.582965	-0.341647	-0.273596	-0.422607	-0.342549	1.987891	-0.181722	-0.041008	-0.313913	6.522051	0.36394	0.366626	-0.078027	-0.078299	1.73579	0	0.315318	0.684682	40	40	40	40	40
-0.0207	0.431338	0.14955	-0.084521	-0.987443	0.941368	0.286698	-0.144424	0.865513	-0.073452	0.540808	0.573533	-0.258694	-0.273596	-0.422607	-0.342549	0.928825	-0.181722	-0.041008	-0.313913	6.522051	-0.011285	-0.045984	-0.078027	-0.078299	1.735792	0.182215	0.125443	0.692342	40	40	40	40	40
-0.539495	2.105871	1.023014	-0.393056	0.116726	0.502838	-0.15826	-0.403448	1.149072	-0.108208	-0.765316	-0.655663	-0.341647	-0.273596	-0.422607	-0.342549	-0.218323	-0.181722	-0.041008	-0.313913	6.522051	-0.605926	-0.769723	-0.078027	-0.078299	1.73579	0.60128	0	0.39872	40	40	40	40	40
-0.652356	0.483372	0.205977	-0.170431	-0.358235	0.50422	-0.310147	-0.320598	-0.004098	-0.681363	-0.819473	-0.183285	-0.341647	-0.273596	0.879569	0.460492	-0.020785	1.424298	-0.041008	-0.064649	6.522051	-0.534844	-0.555691	-0.078027	-0.078299	3.438976	0.209287	0.312601	0.478112	40	40	40	40	40
-0.842862	-0.240408	-0.230244	-0.082063	-0.638648	0.466218	-0.384444	-0.28732	-0.546311	-0.796528	-0.897147	0.266107	-0.341647	-0.273596	1.837201	1.051055	0.174818	2.90928	-0.041008	0.138119	6.522051	-0.547811	-0.42992	-0.078027	-0.078299	5.120461	0	0.539414	0.460586	40	40	40	40	40
-1.632307	-0.240408	-0.230244	0.18598	-0.246595	0.950329	-0.649446	-0.376947	-0.272975	-0.304885	-0.69754	-0.090823	-0.341647	-0.273596	0.229337	0.081572	-0.255826	0.651011	-0.041008	-0.182381	6.522051	-0.189912	-0.439132	-0.078027	-0.078299	3.683438	0	0.866454	0.133546	40	40	40	40	40
-1.521563	-0.240408	-0.230244	0.091529	-0.217973	1.2201	-0.839017	-0.512856	0.709475	0.505258	-0.595809	-0.204354	-0.341647	-0.273596	-0.422607	0.320269	-0.432582	-0.181722	-0.041008	-0.313913	6.522051	-0.138713	-0.42992	-0.078027	-0.078299	3.580003	0	1	0	40	40	40	40	40
-1.638374	-0.240408	-0.230244	0.31859	-0.063107	0.710419	-0.745803	-0.346741	-0.095927	-0.201855	-0.601316	-0.313371	0.011382	-0.273596	-0.32933	-0.252171	-0.410911	-0.181722	-0.041008	-0.269238	6.522051	-0.016815	-0.39953	-0.078027	-0.078299	4.619226	0.152452	0.847548	0	40	40	40	40	40
-2.220536	-0.240408	-0.230244	0.286822	-0.67696	1.180457	-0.332435	-0.315798	-0.506705	-1.031851	-1.001921	-0.428722	-0.341647	-0.273596	0.478411	0.213101	-0.223245	-0.181722	-0.041008	0.117629	6.522051	-0.150939	-0.42992	-0.078027	-0.078299	9.112642	0	1	0	40	40	40	40	40
-2.418274	-0.240408	-0.230244	-0.168907	0.574465	0.871577	-0.853268	-0.545586	0.538562	-0.165778	0.563171	0.259375	-0.341641	-0.273595	-0.422606	1.051049	-0.432582	-0.181722	-0.041008	-0.313911	6.522051	-0.715044	-0.429919	-0.078027	-0.078299	10.956861	2E-06	2E-06	0.999995	40	40	40	40	40
-0.641151	-0.240408	-0.230244	0.591579	0.185588	-0.168688	-0.895455	0.524382	-0.14835	0.011257	-0.60506	-0.542726	1.974035	0.768214	-0.422607	-0.342549	-0.432582	-0.181722	-0.041008	-0.313913	6.522051	0.108445	0.040515	-0.078027	-0.078299	22.022131	0.601306	0.398694	0	40	40	40	40	40
1.285943	-0.240408	-0.230244	2.54916	0.676398	-1.726978	0.057322	5.031342	-0.426935	1.559596	-0.760507	0.680117	0.119121	-0.273596	-0.422607	-0.29673	0.707758	-0.181722	-0.041008	-0.313913	-0.15324	2.612383	0.964443	-0.078027	-0.078299	-0.108422	0.682427	0.141169	0.176404	40	40	40	40	40
1.254205	-0.240408	-0.230244	2.543638	0.67155	-1.689269	0.067966	4.920683	-0.383449	1.560725	-0.698263	0.81213	0.076249	-0.273596	-0.422607	-0.30511	0.659293	-0.065393	-0.041008	-0.161196	-0.15324	2.640282	0.934897	-0.078027	-0.078299	-0.108422	0.602583	0.186058	0.211359	40	40	40	40	40
1.044637	-0.240408	-0.230244	2.680298	0.729331	-1.255361	-0.154734	4.572655	-0.161218	1.415681	0.123941	1.73527	0.095567	-0.273596	-0.422607	-0.036509	1.062627	0.268968	-0.041008	0.568776	-0.15324	3.301187	0.93026	-0.078027	-0.078299	-0.108422	0.357951	0.496242	0.145807	40	40	40	40	40
0.622121	-0.240408	-0.230244	3.163722	0.599638	-1.322391	0.086157	4.591428	0.286705	1.190845	1.188089	3.327938	0.089833	-0.273596	-0.422607	2.016146	0.269943	0.361505	-0.041008	0.487843	-0.15324	5.003959	1.033839	-0.078027	-0.078299	-0.108422	0.086362	0.737893	0.175745	40	40	40	40	40
0.500402	-0.240408	-0.230244	3.219187	0.623038	-1.985473	0.42152	4.207385	0.331013	0.904819	1.596615	4.344053	-0.341645	-0.273596	-0.422607	3.838257	-0.244574	-0.181722	-0.041008	-0.31391	-0.15324	5.031691	0.745743	-0.078027	-0.078299	-0.108422	1E-06	0.999999	0	40	40	40	40	40
0.482979	-0.240408	-0.230244	3.098284	0.166861	-1.366091	0.599894	4.400194	0.394222	0.728861	2.274751	4.40014	0.036048	-0.273596	0.013965	4.683953	-0.307933	-0.181722	-0.041008	-0.313912	-0.15324	4.919497	2.42225	-0.078027	-0.078299	-0.108422	0.133016	0.866984	0	40	40	40	40	40
0.383078	-0.240408	-0.230244	2.352894	-0.554504	-0.028023	0.372743	2.978532	0.576549	0.030103	2.716812	3.690658	1.448996	-0.273596	1.419353	5.993512	-0.432578	-0.181722	-0.041008	-0.31391	-0.15324	2.48615	6.337124	-0.078027	-0.078299	-0.108422	0.184895	0.592249	0.222856	40	40	40	40	40
0.42917	-0.240408	-0.230244	2.266793	-0.683815	-0.108583	0.213474	2.698253	0.619051	-0.042321	3.217145	4.065653	1.080378	-0.273596	1.219388	5.70974	-0.297609	-0.181722	-0.041008	-0.313913	-0.15324	2.502973	5.986075	-0.078027	-0.078299	-0.108422	0.09939	0.780818	0.119792	40	40	40	40	40
0.467881	-0.240408	-0.230244	2.344242	-0.501736	-0.041445	0.15796	2.736768	0.664105	-0.139265	4.12148	5.274563	0.763834	0.480871	0.812452	5.625431	-0.162699	-0.181722	-0.041008	0.154839	-0.15324	2.589957	5.393742	-0.078027	-0.078299	-0.108422	0.099386	0.636462	0.264153	40	40	40	40	40
1.461842	-0.240408	-0.230244	1.620933	-0.93121	0.037706	1.018566	2.291014	0.769176	-1.042835	5.35952	5.234029	-0.341646	-0.273592	-0.422599	2.444667	0.646091	-0.181722	-0.041008	-0.31391	-0.15324	2.320959	2.705184	-0.078027	-0.078299	-0.108422	0.999995	2E-06	3E-06	40	40	40	40	40
0.012747	-0.240408	-0.230244	1.348313	-0.515285	0.620295	-0.312457	1.139085	0.692624	-0.122949	4.455659	6.012859	-0.341647	0.423413	0.562623	3.226267	-0.286683	-0.181722	-0.041008	0.886455	-0.15324	0.674461	3.401445	-0.078027	-0.078299	-0.108422	0.076177	0	0.923823	40	40	40	40	40
0.064282	-0.240408	-0.230244	0.936418	-0.586168	0.597289	-0.426871	0.615363	0.736253	-0.118431	3.857217	5.506724	-0.341647	-0.273596	0.643861	2.687143	-0.3636	-0.181722	-0.041008	0.985437	-0.15324	0.178656	3.194835	-0.078027	-0.078299	-0.108422	0	0	1	40	40	40	40	40
0.744445	-0.240408	-0.230244	0.526585	-0.312518	0.560258	0.256585	0.665852	0.643622	-0.272092	3.302076	5.306591	-0.341647	-0.273596	-0.422607	2.201857	-0.344113	-0.181722	-0.041008	1.574841	-0.15324	-0.352852	1.92959	-0.078027	-0.078299	-0.108422	0	0.119786	0.880214	40	40	40	40	40
1.479016	-0.240408	-0.230244	0.738611	0.623033	0.160738	-0.110986	1.029321	0.300265	-1.508131	3.213318	4.077729	-0.341647	-0.273596	-0.422607	1.051056	-0.43258	-0.181722	-0.041008	-0.313905	-0.15324	-0.498191	0.0926	-0.078027	-0.078299	-0.108422	0	2E-06	0.999998	40	40	40	40	40
0.785346	-0.240408	-0.230244	0.057495	-0.002751	0.636161	-0.372053	0.230961	0.242085	-0.327471	1.330472	2.143533	-0.341647	-0.273596	-0.422607	0.913697	-0.217011	-0.181722	-0.041008	0.354486	-0.15324	-0.465739	0.489776	-0.078027	-0.078299	-0.108422	0.15119	0.291256	0.557554	40	40	40	40	40
1.16998	-0.240408	-0.230244	-0.254618	-0.008375	0.9536	-0.804857	0.341773	0.407882	0.167754	0.606109	1.514653	-0.341647	-0.273596	-0.422607	1.051052	-0.432581	-0.181722	-0.041008	-0.31391	-0.15324	-0.823473	0.353853	-0.078027	-0.078299	-0.108422	0.999995	3E-06	2E-06	40	40	40	40	40
0.874532	-0.240408	-0.230244	0.715495	0.438291	0.264729	-0.230576	0.618655	0.280316	0.319249	1.82468	1.860295	-0.341647	-0.273596	-0.422607	-0.342549	-0.432582	-0.181722	-0.041008	-0.313913	-0.15324	0.694528	-0.011585	-0.078027	-0.078299	-0.108422	0	1	0	40	40	40	40	40
0.644988	-0.240408	-0.230244	0.890623	0.574357	0.404963	0.151643	0.791846	0.163106	0.267277	1.058382	1.575895	-0.341647	-0.125539	-0.422607	-0.227856	-0.432582	-0.181722	-0.041008	0.237012	-0.15324	0.770169	0.02082	-0.078027	-0.078299	-0.108422	0	0.832525	0.167475	40	40	40	40	40
0.15703	-0.240408	-0.230244	1.492364	1.40016	-0.016975	0.841071	1.392305	-0.268576	0.711285	-0.157238	2.101858	-0.341647	-0.273594	-0.422607	-0.342549	-0.432582	-0.181722	-0.041008	0.768421	-0.15324	1.236672	0.484481	-0.078027	-0.078299	-0.108422	0	0.999999	1E-06	40	40	40	40	40
0.311551	-0.240408	-0.230244	0.796598	1.060166	0.912581	0.760396	0.545797	0.546241	1.563627	-0.15723	1.257662	-0.341647	-0.273591	-0.422607	-0.342549	-0.432581	-0.181722	-0.041008	1.850744	-0.15324	0.5861	0.092598	-0.078027	-0.078299	-0.108422	0	0.999992	8E-06	40	40	40	40	40
0.311546	-0.240408	-0.230244	0.428544	0.817319	0.66653	1.083119	0.409814	-0.153272	1.765411	1.295524	0.694977	-0.341647	-0.273596	-0.422607	-0.342549	-0.432582	-0.181722	-0.041008	1.850751	-0.15324	0.043954	0.092596	-0.078027	-0.078299	-0.108422	0	0.398707	0.601293	40	40	40	40	40
0.268638	-0.240408	-0.230244	0.404633	0.201693	-0.290601	0.549338	0.221364	0.290644	1.288665	1.167889	0.414065	-0.341647	-0.273596	-0.422607	-0.342549	-0.432582	-0.181722	-0.041008	2.393975	-0.15324	0.364397	-0.305555	-0.078027	-0.078299	-0.108422	0	0.75833	0.24167	40	40	40	40	40
0.111096	-0.240408	-0.230244	0.283399	-0.048724	-0.175943	0.160878	0.001274	0.512441	0.598139	0.801346	0.453028	-0.341647	-0.273596	-0.422607	-0.342549	-0.39519	-0.181722	-0.041008	3.023794	-0.15324	0.245234	-0.446976	-0.078027	-0.078299	-0.108422	0	0.969795	0.030205	40	40	40	40	40
-0.804416	-0.240408	-0.230244	-0.168908	-0.445507	0.926259	0.211744	-0.616459	0.69999	-0.042247	-0.495534	0.038722	-0.341647	-0.273596	-0.422607	-0.342549	-0.432582	-0.181722	-0.041008	4.015413	-0.15324	-0.498188	-0.821805	-0.078027	-0.078299	-0.108422	0	1	0	40	40	40	40	40
0.243898	-0.100933	-0.230244	0.124314	-0.240295	0.345028	-0.273962	-0.122672	0.296766	-0.049577	0.152335	0.320073	-0.272819	-0.273596	-0.422607	-0.342549	-0.371522	-0.181722	-0.041008	4.719743	-0.15324	0.017422	-0.498127	-0.078027	-0.078299	-0.108422	0	1	0	40	40	40	40	40
0.448897	2.105862	-0.230244	0.146203	-1.174059	-1.110582	-0.837127	-0.309719	1.276517	0.390105	0.773891	-0.100298	0.816188	-0.273596	-0.422607	-0.342549	-0.432582	-0.181722	-0.041008	6.180082	-0.15324	0.36924	-0.038036	-0.078027	-0.078299	-0.108422	0	1	0	40	40	40	40	40
0.878113	-0.240404	-0.230244	-0.085718	-0.105519	0.680194	-0.627352	-0.011472	0.523188	-1.182839	-0.664703	-0.174688	-0.341645	-0.273596	-0.422607	-0.342549	-0.432582	-0.181722	-0.041008	7.262409	-0.15324	-0.1729	-0.691176	-0.078027	-0.078299	-0.108422	0	1	0	40	40	40	40	40
1.084137	-0.240405	-0.230244	0.55711	-1.17406	-0.837182	-0.853263	0.568249	-0.26089	-1.191075	-1.002999	-0.436915	-0.341645	-0.273596	-0.422607	-0.342549	-0.432582	-0.181722	-0.041008	7.26241	-0.15324	0.47767	0.092594	-0.078027	-0.078299	-0.108422	0	1	0	40	40	40	40	40
0.820283	-0.240406	-0.230244	0.494775	-0.672692	-1.162248	-0.132438	0.615207	-0.477137	-1.450136	0.04298	0.515623	0.407862	-0.273596	-0.422607	-0.342549	-0.432576	-0.181722	6.518895	5.076962	-0.15324	0.275184	-0.144432	-0.078027	-0.078299	-0.108422	0	0.731323	0.268677	40	40	40	40	40
0.279332	-0.240408	-0.230244	0.355506	-0.169524	-0.477176	-0.08055	0.114444	0.196044	-1.08286	0.815921	0.122087	-0.341647	-0.273596	-0.422607	-0.342549	0.84764	-0.181722	15.44058	4.038547	-0.15324	0.306762	-0.622571	-0.078027	-0.078299	-0.108422	0	0.646509	0.353491	40	40	40	40	40
0.279332	-0.240408	-0.230244	0.355506	-0.169525	-0.477176	-0.080549	0.114444	0.196044	-1.082859	0.81592	0.122088	-0.341647	-0.273596	-0.422607	-0.342549	0.84764	-0.181722	15.440574	4.038545	-0.153235	0.306763	-0.62257	-0.078027	-0.078299	-0.108421	0	0.646509	0.353491	40	40	40	40	40
0.316988	-0.240408	-0.230244	0.235433	-1.302842	0.936948	0.6464	0.169911	0.668123	-0.246779	0.847654	0.716127	-0.197549	-0.273596	-0.422607	-0.342549	1.606784	-0.181722	3.62089	1.060301	4.831496	0.493935	0.359235	-0.078027	-0.078299	1.869124	0	0.480917	0.519083	40	40	40	40	40
0.311546	-0.240408	-0.230244	0.292414	-1.611196	1.227005	0.792661	0.620363	0.300267	0.266578	-0.410242	-0.100291	0.816188	-0.273596	-0.422607	-0.342549	1.782999	-0.181722	-0.041008	-0.313913	6.522051	0.586098	0.484484	-0.078027	-0.078299	1.735794	0	2E-06	0.999998	40	40	40	40	40
0.111305	0.123062	0.033423	0.027946	-0.913925	0.852482	0.275612	0.067679	0.409473	0.0334	0.314002	0.247862	-0.279349	-0.273596	-0.422607	-0.342549	0.875465	-0.181722	-0.041008	0.215872	6.522051	0.068868	-0.081002	-0.078027	-0.078299	2.055669	0.1265	0.470658	0.402842	40	40	40	40	40
-0.402469	-0.240408	-0.230244	0.026105	0.001786	0.173505	-0.439938	-0.35637	-0.11338	-1.783539	-0.224677	-0.485718	-0.341647	-0.273596	-0.422607	-0.342549	-0.432582	-0.181722	-0.041008	-0.313913	6.522051	-0.324561	-0.587019	-0.078027	-0.078299	1.73579	0	0	1	40	40	40	40	40
-0.338046	0.068368	-0.014381	0.101218	-0.38552	0.365915	-0.331244	-0.045833	0.017103	-0.264981	-0.566388	-0.462825	-0.341647	-0.273596	0.097822	0.473402	0.214003	0.480629	-0.041008	0.810825	6.522051	-0.156756	-0.775581	-0.078027	-0.078299	2.811803	0.103565	0.730719	0.165715	40	40	40	40	40
-0.409541	-0.240408	-0.230244	-0.168909	-0.882639	0.926259	-0.659628	-0.165227	-1.344762	-0.528131	-1.51046	-0.485717	-0.341647	-0.273596	1.837194	1.051055	0.241469	-0.181714	-0.041008	0.768419	6.522051	-0.498189	-0.429921	-0.078027	-0.078299	3.580003	0	0.999999	1E-06	40	40	40	40	40
-1.371157	-0.240408	-0.230244	0.280902	-0.386686	0.731077	-0.529653	-0.308192	-0.082521	-0.386624	-0.768318	-0.202342	-0.341647	-0.245569	0.133762	0.249455	-0.13555	0.497972	-0.041008	0.175286	6.522051	-0.060596	-0.502363	-0.078027	-0.078299	3.644649	0.010726	0.880271	0.109003	40	40	40	40	40
-2.021076	-0.240408	-0.230244	0.278021	-0.037277	1.25783	-0.834832	-0.410389	-0.345788	-0.131811	-0.620411	-0.204354	-0.341647	-0.273596	-0.422607	-0.342549	-0.432582	-0.181722	-0.041008	-0.313913	6.522051	-0.061196	-0.460236	-0.078027	-0.078299	3.543625	0	1	0	40	40	40	40	40
-1.627343	-0.240408	-0.230244	0.330624	-0.069489	0.708558	-0.735732	-0.34062	-0.108323	-0.201026	-0.579306	-0.311922	0.006691	-0.223163	-0.286954	-0.253371	-0.411198	-0.181722	-0.041008	-0.269831	6.522051	0.001682	-0.392371	-0.078027	-0.078299	4.569826	0.169726	0.830274	0	40	40	40	40	40
0.311535	-0.240408	-0.230244	0.494087	0.477324	-1.65738	-1.014631	-0.022822	0.292576	-0.128721	-0.326388	-0.76708	1.974024	-0.273596	-0.422604	-0.342545	-0.432581	-0.181722	-0.041008	-0.31391	6.522051	0.260812	-0.168663	-0.078027	-0.078299	7.268441	0.999995	3E-06	1E-06	40	40	40	40	40
-0.323701	-0.240408	-0.230244	2.039394	0.185904	0.475146	-0.401446	1.987046	0.530874	-1.891073	1.238351	-0.388114	-0.341641	-0.273595	-0.422605	-0.342547	-0.432582	-0.181722	-0.041008	1.850741	6.522051	2.212522	0.223223	-0.078027	-0.078299	10.95686	2E-06	0.999997	1E-06	40	40	40	40	40
-1.021892	-0.240408	-0.230244	0.705571	0.285746	0.235819	-0.777212	0.568857	0.212804	-0.471822	0.101615	-0.302918	0.836075	0.209545	-0.422603	0.03174	-0.432581	-0.181721	-0.041008	0.168432	6.521965	0.348372	-0.042784	-0.078027	-0.078299	16.584342	0.323726	0.407697	0.268577	40	40	40	40	40
1.049234	-0.240408	-0.230244	2.621569	0.362989	-0.985144	-0.904827	4.552915	0.149029	1.500409	-0.799505	0.330483	0.816194	-0.273596	-0.422607	-0.342549	-0.411821	-0.181722	-0.041008	-0.313913	-0.15324	2.851863	1.286872	-0.078027	-0.078299	-0.108422	1	0	0	40	40	40	40	40
0.987044	-0.240408	-0.230244	2.56825	0.376964	-1.008021	-0.908717	4.416535	0.154922	1.455095	-0.825688	0.277437	1.34596	-0.273596	-0.422607	-0.246456	-0.424981	0.078919	-0.041008	-0.313913	-0.15324	2.695954	1.424851	-0.078027	-0.078299	-0.108422	0.915678	0	0.084322	40	40	40	40	40
0.795523	-0.240408	-0.230244	2.578448	0.30241	-0.927155	-0.888705	4.322541	0.078999	1.286119	-0.494429	0.968137	0.354585	-0.273596	-0.422607	-0.342549	-0.432582	2.90928	-0.041008	-0.313913	-0.15324	2.755394	1.242648	-0.078027	-0.078299	-0.108422	0	0	1	40	40	40	40	40
0.706427	-0.240408	-0.230244	2.81584	0.137335	-0.919206	0.582893	4.682555	0.100402	1.592467	0.688516	0.358361	0.816193	-0.273596	-0.422607	-0.342547	-0.432582	-0.181717	-0.041008	-0.313913	-0.15324	3.730537	1.137628	-0.078027	-0.078299	-0.108422	0.999997	2E-06	1E-06	40	40	40	40	40
0.963956	-0.240408	-0.230244	2.397374	0.331614	-0.905537	3.923143	4.179606	0.669241	1.316584	0.773892	0.743798	0.816194	-0.273596	-0.422607	-0.342542	-0.432582	-0.181722	-0.041008	-0.313913	-0.15324	2.971543	1.007	-0.078027	-0.078299	-0.108422	6E-06	0.999994	0	40	40	40	40	40
1.208276	-0.240408	-0.230244	2.077554	-0.002326	-0.489847	3.587602	3.61941	0.698974	1.168758	0.81746	1.680266	0.778638	-0.273596	-0.422607	1.626448	-0.413013	-0.181722	-0.041008	0.01725	-0.15324	2.372016	2.212352	-0.078027	-0.078299	-0.108422	0.313311	0.686689	0	40	40	40	40	40
1.461851	-0.240408	-0.230244	1.620931	0.088763	0.283766	3.697243	3.166634	0.976727	0.892466	2.142756	2.566872	0.816194	-0.273596	-0.422607	5.231854	-0.432582	-0.181722	-0.041008	-0.31391	-0.15324	1.128244	3.488949	-0.078027	-0.078299	-0.108422	0.999996	4E-06	0	40	40	40	40	40
1.224473	-0.240408	-0.230244	1.565751	-0.673613	-0.030131	2.319864	2.206166	0.827683	0.23806	2.118655	2.470813	0.911486	-0.273596	-0.422607	3.378712	0.029453	-0.181722	-0.041008	-0.013488	-0.15324	1.658641	3.384635	-0.078027	-0.078299	-0.108422	0.047004	0.952996	0	40	40	40	40	40
0.963958	-0.240408	-0.230244	1.701601	-1.076922	-0.181018	1.03471	1.780183	0.676931	-0.351072	3.080143	3.233657	0.816194	-0.273596	-0.422607	3.838261	0.343119	-0.181722	-0.041008	-0.313913	-0.15324	2.104105	3.488949	-0.078027	-0.078299	-0.108422	0	1	0	40	40	40	40	40
0.220385	-0.240408	-0.230244	1.556257	-0.847509	0.186842	0.155728	1.147654	0.65516	-0.369299	3.041849	3.256185	0.309248	-0.273596	0.661011	2.836994	0.15057	-0.181722	-0.041008	-0.313913	-0.15324	1.521393	3.485935	-0.078027	-0.078299	-0.108422	0.037536	0.482946	0.479518	40	40	40	40	40
-0.633624	-0.240408	-0.230244	1.316558	-0.63979	0.627762	-0.895177	0.442651	0.796611	-0.160183	3.945832	4.356952	-0.341647	-0.273596	1.837201	2.444659	-0.250972	-0.181722	-0.041008	-0.313913	-0.15324	0.819627	3.894528	-0.078027	-0.078299	-0.108422	0	0	1	40	40	40	40	40
-0.887283	-0.240408	-0.230244	0.970528	-0.706729	0.827811	-0.796947	0.146511	0.643614	-0.253457	3.146218	3.344928	-0.341647	-0.273596	1.510926	1.648753	-0.106019	-0.181722	-0.041008	-0.313913	-0.15324	0.525009	3.013942	-0.078027	-0.078299	-0.108422	0	0	1	40	40	40	40	40
-0.48377	-0.240408	-0.230244	-0.011649	-0.400575	0.997766	0.054853	-0.165423	0.464319	-0.530888	2.412466	2.614814	-0.341647	-0.273596	0.211598	0.865716	-0.058883	-0.181722	-0.041008	-0.313912	-0.15324	-0.427653	0.943652	-0.078027	-0.078299	-0.108422	0	0.132994	0.867006	40	40	40	40	40
-0.169179	-0.240408	-0.230244	-0.085722	-0.251228	0.967273	0.905613	-0.240595	0.461692	0.18422	2.55213	1.900029	-0.341647	-0.273596	-0.422607	-0.342543	-0.43258	-0.181722	-0.041008	-0.313913	-0.15324	-0.064477	0.876368	-0.078027	-0.078299	-0.108422	0	0.999995	5E-06	40	40	40	40	40
-0.031829	-0.240408	-0.230244	-0.254621	-0.736928	0.748551	-0.36917	0.01379	-0.068714	-0.832838	1.537171	1.900074	-0.341647	-0.273596	-0.422607	1.051053	0.460063	-0.181722	-0.041008	-0.313913	-0.15324	-0.498191	0.353855	-0.078027	-0.078299	-0.108422	1E-06	0	0.999999	40	40	40	40	40
-0.443877	-0.240408	-0.230244	0.219306	-0.105517	1.254345	-0.724174	-0.293531	-0.768233	-0.857543	1.095324	1.110082	-0.341647	-0.273595	-0.422607	-0.342545	-0.432581	-0.181722	-0.041008	-0.313913	-0.15324	0.043951	0.61511	-0.078027	-0.078299	-0.108422	1E-06	0	0.999999	40	40	40	40	40
0.139859	-0.240408	-0.230244	-0.254621	0.088764	1.500407	-0.56281	-0.412417	-0.114836	0.073047	0.587863	0.847852	-0.341647	-0.273594	-0.422607	-0.342546	-0.432582	-0.181722	-0.041008	-0.313913	-0.15324	-0.498191	-0.168661	-0.078027	-0.078299	-0.108422	2E-06	0	0.999998	40	40	40	40	40
-0.424458	-0.240408	-0.230244	0.540361	0.54128	1.010789	0.289236	0.187583	0.046692	0.98273	-0.049213	0.608388	-0.341647	1.54407	-0.422607	-0.342549	-0.432582	-0.181722	-0.041008	-0.104229	-0.15324	0.062081	0.137841	-0.078027	-0.078299	-0.108422	0	0.797527	0.202473	40	40	40	40	40
-0.272191	-0.240408	-0.230244	0.620133	0.914458	1.500405	1.373572	0.583301	0.061965	0.521878	-0.681498	1.648354	-0.341647	2.33946	-0.422607	-0.342549	-0.432582	-0.181722	-0.041008	-0.313911	-0.15324	-0.389758	-0.038032	-0.078027	-0.078299	-0.108422	0	1	0	40	40	40	40	40
-0.203465	-0.240408	-0.230244	0.687305	0.723448	0.808411	0.59141	0.396524	-0.042441	1.36363	0.208454	0.673591	-0.341647	1.173265	-0.422607	-0.342549	-0.432582	-0.181722	-0.041008	0.442484	-0.15324	0.187744	0.225502	-0.078027	-0.078299	-0.108422	0	0.839254	0.160746	40	40	40	40	40
0.226576	-0.240408	-0.230244	0.137802	0.610962	0.699674	1.370911	0.105488	0.896801	1.167883	0.48068	0.600308	-0.341647	0.209569	-0.422607	-0.342549	-0.432582	-0.181722	-0.041008	2.050857	-0.15324	-0.331225	-0.120197	-0.078027	-0.078299	-0.108422	2E-06	0.676304	0.323694	40	40	40	40	40
-0.134839	-0.240408	-0.230244	0.073097	0.283047	0.488819	2.454721	-0.117529	2.629438	1.011877	-0.495534	0.785176	-0.341647	-0.273594	-0.422607	-0.342549	-0.432582	-0.181722	-0.041008	1.850752	-0.15324	-0.606618	-0.429919	-0.078027	-0.078299	-0.108422	0	0.999998	2E-06	40	40	40	40	40
-0.117672	-0.240408	-0.230244	0.292413	0.428755	0.365788	0.502204	-0.237369	0.300269	-0.486953	-0.561028	0.294997	-0.341647	-0.273595	-0.422607	-0.342549	-0.432582	-0.181722	-0.041008	1.850756	-0.15324	-0.49819	-0.560549	-0.078027	-0.078299	-0.108422	0	1	0	40	40	40	40	40
0.196958	-0.240408	-0.230244	-0.203081	0.088121	0.33899	-0.626929	-0.373836	0.499263	-1.11199	0.821531	0.800842	-0.341647	-0.273596	-0.422607	-0.342549	-0.432582	-0.181722	-0.041008	4.015415	-0.15324	-0.238823	-0.534077	-0.078027	-0.078299	-0.108422	0	1	0	40	40	40	40	40
0.283115	0.69735	-0.230244	-0.176313	-0.037848	-0.350877	-0.039104	-0.352657	0.330888	-0.833077	0.214105	-0.048491	-0.272817	-0.273596	0.073664	-0.342549	-0.432582	-0.181722	-0.041008	4.144099	-0.15324	-0.11229	-0.396913	-0.078027	-0.078299	-0.108422	0	0.780392	0.219608	40	40	40	40	40
0.584262	1.274167	-0.230244	-0.114044	-0.115296	-0.581363	0.013465	-0.184605	0.112971	-1.083225	-0.11658	-0.442746	-0.253442	-0.273596	0.01518	-0.342549	-0.432582	-0.181722	-0.041008	4.954989	-0.15324	0.048093	-0.366144	-0.078027	-0.078299	-0.108422	0	0.806273	0.193727	40	40	40	40	40
0.603415	2.105867	-0.230244	-0.005051	-0.251229	-0.591122	0.227881	-0.029276	-0.283952	-1.718137	-0.32639	-0.718279	-0.341645	-0.273596	-0.422607	-0.342549	-0.432582	-0.181722	-0.041008	5.097749	-0.15324	0.260812	-0.42992	-0.078027	-0.078299	-0.108422	0	1	0	40	40	40	40	40
1.891063	-0.240405	-0.230244	0.910034	-0.882639	-0.386069	1.599482	1.635471	0.054279	-2.076373	-1.679608	-0.718279	1.974026	-0.273596	-0.422607	-0.342549	-0.432582	-0.181722	-0.041008	6.180075	-0.15324	1.128241	0.092594	-0.078027	-0.078299	-0.108422	0	1	0	40	40	40	40	40
0.665515	-0.240408	-0.230244	0.491409	-0.155013	0.083053	0.177923	0.572134	0.286693	-1.842764	-0.70837	-0.598475	0.308252	-0.273596	-0.422607	-0.342549	0.112387	-0.181722	-0.040997	4.59367	-0.15324	0.475192	-0.190308	-0.078027	-0.078299	-0.108422	0	1	0	40	40	40	40	40
0.093738	-0.240408	-0.230244	0.206987	0.340241	0.362077	-0.386538	-0.119865	0.5666	-1.109931	0.139152	-0.638589	-0.071306	-0.273596	-0.422607	-0.342549	1.772052	-0.181722	-0.041007	3.52339	-0.15324	0.243191	-0.484795	-0.078027	-0.078299	-0.108422	0	1	0	40	40	40	40	40
-0.296657	-0.240408	-0.230244	0.552995	-0.308359	0.120896	-0.384031	-0.145767	0.916281	-0.971225	0.825605	-0.597893	-0.341647	-0.273596	-0.422607	-0.342549	3.041356	-0.181722	-0.041008	4.666241	-0.15324	0.738472	-0.56141	-0.078027	-0.078299	-0.108422	0	1	0	40	40	40	40	40
0.168221	-0.240408	-0.230244	0.242134	-0.513871	0.609783	0.158106	0.056822	0.445372	-0.435987	0.189051	-0.291395	0.22113	-0.273596	-0.422607	-0.342549	2.338815	-0.181722	-0.041007	1.974884	2.825943	0.390963	0.161517	-0.078027	-0.078299	1.664862	0	0.747429	0.252571	40	40	40	40	40
0.160948	-0.240408	-0.230244	0.397952	-1.417228	1.019272	1.012867	0.461221	0.206116	-0.6894	0.047927	0.300643	0.119996	-0.273596	-0.422607	-0.342549	1.670051	-0.181722	-0.041008	-0.313913	6.522051	0.520902	1.241794	-0.078027	-0.078299	4.31531	0	0.60129	0.39871	40	40	40	40	40
0.448894	-0.240408	-0.230244	0.292414	-1.708331	0.844241	0.744248	0.608194	0.161895	0.344812	-0.748543	-0.100299	-0.341647	-0.273596	-0.422607	-0.342549	0.361378	-0.181722	-0.041008	-0.313908	6.522051	0.477668	1.006993	-0.078027	-0.078299	1.735794	0	4E-06	0.999996	40	40	40	40	40
-0.019929	-0.240408	-0.230244	-0.05251	-0.259171	0.436097	-0.212535	0.096813	-0.841288	0.303586	-0.23768	-0.708246	-0.341647	-0.273596	-0.422607	-0.342549	0.070278	-0.181722	-0.041008	0.994747	6.522051	-0.201794	-0.952436	-0.078027	-0.078299	1.73579	0	1	0	40	40	40	40	40
-0.368581	-0.240408	-0.230244	0.17535	0.039879	0.59264	-0.718161	0.2058	-0.32706	0.155664	-0.012386	-0.654902	-0.341647	-0.273596	-0.422607	1.051055	0.433836	-0.181722	-0.041008	0.768419	6.522051	-0.064475	-0.952436	-0.078027	-0.078299	1.73579	0	1	0	40	40	40	40	40
-0.186348	-0.240408	-0.230244	0.680632	-1.028349	-0.276705	0.001967	-0.007717	0.838354	-0.775189	-1.172146	-0.71828	-0.341647	-0.273596	-0.422604	1.051055	0.433419	-0.181722	-0.041008	1.850747	6.522051	0.477667	-0.821807	-0.078027	-0.078299	3.579998	0	1	0	40	40	40	40	40
-1.316054	-0.240408	-0.230244	0.505577	-0.375942	0.716351	-0.492299	-0.213214	-0.186763	-0.155826	-0.527039	-0.327848	-0.341647	0.602195	0.137249	0.028059	-0.213158	-0.181722	-0.041008	0.200422	5.560308	0.271707	-0.431186	-0.078027	-0.078299	2.641665	0.191084	0.808916	0	40	40	40	40	40
-0.907438	-0.240408	-0.230244	0.854575	-0.445507	0.748552	-0.223944	-0.064807	-0.468442	0.143048	0.519367	-0.204354	-0.341647	2.339456	1.837192	-0.342549	-0.432582	-0.181722	-0.041008	-0.313913	6.522043	0.911382	-0.038035	-0.078027	-0.078299	1.735794	0.999996	4E-06	0	40	40	40	40	40
-1.000469	-0.240408	-0.230244	0.708926	-0.07463	0.359535	-0.571034	-0.117063	-0.204608	0.213161	0.233466	-0.273274	0.011382	2.191844	-0.132151	-0.342549	-0.432582	-0.181722	-0.041008	-0.313913	3.451646	0.633612	-0.144812	-0.078027	-0.078299	2.169	0.576033	0.364007	0.059959	40	40	40	40	40
-0.440748	-0.240408	-0.230244	1.074226	-0.077336	-0.028114	-0.459385	0.216955	-0.048105	0.161728	0.945647	-0.280212	0.080271	3.549003	-0.422607	-0.342549	-0.432582	-0.181722	-0.041008	-0.126976	1.639468	1.238679	0.028179	-0.078027	-0.078299	2.191222	0.76244	0.086358	0.151202	40	40	40	40	40
-0.600883	-0.240408	-0.230244	0.995541	-0.044709	0.241422	-0.188192	0.077732	-0.042429	0.042111	0.877329	-0.203166	0.033659	3.876216	-0.422607	-0.342549	-0.432582	-0.181722	-0.041008	-0.218936	1.221521	1.126296	-0.101979	-0.078027	-0.078299	1.572657	0.863535	0.043876	0.092589	40	40	40	40	40
-0.951715	-0.240408	-0.230244	1.168364	-0.049277	0.919957	0.343771	0.27359	0.069014	-0.635126	0.990563	-0.059101	-0.341647	3.98674	-0.422607	-0.342549	-0.432582	-0.181722	-0.041008	0.086115	1.080349	1.304491	-0.26531	-0.078027	-0.078299	1.936433	0.815201	0.184799	0	40	40	40	40	40
1.01444	-0.240408	-0.230244	2.51936	0.427213	-1.081452	-0.899881	4.350812	0.178707	1.445356	-1.003001	0.10847	1.974035	-0.273596	-0.422607	-0.342549	-0.432582	-0.181722	-0.041008	-0.313913	-0.15324	2.559669	1.564895	-0.078027	-0.078299	-0.108422	1	0	0	40	40	40	40	40
0.740768	-0.240408	-0.230244	2.573834	0.185907	-0.768837	-0.966223	4.288387	0.108088	1.493643	-0.45514	0.358367	0.816195	-0.273596	-0.422607	1.051036	-0.432582	-0.181722	-0.041008	-0.313913	-0.15324	2.537822	1.398884	-0.078027	-0.078299	-0.108422	1	0	0	40	40	40	40	40
0.821341	-0.240408	-0.230244	2.57268	0.276309	-0.690424	-0.299621	4.291918	-0.000301	1.358141	0.049704	0.984068	0.955511	-0.273596	-0.422607	-0.342548	-0.432582	1.033554	-0.041008	-0.313913	-0.15324	2.896727	1.451504	-0.078027	-0.078299	-0.108422	0.326212	0.280622	0.393166	40	40	40	40	40
0.890678	-0.240408	-0.230244	2.639546	0.141186	-0.92054	2.090799	4.427795	0.283954	1.297228	-0.239001	0.591863	0.792579	-0.273596	-0.422607	-0.342549	-0.432582	0.726366	-0.041008	-0.313913	-0.15324	3.207083	1.191977	-0.078027	-0.078299	-0.108422	0.496506	0.20971	0.293784	40	40	40	40	40
0.994926	-0.240408	-0.230244	2.762902	-0.105517	-0.924656	4.071958	4.555065	0.298757	1.183073	-1.003001	0.246169	1.277862	-0.273596	-0.422607	-0.342549	-0.432582	-0.181722	-0.041008	-0.313913	-0.15324	3.513681	1.345972	-0.078027	-0.078299	-0.108422	1	0	0	40	40	40	40	40
1.292157	-0.240408	-0.230244	1.941604	-0.073909	-0.306127	3.951937	3.543459	0.745825	1.194403	0.744942	1.389539	0.922504	-0.273596	-0.422607	1.413085	-0.432582	-0.181722	-0.041008	0.058583	-0.15324	2.053912	2.404183	-0.078027	-0.078299	-0.108422	0.361725	0.638275	0	40	40	40	40	40
1.549604	-0.240408	-0.230244	1.34927	-0.220759	0.166244	3.916215	2.788754	0.995432	1.213421	1.540164	2.072935	0.816194	-0.273596	-0.422607	2.444659	-0.432582	-0.181722	-0.041008	0.427103	-0.15324	1.019815	3.358321	-0.078027	-0.078299	-0.108422	0	1	0	40	40	40	40	40
1.248917	-0.240408	-0.230244	1.555962	-0.653786	-0.01402	2.225557	2.235875	0.807543	0.269701	2.119564	2.478832	0.90791	-0.273596	-0.422607	3.322177	0.012111	-0.181722	-0.041008	0.12213	-0.15324	1.628923	3.364912	-0.078027	-0.078299	-0.108422	0.037534	0.962466	0	40	40	40	40	40
0.999012	-0.240408	-0.230244	1.700255	-1.013421	-0.185107	1.214042	1.724931	0.7238	-0.49376	2.318323	2.566886	1.028827	-0.273596	-0.422607	3.838262	0.378763	-0.181722	-0.041008	-0.313913	-0.15324	2.124017	3.355461	-0.078027	-0.078299	-0.108422	0	1	0	40	40	40	40	40
0.171965	-0.240408	-0.230244	1.553734	-0.844245	0.192659	0.122074	1.10306	0.650714	-0.343031	2.95146	3.179049	0.33463	-0.273596	0.703275	2.85229	0.131245	-0.181722	-0.041008	-0.313913	-0.15324	1.490208	3.516384	-0.078027	-0.078299	-0.108422	0	0.50178	0.49822	40	40	40	40	40
-0.649903	-0.240408	-0.230244	1.620929	-0.68836	0.420469	-0.950086	0.578565	0.215709	-0.322248	2.727658	2.566879	-0.341647	-0.273596	1.837201	1.05106	0.154126	-0.181722	-0.041008	-0.313913	-0.15324	1.019813	3.358319	-0.078027	-0.078299	-0.108422	0	0	1	40	40	40	40	40
-1.405323	-0.240408	-0.230244	0.146207	-0.59122	1.199663	-0.820995	-0.546036	0.753801	-0.421071	2.727657	2.566877	-0.341647	-0.273596	1.8372	1.051058	0.195576	-0.181722	-0.041008	-0.313913	-0.15324	-0.064471	1.790778	-0.078027	-0.078299	-0.108422	0	0	1	40	40	40	40	40
-1.405324	-0.240408	-0.230244	-0.085722	-1.076921	1.623438	-0.223941	-0.551753	0.730739	-0.190482	2.051043	2.566872	-0.341647	-0.273596	-0.422603	1.051055	-0.43258	-0.181722	-0.041008	-0.313913	-0.15324	-0.389763	1.398883	-0.078027	-0.078299	-0.108422	0	0	1	40	40	40	40	40
-0.546891	-0.240408	-0.230244	-0.731072	-0.639789	1.035625	0.954022	-0.389085	0.069654	-0.49519	1.537171	1.900074	-0.341647	-0.273596	-0.422607	1.051052	0.415159	-0.181722	-0.041008	-0.313912	-0.15324	-1.040334	0.353855	-0.078027	-0.078299	-0.108422	0	0	0.999999	40	40	40	40	40
-1.405323	-0.240408	-0.230244	-0.731072	-0.251228	1.268016	0.034243	-0.742674	0.331012	-0.795778	-0.071928	2.56687	-0.341647	-0.273595	-0.422607	-0.342545	-0.43258	-0.181722	-0.041008	-0.313912	-0.15324	-0.606621	0.876367	-0.078027	-0.078299	-0.108422	0	0	0.999999	40	40	40	40	40
-0.909532	-0.240408	-0.230244	-0.5188	-0.019532	1.192315	-0.235047	-0.514231	0.054604	-0.590619	0.721807	1.528383	-0.341647	0.545094	-0.422607	-0.036502	-0.236549	-0.181722	-0.041008	-0.201255	-0.15324	-0.735139	0.040239	-0.078027	-0.078299	-0.108422	0.286299	0	0.713701	40	40	40	40	40
-1.405326	-0.240408	-0.230244	-0.433605	0.088765	1.637106	0.179469	-0.643815	0.546248	-0.227541	0.166687	0.284469	-0.341647	2.33946	-0.422607	-0.342549	-0.432582	-0.181722	-0.041008	-0.313913	-0.15324	-0.606621	-0.560548	-0.078027	-0.078299	-0.108422	1E-06	1E-06	0.999998	40	40	40	40	40
-1.022612	-0.240408	-0.230244	0.029792	0.300668	1.10537	-0.111827	-0.325447	0.165355	0.703699	-0.077271	0.258028	-0.341647	2.124409	-0.422607	-0.342549	-0.432582	-0.181722	-0.041008	-0.313913	-0.15324	-0.535506	-0.161998	-0.078027	-0.078299	-0.108422	0.173647	0.619114	0.207239	40	40	40	40	40
-0.255025	-0.240408	-0.230244	0.854574	-0.591214	0.980943	0.695837	0.274576	0.607744	1.897171	-0.561027	-0.485716	-0.341647	2.339464	-0.422607	-0.342549	-0.432582	-0.181722	-0.041008	-0.313913	-0.15324	0.043953	-0.16866	-0.078027	-0.078299	-0.108422	0	0.999999	1E-06	40	40	40	40	40
-0.763458	-0.240408	-0.230244	0.387618	0.681447	1.155973	-0.026828	-0.182443	-0.051734	1.378814	0.0701	0.051906	-0.341647	2.339464	-0.422607	-0.342549	-0.432582	-0.181722	-0.041008	-0.313913	-0.15324	-0.129671	0.353854	-0.078027	-0.078299	-0.108422	0	1	0	40	40	40	40	40
-0.255021	-0.240408	-0.230244	-0.342849	-0.688354	0.748548	0.05038	-0.505483	-0.82204	-0.301658	-1.341305	-0.436912	-0.341647	2.339461	-0.422607	-0.342549	-0.432582	-0.181722	-0.041008	1.850744	-0.15324	-0.823472	-0.299291	-0.078027	-0.078299	-0.108422	2E-06	0.999996	2E-06	40	40	40	40	40
0.500398	-0.240408	-0.230244	-0.627712	0.477324	1.10397	0.647431	-0.470194	1.484065	-0.371658	-0.509923	0.051906	-0.341647	2.339459	-0.422607	-0.342549	-0.432582	-0.181722	-0.041008	2.933077	-0.15324	-1.040331	-0.299292	-0.078027	-0.078299	-0.108422	2E-06	0.999997	1E-06	40	40	40	40	40
0.310615	-0.240408	-0.230244	-0.277648	0.535259	0.175867	0.009074	-0.367499	-0.257406	-0.424444	-0.249061	0.212326	-0.341647	0.777343	0.001309	-0.342549	-0.432582	-0.181722	-0.041008	2.436618	-0.15324	-0.519399	-0.324707	-0.078027	-0.078299	-0.108422	0.187181	0.812819	0	40	40	40	40	40
0.814176	-0.240408	-0.230244	-0.349662	1.071876	-0.123543	-0.216765	-0.336906	-0.002718	-0.711116	0.077457	0.322034	-0.341647	-0.273596	0.715009	-0.342549	-0.432582	-0.181722	-0.041008	3.178133	-0.15324	-0.457551	-0.243099	-0.078027	-0.078299	-0.108422	0	0.766506	0.233494	40	40	40	40	40
1.238655	-0.240406	-0.230244	-0.085722	0.768749	-0.645802	0.211743	-0.234829	1.284203	-0.458133	0.604675	-0.100297	-0.341647	-0.273596	1.837195	-0.342549	-0.432582	-0.181722	-0.041008	4.015413	-0.15324	0.043953	-0.038034	-0.078027	-0.078299	-0.108422	0	4E-06	0.999996	40	40	40	40	40
0.096782	2.105871	-0.230244	-0.273069	-0.307746	-1.01328	0.260459	-0.31812	-0.718231	-1.310243	-0.326389	-0.669654	-0.341647	-0.273596	-0.422607	-0.342549	-0.432582	-0.181722	-0.041008	4.015415	-0.15324	-0.064475	-0.42992	-0.078027	-0.078299	-0.108422	0	1	0	40	40	40	40	40
0.569946	0.981508	-0.230244	0.039067	-0.456039	-0.557263	0.522705	0.064581	-0.509926	-1.322275	-0.45217	-0.701617	0.008461	-0.273596	-0.422607	-0.342549	-0.432582	-0.181722	-0.041008	4.225351	-0.15324	0.258422	-0.328358	-0.078027	-0.078299	-0.108422	0	1	0	40	40	40	40	40
0.634186	0.274846	-0.230244	0.221196	-0.336912	-0.104813	0.496995	0.214175	-0.127648	-1.46581	-0.480341	-0.625145	0.008458	-0.273596	-0.422607	-0.342549	-0.362587	-0.181722	-0.041008	4.076366	-0.15324	0.334417	-0.289151	-0.078027	-0.078299	-0.108422	0	1	0	40	40	40	40	40
0.055477	-0.240408	-0.230244	0.666483	0.293523	0.457992	0.070419	0.43032	0.81555	-1.723411	-0.29831	-0.513383	-0.341647	-0.273596	-0.422607	-0.342549	-0.432582	-0.181722	-0.041008	3.364598	-0.15324	0.370661	-0.141339	-0.078027	-0.078299	-0.108422	0	1	0	40	40	40	40	40
-0.031827	-0.240408	-0.230244	-0.254619	0.671606	0.557168	-0.74031	-0.410406	0.092716	-2.031076	0.011908	-0.718279	-0.341646	-0.273596	-0.422607	-0.342549	1.907842	-0.181722	-0.041008	2.933086	-0.15324	-0.064473	-0.691177	-0.078027	-0.078299	-0.108422	0	1	0	40	40	40	40	40
0.122691	-0.240408	-0.230244	-0.433603	-0.008374	0.434137	-0.078716	-0.670029	0.607747	0.398342	0.350312	-0.767082	-0.341645	-0.273596	-0.422607	-0.342549	3.791326	-0.181722	-0.041008	4.015411	-0.15324	-0.389758	-0.952434	-0.078027	-0.078299	-0.108422	0	1	0	40	40	40	40	40
0.246823	-0.240408	-0.230244	0.225945	-0.254561	0.456594	-0.148234	-0.065972	0.454576	0.140206	0.230671	-0.430013	0.014586	-0.273596	-0.422607	-0.342549	2.411171	-0.181722	-0.041008	2.431153	1.693449	0.361061	-0.140045	-0.078027	-0.078299	1.143309	0	0.874539	0.125461	40	40	40	40	40
-0.007724	-0.240408	-0.230244	0.497775	-0.575585	0.623723	-0.009609	0.064049	0.124639	0.541532	0.358483	-0.23962	-0.235307	0.652636	0.378411	-0.342549	1.758657	-0.181722	-0.041008	0.69156	2.088821	0.658432	0.12365	-0.078027	-0.078299	1.095614	0.354463	0.443028	0.202509	40	40	40	40	40
-0.170001	-0.240408	-0.230244	0.439063	-0.528768	0.635576	-0.028177	0.121508	-0.225002	0.090974	0.3151	-0.254543	-0.287219	0.771707	0.481385	-0.342549	0.966241	-0.181722	-0.041008	0.320378	3.851731	0.485297	-0.082991	-0.078027	-0.078299	1.391899	0.40003	0.496306	0.103664	40	40	40	40	40
-0.318821	-0.240408	-0.230244	0.570037	-0.287981	0.592236	-0.447179	0.072662	-0.173613	0.211743	0.339045	-0.374101	-0.341647	1.178212	0.832935	-0.129817	0.521295	-0.181722	-0.041008	0.338128	2.81328	0.564659	-0.272608	-0.078027	-0.078299	0.711152	0.555597	0.421142	0.023261	40	40	40	40	40
-0.292065	-0.240408	-0.230244	0.596141	-0.473612	0.386494	-0.443777	0.088307	-0.023301	-0.040207	-0.075031	-0.45821	-0.341647	0.862206	0.559649	0.117764	0.04932	-0.181722	-0.041008	0.653088	3.620546	0.516147	-0.357842	-0.078027	-0.078299	1.264879	0.434663	0.565337	0	40	40	40	40	40
-0.447022	-0.240408	-0.230244	0.785134	-0.53958	0.411774	-0.510098	0.074727	0.059358	-0.102281	0.024102	-0.407593	-0.341647	1.323491	0.958575	0.199292	-0.096212	-0.181722	-0.041008	0.309048	2.442151	0.732751	-0.125311	-0.078027	-0.078299	0.953057	0.611194	0.388806	0	40	40	40	40	40
-0.596696	-0.240408	-0.230244	0.918671	-0.598954	0.258335	-0.291793	0.008875	-0.115879	0.087063	0.123325	-0.346498	-0.341647	2.569588	1.340954	-0.036518	-0.242411	-0.181722	-0.041008	0.161441	1.709484	0.90398	-0.005181	-0.078027	-0.078299	0.811184	0.780403	0.219597	0	40	40	40	40	40
-0.718577	-0.240408	-0.230244	0.962976	-0.299798	0.065046	-0.175533	0.020298	-0.483816	1.05305	0.857685	-0.204355	-0.341647	4.952518	1.837198	-0.342549	-0.432582	-0.181722	-0.041008	-0.313913	-0.153234	1.128243	0.092596	-0.078027	-0.078299	-0.108421	1	0	0	40	40	40	40	40
-0.461048	-0.240408	-0.230244	0.962976	-0.154088	0.529828	-0.175533	0.015166	-0.168648	0.661872	0.857686	-0.204354	-0.341647	4.952523	-0.422603	-0.342549	-0.432582	-0.181722	-0.041008	-0.313913	-0.153239	1.019815	0.223222	-0.078027	-0.078299	-0.108422	1	0	0	40	40	40	40	40
-0.649903	-0.240408	-0.230244	1.404132	0.040192	-0.153674	-0.756446	0.292196	0.115772	1.559517	2.532383	0.076992	-0.341647	4.952523	-0.422607	-0.342549	-0.432582	-0.181722	-0.041008	-0.313913	-0.15324	2.104099	0.092595	-0.078027	-0.078299	-0.108422	6E-06	0	0.999994	40	40	40	40	40
-0.85833	-0.240408	-0.230244	1.069536	-0.380784	0.573173	-0.165768	-0.00094	-0.384765	-0.078931	0.876744	-0.204354	-0.341647	4.952523	-0.422607	-0.342549	-0.432582	-0.181722	-0.041008	-0.313913	-0.15324	1.183959	-0.129627	-0.078027	-0.078299	-0.108422	1	0	0	40	40	40	40	40
-1.114885	-0.240408	-0.230244	0.95994	-0.063743	1.038896	0.472434	-0.124661	-0.063243	-0.385976	0.956091	0.005901	-0.341647	4.952523	-0.422607	-0.342549	-0.432582	-0.181722	-0.041008	-0.313913	-0.15324	1.105571	-0.417153	-0.078027	-0.078299	-0.108422	1	0	0	40	40	40	40	40
0.731729	-0.240408	-0.230244	2.587327	0.243716	-0.830495	-0.528115	4.324098	0.048601	1.380283	-0.552052	0.524344	2.124075	0.836283	-0.422607	-0.279495	-0.432582	-0.181722	-0.041008	-0.313913	-0.15324	2.754779	1.772776	-0.078027	-0.078299	-0.108422	0.586207	0.413793	0	40	40	40	40	40
0.826606	-0.240408	-0.230244	2.39737	0.331615	-0.05799	0.211742	3.904742	-0.245515	1.295995	0.520777	1.410589	1.97404	-0.273589	-0.422607	-0.342548	-0.432579	-0.181722	-0.041008	-0.313913	-0.15324	2.646249	2.052031	-0.078027	-0.078299	-0.108422	5E-06	0.999995	0	40	40	40	40	40
0.240543	-0.240408	-0.230244	1.783274	0.182036	0.227159	0.791111	2.994557	0.108965	0.587105	0.948522	0.824368	3.025641	-0.273596	-0.422607	-0.342549	0.641725	-0.181722	-0.041008	-0.313913	-0.15324	1.971302	2.472885	-0.078027	-0.078299	-0.108422	0.674695	0.325305	0	40	40	40	40	40
0.116995	-0.240408	-0.230244	1.856226	-0.064536	0.110195	2.004663	2.995876	0.434413	0.358718	0.833365	0.679166	2.604405	-0.273596	-0.422607	-0.342549	0.553405	-0.181722	-0.041008	-0.313913	-0.15324	2.097733	2.495398	-0.078027	-0.078299	-0.108422	0.600877	0.399123	0	40	40	40	40	40
0.165588	-0.240408	-0.230244	2.066526	-0.206633	-0.059553	2.566284	3.187843	0.602499	0.399208	0.682285	0.751532	1.985232	-0.273596	-0.422607	-0.342548	0.320955	-0.181722	-0.041008	-0.313913	-0.15324	2.353846	2.39146	-0.078027	-0.078299	-0.108422	0.405057	0.594943	0	40	40	40	40	40
0.764859	-0.240408	-0.230244	1.934102	-0.243988	-0.121773	3.28462	3.250232	0.775214	0.753649	0.811599	1.223739	1.273821	-0.273596	-0.422607	0.60826	-0.168354	-0.181722	-0.041008	-0.052055	-0.15324	2.042348	2.572602	-0.078027	-0.078299	-0.108422	0.200737	0.799263	0	40	40	40	40	40
1.593346	-0.240408	-0.230244	1.348654	-0.191826	0.21482	3.284293	2.818971	0.898308	1.175393	1.691521	2.216651	0.816216	-0.273595	-0.422607	2.44463	-0.432574	-0.181722	-0.041008	0.877909	-0.15324	0.999787	3.285866	-0.078027	-0.078299	-0.108422	1E-06	0.999999	0	40	40	40	40	40
1.805222	-0.240408	-0.230244	1.358759	-0.10552	0.379455	0.469941	3.026449	0.407886	1.048932	2.142829	2.664398	0.816195	-0.273596	-0.422607	2.444663	-0.432579	-0.181722	-0.041008	2.933067	-0.15324	0.91139	2.966436	-0.078027	-0.078299	-0.108422	0	1	0	40	40	40	40	40
0.405796	-0.240408	-0.230244	1.537253	-1.051553	0.267446	0.50353	1.541727	0.379706	-0.130483	1.86045	2.162894	0.970631	-0.273596	-0.422607	4.467199	0.049927	-0.181722	-0.041008	-0.015786	-0.15324	1.58138	3.140516	-0.078027	-0.078299	-0.108422	0	1	0	40	40	40	40	40
0.013112	-0.240408	-0.230244	1.552082	-1.071903	0.330556	0.155278	1.197653	0.312539	-0.240039	1.955842	2.153923	0.720032	-0.273596	0.015171	4.05523	0.081425	-0.181722	-0.041008	-0.313913	-0.15324	1.478359	3.173012	-0.078027	-0.078299	-0.108422	0	0.806276	0.193724	40	40	40	40	40
-1.054098	-0.240408	-0.230244	0.777583	-1.109959	1.096976	-0.677751	0.33033	-0.147459	-0.225725	1.817	1.97221	-0.00442	-0.273596	0.397682	3.176975	-0.265086	-0.181722	-0.041008	-0.313913	-0.15324	0.386516	1.831752	-0.078027	-0.078299	-0.108422	0	0.291255	0.708745	40	40	40	40	40
-0.289364	-0.240408	-0.230244	0.738614	-1.174062	0.816903	-0.191671	0.469255	-0.245516	-0.202837	0.351662	2.848219	-0.341647	-0.273596	1.837194	2.444655	-0.432581	-0.181722	-0.041008	-0.313913	-0.15324	0.477669	1.268258	-0.078027	-0.078299	-0.108422	0	0	1	40	40	40	40	40
-1.100901	-0.240408	-0.230244	-0.157658	-0.905168	1.406912	-0.254651	-0.254312	0.126286	-0.273995	1.918873	2.121645	-0.341647	-0.273596	0.09784	1.625403	-0.222151	-0.181722	-0.041008	-0.313913	-0.15324	-0.503821	0.764202	-0.078027	-0.078299	-0.108422	0	0	1	40	40	40	40	40
-1.302313	-0.240408	-0.230244	-0.950391	-1.028349	1.81482	0.356973	-0.826615	0.484753	0.048341	1.193322	1.7472	-0.341647	-0.273596	-0.422607	1.051052	-0.432581	-0.181722	-0.041008	-0.313912	-0.15324	-1.690906	0.092598	-0.078027	-0.078299	-0.108422	0	0	1	40	40	40	40	40
-0.46105	-0.240408	-0.230244	-1.189876	-0.105518	1.84216	1.050842	-0.758151	-0.214767	-0.083424	1.282715	1.747199	-0.341647	-0.273595	-0.422607	-0.342545	-0.432581	-0.181722	-0.041008	0.768414	-0.15324	-1.040336	0.353854	-0.078027	-0.078299	-0.108422	0.999995	0	5E-06	40	40	40	40	40
-1.694965	-0.240408	-0.230244	-0.996154	0.324229	1.3783	-0.014127	-0.830111	0.042794	-0.409854	0.212612	1.475309	-0.16869	1.154879	-0.422607	-0.342549	-0.432582	-0.181722	-0.041008	-0.179773	-0.15324	-1.144715	-0.126356	-0.078027	-0.078299	-0.108422	0.340893	0	0.659107	40	40	40	40	40
-2.235619	-0.240408	-0.230244	-0.715835	0.749382	1.056648	-0.37438	-0.836339	0.14054	-0.738784	0.333897	1.318239	-0.341647	2.339464	-0.422607	-0.342549	-0.432582	-0.181722	-0.041008	-0.313913	-0.15324	-1.322388	-0.821807	-0.078027	-0.078299	-0.108422	0.601266	0	0.398734	40	40	40	40	40
-1.512364	-0.240408	-0.230244	-0.167133	-0.231551	0.978174	0.007373	-0.560329	-0.158028	0.872789	-0.597253	-0.485718	-0.341647	2.339464	-0.422607	-0.342549	-0.432582	-0.181722	-0.041008	-0.313913	-0.15324	-0.823477	-0.377001	-0.078027	-0.078299	-0.108422	0	0.601277	0.398723	40	40	40	40	40
-0.783474	-0.169535	-0.230244	0.21003	0.039381	0.888463	-0.125685	-0.265457	0.15747	0.50378	-0.323092	-0.10566	-0.341647	2.339464	-0.422607	-0.300453	-0.432582	-0.181722	-0.041008	-0.313913	-0.15324	-0.327464	-0.115631	-0.078027	-0.078299	-0.108422	0.092586	0.736528	0.170886	40	40	40	40	40
-0.400276	-0.240408	-0.230244	0.222884	0.228002	0.571576	-0.417769	-0.186375	0.028466	-0.18949	-0.078852	0.032517	-0.341647	2.339464	-0.422607	-0.342549	-0.432582	-0.181722	-0.041008	-0.313913	-0.15324	-0.219165	-0.050808	-0.078027	-0.078299	-0.108422	0	0.524448	0.475552	40	40	40	40	40
-0.03183	-0.240408	-0.230244	-0.25462	0.185904	0.420468	-0.320761	-0.260463	-0.960411	-0.050483	0.091679	0.028191	-0.341647	2.339464	-0.422607	-0.342549	-0.432582	-0.181722	-0.041008	0.76842	-0.15324	-0.389761	-0.560547	-0.078027	-0.078299	-0.108422	2E-06	3E-06	0.999996	40	40	40	40	40
-0.128441	-0.240408	-0.230244	0.23022	-0.095529	-0.025207	-0.197877	-0.31921	-0.566345	-0.284034	0.669877	0.028192	-0.341647	2.339464	-0.422607	-0.342549	-0.432582	-0.181722	-0.041008	1.850751	-0.15324	0.260812	-0.408541	-0.078027	-0.078299	-0.108422	1	0	0	40	40	40	40	40
0.546509	-0.240408	-0.230244	-0.434314	0.620225	-0.042902	-0.049652	-0.403691	-0.57245	-0.427341	-0.259714	-0.041065	-0.341647	1.048781	0.097846	-0.342549	-0.432582	-0.181722	-0.041008	2.374912	-0.15324	-0.517259	-0.345483	-0.078027	-0.078299	-0.108422	0.249782	0.630671	0.119547	40	40	40	40	40
1.221707	-0.240408	-0.230244	-0.456436	1.739846	0.041851	-0.224353	-0.27171	-0.697302	-0.410021	-0.410249	0.462431	-0.341647	-0.273596	1.837201	-0.342549	-0.432582	-0.181722	-0.041008	2.501526	-0.15324	-0.715048	0.014052	-0.078027	-0.078299	-0.108422	0	1	0	40	40	40	40	40
0.979158	0.31835	-0.230244	-0.486711	0.959116	-0.669622	-0.009472	-0.339459	-0.297515	-0.732368	-0.09148	-0.091656	-0.341647	-0.273596	0.548984	-0.342549	-0.432582	-0.181722	-0.041008	3.366477	-0.15324	-0.394441	-0.290014	-0.078027	-0.078299	-0.108422	0	0.671168	0.328832	40	40	40	40	40
0.456708	0.611295	-0.230244	-0.10978	-0.005039	-0.615348	0.159274	-0.230315	-0.375756	-0.821937	-0.030224	-0.417829	-0.272816	-0.273596	-0.010853	-0.342549	-0.432582	-0.181722	-0.041008	3.523181	-0.15324	0.018423	-0.251731	-0.078027	-0.078299	-0.108422	0	0.817792	0.182208	40	40	40	40	40
0.157027	-0.240408	-0.230244	-0.085721	-0.503914	-0.238637	0.460428	-0.291074	-0.826717	-0.687964	0.181092	-0.71828	-0.341647	-0.273596	-0.422607	-0.342549	-0.432582	-0.181722	-0.041008	2.933083	-0.15324	0.152383	-0.42992	-0.078027	-0.078299	-0.108422	0	1	0	40	40	40	40	40
0.998295	-0.240408	-0.230244	0.073096	-0.59122	0.010364	0.246774	-0.147438	-0.419303	-0.888792	-0.833852	-0.71828	-0.341647	-0.273596	-0.422607	-0.342549	-0.432582	-0.181722	-0.041008	2.933083	-0.15324	0.152383	-0.168662	-0.078027	-0.078299	-0.108422	0	1	0	40	40	40	40	40
1.47891	-0.240408	-0.230244	-0.609813	-0.241083	0.031041	0.159249	-0.448173	-0.291786	-1.272985	-1.104704	-0.452405	-0.341647	-0.273596	-0.422607	-0.342549	0.785729	-0.181722	-0.041008	3.364644	-0.15324	-0.346527	-0.534092	-0.078027	-0.078299	-0.108422	0	1	0	40	40	40	40	40
0.625149	-0.240408	-0.230244	-0.016165	0.036065	0.233468	-0.117462	-0.201797	0.02263	-0.887813	-0.437426	-0.673104	-0.115472	-0.273596	-0.422607	-0.342549	1.151588	-0.181722	-0.041008	3.070498	-0.15324	0.055685	-0.354656	-0.078027	-0.078299	-0.108422	0	1	0	40	40	40	40	40
0.603412	-0.240408	-0.230244	-0.005052	0.817313	0.242756	-0.772583	-0.267818	0.354072	-0.338716	0.011908	-0.71828	0.816188	-0.273596	-0.422607	-0.342549	2.266085	-0.181722	-0.041008	2.933081	-0.15324	0.152383	-0.429921	-0.078027	-0.078299	-0.108422	0	1	0	40	40	40	40	40
0.338465	-0.240408	-0.230244	0.275055	0.166542	0.32773	-0.733879	-0.215058	0.360049	1.510656	0.520463	-0.71828	-0.341647	-0.273596	-0.422607	-0.342549	2.414711	-0.181722	-0.041008	2.933083	-0.15324	0.456419	-0.821807	-0.078027	-0.078299	-0.108422	0	1	0	40	40	40	40	40
-0.172702	-0.240408	-0.230244	0.361503	-0.228408	0.317612	-0.542686	-0.243811	-0.11109	0.71298	0.474207	-0.552497	-0.341647	0.652666	0.378437	-0.342549	2.271305	-0.181722	-0.041008	1.418609	-0.15324	0.4904	-0.438689	-0.078027	-0.078299	-0.108422	0.354474	0.645526	0	40	40	40	40	40
-0.708467	-0.240408	-0.230244	0.876692	-0.329	0.587024	-0.265917	-0.118065	-0.117333	0.288102	1.026835	-0.204354	-0.341647	2.339464	1.837201	-0.342549	1.64662	-0.181722	-0.041008	-0.313913	-0.15324	1.063053	-0.038033	-0.078027	-0.078299	-0.108422	1	0	0	40	40	40	40	40
-0.718576	-0.240408	-0.230244	0.962976	-0.202658	0.543499	-0.433718	-0.05515	0.046591	-0.108128	1.026833	-0.204354	-0.341647	2.339464	1.837201	-0.342549	0.338184	-0.181722	-0.041008	-0.313913	-0.15324	1.019815	0.353853	-0.078027	-0.078299	-0.108422	1	0	0	40	40	40	40	40
-0.430602	-0.240408	-0.230244	1.037297	-0.458926	0.696783	-0.665239	0.066748	0.205045	0.006963	0.378966	-0.204354	-0.341647	2.339464	1.837201	-0.342549	-0.432582	-0.181722	-0.041008	-0.313913	-0.15324	1.080135	0.417899	-0.078027	-0.078299	-0.108422	1	0	0	40	40	40	40	40
-0.585858	-0.240408	-0.230244	0.992739	-0.654309	0.345383	-0.339534	0.066525	-0.322702	0.022904	0.422311	-0.204354	-0.341647	2.339464	1.837201	-0.342549	-0.432582	-0.181722	-0.041008	-0.313913	-0.15324	1.040138	0.286903	-0.078027	-0.078299	-0.108422	1	0	0	40	40	40	40	40
-0.759082	-0.240408	-0.230244	0.978274	-0.454273	0.425764	-0.344917	0.00476	-0.396849	0.274648	0.521241	-0.257669	-0.341647	3.160148	1.837201	-0.342549	-0.432582	-0.181722	-0.041008	-0.313913	-0.15324	0.998068	0.254099	-0.078027	-0.078299	-0.108422	1	0	0	40	40	40	40	40
-0.667072	-0.240408	-0.230244	1.068853	-0.251228	0.488818	-0.240079	0.021197	-0.268579	0.003048	0.01191	-0.204354	-0.341647	4.95252	1.837193	-0.342549	-0.432582	-0.181722	-0.041008	-0.313913	-0.15324	0.911386	0.092595	-0.078027	-0.078299	-0.108422	1	0	0	40	40	40	40	40
-0.463829	-0.240408	-0.230244	0.872065	-0.25901	-0.022602	-0.209383	-0.030412	-0.327908	0.24546	0.804343	-0.204354	-0.341647	4.952523	-0.422607	-0.342549	-0.432582	-0.181722	-0.041008	-0.313913	-0.15324	1.054006	-0.168662	-0.078027	-0.078299	-0.108422	1	0	0	40	40	40	40	40
-0.658091	-0.240408	-0.230244	0.738615	-0.396938	0.784505	-0.604924	-0.106195	-0.353109	0.357573	0.323135	-0.204354	-0.341647	4.952523	-0.422607	-0.342549	-0.432582	-0.181722	-0.041008	-0.313913	-0.15324	0.654492	-0.168662	-0.078027	-0.078299	-0.108422	1	0	0	40	40	40	40	40
-0.693931	-0.240408	-0.230244	0.919022	-0.262108	0.647453	0.029285	-0.051732	-0.052592	0.117237	0.7923	-0.122198	-0.341647	4.952523	-0.422607	-0.342549	-0.432582	-0.181722	-0.041008	-0.313913	-0.15324	1.010744	-0.239265	-0.078027	-0.078299	-0.108422	0.982229	0	0.017771	40	40	40	40	40
-0.886899	-0.240408	-0.230244	0.931143	-0.183612	0.731302	0.340837	-0.222284	0.443103	-0.008362	1.128547	0.061483	-0.341647	4.952523	-0.422607	-0.342549	-0.432582	-0.181722	-0.041008	-0.313913	-0.15324	1.258644	-0.482859	-0.078027	-0.078299	-0.108422	1	0	0	40	40	40	40	40
-0.251115	-0.240408	-0.230244	2.796	-0.309938	-0.889268	-0.358256	4.445065	0.030784	1.450963	-0.42809	0.527529	2.670191	4.952523	-0.422607	0.213146	-0.432582	-0.181722	-0.041008	-0.313913	-0.15324	2.865825	1.818863	-0.078027	-0.078299	-0.108422	0	1	0	40	40	40	40	40
0.381795	-0.240408	-0.230244	1.919696	0.159301	-0.50619	0.28363	3.141577	-0.092844	0.934737	0.094063	0.428699	3.429559	0.879612	-0.422607	-0.277031	0.220245	-0.181722	-0.041008	-0.313913	-0.15324	2.135777	2.427721	-0.078027	-0.078299	-0.108422	0.425975	0.574025	0	40	40	40	40	40
0.397388	-0.240408	-0.230244	1.119275	0.185906	0.693868	1.196073	2.19285	-0.122523	0.752462	1.028263	0.566503	3.131879	-0.273596	-0.422607	-0.342549	1.11783	-0.181722	-0.041008	-0.313913	-0.15324	1.345105	2.052034	-0.078027	-0.078299	-0.108422	0.999999	1E-06	0	40	40	40	40	40
-0.39237	-0.240408	-0.230244	1.449511	0.137334	0.502488	1.373578	2.228905	0.246456	0.283049	1.366576	0.566503	3.131877	-0.273596	-0.422607	-0.342549	1.027037	-0.181722	-0.041008	-0.313913	-0.15324	1.561961	2.705176	-0.078027	-0.078299	-0.108422	0.999998	2E-06	0	40	40	40	40	40
-0.153724	-0.240408	-0.230244	1.775428	-0.667009	0.475075	1.938357	2.3246	1.007572	-0.15159	1.488654	1.433457	1.974035	-0.273596	-0.422607	-0.342549	0.094018	-0.181722	-0.041008	-0.313913	-0.15324	1.822048	3.097063	-0.078027	-0.078299	-0.108422	0	1	0	40	40	40	40	40
-0.393366	-0.240408	-0.230244	1.886863	-0.708363	0.335903	1.963694	2.45816	0.673542	0.071734	2.301875	1.457157	2.587189	0.962142	-0.422607	-0.247385	-0.115225	-0.181722	-0.041008	-0.313913	-0.15324	2.28161	3.052718	-0.078027	-0.078299	-0.108422	0	1	0	40	40	40	40	40
-0.249663	-0.240408	-0.230244	1.845475	-0.726908	0.340989	1.826133	2.440495	0.573421	0.285129	2.822511	1.768739	2.595864	1.389481	-0.422607	0.101405	-0.432579	-0.181722	-0.041008	0.008806	-0.15324	2.326677	3.019534	-0.078027	-0.078299	-0.108422	0	1	0	40	40	40	40	40
-0.204862	-0.240408	-0.230244	1.642871	-0.776437	0.229559	1.369199	2.215935	0.232271	0.316219	2.767317	1.715951	2.452657	1.573018	-0.422607	0.474975	-0.432582	-0.181722	-0.041008	0.464974	-0.15324	2.074968	2.641799	-0.078027	-0.078299	-0.108422	0	1	0	40	40	40	40	40
-0.246769	-0.240408	-0.230244	1.075172	-1.063489	0.66302	-0.476022	1.143358	-0.184645	0.222262	1.04252	1.448725	0.816203	-0.273594	-0.422606	4.313136	-0.432575	-0.181722	-0.041008	0.991074	-0.15324	0.563148	2.3424	-0.078027	-0.078299	-0.108422	0	0.999996	4E-06	40	40	40	40	40
-1.006505	-0.240408	-0.230244	1.166337	-1.387707	0.986117	-0.814562	0.64709	-0.125124	0.146138	0.722937	1.233288	0.816194	-0.273596	-0.422607	5.787436	-0.432582	-0.181722	-0.041008	-0.313913	-0.15324	0.607348	2.705176	-0.078027	-0.078299	-0.108422	0	1	0	40	40	40	40	40
-1.028725	-0.240408	-0.230244	0.66869	-1.265661	1.195383	-0.587508	0.407165	-0.401547	-0.191711	1.42169	1.788582	0.089669	-0.273596	-0.096326	3.835142	-0.432582	-0.181722	-0.041008	-0.313913	-0.15324	0.285337	1.494897	-0.078027	-0.078299	-0.108422	0	0.372518	0.627482	40	40	40	40	40
-1.108893	-0.240408	-0.230244	0.122768	-1.107469	1.350209	-0.559342	0.116827	-0.721668	-0.4912	2.042062	1.900073	-0.341647	-0.273596	-0.422607	2.444659	-0.432582	-0.181722	-0.041008	-0.313913	-0.15324	-0.236369	0.746193	-0.078027	-0.078299	-0.108422	0	0	1	40	40	40	40	40
-1.057132	-0.240408	-0.230244	-0.428881	-0.816134	1.551603	-0.160133	-0.295503	-0.263657	-0.068037	1.415884	1.901543	-0.341647	-0.273596	-0.227452	2.045663	-0.15655	-0.181722	-0.041008	-0.072727	-0.15324	-0.838587	0.382671	-0.078027	-0.078299	-0.108422	0	0	1	40	40	40	40	40
-0.46105	-0.240408	-0.230244	-1.320964	0.283042	1.60977	-0.95008	-0.721169	0.661552	0.694813	1.368003	2.181434	-0.341646	-0.273596	-0.422607	1.051055	-0.432579	-0.181722	-0.041008	-0.31391	-0.15324	-1.799337	0.223225	-0.078027	-0.078299	-0.108422	1E-06	0	0.999999	40	40	40	40	40
-1.405325	-0.240408	-0.230244	-2.276382	0.234473	2.019872	-0.256213	-1.06362	-0.460754	0.093637	-0.15579	1.900072	0.816189	-0.273595	-0.422607	-0.342543	-0.43258	-0.181722	-0.041008	-0.313911	-0.15324	-1.799337	0.484481	-0.078027	-0.078299	-0.108422	1E-06	0	0.999999	40	40	40	40	40
-1.763893	-0.240408	-0.230244	-1.120108	0.332681	1.391142	-0.025443	-0.868705	-0.152214	-0.089513	0.184578	1.245588	-0.098813	1.023752	-0.422607	-0.342549	-0.332932	-0.181722	-0.041008	-0.125581	-0.15324	-1.25888	-0.194795	-0.078027	-0.078299	-0.108422	0.426742	0	0.573258	40	40	40	40	40
-2.761651	-0.240407	-0.230244	-1.066349	0.865885	0.557171	-0.191669	-0.951717	-0.18402	0.554814	-1.002997	-0.485714	-0.341647	2.339462	-0.422607	-0.342548	-0.432581	-0.181722	-0.041008	-0.313913	-0.15324	-1.148763	-0.42992	-0.078027	-0.078299	-0.108422	1E-06	2E-06	0.999997	40	40	40	40	40
-2.298095	2.105859	-0.230244	0.1462	-0.736927	0.707541	-0.207806	-0.368822	0.769174	0.229518	-1.172146	-0.485715	-0.341647	2.339464	-0.422607	1.051048	-0.432582	-0.181722	-0.041008	-0.313913	-0.15324	-0.498192	-0.038036	-0.078027	-0.078299	-0.108422	2E-06	0.999997	1E-06	40	40	40	40	40
-0.449823	-0.240408	-0.230244	0.026105	-0.446145	0.890881	0.03456	-0.396276	0.534345	-0.550577	-0.69897	0.056749	-0.341647	2.339464	-0.422607	-0.342549	-0.432582	-0.181722	-0.041008	-0.313913	-0.15324	-0.324562	-0.66471	-0.078027	-0.078299	-0.108422	0.398689	0.601311	0	40	40	40	40	40
-0.02347	-0.240408	-0.230244	-0.2242	0.507879	0.513701	-0.317795	-0.309683	0.581588	0.022168	-0.620632	-0.173649	-0.341647	2.339464	-0.422607	-0.342549	-0.432582	-0.181722	-0.041008	-0.264943	-0.15324	-0.595695	-0.280058	-0.078027	-0.078299	-0.108422	0.296897	0.398661	0.304442	40	40	40	40	40
0.012538	-0.240408	-0.230244	-0.246033	0.356538	0.387113	-0.295969	-0.339008	0.18032	0.022033	-0.562701	-0.224984	-0.341647	2.339464	-0.422607	-0.342549	-0.432582	-0.181722	-0.041008	0.506966	-0.15324	-0.5736	-0.250666	-0.078027	-0.078299	-0.108422	0.300383	0.420913	0.278705	40	40	40	40	40
0.275475	-0.240408	-0.230244	-0.503544	0.382146	0.0138	-0.304251	-0.478244	0.26981	0.069578	-0.532516	-0.255077	-0.341647	2.09752	-0.422607	-0.342549	-0.432582	-0.181722	-0.041008	1.037151	-0.15324	-0.716323	-0.392754	-0.078027	-0.078299	-0.108422	0.40979	0.195331	0.394879	40	40	40	40	40
0.62378	-0.240408	-0.230244	-0.616628	0.680205	-0.426632	-0.193289	-0.461141	-0.398981	-0.258491	-0.402391	-0.135153	-0.341647	0.8637	0.001305	-0.342549	-0.432582	-0.181722	-0.041008	2.397604	-0.15324	-0.675276	-0.425241	-0.078027	-0.078299	-0.108422	0.177427	0.50934	0.313234	40	40	40	40	40
1.225195	-0.240408	-0.230244	-0.855785	1.295187	-0.965679	-0.094197	-0.444656	-0.354586	-0.315803	-0.298622	-0.102144	-0.341647	-0.273596	0.194832	-0.342549	-0.432582	-0.181722	-0.041008	2.905412	-0.15324	-0.744845	-0.497721	-0.078027	-0.078299	-0.108422	0	0.534968	0.465032	40	40	40	40	40
1.162472	-0.240408	-0.230244	-0.930982	2.041729	-0.459695	-0.891767	-0.551534	-1.315161	-1.184233	-0.241101	0.405431	-0.341647	-0.273596	-0.422607	-0.342549	-0.432582	-0.181722	-0.041008	2.933083	-0.15324	-0.824177	-0.299291	-0.078027	-0.078299	-0.108422	0	1	0	40	40	40	40	40
0.767958	-0.240408	-0.230244	0.140174	-0.065562	-0.619514	-0.414997	0.049745	-0.510816	-0.250374	-0.378128	-0.452911	-0.253442	-0.273596	-0.422607	-0.342549	-0.432582	-0.181722	-0.041008	2.614754	-0.15324	0.047788	-0.006294	-0.078027	-0.078299	-0.108422	0	0.672891	0.327109	40	40	40	40	40
0.002512	-0.240408	-0.230244	1.119266	-1.271199	0.092383	-0.078714	0.833715	-0.330076	0.385986	-0.83385	-0.456053	0.816187	-0.273596	-0.422607	-0.342549	-0.432582	-0.181722	-0.041008	2.933082	-0.15324	0.694525	1.13762	-0.078027	-0.078299	-0.108422	0	0.999999	1E-06	40	40	40	40	40
0.998293	-0.240408	-0.230244	0.073096	-0.68836	0.106055	-0.062576	-0.136471	-0.468443	-0.548721	-0.833851	-0.718279	-0.341647	-0.273596	-0.422607	-0.342549	-0.432581	-0.181722	-0.041008	2.933083	-0.15324	0.152383	-0.168662	-0.078027	-0.078299	-0.108422	0	1	0	40	40	40	40	40
0.813026	-0.240408	-0.230244	-0.018326	-0.549691	0.209024	-0.063274	-0.224769	-0.514827	-0.683898	-0.775337	-0.569659	-0.341647	-0.273596	-0.422607	-0.342549	0.138969	-0.181722	-0.041008	2.964207	-0.15324	-0.001955	-0.231765	-0.078027	-0.078299	-0.108422	0	1	0	40	40	40	40	40
0.740764	-0.240408	-0.230244	0.073096	-0.63179	0.197944	0.337649	-0.205581	-0.445274	-0.589185	-0.664704	-0.71828	-0.341647	-0.273596	-0.422607	-0.342549	0.769677	-0.181722	-0.041008	2.933083	-0.15324	0.152383	-0.168662	-0.078027	-0.078299	-0.108422	0	1	0	40	40	40	40	40
-0.142924	-0.240408	-0.230244	0.005066	-0.383284	0.395457	-0.412882	-0.344235	-0.487	0.175818	-0.011165	-0.573145	-0.341647	-0.273596	-0.422607	-0.342549	2.010932	-0.181722	-0.041008	2.413043	-0.15324	0.125133	-0.44165	-0.078027	-0.078299	-0.108422	0	1	0	40	40	40	40	40
-0.236926	-0.240408	-0.230244	-0.046491	-0.478763	0.044731	-0.71597	-0.406865	-0.58975	0.148099	0.127743	-0.767083	-0.341647	-0.273596	-0.422607	-0.342549	2.778286	-0.181722	-0.041008	1.850751	-0.15324	0.003908	-0.554839	-0.078027	-0.078299	-0.108422	0	1	0	40	40	40	40	40
-0.501241	-0.240408	-0.230244	0.378861	-0.255058	0.462116	-0.15141	-0.221037	0.368972	0.373986	0.412188	-0.445971	-0.341647	0.968625	0.651682	-0.342549	1.690258	-0.181722	-0.041008	1.080337	-0.15324	0.556796	-0.428913	-0.078027	-0.078299	-0.108422	0.475389	0.524611	0	40	40	40	40	40
-0.679797	-0.240408	-0.230244	0.789469	-0.2759	0.472743	0.348211	-0.064035	1.022946	-0.07494	0.620482	-0.303979	-0.341647	2.339463	1.837201	-0.342549	0.553025	-0.181722	-0.041008	-0.313912	-0.15324	0.993174	-0.176101	-0.078027	-0.078299	-0.108422	1	0	0	40	40	40	40	40
-0.642073	-0.240408	-0.230244	0.823232	-0.313832	0.55974	-0.044296	-0.080596	0.476952	0.082607	0.638129	-0.250337	-0.341647	2.339464	1.837201	-0.342549	0.097126	-0.181722	-0.041008	-0.30638	-0.15324	0.994103	-0.038511	-0.078027	-0.078299	-0.108422	1	0	0	40	40	40	40	40
-0.340865	-0.240408	-0.230244	0.962976	-0.348368	0.70754	0.066513	0.039319	-0.10715	0.118342	1.106586	0.309551	-0.341647	2.339464	1.837201	-0.342549	-0.432582	-0.181722	-0.041008	0.768409	-0.15324	1.128245	-0.038033	-0.078027	-0.078299	-0.108422	1	0	0	40	40	40	40	40
-0.667869	-0.240408	-0.230244	0.937387	-0.35469	0.655112	-0.531818	-0.049922	-0.274254	0.424287	0.657461	-0.321874	-0.341647	2.339464	1.837201	-0.342549	-0.432582	-0.181722	-0.041008	-0.313913	-0.15324	0.968033	0.353854	-0.078027	-0.078299	-0.108422	1	0	0	40	40	40	40	40
-0.894399	-0.240408	-0.230244	0.984084	-0.455037	0.47299	0.03118	0.019616	-0.500404	-0.15984	0.451928	-0.204354	-0.341647	2.339464	1.837201	-0.342549	-0.432582	-0.181722	-0.041008	-0.313913	-0.15324	0.911386	0.327395	-0.078027	-0.078299	-0.108422	1	0	0	40	40	40	40	40
-0.819222	-0.240408	-0.230244	0.905339	-0.298448	0.540819	-0.377225	-0.040304	-0.365919	-0.069072	0.334863	-0.182216	-0.341647	4.219407	0.267182	-0.342549	-0.432582	-0.181722	-0.041008	-0.313913	-0.15324	0.770797	-0.024737	-0.078027	-0.078299	-0.108422	0.945469	0	0.054531	40	40	40	40	40
-0.650199	-0.240408	-0.230244	0.877738	-0.230944	0.526497	-0.273774	-0.01965	-0.378925	-0.330861	0.214577	-0.204354	-0.341647	4.952523	-0.422607	-0.342549	-0.432582	-0.181722	-0.041008	-0.313913	-0.15324	0.731265	-0.168662	-0.078027	-0.078299	-0.108422	1	0	0	40	40	40	40	40
-0.481138	-0.240408	-0.230244	0.781977	-0.218633	0.576643	-0.255721	-0.040832	-0.23342	0.026881	0.158264	-0.204354	-0.341647	4.952523	-0.422607	-0.342549	-0.432582	-0.181722	-0.041008	-0.313913	-0.15324	0.669795	-0.168662	-0.078027	-0.078299	-0.108422	1	0	0	40	40	40	40	40
-0.392372	-0.240408	-0.230244	0.854577	-0.299797	1.158651	0.356972	-0.009754	0.346385	0.484813	0.350223	-0.204354	-0.341647	4.952523	-0.422607	-0.342549	-0.432582	-0.181722	-0.041008	-0.313913	-0.15324	0.802957	-0.168663	-0.078027	-0.078299	-0.108422	1	0	0	40	40	40	40	40
-0.255025	-0.240408	-0.230244	0.910037	-0.445508	0.311109	0.3247	0.118628	0.638493	0.089519	0.688521	-0.204354	-0.341647	4.952523	-0.422607	-0.342548	-0.432582	-0.181722	-0.041008	-0.313913	-0.15324	1.019815	-0.691176	-0.078027	-0.078299	-0.108422	1	0	0	40	40	40	40	40
1.204315	-0.240408	-0.230244	1.449514	0.234475	-2.99706	-1.014631	1.610882	-0.122524	1.320701	-1.67961	-0.767079	4.289718	-0.273585	-0.422607	-0.342548	-0.432581	-0.181722	-0.041008	-0.313913	-0.15324	1.561963	3.227688	-0.078027	-0.078299	-0.108422	1E-06	0.999999	0	40	40	40	40	40
0.281714	-0.240408	-0.230244	1.603532	0.278764	-0.790334	0.125724	2.756772	-0.184656	0.467588	-0.343347	-0.049081	4.261947	0.771498	-0.422607	-0.319931	0.629414	-0.181722	-0.041008	-0.313913	-0.15324	1.735451	2.53136	-0.078027	-0.078299	-0.108422	0.619153	0.380847	0	40	40	40	40	40
0.225702	-0.240408	-0.230244	1.217587	0.428757	0.182536	1.128364	2.432443	-0.203917	0.503762	0.266363	-0.100298	4.289718	-0.273596	-0.422607	-0.342549	1.107863	-0.181722	-0.041008	-0.313913	-0.15324	1.345102	2.313289	-0.078027	-0.078299	-0.108422	1	0	0	40	40	40	40	40
0.039875	-0.240408	-0.230244	1.522569	0.263681	0.351938	0.739713	2.78886	0.15416	0.186135	1.231696	0.566503	4.289718	-0.273596	-0.422607	-0.342549	1.090599	-0.181722	-0.041008	-0.313913	-0.15324	1.714329	2.862273	-0.078027	-0.078299	-0.108422	1	0	0	40	40	40	40	40
-0.186228	-0.240408	-0.230244	1.932504	-0.481134	0.387316	1.961241	2.779729	0.79158	-0.197735	1.05538	0.847898	3.131877	-0.273596	-0.422607	-0.342549	0.967973	-0.181722	-0.041008	-0.313913	-0.15324	2.110333	3.358321	-0.078027	-0.078299	-0.108422	0	1	0	40	40	40	40	40
-0.35988	-0.240408	-0.230244	1.873187	-0.706233	0.360721	1.956301	2.418983	0.701966	0.079813	2.30424	1.510852	2.512805	0.791256	-0.422607	-0.198743	-0.249397	-0.181722	-0.041008	-0.313913	-0.15324	2.252717	3.058306	-0.078027	-0.078299	-0.108422	0	1	0	40	40	40	40	40
-0.56238	-0.240408	-0.230244	1.947787	-0.808599	0.214747	2.02198	2.471829	0.406005	0.333267	3.505741	1.831712	3.131877	2.339464	-0.422607	-0.342549	-0.432582	-0.181722	-0.041008	-0.313913	-0.15324	2.754679	2.960047	-0.078027	-0.078299	-0.108422	0	1	0	40	40	40	40	40
-0.419023	-0.240408	-0.230244	1.698613	-0.816217	0.241459	1.591049	2.093265	0.328903	0.217562	2.906173	1.704343	2.543789	1.389503	-0.422607	0.059851	-0.432582	-0.181722	-0.041008	-0.001392	-0.15324	2.2445	2.645423	-0.078027	-0.078299	-0.108422	0	1	0	40	40	40	40	40
-0.340869	-0.240408	-0.230244	0.55711	-1.222635	0.188077	-0.627356	0.453066	-0.629871	-0.388129	0.520779	0.847896	0.816192	-0.273596	-0.422607	2.444667	-0.432582	-0.181722	-0.041008	1.850748	-0.15324	0.043955	1.137629	-0.078027	-0.078299	-0.108422	0	0.999998	2E-06	40	40	40	40	40
-1.645685	-0.240408	-0.230244	0.073099	-1.562625	0.76222	-0.643492	-0.486275	-0.875855	-0.985188	-1.002995	-0.767076	-0.341643	-0.273596	-0.422607	5.23186	-0.432582	-0.181722	-0.041008	-0.313905	-0.15324	-0.389758	0.615116	-0.078027	-0.078299	-0.108422	0	3E-06	0.999997	40	40	40	40	40
-1.144904	-0.240408	-0.230244	0.28449	-1.355158	0.894957	-0.505868	0.033985	-0.653783	-0.111609	0.543967	0.64397	0.061553	-0.273596	-0.422607	3.948973	-0.432582	-0.181722	-0.041008	0.332061	-0.15324	-0.039062	0.997675	-0.078027	-0.078299	-0.108422	0	0.265935	0.734065	40	40	40	40	40
-1.138831	-0.240408	-0.230244	-0.238204	-1.097365	1.09049	-0.390466	-0.247686	-0.81442	-0.248322	0.816213	0.939163	-0.341647	-0.273596	-0.422607	3.27167	-0.432582	-0.181722	-0.041008	-0.313913	-0.15324	-0.543341	0.364905	-0.078027	-0.078299	-0.108422	0	0	1	40	40	40	40	40
-0.91873	-0.240408	-0.230244	-0.533652	-0.614823	1.317903	0.12317	-0.386629	-0.654999	0.008313	1.002685	1.45301	-0.341647	-0.273596	-0.422607	2.619476	-0.140954	-0.181722	-0.041008	-0.056801	-0.15324	-0.784886	0.236058	-0.078027	-0.078299	-0.108422	0	0	1	40	40	40	40	40
-1.208408	-0.240408	-0.230244	-1.268698	-0.270593	1.76291	0.485651	-0.856255	-0.895011	0.312905	0.471476	1.481343	-0.341647	-0.273596	-0.422607	2.444659	0.785785	-0.181722	-0.041008	0.768419	-0.15324	-1.690909	-0.011571	-0.078027	-0.078299	-0.108422	0	0	1	40	40	40	40	40
-0.870158	-0.240408	-0.230244	-0.528873	-0.250352	1.332959	0.713266	-0.516594	-0.375158	0.326257	0.30591	1.033935	-0.221138	-0.273596	-0.422607	1.402261	-0.084708	-0.181722	-0.041008	0.124489	-0.15324	-0.850855	0.11391	-0.078027	-0.078299	-0.108422	0	0.182217	0.817783	40	40	40	40	40
-1.954721	-0.240408	-0.230244	-0.342853	-0.688358	1.514075	0.29243	-0.724103	-0.622181	1.258933	-0.326388	0.566501	-0.341647	-0.273595	-0.422607	-0.342545	0.399368	-0.181722	-0.041008	-0.313911	-0.15324	-0.498192	0.092595	-0.078027	-0.078299	-0.108422	0	1E-06	0.999999	40	40	40	40	40
-1.319484	-0.240406	-0.230244	-0.254621	-0.736928	0.52983	0.841069	-0.658946	0.484755	0.315991	-0.833853	-0.76708	-0.341647	-0.273592	-0.422607	-0.342547	-0.432581	-0.181722	-0.041008	-0.313913	-0.15324	-0.498192	-0.429918	-0.078027	-0.078299	-0.108422	0	1E-06	0.999999	40	40	40	40	40
-1.127587	0.019242	-0.230244	-0.198145	-0.350552	0.660897	0.365423	-0.526538	0.704456	-0.101839	-0.907114	-0.356302	-0.341647	1.244786	-0.422607	-0.188326	-0.375723	-0.181722	-0.041008	-0.313913	-0.15324	-0.627131	-0.350385	-0.078027	-0.078299	-0.108422	0.16074	0.34416	0.495101	40	40	40	40	40
-0.602054	0.071658	-0.230244	-0.046628	0.066188	0.790483	-0.015136	-0.274093	0.913215	0.136146	-0.945356	-0.267803	-0.341647	1.92058	-0.422607	-0.157193	-0.432582	-0.181722	-0.041008	-0.313913	-0.15324	-0.496274	-0.363504	-0.078027	-0.078299	-0.108422	0.193196	0.646498	0.160306	40	40	40	40	40
0.174196	-0.240408	-0.230244	-0.085723	1.448729	1.00828	-0.256215	0.081194	0.869109	0.950109	-1.172148	-0.485718	-0.341647	2.339464	-0.422607	-0.342549	-0.432582	-0.181722	-0.041008	-0.313913	-0.15324	-0.498192	-0.299292	-0.078027	-0.078299	-0.108422	2E-06	0.999997	1E-06	40	40	40	40	40
0.541009	-0.240408	-0.230244	-0.997418	1.161732	-0.074793	-0.5679	-0.617427	1.321435	0.323723	-1.032116	-0.426885	-0.341647	2.339464	-0.422607	-0.342549	-0.432582	-0.181722	-0.041008	-0.313913	-0.15324	-1.234521	-0.33939	-0.078027	-0.078299	-0.108422	0.475533	0	0.524467	40	40	40	40	40
0.723595	-0.240408	-0.230244	-1.066353	0.749063	-0.117664	-0.372334	-0.600328	1.410601	0.114196	-0.853318	-0.17669	-0.341647	2.339464	-0.422607	-0.342549	-0.432582	-0.181722	-0.041008	1.199915	-0.15324	-1.257193	-0.664705	-0.078027	-0.078299	-0.108422	0	0	1	40	40	40	40	40
1.516835	-0.240408	-0.230244	-0.839471	0.767805	-1.353969	0.51716	-0.396616	0.75115	0.326603	-0.158614	-0.562184	-0.341647	-0.273596	-0.422607	-0.342549	-0.432582	-0.181722	-0.041008	2.501552	-0.15324	-0.649148	-0.796189	-0.078027	-0.078299	-0.108422	0	0	1	40	40	40	40	40
0.31155	-0.240408	-0.230244	-1.752034	0.671607	-3.106419	-1.01463	-0.965552	-0.168643	0.381872	-1.002999	-0.767081	-0.341647	-0.273596	-0.422607	-0.342549	-0.432582	-0.181722	-0.041008	4.01541	-0.15324	-1.36562	-0.952434	-0.078027	-0.078299	-0.108422	0	1E-06	0.999999	40	40	40	40	40
1.272994	-0.240408	-0.230244	0.146199	0.137335	-0.905538	-0.853266	0.135612	-0.199394	0.455991	-0.664704	-0.253174	-0.341647	-0.273596	-0.422607	-0.342549	-0.432582	-0.181722	-0.041008	2.933081	-0.15324	-0.064477	0.092594	-0.078027	-0.078299	-0.108422	0	2E-06	0.999998	40	40	40	40	40
1.046323	-0.240408	-0.230244	0.30273	-0.105517	-1.017042	-0.979091	0.304902	-0.297619	-0.109934	-0.732143	-0.737737	-0.341647	-0.273596	-0.422607	-0.342549	-0.432582	-0.181722	-0.041008	1.850751	-0.15324	0.043954	0.196758	-0.078027	-0.078299	-0.108422	0	0.601304	0.398696	40	40	40	40	40
0.637085	-0.152319	-0.230244	0.049363	-0.396913	0.043998	-0.535107	-0.046317	-0.682679	0.2236	-0.476899	-0.494101	-0.245783	-0.273596	-0.422607	-0.109644	-0.432582	-0.181722	-0.041008	2.693479	-0.15324	-0.010896	-0.159311	-0.078027	-0.078299	-0.108422	0	0.866257	0.133743	40	40	40	40	40
-0.117668	-0.240407	-0.230244	0.292413	-0.73693	0.96727	-0.8694	-0.161735	-0.93735	-0.346952	-0.41025	-0.051482	-0.341646	-0.273596	-0.422607	-0.342547	-0.43258	-0.181722	-0.041008	2.933084	-0.15324	-0.064474	-0.168662	-0.078027	-0.078299	-0.108422	0	1	0	40	40	40	40	40
0.567704	-0.183036	-0.088766	-0.015972	-0.642264	0.665091	-0.225075	-0.241879	-0.513883	-0.157451	-0.467935	-0.396846	-0.313336	-0.273596	-0.422607	0.003667	0.047347	-0.181722	-0.041008	2.959548	-0.15324	-0.058794	-0.299081	-0.078027	-0.078299	-0.108422	0	1	0	40	40	40	40	40
0.742155	-0.240408	0.22716	-0.161718	-0.849847	0.714935	0.07828	-0.298841	-0.359857	-0.323525	-0.46121	-0.314244	-0.341647	-0.273596	-0.422607	-0.088614	0.777161	-0.181722	-0.041008	2.933083	-0.15324	-0.128747	-0.335301	-0.078027	-0.078299	-0.108422	0	1	0	40	40	40	40	40
-0.264468	-0.240408	0.264015	-0.128083	-0.780187	0.756253	-0.347971	-0.393908	-0.822758	-0.339488	-0.039198	-0.261484	-0.341647	-0.273596	-0.422607	-0.116669	1.68755	-0.181722	-0.041008	2.185796	-0.15324	-0.039209	-0.34057	-0.078027	-0.078299	-0.108422	0	0.936263	0.063737	40	40	40	40	40
-2.401105	-0.240408	-0.230241	-0.254621	-0.542651	1.596095	-0.691901	-0.611011	-1.713744	-0.91519	0.599142	0.241599	-0.341647	-0.273596	-0.422607	-0.342549	2.038607	-0.181722	-0.041008	1.85075	-0.15324	0.043954	-0.168663	-0.078027	-0.078299	-0.108422	0	0.999999	1E-06	40	40	40	40	40
-0.838779	-0.240408	-0.047391	0.10338	-0.543274	0.557678	0.157438	-0.325206	0.452029	-0.378082	0.151197	-0.37324	-0.341647	0.625705	0.35512	-0.342549	1.432828	-0.181722	-0.041008	0.940868	-0.15324	0.284525	-0.416183	-0.078027	-0.078299	-0.108422	0.344156	0.579665	0.076179	40	40	40	40	40
-0.723168	-0.240408	-0.230244	0.595005	-0.232492	0.240961	1.518806	-0.015683	3.06148	-0.540919	-0.021253	-0.485718	-0.341647	2.339464	1.837201	-0.342549	-0.432582	-0.181722	-0.041008	-0.313913	-0.15324	0.868155	-0.560549	-0.078027	-0.078299	-0.108422	1	0	0	40	40	40	40	40
-0.62756	-0.240408	-0.230244	0.740954	-0.265304	0.462818	0.280036	-0.100705	0.834152	0.030503	0.545922	-0.26525	-0.341647	2.339464	1.837201	-0.342549	-0.432582	-0.181722	-0.041008	-0.266424	-0.15324	0.937426	-0.192294	-0.078027	-0.078299	-0.108422	1	0	0	40	40	40	40	40
-0.662754	-0.240408	-0.230244	0.769593	-0.343005	0.534609	-0.268832	-0.162377	0.043691	0.296525	0.821075	-0.204354	-0.341647	2.339464	1.837201	-0.342549	-0.432582	-0.181722	-0.041008	-0.313913	-0.15324	0.93739	-0.092297	-0.078027	-0.078299	-0.108422	1	0	0	40	40	40	40	40
-0.544859	-0.240408	-0.230244	0.842454	-0.491705	0.549146	0.324832	-0.044036	-0.467828	0.169421	0.635177	-0.33816	-0.341647	2.339464	1.837201	-0.342549	-0.432582	-0.181722	-0.041008	-0.313913	-0.15324	0.945581	-0.038033	-0.078027	-0.078299	-0.108422	1	0	0	40	40	40	40	40
-0.748852	-0.240408	-0.230244	0.897069	-0.344017	0.507795	-0.113038	0.055878	-0.394431	-0.059992	0.868955	-0.029607	-0.289259	2.339464	1.370688	-0.342549	-0.432582	-0.181722	-0.041008	-0.313913	-0.15324	0.974927	0.080049	-0.078027	-0.078299	-0.108422	0.838808	0.095466	0.065727	40	40	40	40	40
-2.469778	-0.240408	-0.230244	1.169688	-0.202657	0.85791	-0.917812	-0.158612	-0.045655	0.225399	1.623562	0.54074	-0.341647	2.339472	-0.422605	-0.342549	-0.432582	-0.181722	-0.041008	-0.313913	-0.15324	0.911385	0.092595	-0.078027	-0.078299	-0.108422	5E-06	1E-06	0.999995	40	40	40	40	40
-0.413677	-0.240408	-0.230244	0.775546	-0.116525	0.519694	-0.361689	0.030103	-0.158824	-0.114435	0.207779	-0.091719	-0.329023	4.679629	-0.422607	-0.342549	-0.432582	-0.181722	-0.041008	-0.272587	-0.15324	0.68159	-0.152014	-0.078027	-0.078299	-0.108422	0.906469	0.070521	0.02301	40	40	40	40	40
-0.076789	-0.240408	-0.230244	0.680634	-0.031968	0.36337	-0.178274	-0.009751	0.175251	0.083585	-0.113896	-0.204354	-0.341647	4.952523	-0.422607	-0.342549	-0.432582	-0.181722	-0.041008	-0.313913	-0.15324	0.613884	-0.168662	-0.078027	-0.078299	-0.108422	1	0	0	40	40	40	40	40
0.175699	-0.240408	-0.230244	0.706518	-0.138608	0.587828	-0.175533	-0.001292	-0.241163	0.348537	0.011908	-0.204354	-0.341647	4.952523	-0.422607	-0.342549	-0.432582	-0.181722	-0.041008	-0.313913	-0.15324	0.745175	-0.168662	-0.078027	-0.078299	-0.108422	1	0	0	40	40	40	40	40
-0.649902	-0.240408	-0.230244	0.854577	-0.251228	0.393128	-0.240078	0.012521	-0.330073	-0.223423	0.148464	-0.204354	-0.341647	4.952523	-0.422607	1.051055	-0.432582	-0.181722	-0.041008	-0.313913	-0.15324	0.5861	-0.168663	-0.078027	-0.078299	-0.108422	1	0	0	40	40	40	40	40
0.929618	-0.240408	-0.230244	2.271321	1.157308	-4.159015	0.244015	3.600456	-0.614494	1.028344	-1.679612	0.921079	6.605397	-0.273596	-0.422607	-0.342549	-0.432579	-0.181722	-0.041008	-0.313913	-0.15324	2.212528	2.966434	-0.078027	-0.078299	-0.108422	3E-06	0.999997	0	40	40	40	40	40
0.105523	-0.240408	-0.230244	0.796598	0.720177	-0.727826	-0.659626	1.978672	-0.08409	-0.24401	-1.341313	-0.767081	5.447558	-0.273596	-0.422607	-0.342549	1.047761	-0.181722	-0.041008	-0.313913	-0.15324	0.477674	2.443919	-0.078027	-0.078299	-0.108422	0.999999	1E-06	0	40	40	40	40	40
0.195179	-0.240408	-0.230244	1.068854	0.525897	-0.091222	-0.062157	2.257177	-0.653282	-0.583892	-0.138021	-0.366144	4.289718	-0.273596	-0.422607	-0.342549	1.734286	-0.181722	-0.041008	-0.313913	-0.15324	1.041783	2.052031	-0.078027	-0.078299	-0.108422	1	0	0	40	40	40	40	40
0.036847	-0.240408	-0.230244	1.119273	0.525896	-0.167347	1.776987	2.320199	-0.645242	-0.3346	0.43551	-0.100297	4.289718	-0.273596	-0.422607	-0.342548	1.677399	-0.181722	-0.041008	-0.313913	-0.15324	1.128245	2.443918	-0.078027	-0.078299	-0.108422	0.999999	1E-06	0	40	40	40	40	40
-0.567424	-0.240408	-0.230244	1.901112	-0.756618	0.636693	1.957656	2.231846	0.952621	-0.208375	1.695949	1.248831	2.435627	-0.273596	-0.422607	1.051055	-0.432582	-0.181722	-0.041008	-0.313913	-0.15324	1.930474	3.593104	-0.078027	-0.078299	-0.108422	0	1	0	40	40	40	40	40
-0.401089	-0.240408	-0.230244	1.880572	-0.73086	0.352011	1.9637	2.3758	0.633139	0.149417	2.664953	1.627081	2.733262	1.051821	-0.422607	-0.140569	-0.35009	-0.181722	-0.041008	-0.313913	-0.15324	2.380485	3.064617	-0.078027	-0.078299	-0.108422	0	1	0	40	40	40	40	40
-0.083335	-0.240408	-0.230244	1.741935	-0.59122	0.365787	1.889947	2.099287	0.769176	0.266579	3.059574	2.181412	1.974035	-0.273596	-0.422607	-0.342549	-0.432582	-0.181722	-0.041008	-0.313913	-0.15324	2.212534	2.835805	-0.078027	-0.078299	-0.108422	0	1	0	40	40	40	40	40
-0.419023	-0.240408	-0.230244	1.698613	-0.816217	0.241459	1.591049	2.093265	0.328903	0.217562	2.906171	1.704343	2.543789	1.389501	-0.422607	0.05985	-0.43258	-0.181722	-0.041008	-0.001393	-0.15324	2.244499	2.645424	-0.078027	-0.078299	-0.108422	0	1	0	40	40	40	40	40
-0.822604	-0.240408	-0.230244	0.255627	-1.406777	-0.041964	-0.623952	0.04115	-1.122978	-0.252755	-0.79823	-0.476657	0.53364	-0.273596	-0.422607	2.444659	-0.432582	-0.181722	-0.041008	0.482813	-0.15324	-0.169526	0.733442	-0.078027	-0.078299	-0.108422	0.110664	0.309671	0.579665	40	40	40	40	40
-1.079673	-0.240408	-0.230244	0.035898	-1.54326	0.104077	-0.236083	-0.272057	-0.940171	-0.321958	-0.799587	-0.56218	0.119998	-0.273596	-0.422607	2.444659	-0.432582	-0.181722	-0.041008	2.501544	-0.15324	-0.238101	0.353013	-0.078027	-0.078299	-0.108422	0	0	1	40	40	40	40	40
-0.82159	-0.240408	-0.230244	0.219308	-1.562624	0.352116	-0.885539	0.007679	-1.844423	-0.911071	-1.172148	-0.767081	-0.341644	-0.273596	-0.422607	2.444662	-0.432582	-0.181722	-0.041008	-0.31391	-0.15324	-0.389761	0.876368	-0.078027	-0.078299	-0.108422	0.999995	1E-06	4E-06	40	40	40	40	40
-0.30653	-0.240408	-0.230244	-1.457088	-0.882642	0.63919	-0.223943	-0.921136	-1.36014	1.707753	-0.579398	-0.100298	-0.341647	-0.273596	-0.422607	3.838263	-0.432582	-0.181722	-0.041008	-0.313913	-0.15324	-1.36562	-0.29929	-0.078027	-0.078299	-0.108422	2E-06	0	0.999998	40	40	40	40	40
-1.079118	-0.240408	-0.230244	-1.189874	-0.008379	0.734883	0.421519	-0.80389	-1.260207	-0.931658	-0.155794	1.361774	-0.341647	-0.273596	-0.422607	2.444661	-0.432579	-0.181722	-0.041008	-0.313911	-0.15324	-1.907762	-0.299289	-0.078027	-0.078299	-0.108422	1E-06	0	0.999999	40	40	40	40	40
-0.255024	-0.240408	-0.230244	-0.433606	0.234473	1.076634	1.1638	-0.543103	-0.045655	-0.182246	0.418714	1.51465	-0.341647	-0.273596	-0.422607	2.444656	-0.43258	-0.181722	-0.041008	-0.31391	-0.15324	-0.498192	0.353853	-0.078027	-0.078299	-0.108422	0	1E-06	0.999999	40	40	40	40	40
-0.220687	-0.240408	-0.230244	0.428541	-0.494079	0.939934	1.147664	-0.056184	-0.091776	0.978932	0.520781	0.847898	-0.341647	-0.273596	-0.422607	1.051058	-0.43258	-0.181722	-0.041008	0.768416	-0.15324	-0.715048	0.223224	-0.078027	-0.078299	-0.108422	0	0.999996	4E-06	40	40	40	40	40
-1.123558	-0.240408	-0.230244	0.231635	-0.563278	1.081284	0.770511	-0.097133	-0.308671	0.015856	0.179115	-0.253964	-0.341647	-0.273596	-0.422607	1.051055	-0.432582	-0.181722	-0.041008	-0.313913	-0.15324	-0.063769	-0.300141	-0.078027	-0.078299	-0.108422	0	0	1	40	40	40	40	40
-1.233638	-0.240408	-0.230244	-0.529398	0.380181	0.611849	1.793123	-0.693443	0.45401	-0.787538	-1.341313	-0.767081	-0.341647	-0.273596	-0.422607	-0.342547	0.186693	-0.181722	-0.041008	-0.313913	-0.15324	-1.474046	0.223223	-0.078027	-0.078299	-0.108422	2E-06	0	0.999998	40	40	40	40	40
-0.855927	-0.240408	-0.230244	-0.342854	-0.396938	0.229086	0.469932	-0.492285	2.160533	0.435403	-1.064226	-0.504856	-0.341647	-0.273596	-0.422607	-0.342549	-0.432581	-0.181722	-0.041008	-0.313913	-0.15324	-0.931906	0.092595	-0.078027	-0.078299	-0.108422	2E-06	0	0.999998	40	40	40	40	40
-0.373075	-0.240408	-0.230244	-0.394665	0.228542	0.511224	0.340178	-0.397638	1.888969	0.709545	-0.871999	-0.557086	-0.341647	0.572269	-0.422607	-0.342547	-0.432582	-0.181722	-0.041008	-0.313912	-0.15324	-0.719035	-0.191764	-0.078027	-0.078299	-0.108422	0.268563	0.323696	0.407741	40	40	40	40	40
-0.041562	-0.240408	-0.230244	-0.883509	0.745623	0.000796	-0.202732	-0.600301	1.217541	0.641385	-0.573194	-0.504287	-0.341647	1.429383	-0.422607	-0.342549	-0.432582	-0.181722	-0.041008	-0.313913	-0.15324	-0.824245	-0.483077	-0.078027	-0.078299	-0.108422	0.219609	0.182215	0.598176	40	40	40	40	40
-0.581224	-0.240408	-0.230244	-1.45709	0.914459	-0.72782	1.357432	-0.940183	1.414888	2.803051	0.011905	-0.485718	-0.341647	2.33946	-0.422607	-0.342549	-0.432582	-0.181722	-0.041008	-0.313912	-0.15324	-0.823478	-0.821805	-0.078027	-0.078299	-0.108422	1E-06	1E-06	0.999998	40	40	40	40	40
0.153857	-0.240408	-0.230244	-1.092495	0.762692	-0.413975	-0.207043	-0.710158	1.110795	0.621954	-0.472881	-0.411623	-0.341647	1.411466	-0.422607	-0.342549	-0.432582	-0.181722	-0.041008	0.076451	-0.15324	-0.983423	-0.602413	-0.078027	-0.078299	-0.108422	0.209281	0	0.790719	40	40	40	40	40
0.931088	-0.240408	-0.230244	-1.059098	0.514445	-1.485546	-0.520071	-0.628933	0.914869	0.20863	-0.94458	-0.502885	-0.341647	0.492811	-0.422607	-0.342549	-0.432582	-0.181722	-0.041008	2.485058	-0.15324	-1.210115	-0.466609	-0.078027	-0.078299	-0.108422	0	0	1	40	40	40	40	40
1.272993	-0.240408	-0.230244	-0.627718	-0.348364	-1.657395	-0.320763	-0.465063	0.999786	-0.141068	-1.341314	-0.767082	-0.341647	-0.273596	-0.422607	-0.342549	-0.432582	-0.181722	-0.041008	2.933083	-0.15324	-1.148764	0.223221	-0.078027	-0.078299	-0.108422	0	0	1	40	40	40	40	40
1.10658	-0.240408	-0.230244	-0.410101	-0.036711	-1.32619	-0.725537	-0.122598	-0.235602	0.412345	-0.780046	-0.66851	-0.341647	-0.273596	-0.422607	-0.342549	-0.432582	-0.181722	-0.041008	2.393733	-0.15324	-0.48948	-0.13559	-0.078027	-0.078299	-0.108422	0	0.403286	0.596714	40	40	40	40	40
1.152813	-0.240408	-0.230244	-0.627714	-0.008378	-1.192604	-0.61122	0.029582	-1.513878	1.699521	0.011904	-0.718278	-0.341647	-0.273596	-0.422607	-0.342549	-0.432582	-0.181722	-0.041008	1.850752	-0.15324	-0.172905	-0.691176	-0.078027	-0.078299	-0.108422	0	0.999997	3E-06	40	40	40	40	40
0.645612	-0.169529	-0.230244	-0.257888	-0.38337	0.124974	-0.675162	-0.209574	-0.660726	0.576118	-0.435576	-0.371265	-0.30667	-0.273596	-0.422607	-0.11668	-0.386892	-0.181722	-0.041008	2.394213	-0.15324	-0.241882	-0.349539	-0.078027	-0.078299	-0.108422	0	0.758714	0.241286	40	40	40	40	40
0.311546	2.105858	-0.230244	-0.627713	-0.54265	0.611851	-0.578946	-0.54707	-0.260893	1.003639	-0.833849	-0.718277	0.816188	-0.273596	-0.422607	-0.342545	-0.432581	-0.181722	-0.041008	4.015408	-0.15324	-0.715046	-0.168664	-0.078027	-0.078299	-0.108422	0	0.999999	1E-06	40	40	40	40	40
0.275568	-0.135756	0.261186	-0.183288	-0.958473	1.205878	-0.239644	-0.335839	-0.383081	0.238676	-0.395731	-0.278751	-0.214985	-0.273596	-0.422607	0.09623	-0.044702	-0.181722	-0.041008	2.981359	-0.15324	-0.269031	-0.326876	-0.078027	-0.078299	-0.108422	0	1	0	40	40	40	40	40
0.63775	-0.240408	1.336177	-0.168912	-1.028355	1.350037	-0.772581	-0.245888	-0.768236	0.336577	-0.079594	0.229867	-0.341647	-0.273596	-0.422607	1.05105	0.64412	-0.181722	-0.041008	2.933083	-0.15324	-0.281333	-0.691176	-0.078027	-0.078299	-0.108422	0	1	0	40	40	40	40	40
0.105519	-0.240408	2.170017	-0.529399	-2.096896	1.664448	0.5022	-0.594927	-0.89123	-1.277543	-0.241101	0.615303	-0.341647	-0.273596	-0.422607	-0.342547	1.592524	-0.181722	-0.041008	2.933076	-0.15324	-0.38976	0.092595	-0.078027	-0.078299	-0.108422	0	0.999998	2E-06	40	40	40	40	40
-0.117675	-0.240408	2.17007	-0.529399	-2.096897	1.637109	0.453791	-0.614239	-0.86817	-1.199309	-0.2411	0.566503	-0.341647	-0.273596	-0.422607	-0.342549	1.57575	-0.181722	-0.041008	-0.313907	-0.15324	-0.38976	0.092596	-0.078027	-0.078299	-0.108422	0	2E-06	0.999998	40	40	40	40	40
-0.85691	-0.240408	0.785174	0.088276	-0.984895	0.970994	0.513694	-0.300055	0.819652	-0.598187	-0.030362	0.04933	-0.341647	0.841534	0.541772	-0.342549	0.467353	-0.181722	-0.041008	0.140037	-0.15324	0.311097	-0.155036	-0.078027	-0.078299	-0.108422	0.426752	0.209709	0.363539	40	40	40	40	40
0.270691	-0.240408	-0.230211	0.269251	-0.773357	0.564748	1.411053	0.048287	1.659132	-1.146578	-0.860686	-0.647196	0.322862	0.839736	0.540217	-0.342549	0.298843	-0.181722	-0.041008	-0.31391	-0.15324	0.6415	-0.128087	-0.078027	-0.078299	-0.108422	0.999986	1E-06	1.3E-05	40	40	40	40	40
-0.206584	-0.240408	-0.230244	0.495206	-0.520076	0.55313	0.677291	-0.069395	0.880344	-0.44368	-0.034169	-0.414211	-0.008906	1.588521	1.187776	-0.342549	-0.082594	-0.181722	-0.041008	-0.264942	-0.15324	0.775491	-0.141439	-0.078027	-0.078299	-0.108422	1	0	0	40	40	40	40	40
-0.288997	-0.240408	-0.230244	0.667622	-0.642309	0.721425	0.243967	0.031607	0.038032	-0.227888	0.289105	-0.27292	-0.173863	1.497726	1.109255	-0.196281	0.075212	-0.181722	-0.041008	-0.29274	-0.15324	0.916133	0.049565	-0.078027	-0.078299	-0.108422	1	0	0	40	40	40	40	40
-0.498651	-0.240408	-0.230244	0.787211	-0.542699	0.696013	0.039201	0.024849	-0.048876	-0.00449	0.593828	-0.186379	-0.341647	1.805968	1.375827	-0.18705	-0.066352	-0.181722	-0.041008	-0.274505	-0.15324	0.999334	0.01394	-0.078027	-0.078299	-0.108422	1	0	0	40	40	40	40	40
-0.353536	-0.240408	-0.230244	0.871316	-0.454424	0.686621	0.052047	0.33746	0.059791	-0.173812	0.643237	0.109632	-0.264513	1.746135	0.678184	-0.155139	-0.009777	-0.181722	-0.041008	-0.313913	-0.15324	1.052542	0.093171	-0.078027	-0.078299	-0.108422	0.855969	0.100148	0.043883	40	40	40	40	40
-0.392698	-0.240408	-0.230244	0.87669	0.273517	0.311106	-0.869405	0.690456	-0.165581	-1.143387	2.212296	0.84788	0.12002	2.339464	-0.422607	-0.342549	-0.432582	-0.181722	-0.041008	-0.313913	-0.15324	1.236673	-0.038033	-0.078027	-0.078299	-0.108422	0.398731	0.601269	0	40	40	40	40	40
0.09329	-0.240408	-0.230244	0.776625	0.11955	0.455492	-0.180596	0.363927	0.137688	0.076195	0.349	0.341384	-0.306919	3.826814	-0.422607	-0.342549	-0.432582	-0.181722	-0.041008	0.109402	-0.15324	0.800932	-0.12894	-0.078027	-0.078299	-0.108422	0.703555	0.268713	0.027732	40	40	40	40	40
0.071184	-0.240408	-0.230244	0.680635	-0.008376	0.434138	-0.175532	-0.023165	0.07734	0.138931	0.429976	0.309554	-0.341647	4.95252	-0.422607	-0.342549	-0.432582	-0.181722	-0.041008	1.850742	-0.15324	0.5861	-0.168662	-0.078027	-0.078299	-0.108422	0.999999	1E-06	0	40	40	40	40	40
0.047658	-0.240408	-0.230244	0.727727	0.008126	0.453008	-0.146984	0.166013	0.05448	0.172297	0.095554	0.05661	-0.341647	4.492551	-0.422607	-0.03779	-0.432582	-0.181722	-0.041008	0.154152	-0.15324	0.698386	-0.152999	-0.078027	-0.078299	-0.108422	0.823972	0.176028	0	40	40	40	40	40
-0.667071	-0.240408	-0.230244	0.796596	-0.299798	0.420468	-0.240079	-0.044189	-0.385594	-0.106868	0.541959	-0.204354	-0.341647	4.952523	-0.422607	2.444659	-0.432582	-0.181722	-0.041008	-0.313913	-0.15324	0.694528	-0.011562	-0.078027	-0.078299	-0.108422	1	0	0	40	40	40	40	40
0.311546	-0.240408	-0.230244	1.44951	0.331618	-1.165268	0.937886	3.475488	-0.037967	0.143047	-1.67961	-0.767081	7.763236	-0.273596	-0.422607	-0.342549	-0.432576	-0.181722	-0.041008	-0.313913	-0.15324	1.128244	3.488947	-0.078027	-0.078299	-0.108422	1	0	0	40	40	40	40	40
0.208534	-0.240408	-0.230244	0.962978	0.865888	-1.055905	-0.207803	2.405277	-0.222456	-0.865777	-1.341312	-0.76708	6.605396	-0.273596	-0.422607	-0.342549	1.145464	-0.181722	-0.041008	-0.313913	-0.15324	0.586102	2.705176	-0.078027	-0.078299	-0.108422	1	0	0	40	40	40	40	40
0.044413	-0.240408	-0.230244	1.294472	0.600359	-0.363964	1.350607	2.756429	-0.337998	-0.589637	0.053806	-0.310552	5.447559	-0.273596	-0.422607	-0.342549	1.61693	-0.181722	-0.041008	-0.313913	-0.15324	1.236673	2.759796	-0.078027	-0.078299	-0.108422	1	0	0	40	40	40	40	40
0.083248	-0.240408	-0.230244	1.430963	0.159734	0.20274	0.873265	2.28961	-0.229967	-0.267735	0.942049	0.493669	4.324296	-0.273596	-0.422607	0.286868	1.854257	-0.181722	-0.041008	-0.313913	-0.15324	1.436982	2.979401	-0.078027	-0.078299	-0.108422	0.560299	0.308506	0.131195	40	40	40	40	40
0.022008	-0.240408	-0.230244	1.649085	-0.160483	0.477133	1.123582	2.169983	0.039664	-0.062514	1.634891	1.080254	4.093463	-0.273596	-0.422607	0.843805	1.822015	-0.181722	-0.041008	-0.313913	-0.15324	1.667079	3.512359	-0.078027	-0.078299	-0.108422	0.233477	0.57279	0.193734	40	40	40	40	40
-0.004296	-0.240408	-0.230244	1.853572	-0.301435	0.462903	1.600228	2.535734	0.457451	0.018107	2.320006	1.667496	3.32641	-0.273596	-0.422607	-0.07335	1.300571	-0.181676	-0.041008	-0.313913	-0.15324	2.156204	3.338554	-0.078027	-0.078299	-0.108422	1E-05	0.719354	0.280636	40	40	40	40	40
0.52381	-0.240407	-0.230244	1.702773	-0.440785	0.468172	1.450535	2.197442	0.41173	0.310312	2.210701	1.945724	1.171221	-0.273596	-0.422607	-0.342545	0.997192	0.389693	-0.041008	-0.313913	-0.15324	2.162336	2.884069	-0.078027	-0.078299	-0.108422	1E-06	0.999999	0	40	40	40	40	40
1.135636	-0.240408	-0.230244	1.620933	-0.154091	0.393128	0.679716	2.544712	0.108092	0.406578	1.113603	1.233298	0.816199	-0.273596	-0.422607	-0.342549	2.327254	-0.181714	-0.041008	-0.313913	-0.15324	1.995678	2.313297	-0.078027	-0.078299	-0.108422	0	1	0	40	40	40	40	40
-0.647966	-0.240408	-0.230244	0.300842	-1.298775	0.066722	-0.486648	0.154179	-0.942747	-0.226084	-0.64216	-0.383485	0.346777	-0.273596	-0.422607	2.046442	0.325573	-0.065664	-0.041008	0.094012	-0.15324	0.01567	0.800156	-0.078027	-0.078299	-0.108422	0.054532	0.304691	0.640777	40	40	40	40	40
-0.791889	-0.240408	-0.230244	0.326595	-1.324255	-0.179824	-0.692067	0.135145	-1.114476	-0.137276	-0.901623	-0.544537	0.816194	-0.273596	-0.422607	2.444659	-0.432582	-0.181722	-0.041008	-0.313913	-0.15324	-0.121332	0.807871	-0.078027	-0.078299	-0.108422	0	0.475622	0.524378	40	40	40	40	40
-0.47543	-0.240408	-0.230244	0.048035	-1.415614	-0.089394	-0.647223	-0.159615	-0.799868	-0.232395	-0.717956	-0.550006	0.053525	-0.273596	-0.422607	2.543584	-0.14268	-0.181722	-0.041008	-0.087159	-0.15324	-0.234381	0.14249	-0.078027	-0.078299	-0.108422	0.231929	0.150427	0.617644	40	40	40	40	40
-0.045952	-0.240408	-0.230244	-0.023402	-0.843907	0.585111	-0.546978	-0.356336	-0.126121	-0.759425	-0.635042	-0.609416	-0.341647	-0.273596	-0.422607	3.282574	-0.432582	-0.181722	-0.041008	-0.313913	-0.15324	-0.389761	-0.064488	-0.078027	-0.078299	-0.108422	1	0	0	40	40	40	40	40
-0.452182	-0.240408	-0.230244	-0.203464	-0.532633	0.752511	0.177404	-0.394468	-0.109833	-0.351926	-0.276352	-0.190628	-0.341647	-0.273596	-0.422607	2.738052	-0.39101	-0.181722	-0.041008	-0.171639	-0.15324	-0.472958	-0.007385	-0.078027	-0.078299	-0.108422	0.617347	0.065726	0.316928	40	40	40	40	40
-0.976109	-0.240408	-0.230244	-0.342852	-1.51405	1.514076	0.066518	-0.580747	-0.176331	-0.429306	-0.410247	-0.100297	-0.341647	-0.273596	-0.422604	2.444657	0.486215	-0.181722	-0.041008	-0.313911	-0.15324	-0.606619	0.353853	-0.078027	-0.078299	-0.108422	2E-06	1E-06	0.999997	40	40	40	40	40
