27	27	21	2	0
-0.04698	-0.23608	-0.15347	-0.39686	-0.17072	-0.04905	1.755276	-0.059	-0.04211	-0.17646	1.4735	0.26633	-0.978359	-0.332565	0.248948	0.137181	-0.647257	1.12213	0.876976	-1.391036	2.391071	40	40	40	40	40
0.189486	-0.23608	-0.15347	-0.39686	-0.17072	0.209213	0.771194	-0.059	-0.04211	-0.17646	1.500329	0.401961	-0.908177	-0.184492	0.02558	-0.880437	-1.34403	1.350914	1.103326	-1.804645	1.688827	40	40	40	40	40
0.593269	-0.23608	-0.15347	-0.39686	-0.17072	0.640856	0.004986	-0.059	-0.04211	-0.17646	1.689065	0.563547	-1.043156	0.182422	-0.470735	-1.488472	-1.93112	1.402	0.800338	-1.826066	1.65647	40	40	40	40	40
-0.024877	-0.23608	-0.15347	-0.39686	-0.17072	-0.053586	0.571989	-0.059	-0.04211	-0.17646	0.590081	-0.5723	-0.593192	-0.55398	-0.441373	-0.819506	-1.00207	2.285457	0.597006	-1.390517	1.470479	40	40	40	40	40
-0.353947	-0.23608	-0.15347	-0.39686	-0.17072	-1.272786	1.110034	-0.059	-0.04211	-0.17646	-0.515632	-0.963844	1.067471	-1.425676	-0.364009	-2.484606	-1.587928	1.782298	0.690877	-2.668653	1.252245	40	40	40	40	40
-0.370727	-0.23608	-0.15347	-0.39686	-0.17072	-1.879375	2.370989	-0.059	-0.04211	-0.17646	0.3883	-1.048199	-0.008652	-0.529069	0.367508	-2.024924	-1.647346	1.24505	-0.256869	-1.391653	2.231447	40	40	40	40	40
-0.370685	-0.23608	-0.15347	-0.39686	-0.17072	-2.272255	1.660379	-0.059	-0.04211	-0.17646	0.397739	-1.276406	0.007963	-0.308006	0.414577	-0.852077	-1.369698	0.637735	-0.176948	-0.556824	2.280397	40	40	40	40	40
-0.369482	-0.23608	-0.15347	-0.39686	-0.17072	-1.407024	-0.094483	-0.059	-0.04211	-0.17646	0.282788	-0.839582	0.609527	0.456954	0.117453	-2.450859	-2.209727	0.485417	0.216283	-0.259668	1.903857	40	40	40	40	40
-0.354117	-0.23608	-0.15347	-0.39686	-0.17072	-1.404344	1.251064	-0.059	-0.04211	-0.17646	-0.586021	-1.311161	0.9717	-0.490376	-0.440585	-2.550326	-2.461755	-2.010288	0.280143	1.163897	3.66362	40	40	40	40	40
-0.048722	-0.23608	-0.15347	-0.396859	-0.170485	-0.056686	-0.927208	-0.059	-0.04211	-0.17646	-0.654681	0.24305	-0.293338	0.044677	-0.475332	-1.331734	-1.587288	-0.212031	2.70559	0.402817	2.568813	40	40	40	40	40
0.273457	-0.23608	-0.15347	0.079519	1.347472	0.174287	-0.462105	-0.059	-0.04211	-0.080584	0.661419	0.583723	-0.580825	0.043229	-0.458887	-1.779264	-2.196616	0.280088	2.006896	0.096667	2.955136	40	40	40	40	40
0.597587	-0.23608	-0.15347	1.433597	2.823086	0.479871	0.079483	-0.059	-0.04211	0.191938	1.876593	0.960186	-0.895414	0.117251	-0.449364	-1.790448	-2.681626	1.013953	1.854963	-0.197368	3.751036	40	40	40	40	40
0.669244	-0.23608	-0.15347	0.038206	2.832064	0.939894	-0.062643	-0.059	-0.04211	-0.088899	1.829053	0.529935	-1.152252	-0.006083	0.229356	-0.859812	-1.922658	0.389433	1.708108	-0.090657	2.79632	40	40	40	40	40
0.618458	-0.23608	-0.15347	-0.382226	2.852787	1.313299	-0.395378	-0.059	-0.04211	-0.173515	1.266574	-1.035441	-1.206755	0.039505	1.269609	0.098378	-1.169202	-0.151927	2.861951	0.338223	3.239755	40	40	40	40	40
1.162959	-0.23608	-0.15347	-0.374782	4.389201	1.81077	-0.15203	-0.059	-0.04211	-0.172017	1.74676	-0.487735	-1.411216	0.0624	0.92991	0.739876	-0.835718	0.378569	3.218228	-0.01555	2.535983	40	40	40	40	40
1.575207	-0.23608	-0.15347	-0.396855	5.858086	2.282234	-0.186496	-0.059	-0.04211	-0.176459	1.834489	-0.797443	-1.499861	0.079428	1.122329	1.323856	-0.380736	0.827423	4.323449	-0.193746	2.346314	40	40	40	40	40
3.357186	-0.23608	-0.15347	-0.396852	7.598661	3.859619	0.131801	-0.059	-0.04211	-0.17646	2.231444	-0.235981	-1.688973	0.19541	0.708725	2.421298	0.299469	0.88797	4.735693	-0.868883	3.193119	40	40	40	40	40
5.092358	-0.23608	-0.15347	-0.396858	8.705457	6.973943	0.722684	-0.059	-0.04211	-0.17646	2.614895	0.047442	-2.029767	-0.368138	0.351002	4.732488	1.925565	1.81207	6.234688	-2.442361	4.801256	40	40	40	40	40
15.078764	-0.235763	-0.15347	-0.396714	5.255241	5.572041	0.395499	-0.059	-0.04211	-0.176449	2.596167	-0.357658	-1.946094	-0.188085	0.844671	4.094405	1.474377	1.40935	5.392276	-1.280131	3.499204	40	40	40	40	40
20.456074	-0.163576	-0.15347	-0.386227	2.92797	4.945743	0.260141	-0.059	-0.04211	-0.174997	2.504054	-0.660148	-1.889377	-0.246518	1.138003	3.888089	1.391318	1.365334	5.027113	-0.765461	2.839272	40	40	40	40	40
2.888253	2.642541	-0.15347	-0.36934	0.369534	0.081808	1.45898	-0.059	-0.04211	-0.172687	0.409885	-0.616786	-0.205785	-0.028583	0.925516	0.742595	0.615441	0.51171	0.167608	0.324228	1.924621	40	40	40	40	40
-0.370435	3.17789	-0.15347	-0.396769	-0.170617	-0.852886	1.735694	-0.059	-0.04211	-0.176448	0.044652	-0.705552	0.137429	0.015861	1.055716	0.152411	0.47551	0.319036	-0.793953	0.58102	1.764543	40	40	40	40	40
-0.370583	3.297423	-0.15347	-0.396693	-0.170717	-1.219255	2.554107	-0.059	-0.04211	-0.176437	0.137673	-1.015316	-0.046187	0.023338	0.598315	0.152341	0.47549	0.496727	-0.793934	0.698887	2.294339	40	40	40	40	40
-0.37024	6.447727	-0.15347	-0.39659	-0.17072	-0.527891	1.101309	-0.059	-0.04211	-0.176344	-0.626172	-0.055398	0.474656	-0.111026	-0.431427	0.152287	0.475382	1.366717	-0.799979	0.450312	-0.82577	40	40	40	40	40
-0.368372	6.590819	-0.15347	-0.396679	-0.17072	-0.282632	0.20291	-0.059	-0.04211	-0.176328	-0.646126	1.126005	0.998811	-0.343346	-0.475259	0.15227	0.475349	1.358702	-0.872619	0.439429	2.190648	40	40	40	40	40
-0.050128	6.591678	-0.15347	-0.385713	-0.17072	-0.051537	-0.169738	-0.059	-0.04211	-0.168235	1.147912	1.617288	-0.280023	-0.51261	-0.47552	0.147997	0.466663	1.319824	-0.068013	0.133704	1.352196	40	40	40	40	40
-0.050929	6.586486	-0.15347	3.279077	-0.17072	-0.052403	0.641411	-0.059	-0.04211	2.53617	1.143394	1.105708	-0.195172	0.005481	-0.47552	-1.279807	-2.435443	1.974746	2.13594	0.419461	3.179104	40	40	40	40	40
-0.045428	-0.23608	-0.15347	-0.396858	-0.17072	-0.045071	1.087553	-0.059	-0.04211	-0.17646	1.355516	0.134533	-0.861891	-0.697874	0.565056	-0.724216	-1.021601	1.267709	1.395042	-1.546715	0.911544	40	40	40	40	40
-0.012637	-0.23608	-0.15347	-0.39686	-0.17072	-0.002484	0.542543	-0.059	-0.04211	-0.17646	1.335627	0.604476	-0.606021	-0.089069	0.107925	-1.275927	-1.559934	1.662506	1.661537	-2.692295	1.533156	40	40	40	40	40
0.148178	-0.23608	-0.15347	-0.396855	-0.17072	0.163811	0.301581	-0.059	-0.04211	-0.176459	1.13135	0.135672	-0.736947	-0.239573	0.02156	-1.387772	-1.697495	1.492458	1.066117	-1.60865	1.28568	40	40	40	40	40
-0.030443	-0.23608	-0.15347	-0.39686	-0.17072	-0.050747	-0.099428	-0.059	-0.04211	-0.17646	0.363232	-0.818673	-0.432616	-0.272581	0.433478	-1.929665	-1.857488	1.433721	1.598838	-1.412896	0.540836	40	40	40	40	40
-0.254466	-0.23608	-0.15347	-0.396858	-0.17072	-1.114421	1.374659	-0.059	-0.04211	-0.17646	0.295515	-0.886257	0.05996	-0.768969	0.227431	-1.834624	-1.47935	1.486023	0.426745	-1.591636	1.362952	40	40	40	40	40
-0.369435	-0.23608	-0.15347	-0.396859	-0.17072	-1.749786	1.52442	-0.059	-0.04211	-0.17646	0.260048	-1.367836	0.649856	-1.227394	1.175276	-2.094175	-1.3124	1.12184	0.488696	-1.668132	-0.077331	40	40	40	40	40
-0.312294	-0.23608	-0.15347	-0.39686	-0.17072	-1.453157	1.343984	-0.059	-0.04211	-0.17646	0.329472	-1.149541	0.093958	-0.501682	0.322725	-2.203241	-1.814948	0.758987	0.042862	-0.895669	1.140439	40	40	40	40	40
-0.2543	-0.23608	-0.15347	-0.39686	-0.17072	-1.084182	0.600067	-0.059	-0.04211	-0.17646	0.194035	-1.026695	0.10761	-0.272116	-0.09719	-2.320561	-2.1417	0.099302	0.279683	-0.096792	1.424552	40	40	40	40	40
-0.066928	-0.23608	-0.15347	-0.39686	-0.17072	-0.134721	-0.21125	-0.059	-0.04211	-0.17646	0.260205	-0.559893	-0.255216	-0.496082	-0.448462	-2.677526	-2.343874	1.060124	1.562821	-0.489255	0.318166	40	40	40	40	40
-0.116112	-0.23608	-0.15347	-0.396848	-0.160015	-0.377721	-0.036301	-0.059	-0.04211	-0.176458	-0.085782	-0.320574	-0.065213	-0.287335	-0.45445	-2.188291	-2.222279	-0.308182	1.305181	0.330479	1.864051	40	40	40	40	40
0.235071	-0.23608	-0.15347	0.024586	1.122526	0.164015	-0.388451	-0.059	-0.04211	-0.09164	0.796422	0.564319	-0.626487	0.000686	-0.465102	-1.930642	-2.333115	0.283811	1.630877	0.091607	2.467619	40	40	40	40	40
0.590234	-0.23608	-0.15347	-0.299506	2.780987	0.426114	-0.370496	-0.059	-0.04211	-0.156867	1.822873	1.034955	-0.896222	0.073819	-0.429865	-2.326616	-2.663591	0.570653	1.276315	-0.193951	3.120062	40	40	40	40	40
0.664324	-0.23608	-0.15347	-0.054802	2.842299	0.918028	-0.039454	-0.059	-0.04211	-0.107617	1.880173	0.662733	-1.163041	-0.037095	0.273508	-0.920887	-1.940709	0.37342	1.543476	-0.136495	2.581802	40	40	40	40	40
0.901921	-0.23608	-0.15347	-0.385487	2.852983	1.50584	0.295018	-0.059	-0.04211	-0.174171	2.203442	0.920119	-1.524806	-0.08296	0.098198	0.448131	-1.302115	0.205059	1.250826	-0.176124	1.870545	40	40	40	40	40
1.483536	-0.23608	-0.15347	-0.380074	5.50812	1.759089	-0.160594	-0.059	-0.04211	-0.173082	1.893314	-0.204221	-1.42075	0.40218	0.775698	0.66236	-0.960237	0.077174	3.036617	0.098969	2.507555	40	40	40	40	40
2.295097	-0.23608	-0.15347	-0.396051	8.093659	2.115128	-0.164215	-0.059	-0.04211	-0.176328	2.185236	0.059873	-1.501474	0.89191	0.635515	0.99294	-0.79721	-0.056032	3.487365	0.08241	2.430981	40	40	40	40	40
3.32026	-0.23608	-0.15347	-0.396794	8.848848	3.408075	0.068559	-0.059	-0.04211	-0.17646	2.374789	0.173737	-1.651576	0.704324	0.4978	1.987374	-0.105909	0.328326	4.181176	-0.545219	3.039956	40	40	40	40	40
9.806472	-0.23608	-0.15347	-0.396199	7.565695	4.990983	0.332301	-0.059	-0.04211	-0.17646	2.609913	0.091431	-1.856105	0.287965	0.536309	3.400272	0.91849	0.885587	4.907578	-1.128042	3.541458	40	40	40	40	40
12.36071	-0.23591	-0.15347	-0.394033	6.153606	5.533718	0.408849	-0.059	-0.04211	-0.176454	2.596503	-0.137274	-1.913734	-0.07606	0.671745	3.958778	1.411622	1.278594	5.273854	-1.363668	3.6451	40	40	40	40	40
13.043743	0.698813	-0.15347	-0.082098	2.710331	3.694964	0.194876	-0.059	-0.04211	-0.134561	1.690046	-0.095509	-1.436651	-0.137829	0.612699	2.887943	1.172372	1.21038	3.755877	-0.584778	2.480301	40	40	40	40	40
2.152535	2.785585	-0.15347	-0.303653	0.183767	0.027793	1.04011	-0.059	-0.04211	-0.163787	0.129772	-0.247717	-0.193466	-0.017687	0.587955	0.583305	0.580529	0.719855	0.226868	-0.158671	1.64781	40	40	40	40	40
-0.29981	3.17682	-0.15347	-0.358123	-0.169405	-0.783664	1.543751	-0.059	-0.04211	-0.171184	-0.089912	-0.45681	0.00472	0.016068	0.547108	0.152803	0.475624	0.583083	-0.527165	0.129943	1.717423	40	40	40	40	40
-0.336416	3.6654	-0.15347	-0.388251	-0.170717	-0.639354	1.043291	-0.059	-0.04211	-0.175286	-0.339567	-0.274099	0.399824	-0.091938	0.101667	0.15234	0.47549	0.817784	-0.584986	-0.250063	1.315118	40	40	40	40	40
-0.368265	4.826962	-0.15347	-0.393477	-0.17072	-0.46058	0.504373	-0.059	-0.04211	-0.175992	-0.559526	0.282754	0.827261	-0.217444	-0.344342	0.152334	0.475477	1.073009	-0.772708	0.030993	1.279676	40	40	40	40	40
-0.337376	4.65835	-0.15347	-0.395955	-0.17072	-0.28425	-0.120603	-0.059	-0.04211	-0.176211	-0.472025	0.595215	1.015541	-0.283604	-0.474607	0.152209	0.475223	0.986505	-0.763867	0.15542	0.961599	40	40	40	40	40
-0.308881	4.736417	-0.15347	-0.017899	-0.17072	-0.210248	-0.298774	-0.059	-0.04211	0.010889	-0.311971	0.766893	1.050222	-0.301644	-0.47552	0.053428	0.274445	0.979955	-0.626185	0.514337	1.377557	40	40	40	40	40
-0.265064	4.342075	-0.15347	0.208628	-0.17072	-0.166748	-0.469463	-0.059	-0.04211	0.144619	-0.063838	0.716373	0.994177	-0.312176	-0.47552	-0.017175	0.130939	0.906337	-0.4222	0.502671	1.29081	40	40	40	40	40
-0.021559	-0.23608	-0.15347	-0.394441	-0.17072	0.014162	0.309448	-0.059	-0.04211	-0.176128	0.965548	0.478352	-0.489214	1.028403	1.828172	-1.276187	-1.684724	1.43213	2.133722	-2.426342	2.447752	40	40	40	40	40
0.240809	-0.23608	-0.15347	-0.394416	-0.17072	0.703451	0.182796	-0.059	-0.04211	-0.176124	1.382711	0.176548	-0.973738	-0.15226	1.53343	-0.857711	-1.191504	1.469947	1.612013	-1.390627	-0.149485	40	40	40	40	40
-0.046846	-0.23608	-0.15347	-0.396719	-0.17072	-0.048846	0.250002	-0.059	-0.04211	-0.176439	1.175591	0.520659	-0.511028	-0.597271	0.844416	-1.544139	-2.126225	1.120622	1.321982	-1.387593	0.502476	40	40	40	40	40
-0.047068	-0.23608	-0.15347	-0.396624	-0.17072	-0.050662	1.003023	-0.059	-0.04211	-0.176413	1.161347	0.280941	-0.948242	-0.39509	0.199811	-1.455647	-1.665399	0.695576	0.721316	-0.812552	1.841827	40	40	40	40	40
-0.10637	-0.23608	-0.15347	-0.393947	-0.17072	-0.37511	0.299272	-0.059	-0.04211	-0.175874	0.578904	-0.171162	-0.407976	-0.562738	0.539079	-1.85888	-1.880989	0.869057	0.799442	-0.944816	1.069864	40	40	40	40	40
-0.12323	-0.23608	-0.15347	-0.396843	-0.17072	-0.459596	0.26803	-0.059	-0.04211	-0.176456	0.520033	-0.062927	-0.351051	-0.634302	0.568979	-1.917301	-1.953702	0.751415	0.571063	-0.828719	1.154351	40	40	40	40	40
-0.033477	-0.23608	-0.15347	-0.39686	-0.17072	-0.127686	0.80304	-0.059	-0.04211	-0.17646	0.140911	-0.978423	-0.703373	-0.896178	0.619881	-2.491381	-2.073194	0.54002	0.085758	-0.887699	0.452683	40	40	40	40	40
-0.023423	-0.23608	-0.15347	-0.39686	-0.17072	0.01744	0.945547	-0.059	-0.04211	-0.17646	0.372493	-1.372168	-0.975264	-1.096435	-0.407012	-2.94113	-2.297386	-0.054214	-0.036626	-0.162229	-0.917306	40	40	40	40	40
0.094132	-0.23608	-0.15347	-0.39686	-0.17072	0.322546	0.360465	-0.059	-0.04211	-0.17646	0.590168	-0.729127	-1.049508	-0.541298	-0.190465	-2.754041	-2.437602	-0.017839	0.089955	-0.179765	0.56963	40	40	40	40	40
-0.030051	-0.23608	-0.15347	-0.39686	-0.169986	-0.019281	-0.177995	-0.059	-0.04211	-0.17646	0.915108	0.304309	-0.611568	-0.240846	-0.467837	-2.424233	-2.690419	0.191201	0.321672	0.128453	0.319217	40	40	40	40	40
0.253498	-0.23608	-0.15347	-0.394213	-0.159669	0.456992	0.036735	-0.059	-0.04211	-0.175927	1.164998	0.139652	-1.08234	0.036326	-0.462415	-2.887891	-2.693928	-0.833786	-0.145635	0.395119	0.705205	40	40	40	40	40
0.433295	-0.23608	-0.15347	-0.355533	1.205665	0.554085	0.135249	-0.059	-0.04211	-0.168143	1.653217	1.057842	-1.147881	-0.089408	-0.003163	-1.657974	-2.305683	-0.441252	0.4737	0.159777	1.842443	40	40	40	40	40
0.616815	-0.23608	-0.15347	-0.389928	2.71601	0.75634	0.149291	-0.059	-0.04211	-0.175065	2.180748	1.490809	-1.213497	-0.252071	0.412871	-1.333966	-2.123995	0.327567	0.561116	-0.395318	1.416264	40	40	40	40	40
1.016898	-0.23608	-0.15347	-0.36561	3.5385	1.098487	0.065307	-0.059	-0.04211	-0.170171	2.272469	1.328733	-1.350469	0.684745	0.06832	-0.661467	-1.946651	-0.433086	0.981921	0.097427	1.888718	40	40	40	40	40
1.681979	-0.23608	-0.15347	-0.35259	5.944703	1.215793	-0.048279	-0.059	-0.04211	-0.16755	2.424153	1.401619	-1.392067	1.602081	-0.13725	-0.233614	-1.713182	-0.991964	1.248888	0.448782	2.111716	40	40	40	40	40
3.957061	-0.23608	-0.15347	-0.396821	14.115953	1.341174	-0.225152	-0.059	-0.04211	-0.176454	3.02757	2.027045	-1.479255	3.024556	-0.446029	0.021244	-1.92734	-2.222014	1.591657	0.964853	2.310446	40	40	40	40	40
3.832804	-0.23608	-0.15347	-0.369148	8.802131	1.683789	-0.2168	-0.059	-0.04211	-0.17646	2.557137	1.438973	-1.350357	1.732183	-0.150399	0.711643	-0.610647	-1.240828	1.925768	0.459097	2.252059	40	40	40	40	40
3.789377	-0.23608	-0.15347	-0.358258	7.219738	1.789022	-0.219561	-0.059	-0.04211	-0.17646	2.406104	1.246425	-1.30685	1.326971	-0.055939	0.961877	-0.155242	-0.917861	2.041892	0.301525	2.235534	40	40	40	40	40
2.582138	-0.236073	-0.15347	0.011292	3.822061	1.163727	-0.272131	-0.059	-0.04211	-0.17646	2.172782	1.625607	-1.033683	0.653175	-0.293947	0.75914	0.537052	-0.853015	0.99991	0.502409	2.064973	40	40	40	40	40
2.611838	0.266237	-0.15347	0.203311	2.894975	1.187863	-0.178493	-0.059	-0.04211	-0.152158	1.740744	1.43535	-0.931012	-0.018719	-0.26031	0.859487	0.676948	-0.403435	1.031646	0.336003	1.949374	40	40	40	40	40
0.266483	2.292456	-0.15347	0.556302	0.609999	0.042588	-0.135278	-0.059	-0.04211	-0.077075	0.066421	1.184137	-0.39342	0.045042	-0.426497	0.181442	0.482601	0.549673	0.303356	0.134627	1.133751	40	40	40	40	40
-0.049697	3.177896	-0.15347	-0.274308	-0.170658	-0.054412	-0.072592	-0.059	-0.04211	-0.159305	-0.656687	0.862129	-0.361343	0.048122	-0.47041	0.152362	0.475496	1.338758	0.522287	-1.730635	0.587974	40	40	40	40	40
-0.1837	3.192219	-0.15347	0.184005	-0.170719	-0.199802	-0.046035	-0.059	-0.04211	-0.096876	-0.651678	0.579498	0.279724	-0.085375	-0.461224	0.15234	0.47549	0.984242	-0.035829	-0.518323	1.09978	40	40	40	40	40
-0.369949	3.184894	-0.15347	-0.396368	-0.17072	-0.42866	-0.208596	-0.059	-0.04211	-0.176391	-0.658447	0.075393	1.17881	-0.293337	-0.474039	0.15234	0.475489	1.252467	-0.467115	-1.692477	2.439239	40	40	40	40	40
-0.370665	3.178727	-0.15347	-0.396747	-0.17072	-0.269841	-0.585473	-0.059	-0.04211	-0.176435	-0.659428	0.353539	1.255235	-0.204806	-0.475386	0.152327	0.475463	0.647726	-0.982353	0.548961	0.203268	40	40	40	40	40
-0.370676	3.179058	-0.15347	-0.372918	-0.17072	-0.180473	-0.740201	-0.059	-0.04211	-0.176427	-0.659489	0.669932	1.734633	-0.289726	-0.47552	0.152323	0.475455	0.419629	-0.986469	0.700683	0.954546	40	40	40	40	40
-0.370613	3.185639	-0.15347	0.482354	-0.17072	-0.217391	-0.85438	-0.059	-0.04211	-0.176132	-0.658943	0.289679	1.768061	-0.399812	-0.47552	0.152167	0.475138	0.72961	-0.985411	0.708229	2.703204	40	40	40	40	40
-0.016318	-0.23608	-0.15347	0.475816	-0.17072	0.005606	0.737083	-0.059	-0.04211	-0.176269	1.371179	0.292569	-0.500074	-0.379877	3.81977	-1.136689	-1.553768	1.237212	2.187049	-0.542601	1.700972	40	40	40	40	40
0.108772	-0.23608	-0.15347	-0.051923	-0.17072	0.228508	0.319623	-0.059	-0.04211	-0.128543	1.148946	0.244643	-0.684463	-0.251814	2.458792	-1.555975	-1.947422	1.227702	1.365851	-0.887311	1.284734	40	40	40	40	40
0.132794	-0.23608	-0.15347	-0.088005	-0.17072	0.256238	0.408597	-0.059	-0.04211	-0.114759	1.212205	0.384499	-0.857202	-0.452176	1.747619	-1.682952	-2.198573	0.968881	0.916095	-0.555401	1.696701	40	40	40	40	40
0.011509	-0.23608	-0.15347	-0.078886	-0.17072	0.087568	0.125783	-0.059	-0.04211	-0.112466	1.065405	0.397129	-0.790064	-0.517891	0.729644	-1.73694	-2.1268	0.849636	0.831551	-0.542467	1.510397	40	40	40	40	40
-0.046863	-0.23608	-0.15347	-0.396854	-0.17072	-0.048697	-0.21756	-0.059	-0.04211	-0.176459	0.954043	0.419076	-0.693643	-0.515308	0.107118	-1.770514	-2.030226	0.708266	0.612627	-0.588945	1.616471	40	40	40	40	40
-0.045626	-0.23608	-0.15347	-0.396842	-0.17072	-0.045381	0.0028	-0.059	-0.04211	-0.176456	-0.491222	0.491548	-0.58908	-0.268831	1.197939	-2.05645	-2.63407	0.346255	0.673465	-0.481002	1.562124	40	40	40	40	40
0.116172	-0.23608	-0.15347	-0.39686	-0.17072	0.425433	0.454814	-0.059	-0.04211	-0.17646	0.375571	-0.625801	-1.160258	-0.766918	0.679678	-2.638806	-2.371491	0.210908	-0.029137	-0.40258	0.612068	40	40	40	40	40
0.261556	-0.23608	-0.15347	-0.39686	-0.17072	1.065514	0.656039	-0.059	-0.04211	-0.17646	0.36732	-1.362589	-1.716343	-0.969319	0.740114	-2.72244	-2.054978	0.72224	-0.532649	-1.209842	1.085547	40	40	40	40	40
0.248675	-0.23608	-0.15347	-0.39686	-0.17072	0.540809	0.247331	-0.059	-0.04211	-0.17646	0.591615	-1.277382	-1.283248	-0.224401	-0.374869	-2.915255	-2.657389	-1.215613	-0.24907	0.601155	1.151215	40	40	40	40	40
-0.028808	-0.23608	-0.15347	-0.39686	-0.170719	-0.016367	0.712357	-0.059	-0.04211	-0.17646	0.967395	0.151682	-1.089442	-0.229382	-0.247315	-2.629555	-2.686314	-0.579507	-0.15465	0.161429	1.77519	40	40	40	40	40
0.306617	-0.23608	-0.15347	-0.39686	-0.169973	0.555773	0.196668	-0.059	-0.04211	-0.17646	1.731735	1.260817	-1.278761	-0.163067	-0.444632	-2.108634	-2.683139	-1.380552	-0.229931	0.69187	1.568389	40	40	40	40	40
0.748799	-0.23608	-0.15347	-0.396844	-0.09288	0.762224	0.087534	-0.059	-0.04211	-0.176457	2.030057	1.511359	-1.333033	-0.003129	-0.435174	-1.614056	-2.624019	-1.746003	-0.113018	0.677881	1.896471	40	40	40	40	40
1.117784	-0.23608	-0.15347	-0.3968	0.571004	0.802703	-0.106407	-0.059	-0.04211	-0.176448	2.200316	1.630977	-1.302221	0.651068	-0.459074	-1.612686	-2.628685	-1.713606	-0.119208	0.750977	1.936568	40	40	40	40	40
1.377396	-0.23608	-0.15347	-0.396243	3.030482	0.760533	-0.202085	-0.059	-0.04211	-0.176336	2.303368	1.622923	-1.25675	2.264248	-0.424855	-1.656376	-2.599254	-1.448962	0.111719	0.800025	2.197423	40	40	40	40	40
1.638248	-0.23608	-0.15347	-0.396834	5.898739	0.853579	-0.218774	-0.059	-0.04211	-0.176455	2.644343	2.122786	-1.312696	3.072976	-0.471254	-1.395535	-2.653759	-2.220084	0.56126	0.991237	2.096546	40	40	40	40	40
1.431152	-0.23608	-0.15347	-0.39681	5.54364	0.620982	-0.48205	-0.059	-0.04211	-0.176452	2.375817	1.97035	-1.095363	3.071366	-0.471439	-0.207819	-0.64977	-1.63224	0.718929	0.991015	1.966104	40	40	40	40	40
1.259162	-0.23608	-0.15347	-0.38941	5.060519	0.507487	-0.566476	-0.059	-0.04211	-0.17646	2.263595	1.934678	-1.00412	2.941552	-0.475267	0.121789	0.004987	-1.469857	0.68509	0.978481	1.884382	40	40	40	40	40
0.605015	-0.23608	-0.15347	-0.394452	2.85405	0.295287	-0.530482	-0.059	-0.04211	-0.17646	2.057605	1.933103	-0.863805	1.256153	-0.475504	0.152233	0.472282	-1.441688	0.281585	0.672013	1.616809	40	40	40	40	40
0.624693	-0.23608	-0.15347	-0.226489	2.916499	0.280941	-0.418236	-0.059	-0.04211	-0.17646	2.046161	1.965067	-0.838742	0.081428	-0.475235	0.152257	0.459821	-1.496219	0.091749	0.560425	1.52543	40	40	40	40	40
0.599447	-0.230456	-0.15347	0.498871	2.833366	0.278773	-0.309511	-0.059	-0.04211	-0.176178	2.042569	1.952795	-0.825343	0.065261	-0.475453	0.152418	0.475502	-0.935837	0.06423	0.939813	1.919238	40	40	40	40	40
0.10207	2.385129	-0.15347	0.408768	0.528631	0.02439	-0.250953	-0.059	-0.04211	-0.094643	-0.030985	1.298332	-0.37004	-0.042887	-0.475167	0.15274	0.475541	0.479818	0.123942	0.207911	0.76273	40	40	40	40	40
-0.047064	3.17795	-0.15347	0.933696	-0.17072	-0.049165	-0.185084	-0.059	-0.04211	-0.000265	-0.65955	1.06915	-0.227236	0.050049	-0.47552	0.15234	0.47549	0.973028	0.345918	0.409532	0.851412	40	40	40	40	40
-0.145238	3.17795	-0.15347	-0.063933	-0.17072	-0.153106	-0.24903	-0.059	-0.04211	-0.130842	-0.659548	0.353839	0.175339	-0.104183	-0.475517	0.15234	0.47549	0.72374	-0.248224	-0.202023	0.688329	40	40	40	40	40
-0.348276	3.177958	-0.15347	-0.396356	-0.17072	-0.312612	0.251393	-0.059	-0.04211	-0.176389	-0.659546	-0.034911	0.833883	-0.217214	-0.47552	0.152339	0.475488	0.371707	-0.73881	-0.147667	0.351543	40	40	40	40	40
-0.365993	3.17795	-0.15347	-0.396802	-0.17072	-0.248373	-0.356059	-0.059	-0.04211	-0.17646	-0.65955	0.074267	1.197478	-0.148373	-0.47552	0.15234	0.47549	0.165248	-0.94103	0.354666	0.798427	40	40	40	40	40
-0.370715	3.17795	-0.15347	-0.372574	-0.17072	-0.190861	-0.760047	-0.059	-0.04211	-0.17646	-0.65955	-0.04488	1.738868	-0.277001	-0.47552	0.15234	0.47549	0.427836	-0.966452	0.690906	-1.02923	40	40	40	40	40
-0.370729	3.17795	-0.15347	-0.369359	-0.17072	-0.137798	-1.09309	-0.059	-0.04211	-0.17646	-0.65955	0.279223	2.916488	-0.635471	-0.47552	0.15234	0.47549	0.438964	-0.986636	0.695949	1.432603	40	40	40	40	40
-0.033881	-0.23608	-0.15347	-0.356836	-0.17072	-0.030613	-0.003243	-0.059	-0.04211	-0.17643	0.521738	-0.549611	-0.337162	-0.252721	3.593155	-1.984643	-1.870657	1.46261	1.519217	-0.65216	1.061067	40	40	40	40	40
0.308697	-0.23608	-0.15347	-0.389073	-0.17072	0.450441	0.498655	-0.059	-0.04211	-0.175611	1.312513	0.395416	-0.890424	-0.351414	3.243096	-1.727495	-2.342635	1.02578	0.799538	-0.440757	2.4659	40	40	40	40	40
-0.020036	-0.23608	-0.15347	1.390492	-0.17072	-0.003058	0.158194	-0.059	-0.04211	0.183184	0.966837	0.40824	-0.7055	-0.522347	1.919351	-2.35959	-2.656516	0.973236	0.865784	-0.145141	1.315185	40	40	40	40	40
0.244071	-0.23608	-0.15347	-0.353669	-0.17072	0.635713	0.171621	-0.059	-0.04211	-0.167768	1.223672	0.259936	-1.218256	-0.518022	1.080729	-1.452022	-2.08045	0.861673	0.836492	0.109518	2.333237	40	40	40	40	40
0.013417	-0.23608	-0.15347	-0.394029	-0.17072	0.093439	-0.184744	-0.059	-0.04211	-0.17589	0.866181	0.334702	-0.7813	-0.368986	0.794743	-1.633235	-2.116044	0.297781	0.759897	-0.160806	2.060145	40	40	40	40	40
-0.040842	-0.23608	-0.15347	-0.396845	-0.17072	-0.032904	-0.260705	-0.059	-0.04211	-0.176457	0.780351	0.341972	-0.681418	-0.334956	0.722582	-1.690604	-2.129148	0.160794	0.725497	-0.223497	1.979278	40	40	40	40	40
0.111938	-0.23608	-0.15347	-0.39686	-0.17072	0.404011	0.361121	-0.059	-0.04211	-0.17646	0.643561	-0.150531	-1.157575	-0.539146	1.184619	-2.263967	-2.362241	0.057954	0.052216	-0.221745	1.425314	40	40	40	40	40
0.267479	-0.23608	-0.15347	-0.39686	-0.17072	0.581492	0.244399	-0.059	-0.04211	-0.17646	1.140747	-0.044734	-1.304355	-0.661013	1.208858	-2.929996	-2.670679	-0.288565	-0.263641	0.378417	0.646871	40	40	40	40	40
0.136234	-0.23608	-0.15347	-0.39686	-0.17072	0.403696	0.654966	-0.059	-0.04211	-0.17646	0.88358	-0.369177	-1.303892	-0.327592	0.38407	-2.448162	-2.440472	-0.485451	-0.255593	0.131774	1.690894	40	40	40	40	40
-0.044675	-0.23608	-0.15347	-0.39686	-0.17072	-0.044803	1.341127	-0.059	-0.04211	-0.17646	1.008948	0.023888	-1.272391	0.047935	0.403894	-1.553245	-2.163576	-1.039384	-0.163723	0.578381	3.462198	40	40	40	40	40
0.516793	-0.23608	-0.15347	-0.39686	-0.170716	0.483362	0.398231	-0.059	-0.04211	-0.17646	1.653747	0.964099	-1.26819	-0.119979	-0.23426	-1.825686	-2.546773	-1.46697	-0.128053	0.584048	2.015733	40	40	40	40	40
1.27804	-0.23608	-0.15347	-0.39686	-0.17056	0.961548	-0.135367	-0.059	-0.04211	-0.17646	2.41871	1.963257	-1.361275	-0.207048	-0.475292	-1.248497	-2.619395	-2.298493	-0.046583	0.780311	1.784348	40	40	40	40	40
0.376695	-0.23608	-0.15347	-0.39686	-0.092506	0.754459	0.365754	-0.059	-0.04211	-0.17646	1.743903	1.056183	-1.419882	1.231448	-0.475517	-1.429356	-2.681602	-1.425149	-0.223111	0.489864	3.422274	40	40	40	40	40
1.801367	-0.23608	-0.15347	-0.39686	2.761624	0.581518	-0.5099	-0.059	-0.04211	-0.17646	2.261436	1.452886	-1.108592	3.035883	-0.475516	-2.2386	-2.679322	-1.021882	-0.300957	0.985089	2.016634	40	40	40	40	40
1.227803	-0.23608	-0.15347	-0.396858	2.845181	0.732859	-0.334443	-0.059	-0.04211	-0.17646	2.266167	1.597215	-1.194669	3.06719	-0.475429	-1.393095	-2.14636	-1.27993	0.369359	0.992041	2.209574	40	40	40	40	40
0.816047	-0.23608	-0.15347	-0.396843	3.453984	0.438341	-0.537804	-0.059	-0.04211	-0.17646	2.195159	1.961946	-0.980707	3.095943	-0.475507	-0.190888	-0.243461	-1.583435	0.417954	1.000375	1.809543	40	40	40	40	40
0.600297	-0.23608	-0.15347	-0.396844	2.838195	0.352362	-0.701953	-0.059	-0.04211	-0.17646	2.104817	1.843897	-0.927694	3.096312	-0.47552	0.152353	0.475393	-0.988706	0.76091	1.000466	1.936645	40	40	40	40	40
0.600271	-0.23608	-0.15347	-0.394969	2.838174	0.289194	-0.534895	-0.059	-0.04211	-0.17646	2.05191	1.940664	-0.856991	1.480377	-0.47552	0.152341	0.475486	-1.489642	0.237179	0.708983	1.596384	40	40	40	40	40
0.60028	-0.23608	-0.15347	-0.395132	2.838219	0.279875	-0.417655	-0.059	-0.04211	-0.17646	2.047808	1.953262	-0.825322	-0.009856	-0.47552	0.15234	0.47549	-1.354634	0.061264	0.252829	1.639925	40	40	40	40	40
0.58821	-0.200887	-0.15347	-0.231645	2.731167	0.259772	-0.42713	-0.059	-0.04211	-0.174638	1.937666	1.955015	-0.812051	-0.038672	-0.47552	0.15234	0.47549	-1.561944	0.020354	0.560799	1.391248	40	40	40	40	40
0.174043	1.968639	-0.15347	0.399776	0.831913	0.053039	-0.311057	-0.059	-0.04211	-0.096944	0.235291	1.433059	-0.409003	-0.080934	-0.47552	0.15234	0.47549	0.026488	0.006351	0.526071	0.756502	40	40	40	40	40
-0.047203	3.170842	-0.15347	-0.314751	-0.170704	-0.049864	-0.452599	-0.059	-0.04211	-0.165448	-0.659523	1.323092	-0.193363	-0.409367	-0.47552	0.15234	0.47549	0.433314	-0.561816	0.43927	-0.684116	40	40	40	40	40
-0.047635	3.174478	-0.15347	-0.312836	-0.17072	-0.050155	-0.468727	-0.059	-0.04211	-0.165201	-0.659547	-0.100143	-0.18996	0.035649	-0.47552	0.15234	0.47549	0.687574	-0.553076	0.677017	0.397103	40	40	40	40	40
-0.072557	3.175265	-0.15347	-0.396296	-0.17072	-0.081631	-0.737761	-0.059	-0.04211	-0.176382	-0.659549	-0.843072	-0.007726	0.041658	-0.47552	0.15234	0.47549	-0.379025	-0.374245	0.412213	-0.170292	40	40	40	40	40
-0.368269	3.177809	-0.15347	-0.39677	-0.17072	-0.556827	-0.717688	-0.059	-0.04211	-0.17646	-0.65955	-0.828404	1.010298	0.001323	-0.47552	0.15234	0.47549	-0.443479	-0.180534	0.402936	1.039543	40	40	40	40	40
-0.370646	3.177706	-0.15347	-0.396472	-0.17072	-0.30271	-1.022611	-0.059	-0.04211	-0.17646	-0.65955	-0.491346	1.378457	-0.089336	-0.47552	0.15234	0.47549	-0.40565	-0.944786	0.413758	0.410953	40	40	40	40	40
-0.37073	3.177928	-0.15347	-0.396838	-0.17072	-0.307516	-1.303154	-0.059	-0.04211	-0.17646	-0.65955	-0.559989	1.92226	-0.06557	-0.47552	0.15234	0.47549	-0.445732	-0.986679	0.403337	-0.421992	40	40	40	40	40
-0.044783	-0.23608	-0.15347	0.15665	-0.17072	-0.045962	0.788447	-0.059	-0.04211	-0.176452	0.934678	-0.147891	-0.633356	0.111625	6.115545	-2.411361	-2.650394	0.843779	0.605341	-0.866265	0.76065	40	40	40	40	40
-0.03227	-0.23608	-0.15347	-0.329438	-0.17072	-0.028308	-0.49373	-0.059	-0.04211	-0.169116	0.815909	-0.20182	-0.527975	0.010425	3.166381	-2.647651	-2.451557	0.54902	0.767987	0.287449	1.548281	40	40	40	40	40
0.167956	-0.23608	-0.15347	-0.128961	-0.17072	0.391602	0.039389	-0.059	-0.04211	-0.123234	1.026989	-0.094987	-0.912374	-0.231489	2.387792	-1.756617	-2.117805	0.482199	0.837769	-0.057	1.821846	40	40	40	40	40
0.098779	-0.23608	-0.15347	-0.030195	-0.17072	0.336421	-0.170609	-0.059	-0.04211	-0.102676	0.963864	-0.112847	-0.899363	-0.204541	1.442264	-1.43268	-1.983658	-0.033131	0.966416	0.09161	2.002017	40	40	40	40	40
-0.044221	-0.23608	-0.15347	-0.396781	-0.17072	-0.041588	-0.746026	-0.059	-0.04211	-0.176444	0.952079	0.190697	-0.500807	0.046364	1.037581	-1.374464	-2.07237	-0.659406	1.129589	0.398998	2.832937	40	40	40	40	40
-0.025169	-0.23608	-0.15347	-0.396857	-0.17072	0.000172	-0.01078	-0.059	-0.04211	-0.176459	1.213484	0.266682	-0.950753	-0.342215	1.945177	-1.415027	-2.046204	-0.78537	0.687525	0.408384	2.656774	40	40	40	40	40
0.172583	-0.23608	-0.15347	-0.396859	-0.17072	0.421895	0.328102	-0.059	-0.04211	-0.17646	1.487035	0.725897	-1.162433	-0.220424	1.742546	-1.823561	-2.510711	-0.339434	0.153056	0.225769	1.421991	40	40	40	40	40
-0.010239	-0.23608	-0.15347	-0.39686	-0.17072	0.02919	0.935577	-0.059	-0.04211	-0.17646	1.470663	0.913647	-0.987709	0.020159	1.409716	-1.469019	-2.492208	-0.163779	-0.038036	0.374723	2.171769	40	40	40	40	40
0.143673	-0.23608	-0.15347	-0.39686	-0.17072	0.35278	0.651118	-0.059	-0.04211	-0.17646	1.381381	0.57295	-1.238019	-0.175604	0.625573	-1.813014	-2.51751	-0.551208	-0.11863	0.34442	1.687101	40	40	40	40	40
0.178088	-0.23608	-0.15347	-0.39686	-0.17072	0.452056	0.53328	-0.059	-0.04211	-0.17646	1.527357	0.790991	-1.295234	-0.079506	0.112268	-1.513075	-2.422298	-0.664726	0.059706	0.388869	2.008618	40	40	40	40	40
0.587823	-0.23608	-0.15347	-0.39686	-0.170719	0.630686	0.316552	-0.059	-0.04211	-0.17646	1.851922	1.191154	-1.339654	-0.12319	-0.171713	-1.40121	-2.44507	-1.370254	0.054089	0.600105	2.258103	40	40	40	40	40
0.774365	-0.23608	-0.15347	-0.39686	-0.151173	0.843992	0.061961	-0.059	-0.04211	-0.17646	2.063294	1.472835	-1.37958	0.158852	-0.447823	-1.365418	-2.528001	-1.611934	0.045661	0.659711	2.316666	40	40	40	40	40
0.992537	-0.23608	-0.15347	-0.39686	0.382882	0.83303	-0.071481	-0.059	-0.04211	-0.17646	2.133719	1.49491	-1.319942	1.183963	-0.473913	-1.43508	-2.519239	-1.552862	0.025373	0.758091	2.36718	40	40	40	40	40
0.345885	-0.23608	-0.15347	-0.39686	-0.067453	0.853103	-0.203212	-0.059	-0.04211	-0.17646	1.907648	1.077899	-1.247407	3.02598	-0.475069	-0.996155	-1.79843	-0.417533	1.078373	0.98193	2.781669	40	40	40	40	40
0.885452	-0.23608	-0.15347	-0.39686	0.978099	1.084875	-0.031755	-0.059	-0.04211	-0.17646	2.132243	1.351492	-1.311441	2.886969	-0.467517	-0.373107	-1.605193	-1.262923	0.119021	0.956156	2.123282	40	40	40	40	40
0.605627	-0.23608	-0.15347	-0.396852	2.175366	0.664657	-0.358323	-0.059	-0.04211	-0.17646	2.123888	1.812928	-1.052046	3.067434	-0.475515	0.464486	0.097451	-1.577507	0.22774	0.995912	1.755785	40	40	40	40	40
0.600272	-0.23608	-0.15347	-0.396845	2.838089	0.265787	-0.593331	-0.059	-0.04211	-0.17646	2.030915	1.977609	-0.835553	3.096216	-0.47552	0.152351	0.475402	-1.712838	0.062008	1.00045	1.533561	40	40	40	40	40
0.5984	-0.23608	-0.15347	-0.395253	2.829479	0.288241	-0.534188	-0.059	-0.04211	-0.17646	2.046689	1.936648	-0.855925	1.476171	-0.47552	0.15234	0.475489	-1.488153	0.234811	0.708395	1.594008	40	40	40	40	40
0.596509	-0.23608	-0.15347	-0.39463	2.820692	0.280557	-0.445364	-0.059	-0.04211	-0.17646	2.033607	1.940603	-0.872702	0.066665	-0.47552	0.15234	0.47549	-1.767618	0.297871	0.686895	1.519064	40	40	40	40	40
0.596309	-0.231854	-0.15347	-0.393361	2.809329	0.222243	-0.502846	-0.059	-0.04211	-0.176239	1.962921	2.042275	-0.788954	-0.206387	-0.47552	0.15234	0.47549	-2.218107	-0.261998	0.688566	0.536837	40	40	40	40	40
0.371666	0.526688	-0.15347	-0.378709	0.211544	0.095082	-0.581257	-0.059	-0.04211	-0.174975	-0.321757	1.614347	-0.443537	-0.391144	-0.47552	0.15234	0.47549	-1.63028	-0.637427	0.53178	0.494361	40	40	40	40	40
0.239444	1.285718	-0.15347	-0.385204	-0.170647	0.043004	-0.568893	-0.059	-0.04211	-0.174872	-0.65943	1.127565	-0.336548	-0.310924	-0.47552	0.15234	0.47549	-1.001163	-0.679611	0.556522	0.41674	40	40	40	40	40
0.130785	1.230733	-0.15347	-0.394962	-0.17072	0.027253	-0.511526	-0.059	-0.04211	-0.176201	-0.265668	0.650186	-0.39227	0.757019	-0.47552	0.15234	0.47549	-1.050018	-0.583061	0.679792	0.650783	40	40	40	40	40
-0.105354	1.576982	-0.15347	-0.393917	-0.17072	-0.142947	-0.569249	-0.059	-0.04211	-0.176059	-0.258216	0.046099	0.047669	1.448742	-0.47552	0.15234	0.47549	-0.943026	-0.50613	0.722003	0.853896	40	40	40	40	40
-0.119871	1.041046	-0.15347	-0.395959	-0.17072	-0.143197	-0.671966	-0.059	-0.04211	-0.17646	-0.339153	0.230939	0.121017	1.936773	-0.47552	0.15234	0.47549	-1.229536	-0.561632	0.777566	0.91949	40	40	40	40	40
-0.170892	1.071572	-0.15347	-0.396651	-0.17072	-0.184733	-0.913466	-0.059	-0.04211	-0.17646	-0.657521	0.206827	0.449565	1.894612	-0.47552	0.15234	0.47549	-1.032047	-0.485623	0.771903	0.922857	40	40	40	40	40
-0.166871	1.027756	-0.15347	-0.396121	-0.17072	-0.141461	-0.99094	-0.059	-0.04211	-0.17646	-0.652381	0.228351	0.4857	1.923347	-0.47552	0.15234	0.47549	-0.948921	-0.522413	0.780147	0.882138	40	40	40	40	40
-0.045175	-0.23608	-0.15347	-0.002591	-0.17072	-0.046509	0.046513	-0.059	-0.04211	-0.175531	0.142848	0.149709	-0.558771	-0.000056	4.954896	-1.293458	-1.151046	0.263152	0.244934	-0.005898	1.317502	40	40	40	40	40
-0.044675	-0.23608	-0.15347	-0.005727	-0.17072	-0.044514	0.045537	-0.059	-0.04211	-0.175693	0.147907	0.14544	-0.562252	-0.001301	4.936699	-1.29327	-1.155206	0.254493	0.247807	-0.003555	1.323177	40	40	40	40	40
0.075022	-0.23608	-0.15347	-0.333597	-0.17072	0.299685	-0.260647	-0.059	-0.04211	-0.173292	0.792042	-0.403834	-0.838051	-0.023005	2.541866	-1.540097	-1.738233	-0.162222	0.809513	0.159609	1.637813	40	40	40	40	40
0.253646	-0.23608	-0.15347	-0.396032	-0.17072	0.835694	-0.10854	-0.059	-0.04211	-0.176298	0.796322	-1.199016	-1.214526	0.063688	1.749368	-0.722372	-1.236631	-0.74591	1.054396	-0.129786	1.22646	40	40	40	40	40
0.111242	-0.23608	-0.15347	-0.388827	-0.17072	0.388943	-0.287476	-0.059	-0.04211	-0.174899	1.223104	0.091676	-0.958536	-0.032576	1.556666	-0.995694	-1.74649	-0.659516	1.064178	0.254991	2.011773	40	40	40	40	40
0.171864	-0.23608	-0.15347	-0.396785	-0.17072	0.475013	-0.048452	-0.059	-0.04211	-0.176457	1.658992	0.946739	-1.085326	-0.003523	1.754661	-1.203215	-2.15476	-0.467256	0.760159	0.20488	1.705344	40	40	40	40	40
0.275373	-0.23608	-0.15347	-0.396859	-0.17072	0.661786	0.293061	-0.059	-0.04211	-0.17646	1.923273	1.372943	-1.268282	0.020125	2.321275	-1.411822	-2.627979	-0.364578	0.221485	0.022394	1.144671	40	40	40	40	40
0.239151	-0.23608	-0.15347	-0.396858	-0.17072	0.619752	0.412549	-0.059	-0.04211	-0.17646	1.835458	1.292812	-1.281845	0.03829	1.317843	-1.415114	-2.515492	-0.369788	0.189063	0.013826	1.357971	40	40	40	40	40
0.275966	-0.23608	-0.15347	-0.39686	-0.17072	0.654204	0.264967	-0.059	-0.04211	-0.17646	1.786306	1.253609	-1.268424	-0.115021	0.191852	-1.411943	-2.700656	-0.472705	-0.033092	0.123581	0.738699	40	40	40	40	40
0.277769	-0.23608	-0.15347	-0.39686	-0.17072	0.740785	0.36867	-0.059	-0.04211	-0.17646	1.789515	1.220605	-1.327301	0.03201	-0.14669	-1.400269	-2.428289	-0.278276	0.07796	0.203717	1.171415	40	40	40	40	40
0.277853	-0.23608	-0.15347	-0.39686	-0.17072	0.776631	-0.058665	-0.059	-0.04211	-0.17646	1.861474	1.174179	-1.393	-0.119343	-0.463651	-1.407552	-2.230095	-0.475545	0.586731	0.668947	2.467078	40	40	40	40	40
0.460014	-0.23608	-0.15347	-0.39686	-0.150725	1.224746	0.423636	-0.059	-0.04211	-0.17646	1.695178	0.774648	-1.513956	0.333165	-0.357321	-0.746027	-1.745399	-0.434391	0.378546	0.367513	2.268906	40	40	40	40	40
0.527316	-0.23608	-0.15347	-0.39686	-0.131613	1.329386	0.283741	-0.059	-0.04211	-0.17646	1.769517	0.788845	-1.485437	1.27798	-0.362257	-0.465617	-1.602292	-0.445913	0.577294	0.470215	2.571205	40	40	40	40	40
0.538299	-0.23608	-0.15347	-0.39686	-0.14734	1.489891	0.356031	-0.059	-0.04211	-0.17646	1.905972	0.951266	-1.523155	1.752664	-0.387261	0.109907	-1.440218	-0.892593	0.383085	0.595719	2.422894	40	40	40	40	40
0.584186	-0.23608	-0.15347	-0.39686	-0.138454	1.887562	0.582014	-0.059	-0.04211	-0.17646	2.334005	1.478717	-1.638669	3.049367	-0.474621	1.568895	-1.111252	-2.195452	-0.238739	0.99075	1.899159	40	40	40	40	40
0.340255	-0.23608	-0.15347	-0.396816	0.737807	0.58931	-0.028422	-0.059	-0.04211	-0.17646	1.513321	1.224063	-0.992144	1.669593	-0.475487	0.522408	-0.008327	-1.508711	-0.335886	0.81258	1.341622	40	40	40	40	40
0.242449	-0.23608	-0.15347	-0.381063	1.105101	0.127352	-0.251709	-0.059	-0.04211	-0.17646	1.232075	1.169378	-0.754497	0.946414	-0.475516	0.188174	0.43838	-1.26712	-0.338756	0.714798	1.143936	40	40	40	40	40
0.187504	-0.23608	-0.15347	-0.386599	0.919501	0.0607	-0.407436	-0.059	-0.04211	-0.17646	0.825839	1.088885	-0.625881	0.544157	-0.475519	0.152349	0.475434	-1.255096	-0.386071	0.668867	0.867253	40	40	40	40	40
0.120552	-0.23608	-0.15347	-0.381288	0.608366	0.0298	-0.799434	-0.059	-0.04211	-0.17646	0.098471	0.998704	-0.158204	-0.681506	-0.47552	0.15234	0.47549	-1.431496	-0.550526	0.551536	0.151188	40	40	40	40	40
0.051594	-0.235972	-0.15347	-0.3914	0.243529	-0.007628	-0.867066	-0.059	-0.04211	-0.176456	-0.29414	0.954858	0.154631	-0.862036	-0.47552	0.15234	0.47549	-1.810381	-0.768534	0.588276	-0.095474	40	40	40	40	40
0.254245	-0.232856	-0.15347	-0.39526	0.112195	0.056678	-0.765454	-0.059	-0.04211	-0.17646	-0.410704	1.317678	-0.112566	-0.597072	-0.47552	0.15234	0.47549	-2.151357	-0.77882	0.617902	0.418174	40	40	40	40	40
0.594908	-0.235903	-0.15347	-0.39686	-0.17072	0.165137	-0.62371	-0.059	-0.04211	-0.17646	-0.65955	1.777493	-0.597251	-0.390448	-0.47552	0.15234	0.47549	-2.304458	-0.753541	0.567603	0.755458	40	40	40	40	40
0.228254	-0.176009	-0.15347	-0.396848	-0.17072	0.065535	-0.536036	-0.059	-0.04211	-0.176458	-0.161933	1.185078	-0.474808	0.930538	-0.47552	0.15234	0.47549	-2.050839	-0.634024	0.762498	1.242012	40	40	40	40	40
0.128287	-0.235588	-0.15347	-0.39686	-0.17072	0.208678	-0.136361	-0.059	-0.04211	-0.17646	0.865403	0.35942	-0.885566	3.095008	-0.47552	0.15234	0.47549	-1.527286	-0.726535	1.0003	1.884189	40	40	40	40	40
-0.042077	-0.235001	-0.15347	-0.39686	-0.17072	-0.041881	-0.746155	-0.059	-0.04211	-0.17646	-0.561231	1.061737	0.137433	3.095525	-0.47552	0.15234	0.47549	-2.199947	-0.924682	1.000288	0.545255	40	40	40	40	40
-0.047039	-0.236077	-0.15347	-0.39686	-0.17072	-0.049129	-0.828954	-0.059	-0.04211	-0.17646	-0.659341	0.887132	-0.156152	3.096627	-0.47552	0.15234	0.47549	-1.504185	-0.606853	1.000509	1.039778	40	40	40	40	40
-0.047061	-0.236076	-0.15347	-0.39686	-0.17072	-0.049161	-0.896214	-0.059	-0.04211	-0.17646	-0.659537	0.57458	-0.405365	3.096626	-0.47552	0.15234	0.47549	-1.197892	0.042829	1.000509	2.064997	40	40	40	40	40
-0.04706	-0.23608	-0.15347	0.117942	-0.17072	-0.04916	-0.342175	-0.059	-0.04211	-0.17646	-0.65951	0.680153	-0.479114	-0.086345	4.965939	0.152336	0.475486	-0.097973	-0.04095	0.301377	1.613798	40	40	40	40	40
-0.045923	-0.23608	-0.15347	0.035805	-0.17072	-0.045834	-0.050405	-0.059	-0.04211	-0.176452	-0.236174	0.603567	-0.53809	0.098638	4.228479	0.110811	0.422174	-0.120024	-0.158704	0.068071	1.235686	40	40	40	40	40
0.063414	-0.23608	-0.15347	-0.350841	-0.17072	0.280342	0.094775	-0.059	-0.04211	-0.176432	0.732585	-0.126096	-0.871257	-0.091152	2.754132	-0.427846	-0.545759	-0.601043	0.268392	-0.007587	0.847928	40	40	40	40	40
0.199557	-0.23608	-0.15347	-0.389208	-0.17072	0.736712	0.037165	-0.059	-0.04211	-0.176442	1.443825	0.366034	-1.166027	-0.114217	1.951122	-0.273367	-1.008887	-0.422086	0.871507	0.028477	1.155754	40	40	40	40	40
0.265028	-0.23608	-0.15347	-0.268244	-0.17072	0.882279	-0.004425	-0.059	-0.04211	-0.176455	1.725432	0.615192	-1.281374	-0.033021	1.688901	-0.37033	-1.407763	-0.363778	1.181742	0.148852	1.452068	40	40	40	40	40
0.275927	-0.23608	-0.15347	-0.377872	-0.17072	0.784962	-0.133976	-0.059	-0.04211	-0.176459	2.100151	1.346276	-1.265679	0.058371	1.694817	-0.439552	-1.658906	-0.484318	1.300782	0.387797	1.24067	40	40	40	40	40
0.275484	-0.23608	-0.15347	-0.373546	-0.17072	0.76889	0.331208	-0.059	-0.04211	-0.17646	1.879642	1.193638	-1.38872	0.068279	1.56033	-1.388388	-2.071257	-0.143941	0.627099	-0.172451	1.227127	40	40	40	40	40
0.276226	-0.23608	-0.15347	-0.396792	-0.17072	0.680345	0.310406	-0.059	-0.04211	-0.17646	1.832042	1.255824	-1.34898	-0.12979	0.839708	-1.411557	-2.668512	-0.337973	0.202089	-0.175784	1.540864	40	40	40	40	40
0.276258	-0.23608	-0.15347	-0.39686	-0.17072	0.835208	0.493444	-0.059	-0.04211	-0.17646	2.003172	1.600344	-1.458609	0.308629	0.135831	-1.411757	-2.327255	-0.711706	0.180334	-0.127302	2.081196	40	40	40	40	40
0.276586	-0.23608	-0.15347	-0.39686	-0.17072	0.66081	0.405724	-0.059	-0.04211	-0.17646	1.756182	1.246322	-1.243182	0.59753	-0.439869	-1.408011	-2.643516	0.578873	-0.047324	0.421139	0.444859	40	40	40	40	40
0.27668	-0.23608	-0.15347	-0.39686	-0.17072	0.854731	0.611849	-0.059	-0.04211	-0.17646	1.646234	0.941879	-1.344057	-0.244437	-0.47412	-1.35653	-2.017488	-0.134774	0.02049	0.14471	0.952019	40	40	40	40	40
0.437064	-0.23608	-0.15347	-0.39686	-0.17072	1.253786	0.507269	-0.059	-0.04211	-0.17646	1.655986	0.735747	-1.51623	0.290833	-0.377177	-0.724206	-1.538134	0.025576	0.415312	0.347015	1.694378	40	40	40	40	40
0.636867	-0.23608	-0.15347	-0.39686	-0.17072	1.760375	0.461885	-0.059	-0.04211	-0.17646	1.689716	0.506909	-1.616384	0.653771	-0.259621	0.151563	-1.113501	-0.084018	0.683481	0.217491	2.389605	40	40	40	40	40
0.576367	-0.23608	-0.15347	-0.39686	-0.167384	1.659865	0.439885	-0.059	-0.04211	-0.17646	1.866435	0.888841	-1.545259	1.460771	-0.353033	0.630052	-0.999279	-0.804392	0.306393	0.467895	2.0669	40	40	40	40	40
0.356596	-0.23608	-0.15347	-0.396859	-0.166423	1.055861	0.179919	-0.059	-0.04211	-0.17646	1.573063	1.098797	-1.159255	1.524702	-0.441584	0.818588	-0.436093	-1.233183	-0.126463	0.617276	1.547115	40	40	40	40	40
0.11729	-0.23608	-0.15347	-0.396822	-0.169593	0.447656	-0.03165	-0.059	-0.04211	-0.17646	0.979827	0.824169	-0.817913	0.676764	-0.470817	0.519414	0.074351	-1.09935	-0.341579	0.60379	1.210126	40	40	40	40	40
-0.046981	-0.23608	-0.15347	-0.39686	-0.170709	-0.048921	-0.019988	-0.059	-0.04211	-0.17646	0.629097	0.506643	-0.71377	-0.271311	-0.475456	0.152519	0.475299	-0.84099	-0.619465	0.579178	0.836749	40	40	40	40	40
-0.046966	-0.23608	-0.15347	-0.396847	-0.170339	-0.049085	-0.480902	-0.059	-0.04211	-0.17646	-0.109481	0.513087	-0.24297	-0.773864	-0.475476	0.152365	0.475465	-0.585718	-0.629489	0.515239	0.673998	40	40	40	40	40
-0.047055	-0.23608	-0.15347	-0.396859	-0.170696	-0.049157	-0.81431	-0.059	-0.04211	-0.17646	-0.656088	0.640231	-0.207631	-1.264879	-0.47552	0.15234	0.47549	-1.042163	-0.571633	0.452731	0.007808	40	40	40	40	40
-0.046981	-0.23608	-0.15347	-0.39686	-0.17072	-0.049134	-1.080908	-0.059	-0.04211	-0.17646	-0.659549	0.582708	0.447607	-1.415719	-0.47552	0.15234	0.47549	-1.464214	-0.971088	0.461078	-0.458497	40	40	40	40	40
-0.042885	-0.23608	-0.15347	-0.39686	-0.17072	-0.047766	-0.906655	-0.059	-0.04211	-0.17646	-0.65955	0.918546	0.574073	-0.642774	-0.47552	0.15234	0.47549	-2.298764	-0.982967	0.718791	-0.314757	40	40	40	40	40
-0.017333	-0.23608	-0.15347	-0.39686	-0.17072	-0.039237	-0.712953	-0.059	-0.04211	-0.17646	-0.65955	1.133281	-0.176222	-0.39417	-0.47552	0.15234	0.47549	-2.271468	-0.644351	0.709497	1.796437	40	40	40	40	40
0.185024	-0.23608	-0.15347	-0.39686	-0.17072	0.047635	-0.542535	-0.059	-0.04211	-0.17646	-0.258353	1.152834	-0.415734	0.858534	-0.47552	0.15234	0.47549	-2.015235	-0.646277	0.731037	1.357187	40	40	40	40	40
-0.033478	-0.23608	-0.15347	-0.39686	-0.17072	-0.030417	-0.591387	-0.059	-0.04211	-0.17646	0.662337	1.073766	-0.311449	3.006578	-0.47552	0.15234	0.47549	-2.191225	-0.206255	0.979058	1.516981	40	40	40	40	40
-0.011528	-0.23608	-0.15347	-0.39686	-0.17072	0.003031	-0.564547	-0.059	-0.04211	-0.17646	-0.058475	0.789173	-0.31368	2.988879	-0.47552	0.15234	0.47549	-1.71249	-0.630711	0.960976	1.420473	40	40	40	40	40
-0.079658	-0.23608	-0.15347	-0.39686	-0.17072	-0.079562	-0.955811	-0.059	-0.04211	-0.17646	-0.64688	0.679191	0.010194	3.096625	-0.47552	0.15234	0.47549	-1.082086	-0.404727	1.000508	1.063973	40	40	40	40	40
-0.049938	-0.23608	-0.15347	-0.39686	-0.17072	-0.051906	-1.074346	-0.059	-0.04211	-0.17646	-0.659507	0.726376	-0.088784	3.09663	-0.47552	0.15234	0.47549	-0.713165	-0.125394	1.00051	1.088575	40	40	40	40	40
-0.04706	-0.23608	-0.15347	0.534316	-0.17072	-0.04916	0.089067	-0.059	-0.04211	-0.17646	-0.629443	0.706831	-0.499737	0.996963	3.509075	0.152339	0.475488	0.723744	0.012611	-0.409725	2.302869	40	40	40	40	40
-0.046902	-0.23608	-0.15347	-0.088349	-0.17072	-0.048693	-0.058995	-0.059	-0.04211	-0.17646	-0.08425	0.669645	-0.551778	0.015526	3.758171	0.150286	0.472086	-0.124708	-0.2005	0.019402	0.960427	40	40	40	40	40
-0.04682	-0.23608	-0.15347	-0.396088	-0.17072	-0.048412	0.406318	-0.059	-0.04211	-0.176459	0.667142	0.434065	-0.641014	-0.210949	3.427486	0.151512	0.473364	-0.569905	-0.491165	-0.13856	-0.281237	40	40	40	40	40
0.161541	-0.23608	-0.15347	-0.366213	-0.17072	0.632475	0.066812	-0.059	-0.04211	-0.176398	1.630012	0.962964	-1.106289	-0.12953	2.034444	-0.038314	-0.708526	-0.271751	0.684527	0.113675	1.137901	40	40	40	40	40
0.276563	-0.23608	-0.15347	-0.391454	-0.17072	1.165541	0.06134	-0.059	-0.04211	-0.176455	1.950014	0.936644	-1.396176	-0.301043	1.563446	0.082202	-1.119512	-0.090307	1.153221	0.002108	1.6202	40	40	40	40	40
0.276396	-0.23608	-0.15347	0.510732	-0.17072	0.845535	0.488512	-0.059	-0.04211	-0.176004	1.891582	1.11286	-1.277944	0.074547	1.775567	-0.446728	-1.634424	0.253311	1.058459	0.090927	1.987862	40	40	40	40	40
0.274398	-0.23608	-0.15347	0.001813	-0.17072	0.835001	0.507511	-0.059	-0.04211	-0.165764	1.889589	1.129411	-1.322444	0.069717	1.213204	-0.772115	-1.830065	0.226118	0.796457	-0.367446	1.776264	40	40	40	40	40
0.276254	-0.23608	-0.15347	-0.392593	-0.17072	0.788575	0.534349	-0.059	-0.04211	-0.174786	1.867534	1.170974	-1.371545	-0.11688	0.547143	-1.408054	-1.961539	-0.09775	0.131186	-0.191871	1.715864	40	40	40	40	40
0.276532	-0.23608	-0.15347	-0.396085	-0.17072	0.793247	0.527144	-0.059	-0.04211	-0.176119	1.88689	1.252324	-1.40224	-0.100017	0.080863	-1.384558	-2.086297	0.187996	0.297696	-0.199985	1.577919	40	40	40	40	40
0.276024	-0.23608	-0.15347	-0.391587	-0.17072	0.832244	0.499468	-0.059	-0.04211	-0.173984	1.733604	1.076989	-1.34491	0.224776	-0.27575	-1.211171	-2.056674	0.186263	0.280774	-0.089261	1.052533	40	40	40	40	40
0.277198	-0.23608	-0.15347	-0.396437	-0.17072	0.984497	0.853157	-0.059	-0.04211	-0.17646	1.526477	0.724088	-1.471108	0.62095	-0.464148	-1.268727	-1.652075	0.867983	0.14798	0.385931	0.50603	40	40	40	40	40
0.524453	-0.23608	-0.15347	-0.392288	-0.17072	0.992401	0.228974	-0.059	-0.04211	-0.17646	1.604128	0.873948	-1.291035	0.228481	-0.397798	-0.283619	-0.689657	0.14289	0.278799	0.191848	1.271552	40	40	40	40	40
0.583049	-0.23608	-0.15347	-0.387469	-0.17072	0.976778	0.00805	-0.059	-0.04211	-0.17646	1.602619	0.909816	-1.199428	0.304083	-0.374352	0.135106	-0.284399	0.051528	0.341211	0.123916	1.492753	40	40	40	40	40
0.443479	-0.23608	-0.15347	-0.392387	-0.170719	0.742246	-0.035742	-0.059	-0.04211	-0.17646	1.362284	0.829449	-1.055174	0.138732	-0.217293	0.157796	-0.08493	0.124569	0.334485	0.01055	1.358059	40	40	40	40	40
-0.033469	-0.23608	-0.15347	-0.393942	-0.17072	-0.027611	-0.056348	-0.059	-0.04211	-0.17646	0.555412	0.590038	-0.614932	-0.291221	-0.048879	0.157975	0.461008	0.289929	-0.040222	-0.421026	0.709483	40	40	40	40	40
-0.043444	-0.23608	-0.15347	-0.39684	-0.17072	-0.042363	-0.224849	-0.059	-0.04211	-0.17646	0.356356	0.615981	-0.542738	-0.160358	-0.101723	0.156806	0.470795	-0.329411	-0.16862	0.199793	0.766684	40	40	40	40	40
-0.047027	-0.23608	-0.15347	-0.39686	-0.17072	-0.049058	-0.456815	-0.059	-0.04211	-0.17646	0.413253	0.705048	-0.369143	0.046805	-0.470896	0.152419	0.475409	-0.662258	-0.124395	0.402555	1.151077	40	40	40	40	40
-0.028669	-0.23608	-0.15347	-0.39686	-0.17072	-0.03325	-0.541665	-0.059	-0.04211	-0.17646	-0.292676	0.521618	-0.253602	-0.671355	-0.364531	0.152341	0.475489	-0.420984	-0.57282	0.42947	0.533776	40	40	40	40	40
-0.044104	-0.23608	-0.15347	-0.39686	-0.17072	-0.046603	-0.247764	-0.059	-0.04211	-0.17646	-0.658967	0.35631	0.127033	-1.784538	-0.475202	0.15234	0.47549	0.18936	-0.970795	0.873002	1.415531	40	40	40	40	40
-0.035166	-0.23608	-0.15347	-0.39686	-0.17072	-0.039025	-0.804834	-0.059	-0.04211	-0.17646	-0.659549	0.650155	0.110188	-0.899042	-0.47552	0.15234	0.47549	-1.091228	-0.805008	0.552323	0.09499	40	40	40	40	40
-0.047057	-0.23608	-0.15347	-0.39686	-0.17072	-0.049159	-0.931299	-0.059	-0.04211	-0.17646	-0.65955	0.940103	0.056818	-0.460761	-0.47552	0.15234	0.47549	-1.511461	-0.720743	0.71872	-0.523596	40	40	40	40	40
-0.047005	-0.23608	-0.15347	-0.39686	-0.17072	-0.049137	-0.731066	-0.059	-0.04211	-0.17646	-0.65955	0.936334	0.057531	-0.529888	-0.47552	0.15234	0.47549	-1.785668	-0.718869	0.476099	0.93647	40	40	40	40	40
-0.045965	-0.23608	-0.15347	-0.39686	-0.17072	-0.048466	-0.718041	-0.059	-0.04211	-0.17646	-0.655523	0.936764	0.025193	0.081548	-0.47552	0.15234	0.47549	-1.764225	-0.68941	0.702406	0.350866	40	40	40	40	40
-0.041535	-0.23608	-0.15347	-0.39686	-0.17072	-0.041598	-0.47515	-0.059	-0.04211	-0.17646	-0.602691	0.787372	-0.210557	1.569842	-0.47552	0.15234	0.47549	-1.763153	-0.608479	0.471014	3.632135	40	40	40	40	40
-0.011206	-0.23608	-0.15347	-0.39686	-0.167728	-0.00022	-0.608616	-0.059	-0.04211	-0.17646	-0.277795	0.584703	-0.246572	2.599826	-0.47552	0.15234	0.47549	-1.54639	-0.62968	0.856143	1.835951	40	40	40	40	40
-0.040077	-0.23608	-0.15347	-0.39686	-0.170672	-0.084205	-0.930659	-0.059	-0.04211	-0.17646	-0.620237	0.071926	0.120024	3.07161	-0.47552	0.15234	0.47549	-0.666035	-0.436991	0.991816	1.264622	40	40	40	40	40
-0.368688	-0.23608	-0.15347	-0.39686	-0.17072	-0.362438	-1.020168	-0.059	-0.04211	-0.17646	-0.659546	-0.073121	1.20848	3.09663	-0.47552	0.15234	0.47549	-0.692295	-0.617732	1.00051	1.152123	40	40	40	40	40
-0.04706	-0.23608	-0.15347	-0.366596	-0.17072	-0.04916	-0.296551	-0.059	-0.04211	-0.17646	-0.569659	0.811815	-0.470791	-0.26928	2.394495	0.15234	0.475489	0.15414	-0.079312	-0.167992	0.594367	40	40	40	40	40
-0.04706	-0.23608	-0.15347	-0.373183	-0.17072	-0.04916	-0.053332	-0.059	-0.04211	-0.176424	0.502524	0.475158	-0.626866	-0.238265	2.619316	0.15234	0.47549	-0.331461	-0.237635	-0.166782	-0.120716	40	40	40	40	40
-0.046378	-0.23608	-0.15347	-0.368964	-0.17072	-0.047006	-0.09291	-0.059	-0.04211	-0.176309	1.234874	1.25323	-0.713673	0.029079	2.344938	0.151642	0.471568	-0.158257	-0.237183	0.359817	1.292485	40	40	40	40	40
0.108036	-0.23608	-0.15347	-0.183718	-0.17072	0.51591	0.147625	-0.059	-0.04211	-0.155952	1.496196	0.930618	-1.018929	-0.154657	2.126094	0.096812	-0.307425	-0.08646	0.462373	0.066005	1.203006	40	40	40	40	40
0.236672	-0.23608	-0.15347	0.082971	-0.17072	0.8899	0.349908	-0.059	-0.04211	-0.165938	1.865833	1.044005	-1.26215	-0.026805	1.528678	-0.120935	-1.131988	0.297799	1.033795	-0.212457	1.82313	40	40	40	40	40
0.276606	-0.23608	-0.15347	0.049849	-0.17072	0.958762	0.636677	-0.059	-0.04211	-0.175544	1.932684	1.048873	-1.304945	0.193385	1.113221	-0.232663	-1.430379	0.698023	1.204427	-0.90447	1.926589	40	40	40	40	40
0.276602	-0.23608	-0.15347	0.846505	-0.17072	0.888579	0.664189	-0.059	-0.04211	0.221679	1.936242	1.108218	-1.327372	0.10879	1.028552	-0.456079	-1.57791	0.379179	0.90732	-0.098168	2.443464	40	40	40	40	40
0.276593	-0.23608	-0.15347	0.927977	-0.17072	0.860997	0.685424	-0.059	-0.04211	0.351615	1.937221	1.152425	-1.36128	0.031029	0.64991	-0.715922	-1.709699	0.282985	0.657146	0.08874	2.517755	40	40	40	40	40
0.276158	-0.23608	-0.15347	0.387848	-0.17072	0.832031	0.498123	-0.059	-0.04211	0.190435	1.861599	1.099125	-1.317694	0.079675	0.296947	-0.782693	-1.795545	0.173601	0.684821	-0.172358	2.008515	40	40	40	40	40
0.276598	-0.23608	-0.15347	-0.396349	-0.17072	0.847322	0.276084	-0.059	-0.04211	-0.176229	1.741192	0.970759	-1.256447	0.126141	-0.178021	-0.753669	-1.836021	0.276704	0.813934	-0.858017	1.175447	40	40	40	40	40
0.370585	-0.23608	-0.15347	-0.126185	-0.17072	0.73904	0.307864	-0.059	-0.04211	-0.173715	1.583874	1.081423	-1.20084	0.12292	-0.31705	-0.63513	-1.149714	0.401873	0.433897	-0.054139	1.219536	40	40	40	40	40
0.516736	-0.23608	-0.15347	-0.135862	-0.17072	0.50676	-0.046883	-0.059	-0.04211	-0.173268	1.506643	1.201297	-1.005922	0.052835	-0.461419	-0.178227	-0.066203	0.358825	0.13558	0.308708	1.014549	40	40	40	40	40
0.586285	-0.23608	-0.15347	-0.370983	-0.17072	0.386884	-0.379203	-0.059	-0.04211	-0.17633	1.68325	1.585716	-0.940179	-0.009435	-0.474205	0.151417	0.472851	-0.08336	0.544644	0.401992	1.194717	40	40	40	40	40
0.545744	-0.23608	-0.15347	-0.39509	-0.17072	0.266869	-0.475872	-0.059	-0.04211	-0.176427	1.351559	0.798867	-0.726336	-0.069689	-0.438566	0.151728	0.472833	0.554362	-0.447784	-0.434462	0.249703	40	40	40	40	40
-0.045837	-0.23608	-0.15347	-0.396312	-0.17072	-0.047617	-0.213108	-0.059	-0.04211	-0.17646	0.573445	0.594968	-0.556325	-0.477808	0.614755	0.15234	0.474553	0.396475	0.614126	-0.230507	1.030494	40	40	40	40	40
-0.045698	-0.23608	-0.15347	-0.396854	-0.17072	-0.048432	-0.336647	-0.059	-0.04211	-0.17646	0.002721	0.638796	-0.456541	-0.204915	0.121336	0.152341	0.475472	0.053556	0.103305	-0.140222	0.723592	40	40	40	40	40
-0.04706	-0.23608	-0.15347	-0.39686	-0.17072	-0.04916	-0.359428	-0.059	-0.04211	-0.17646	-0.622434	0.679329	-0.461002	0.015683	0.677335	0.15234	0.47549	-0.006607	-0.060559	0.102672	0.077204	40	40	40	40	40
-0.04473	-0.23608	-0.15347	-0.39686	-0.17072	-0.047144	-0.869639	-0.059	-0.04211	-0.17646	-0.639647	0.532206	-0.08237	-0.460413	-0.459482	0.15234	0.47549	-0.026614	-0.402751	0.143336	-0.020463	40	40	40	40	40
0.031284	-0.23608	-0.15347	-0.39686	-0.17072	0.018612	-0.675273	-0.059	-0.04211	-0.17646	-0.655577	0.582057	-0.235678	-0.615815	-0.472637	0.15234	0.47549	-0.22366	-0.648671	0.292344	0.505089	40	40	40	40	40
-0.037916	-0.23608	-0.15347	-0.39686	-0.17072	-0.04125	-1.094181	-0.059	-0.04211	-0.17646	-0.65955	0.41204	0.080523	-0.776791	-0.47552	0.15234	0.47549	-0.609808	-0.931647	0.188461	-0.407171	40	40	40	40	40
-0.046231	-0.23608	-0.15347	-0.39686	-0.17072	-0.048443	-0.565031	-0.059	-0.04211	-0.17646	-0.65955	0.721573	-0.324167	-0.353507	-0.47552	0.15234	0.47549	-1.398014	-0.623876	0.718866	0.190906	40	40	40	40	40
-0.047027	-0.23608	-0.15347	-0.39686	-0.17072	-0.049133	-0.711833	-0.059	-0.04211	-0.17646	-0.65955	0.830934	-0.118081	-0.216919	-0.47552	0.15234	0.47549	-1.405195	-0.553529	0.648235	0.345219	40	40	40	40	40
-0.047054	-0.23608	-0.15347	-0.39686	-0.17072	-0.049152	-0.65401	-0.059	-0.04211	-0.17646	-0.659473	0.890881	-0.133439	0.054684	-0.47552	0.15234	0.47549	-1.376288	-0.303779	0.429122	2.350547	40	40	40	40	40
-0.046085	-0.23608	-0.15347	-0.39686	-0.17072	-0.047867	-0.696805	-0.059	-0.04211	-0.17646	-0.647366	0.753159	-0.193179	0.411725	-0.47552	0.15234	0.47549	-1.334951	-0.323749	0.623837	1.44417	40	40	40	40	40
-0.032507	-0.23608	-0.15347	-0.39686	-0.160135	-0.042775	-0.680431	-0.059	-0.04211	-0.17646	-0.609169	0.56298	-0.128726	1.37348	-0.47552	0.15234	0.47549	-1.418708	-0.530467	0.683933	1.935765	40	40	40	40	40
-0.034793	-0.23608	-0.15347	-0.39686	-0.157838	-0.050212	-0.753484	-0.059	-0.04211	-0.17646	-0.654718	-0.589727	0.020898	3.094948	-0.47552	0.15234	0.47549	-0.787098	-0.783361	0.999948	1.283446	40	40	40	40	40
0.298305	-0.23608	-0.15347	-0.39686	-0.168632	0.083632	-0.937866	-0.059	-0.04211	-0.17646	-0.658777	-0.516346	-0.444687	3.09663	-0.47552	0.15234	0.47549	-0.052852	-0.228807	1.00051	1.60052	40	40	40	40	40
-0.04706	-0.23608	-0.15347	-0.396781	-0.17072	-0.04916	-0.15049	-0.059	-0.04211	-0.17646	0.535847	0.480636	-0.684188	0.047822	2.269154	0.15234	0.47549	-1.032275	-0.162471	0.573868	1.290322	40	40	40	40	40
-0.04706	-0.23608	-0.15347	-0.384047	-0.17072	-0.049159	-0.131319	-0.059	-0.04211	-0.175843	0.499274	0.621914	-0.662517	-0.068968	2.082604	0.152341	0.475487	-0.53083	-0.125503	0.242004	0.987343	40	40	40	40	40
-0.040689	-0.23608	-0.15347	0.365124	-0.17072	-0.027523	0.114002	-0.059	-0.04211	-0.073176	0.947922	0.823212	-0.683751	-0.081317	2.223875	0.147408	0.440624	0.188458	0.113826	0.144756	1.138034	40	40	40	40	40
-0.042903	-0.23608	-0.15347	0.608152	-0.17072	-0.035866	0.096493	-0.059	-0.04211	-0.155706	1.376865	1.19184	-0.719265	0.03854	2.099123	0.147179	0.451263	0.367513	0.234714	0.373698	1.750424	40	40	40	40	40
0.154152	-0.23608	-0.15347	0.724796	-0.17072	0.581427	0.49854	-0.059	-0.04211	0.238485	1.577824	0.969558	-1.066991	0.056776	1.492675	-0.116406	-0.70446	0.693376	0.960425	-0.389731	1.873683	40	40	40	40	40
0.274526	-0.23608	-0.15347	1.013235	-0.17072	0.960578	0.773691	-0.059	-0.04211	0.617006	1.951059	1.05956	-1.331295	0.055959	1.148555	-0.32968	-1.413906	0.770856	1.249082	-0.521293	2.315699	40	40	40	40	40
0.276606	-0.23608	-0.15347	1.560079	-0.17072	0.990176	0.962944	-0.059	-0.04211	0.289587	2.005423	1.128296	-1.402167	-0.104478	1.067098	-0.382039	-1.415503	0.888234	0.868238	-0.190862	2.901985	40	40	40	40	40
0.276607	-0.23608	-0.15347	1.611523	-0.17072	0.849114	0.669593	-0.059	-0.04211	0.767754	1.964404	1.137687	-1.326327	0.174453	0.73629	-0.387038	-1.609794	0.153605	0.896399	0.437983	3.008318	40	40	40	40	40
0.274134	-0.23608	-0.15347	0.7031	-0.17072	0.846972	0.4895	-0.059	-0.04211	0.37901	1.848624	1.05437	-1.2873	0.14378	0.310465	-0.555575	-1.693937	0.234375	0.878716	-0.17252	2.141393	40	40	40	40	40
0.193114	-0.23608	-0.15347	0.261693	-0.17072	0.619635	0.282622	-0.059	-0.04211	0.094518	1.365639	0.893084	-1.037284	-0.004898	-0.186475	-0.513133	-1.218679	0.450881	0.788029	-0.581643	1.318581	40	40	40	40	40
0.263899	-0.23608	-0.15347	0.31204	-0.17072	0.445988	0.096887	-0.059	-0.04211	-0.055411	1.243348	1.040496	-0.892723	-0.104346	-0.331897	-0.25522	-0.552622	0.435074	0.560544	-0.187385	1.268075	40	40	40	40	40
0.57382	-0.23608	-0.15347	0.566424	-0.17072	0.289497	-0.149231	-0.059	-0.04211	-0.163975	1.316601	1.506179	-0.822592	-0.281715	-0.474664	0.149909	0.47031	0.331395	0.112926	0.744943	1.705557	40	40	40	40	40
0.293026	-0.23608	-0.15347	-0.077596	-0.17072	0.152562	-0.260217	-0.059	-0.04211	-0.175213	1.099771	1.064981	-0.625205	-0.098904	-0.468589	0.152104	0.475097	0.366782	0.139917	-0.074654	0.830422	40	40	40	40	40
-0.01378	-0.23608	-0.15347	-0.393447	-0.17072	-0.028692	-0.282808	-0.059	-0.04211	-0.176452	0.744232	0.794741	-0.347122	-0.327041	-0.454968	0.15234	0.475489	0.330987	0.211044	-0.458167	0.173905	40	40	40	40	40
-0.044469	-0.23608	-0.15347	-0.395014	-0.17072	-0.047668	-0.212062	-0.059	-0.04211	-0.17646	0.218286	0.708087	-0.409538	-0.196533	-0.209163	0.15234	0.475487	0.457913	0.224045	-0.672836	0.694626	40	40	40	40	40
-0.046951	-0.23608	-0.15347	-0.39686	-0.17072	-0.049103	-0.386825	-0.059	-0.04211	-0.17646	-0.607532	0.659416	-0.425693	-0.288752	0.655538	0.15234	0.475489	0.577097	0.449122	-0.744218	0.513882	40	40	40	40	40
-0.04706	-0.23608	-0.15347	-0.39686	-0.17072	-0.04916	-0.633327	-0.059	-0.04211	-0.17646	-0.657258	0.570395	-0.303865	-0.579865	-0.416799	0.15234	0.47549	0.211104	0.187928	-0.220308	0.827517	40	40	40	40	40
-0.04326	-0.23608	-0.15347	-0.39686	-0.17072	-0.045873	-0.579378	-0.059	-0.04211	-0.17646	-0.659074	0.689324	-0.298973	-0.370915	-0.450718	0.15234	0.47549	-0.313991	-0.187611	-0.158273	0.259951	40	40	40	40	40
-0.045907	-0.23608	-0.15347	-0.39686	-0.17072	-0.048162	-0.542891	-0.059	-0.04211	-0.17646	-0.659539	1.008961	-0.230181	-0.212873	-0.475491	0.15234	0.47549	-0.265325	-0.567781	0.122552	0.289188	40	40	40	40	40
0.238438	-0.23608	-0.15347	-0.39686	-0.17072	0.197809	-0.665522	-0.059	-0.04211	-0.17646	-0.65955	0.569561	-0.726566	-0.241941	-0.47552	0.15234	0.47549	-0.451057	-0.667361	0.382249	1.059259	40	40	40	40	40
-0.041737	-0.23608	-0.15347	-0.39686	-0.17072	-0.044555	-0.813785	-0.059	-0.04211	-0.17646	-0.65955	0.797375	-0.08599	0.030721	-0.47552	0.15234	0.47549	-0.879836	-0.452939	0.395977	0.765774	40	40	40	40	40
-0.047001	-0.23608	-0.15347	-0.39686	-0.17072	-0.049109	-0.689696	-0.059	-0.04211	-0.17646	-0.65955	0.730341	-0.253366	-0.095149	-0.47552	0.15234	0.47549	-1.16693	-0.332081	0.626705	0.671129	40	40	40	40	40
-0.04706	-0.23608	-0.15347	-0.39686	-0.17072	-0.04916	-0.722646	-0.059	-0.04211	-0.17646	-0.65955	0.62695	-0.30895	0.049011	-0.47552	0.15234	0.47549	-1.176142	-0.112568	0.720006	0.551311	40	40	40	40	40
-0.04706	-0.23608	-0.15347	-0.39686	-0.17072	-0.04916	-0.864774	-0.059	-0.04211	-0.17646	-0.65955	0.804298	-0.075835	0.050669	-0.47552	0.15234	0.47549	-1.177143	-0.364554	0.719822	0.34892	40	40	40	40	40
-0.013481	-0.23608	-0.15347	-0.396856	-0.132362	-0.103605	-0.705208	-0.059	-0.04211	-0.17646	-0.623195	0.359487	-0.102003	1.013558	-0.460348	0.15234	0.446829	-1.235031	-0.480718	0.755831	1.302777	40	40	40	40	40
0.275501	-0.23608	-0.15347	-0.39686	0.1102	0.000026	-0.690405	-0.059	-0.04211	-0.17646	-0.555326	-0.887194	-0.209138	3.054193	-0.474742	0.15234	0.474023	-1.210384	-0.574668	0.98922	1.839447	40	40	40	40	40
1.614014	-0.23608	-0.15347	-0.39686	-0.087283	0.278372	-0.833217	-0.059	-0.04211	-0.17646	-0.628883	-1.33526	-0.732091	3.096539	-0.475485	0.15234	0.475425	-2.122095	-0.909677	1.000505	2.53851	40	40	40	40	40
-0.04706	-0.23608	-0.15347	-0.396734	-0.17072	-0.04916	-0.132593	-0.059	-0.04211	-0.17646	0.908032	0.381222	-0.787592	0.049886	1.254311	0.152371	0.475384	-0.868991	-0.027087	0.403369	1.342659	40	40	40	40	40
-0.047059	-0.23608	-0.15347	-0.387082	-0.17072	-0.049157	-0.110633	-0.059	-0.04211	-0.175732	0.624453	0.54412	-0.589647	-0.093617	1.787174	0.15307	0.472992	-0.086668	0.374358	-0.327424	1.210565	40	40	40	40	40
-0.045304	-0.23608	-0.15347	0.223421	-0.17072	-0.04438	0.046735	-0.059	-0.04211	-0.082849	0.714477	0.691804	-0.553625	-0.162225	1.857526	0.153335	0.453569	0.652332	0.640535	-0.538388	1.318847	40	40	40	40	40
-0.046311	-0.23608	-0.15347	1.450498	-0.17072	-0.046918	0.289659	-0.059	-0.04211	0.192916	0.665945	0.546596	-0.635711	-0.1462	1.961632	0.151397	0.470364	0.877577	0.512506	0.039384	1.392902	40	40	40	40	40
0.104775	-0.23608	-0.15347	1.888246	-0.17072	0.51286	0.510717	-0.059	-0.04211	1.786341	1.474254	0.869346	-0.953478	-0.028837	1.621749	0.026038	-0.304331	0.86374	1.517832	-0.0466	1.997671	40	40	40	40	40
0.272164	-0.23608	-0.15347	2.627212	-0.17072	0.953141	0.968967	-0.059	-0.04211	2.827746	1.960101	1.016074	-1.329608	-0.133779	1.18414	-0.527726	-1.40595	0.957153	1.784848	-0.185422	2.646419	40	40	40	40	40
0.268471	-0.23608	-0.15347	2.239421	-0.17072	0.942969	0.826201	-0.059	-0.04211	2.057067	1.948554	1.024136	-1.304914	0.031452	0.964297	-0.362418	-1.418602	0.662216	1.502832	0.087086	2.824394	40	40	40	40	40
0.218846	-0.23608	-0.15347	2.357767	-0.17072	0.733541	0.709402	-0.059	-0.04211	1.965119	1.537132	0.871172	-1.096551	0.048872	0.663507	-0.358343	-1.240637	0.607679	0.738708	0.28315	3.079769	40	40	40	40	40
0.172431	-0.23608	-0.15347	2.585546	-0.17072	0.5623	0.57568	-0.059	-0.04211	2.508968	1.204924	0.727925	-0.901189	0.097492	0.395065	-0.339183	-1.09488	0.497541	0.540187	0.465801	3.095434	40	40	40	40	40
-0.007887	-0.23608	-0.15347	2.938184	-0.17072	0.040543	0.298673	-0.059	-0.04211	3.155183	0.141546	0.365507	-0.311066	-0.144158	-0.279739	-0.157865	-0.081248	0.897782	0.302743	0.243043	2.3418	40	40	40	40	40
-0.016093	-0.23608	-0.15347	1.53614	-0.17072	-0.027732	0.101409	-0.059	-0.04211	0.459408	0.323876	0.69375	-0.395862	-0.346483	-0.47346	0.146772	0.461548	0.898099	0.733558	-0.137919	1.192014	40	40	40	40	40
-0.01353	-0.23608	-0.15347	0.642071	-0.17072	-0.027519	-0.143757	-0.059	-0.04211	-0.140788	0.569734	0.797747	-0.395598	-0.175628	-0.474031	0.14831	0.465169	0.56272	0.305253	0.141797	0.649299	40	40	40	40	40
0.110401	-0.23608	-0.15347	0.125118	-0.17072	0.036161	-0.167772	-0.059	-0.04211	-0.165252	0.795601	0.934082	-0.48117	-0.137091	-0.463127	0.152329	0.475467	0.463537	0.171812	-0.136987	0.838027	40	40	40	40	40
-0.046775	-0.23608	-0.15347	-0.394952	-0.17072	-0.048995	-0.132437	-0.059	-0.04211	-0.17644	0.703543	0.70835	-0.390608	0.171832	-0.47488	0.15234	0.47549	0.598034	0.094985	-0.942862	0.693515	40	40	40	40	40
-0.043625	-0.23608	-0.15347	-0.387265	-0.17072	-0.047131	-0.221557	-0.059	-0.04211	-0.176458	0.008208	0.763645	-0.342479	-0.119106	-0.338939	0.15234	0.475489	0.470062	0.24163	-0.641537	0.884502	40	40	40	40	40
-0.047052	-0.23608	-0.15347	-0.396796	-0.17072	-0.049156	-0.257277	-0.059	-0.04211	-0.17646	-0.659275	0.778562	-0.328899	-0.328084	-0.472642	0.15234	0.47549	0.449021	0.284849	-0.786754	1.143514	40	40	40	40	40
-0.04706	-0.23608	-0.15347	-0.395616	-0.17072	-0.04916	-0.346472	-0.059	-0.04211	-0.17646	-0.656199	0.810045	-0.271603	-0.123425	-0.378655	0.15234	0.47549	0.190698	-0.004097	-0.404538	0.776979	40	40	40	40	40
-0.046931	-0.23608	-0.15347	-0.396762	-0.17072	-0.049048	-0.467988	-0.059	-0.04211	-0.17646	-0.65955	0.87749	-0.23226	-0.132473	-0.469281	0.15234	0.47549	-0.088104	-0.315515	-0.158352	0.467853	40	40	40	40	40
-0.012538	-0.23608	-0.15347	-0.39686	-0.17072	-0.019296	-0.539109	-0.059	-0.04211	-0.17646	-0.65955	0.858283	-0.23876	-0.077771	-0.473384	0.15234	0.47549	-0.343221	-0.452805	-0.05644	0.506993	40	40	40	40	40
-0.04701	-0.23608	-0.15347	-0.39686	-0.17072	-0.049117	-0.617947	-0.059	-0.04211	-0.17646	-0.65955	0.810948	-0.053834	0.050195	-0.47552	0.15234	0.47549	-0.718202	-0.373598	-0.182826	0.728405	40	40	40	40	40
-0.046236	-0.23608	-0.15347	-0.39686	-0.17072	-0.048447	-0.699032	-0.059	-0.04211	-0.17646	-0.65955	0.754014	-0.331188	0.047492	-0.47552	0.15234	0.47549	-0.865539	-0.113618	0.400453	1.113944	40	40	40	40	40
-0.047059	-0.23608	-0.15347	-0.39686	-0.17072	-0.049159	-0.938536	-0.059	-0.04211	-0.17646	-0.65955	0.621641	-0.153355	0.046777	-0.47552	0.15234	0.47549	-0.800858	-0.156103	0.581105	1.011305	40	40	40	40	40
-0.04706	-0.23608	-0.15347	-0.39686	-0.17072	-0.04916	-0.84001	-0.059	-0.04211	-0.17646	-0.65955	0.681438	-0.292064	-0.302537	-0.47552	0.15234	0.47549	-0.98176	-0.16742	0.72171	0.235644	40	40	40	40	40
-0.04706	-0.23608	-0.15347	-0.39686	-0.17072	-0.04916	-0.747581	-0.059	-0.04211	-0.17646	-0.65955	0.728422	-0.227636	-0.030085	-0.475519	0.15234	0.47549	-1.089034	-0.249096	0.768748	0.717637	40	40	40	40	40
-0.04706	-0.23608	-0.15347	-0.39686	-0.165869	-0.067472	-0.47902	-0.059	-0.04211	-0.17646	-0.648956	0.755132	-0.18575	0.074263	-0.467136	0.15234	0.471873	-1.170064	-0.59348	0.741621	0.226776	40	40	40	40	40
0.535435	-0.23608	-0.15347	-0.39686	2.347853	0.044343	-0.420911	-0.059	-0.04211	-0.17646	0.311961	-1.405762	-0.67138	2.993524	-0.442542	0.15234	0.416955	-2.235586	-0.361739	0.994431	2.536389	40	40	40	40	40
-0.234216	-0.23608	-0.15347	-0.39686	-0.167539	-0.276882	-0.330202	-0.059	-0.04211	-0.17646	-0.656845	-1.416338	0.390292	3.093752	-0.474448	0.15234	0.473587	-2.302818	-0.762423	1.000329	1.888746	40	40	40	40	40
-0.043559	-0.23608	-0.15347	-0.382259	-0.17072	-0.037622	0.938855	-0.059	-0.04211	-0.176433	1.058333	0.289999	-1.029473	0.145433	0.901021	0.658841	-0.296972	-0.186759	0.184229	-0.177297	1.754083	40	40	40	40	40
-0.043908	-0.23608	-0.15347	-0.390029	-0.17072	-0.038114	0.668675	-0.059	-0.04211	-0.175724	0.887365	0.399024	-0.839351	0.012479	1.14006	0.52026	-0.089586	0.246921	0.480018	-0.619963	1.59061	40	40	40	40	40
-0.047051	-0.23608	-0.15347	-0.395468	-0.17072	-0.049129	-0.09819	-0.059	-0.04211	-0.176182	0.539096	0.642587	-0.44745	-0.242128	1.745241	0.152356	0.47543	0.752538	0.851017	-1.130022	1.134153	40	40	40	40	40
-0.034532	-0.23608	-0.15347	0.322211	-0.17072	-0.006667	0.401784	-0.059	-0.04211	-0.057354	0.828547	0.512486	-0.581022	-0.232233	1.823373	0.27107	0.208576	0.882952	1.10539	-0.69399	1.4169	40	40	40	40	40
0.104785	-0.23608	-0.15347	1.865619	-0.17072	0.520728	0.835246	-0.059	-0.04211	1.774036	1.494868	0.615179	-0.949351	-0.138932	1.570413	0.159278	-0.479786	1.057193	1.988817	-0.270078	2.023918	40	40	40	40	40
0.264111	-0.23608	-0.15347	3.481373	-0.17072	1.239422	0.83136	-0.059	-0.04211	4.943155	2.054142	0.804028	-1.229622	0.076888	1.143888	0.1302	-0.932707	1.268209	3.491667	-0.199723	2.440966	40	40	40	40	40
0.079977	-0.23608	-0.15347	4.357323	-0.17072	0.389067	1.03162	-0.059	-0.04211	7.462989	1.058027	0.254485	-0.63075	-0.228785	0.799521	-0.785402	-1.233773	1.161708	1.62862	0.092459	2.785137	40	40	40	40	40
-0.045031	-0.23608	-0.15347	5.134294	-0.17072	-0.093413	0.823615	-0.059	-0.04211	8.294226	0.067603	-0.142892	-0.112024	-0.245686	0.223765	-0.79759	-0.747916	1.18893	0.288391	0.503107	3.281623	40	40	40	40	40
-0.109526	-0.23608	-0.15347	5.387929	-0.17072	-0.293328	0.576554	-0.059	-0.04211	8.139396	-0.52944	-0.286178	0.170325	-0.183502	-0.176466	-0.570118	-0.245869	1.183329	-0.228219	0.767718	3.402524	40	40	40	40	40
-0.046399	-0.23608	-0.15347	3.597478	-0.17072	-0.048372	0.136828	-0.059	-0.04211	2.97663	-0.602102	0.582195	-0.116908	0.028267	-0.465664	0.139603	0.455393	0.778192	0.256606	0.927781	2.453984	40	40	40	40	40
-0.039385	-0.23608	-0.15347	2.051602	-0.17072	-0.04502	-0.02168	-0.059	-0.04211	1.009346	-0.189076	0.693217	-0.238589	-0.091304	-0.475503	0.152305	0.47544	0.592855	0.2828	0.511958	1.563392	40	40	40	40	40
-0.041897	-0.23608	-0.15347	1.781281	-0.17072	-0.046375	-0.014985	-0.059	-0.04211	0.773384	-0.162798	0.690201	-0.282471	-0.089164	-0.475497	0.152335	0.475481	0.541546	0.222937	0.519782	1.673947	40	40	40	40	40
-0.044392	-0.23608	-0.15347	0.892743	-0.17072	-0.047722	-0.108685	-0.059	-0.04211	0.309429	0.00011	0.743801	-0.313461	0.034699	-0.466914	0.152339	0.475488	0.439979	0.048646	0.140777	1.414003	40	40	40	40	40
-0.043956	-0.23608	-0.15347	0.377195	-0.17072	-0.047488	-0.165992	-0.059	-0.04211	-0.033614	-0.079567	0.751263	-0.320475	0.05908	-0.450602	0.152339	0.475488	0.323705	0.022795	-0.14871	1.541926	40	40	40	40	40
-0.045799	-0.23608	-0.15347	-0.050163	-0.17072	-0.048481	-0.225722	-0.059	-0.04211	-0.17322	-0.273704	0.796424	-0.292598	0.006653	-0.451425	0.15234	0.47549	0.348721	0.115838	-0.411593	1.359302	40	40	40	40	40
-0.04706	-0.23608	-0.15347	-0.36537	-0.17072	-0.04916	-0.119154	-0.059	-0.04211	-0.17646	-0.657811	0.868272	-0.240347	0.034191	-0.472764	0.15234	0.47549	0.369775	0.277848	-0.070482	2.088455	40	40	40	40	40
-0.04706	-0.23608	-0.15347	-0.396402	-0.17072	-0.04916	-0.268038	-0.059	-0.04211	-0.17646	-0.659299	0.728444	-0.131008	0.039077	-0.474943	0.15234	0.47549	0.301902	0.002873	-0.583101	1.296002	40	40	40	40	40
-0.047059	-0.23608	-0.15347	-0.396851	-0.17072	-0.049159	-0.361122	-0.059	-0.04211	-0.17646	-0.65955	0.919229	-0.224197	0.050315	-0.475503	0.15234	0.47549	-0.01514	-0.371762	-0.309901	0.348926	40	40	40	40	40
-0.046948	-0.23608	-0.15347	-0.396859	-0.17072	-0.049063	-0.591853	-0.059	-0.04211	-0.17646	-0.65955	0.819387	-0.156495	0.048944	-0.472857	0.15234	0.47549	-0.338216	-0.240611	-0.086066	0.530914	40	40	40	40	40
-0.047011	-0.23608	-0.15347	-0.39686	-0.17072	-0.049117	-0.780041	-0.059	-0.04211	-0.17646	-0.65955	0.797557	-0.055038	0.049878	-0.47552	0.15234	0.47549	-0.576312	-0.350647	0.11813	0.775006	40	40	40	40	40
-0.047031	-0.23608	-0.15347	-0.39686	-0.17072	-0.049135	-0.794554	-0.059	-0.04211	-0.17646	-0.65955	0.712743	-0.167723	-0.043347	-0.47552	0.15234	0.47549	-0.695091	-0.177105	0.292385	0.786938	40	40	40	40	40
-0.047053	-0.23608	-0.15347	-0.39686	-0.17072	-0.049154	-0.908118	-0.059	-0.04211	-0.17646	-0.65955	0.588669	-0.342554	-0.561172	-0.47552	0.15234	0.47549	-0.69116	-0.077824	0.712347	0.45961	40	40	40	40	40
-0.04706	-0.23608	-0.15347	-0.39686	-0.17072	-0.04916	-0.713779	-0.059	-0.04211	-0.17646	-0.65955	0.68589	-0.079886	-0.181824	-0.47552	0.15234	0.47549	-0.788071	-0.375989	0.860559	1.176208	40	40	40	40	40
-0.04706	-0.23608	-0.15347	-0.39686	-0.17072	-0.04916	-0.445296	-0.059	-0.04211	-0.17646	-0.65955	0.905472	-0.225327	0.025213	-0.475519	0.15234	0.47549	-0.892053	-0.523877	1.146309	2.87284	40	40	40	40	40
-0.054782	-0.23608	-0.15347	-0.396857	-0.150425	-0.149648	-0.346051	-0.059	-0.04211	-0.17646	-0.604859	0.552382	0.061699	0.028702	-0.406736	0.15234	0.457877	-0.851329	-0.670104	1.062603	2.249687	40	40	40	40	40
-0.358624	-0.23608	-0.15347	-0.396858	-0.166463	-1.463821	1.908567	-0.059	-0.04211	-0.17646	-0.018968	-1.368982	-0.006234	0.771752	0.121119	0.15234	0.197561	-1.495518	-0.672723	0.726203	2.537458	40	40	40	40	40
-0.369878	-0.23608	-0.15347	-0.396858	-0.170033	-2.773348	1.575626	-0.059	-0.04211	-0.17646	0.373391	-1.416317	-0.252369	1.091745	0.253459	0.15234	-0.767045	-0.939492	-0.289357	0.865895	3.024136	40	40	40	40	40
-0.043993	-0.23608	-0.15347	-0.396854	-0.17072	-0.034361	2.049921	-0.059	-0.04211	-0.176459	1.261747	0.127344	-1.326062	0.319284	0.352508	1.210561	-1.06071	0.298979	0.294943	-0.622966	2.243744	40	40	40	40	40
0.078058	-0.23608	-0.15347	-0.393822	-0.17072	0.536279	1.067314	-0.059	-0.04211	-0.175861	1.197353	0.534954	-1.13719	0.058741	0.954375	0.847487	-0.520088	0.506854	0.467768	-0.796593	1.183294	40	40	40	40	40
0.136174	-0.23608	-0.15347	-0.3898	-0.17072	0.563623	0.329363	-0.059	-0.04211	-0.175489	1.284421	0.724555	-0.939778	-0.077499	1.283503	0.231933	-0.402616	0.616181	1.154958	-1.272662	0.648497	40	40	40	40	40
0.081137	-0.23608	-0.15347	-0.188241	-0.17072	0.379647	0.515415	-0.059	-0.04211	-0.161909	1.201673	0.535113	-0.810289	-0.249239	1.462441	0.174252	-0.272382	0.840287	1.503641	-1.208188	1.258305	40	40	40	40	40
-0.014508	-0.23608	-0.15347	0.639507	-0.17072	0.06665	1.534579	-0.059	-0.04211	-0.003527	1.536147	0.176698	-0.742715	-0.324015	1.919834	0.653406	-0.539045	1.200193	2.327053	-0.541162	2.047861	40	40	40	40	40
0.107018	-0.23608	-0.15347	2.872903	-0.17072	0.448606	1.103143	-0.059	-0.04211	4.702091	1.237675	0.179928	-0.708933	-0.227096	1.110144	-0.130065	-0.839216	1.222593	2.219975	-0.200038	2.345972	40	40	40	40	40
-0.058343	-0.23608	-0.15347	5.344305	-0.17072	-0.054252	1.027943	-0.059	-0.04211	9.822728	0.273478	-0.162053	-0.13697	-0.317653	0.440833	-0.925464	-0.973413	1.275598	1.358959	0.25122	2.810168	40	40	40	40	40
-0.166754	-0.23608	-0.15347	5.946813	-0.17072	-0.501052	0.87838	-0.059	-0.04211	10.3351	-0.626887	-0.399419	0.28911	-0.383874	-0.082827	-0.970773	-0.552677	1.264514	0.22816	0.591055	3.168481	40	40	40	40	40
-0.05332	-0.23608	-0.15347	5.484239	-0.17072	-0.072735	0.220525	-0.059	-0.04211	6.358016	-0.657965	-0.23625	0.137054	0.019481	-0.455384	0.0942	0.422436	1.336595	-0.761917	0.95253	4.079119	40	40	40	40	40
-0.048399	-0.23608	-0.15347	4.31532	-0.17072	-0.054216	0.233272	-0.059	-0.04211	4.250561	-0.656932	0.380442	-0.044308	-0.020907	-0.471476	0.140204	0.464555	1.006617	0.344458	0.767915	3.013476	40	40	40	40	40
-0.04706	-0.23608	-0.15347	2.950276	-0.17072	-0.04916	-0.010761	-0.059	-0.04211	1.877315	-0.655483	0.630494	-0.111726	0.050389	-0.47552	0.15234	0.475489	0.574514	0.321495	0.84145	2.131904	40	40	40	40	40
-0.04706	-0.23608	-0.15347	2.612336	-0.17072	-0.04916	-0.097087	-0.059	-0.04211	1.437396	-0.659486	0.704043	-0.114658	0.050324	-0.47552	0.15234	0.47549	0.37226	-0.07269	0.998263	1.832132	40	40	40	40	40
-0.04706	-0.23608	-0.15347	1.679217	-0.17072	-0.04916	0.1686	-0.059	-0.04211	0.798597	-0.657964	0.599693	-0.415895	0.049783	-0.474638	0.15234	0.47549	0.324558	-0.043962	0.970072	3.419739	40	40	40	40	40
-0.04706	-0.23608	-0.15347	0.63913	-0.17072	-0.04916	-0.220943	-0.059	-0.04211	-0.143992	-0.656222	0.944495	-0.295204	0.045038	-0.470688	0.15234	0.47549	0.158961	-0.150908	0.395671	1.847499	40	40	40	40	40
-0.04706	-0.23608	-0.15347	0.594765	-0.17072	-0.04916	-0.397999	-0.059	-0.04211	-0.17607	-0.659261	0.721751	-0.111433	0.002573	-0.475045	0.15234	0.47549	-0.084497	-0.023186	-0.150312	1.739608	40	40	40	40	40
-0.04706	-0.23608	-0.15347	0.361067	-0.17072	-0.04916	-0.435868	-0.059	-0.04211	-0.175281	-0.658281	0.77827	-0.110419	-0.275298	-0.472642	0.15234	0.47549	-0.172688	-0.1741	0.000237	0.333529	40	40	40	40	40
-0.04706	-0.23608	-0.15347	0.141633	-0.17072	-0.04916	-0.436525	-0.059	-0.04211	-0.17646	-0.659158	0.819415	-0.143696	-0.22506	-0.474499	0.15234	0.47549	-0.150104	-0.233338	-0.055393	0.126545	40	40	40	40	40
-0.047053	-0.23608	-0.15347	-0.393843	-0.17072	-0.049154	-0.529164	-0.059	-0.04211	-0.17646	-0.65955	0.82507	-0.288522	0.049343	-0.475048	0.15234	0.47549	0.133775	0.088649	-0.197624	0.271507	40	40	40	40	40
-0.047035	-0.23608	-0.15347	-0.390714	-0.17072	-0.049138	-0.666699	-0.059	-0.04211	-0.17646	-0.65955	0.745873	-0.203411	0.049621	-0.47552	0.15234	0.47549	-0.256121	-0.007027	0.143547	0.589731	40	40	40	40	40
-0.04706	-0.23608	-0.15347	-0.39686	-0.17072	-0.04916	-0.935988	-0.059	-0.04211	-0.17646	-0.65955	0.707757	-0.110927	0.050329	-0.47552	0.15234	0.47549	-0.503401	0.00867	0.403031	0.997989	40	40	40	40	40
-0.047059	-0.23608	-0.15347	-0.39686	-0.17072	-0.049159	-0.765771	-0.059	-0.04211	-0.17646	-0.65955	0.596514	-0.275987	0.017533	-0.47552	0.15234	0.47549	-0.525898	0.106151	0.460926	0.148746	40	40	40	40	40
-0.047034	-0.23608	-0.15347	-0.39686	-0.17072	-0.049138	-0.644504	-0.059	-0.04211	-0.17646	-0.65955	0.684821	-0.208752	-0.095937	-0.47552	0.15234	0.47549	-0.621824	-0.145217	0.653065	0.622793	40	40	40	40	40
-0.04706	-0.23608	-0.15347	-0.39686	-0.17072	-0.04916	-0.459679	-0.059	-0.04211	-0.17646	-0.65955	0.793176	-0.086962	0.027488	-0.47552	0.15234	0.47549	-0.664517	-0.283593	0.895199	0.691386	40	40	40	40	40
-0.047147	-0.23608	-0.15347	-0.39686	-0.17072	-0.049313	-0.543997	-0.059	-0.04211	-0.17646	-0.65955	0.598608	0.432524	-0.319439	-0.474913	0.15234	0.47549	-0.862374	-0.941489	1.20855	1.525122	40	40	40	40	40
-0.074269	-0.23608	-0.15347	-0.391008	-0.170719	-0.152608	-0.270178	-0.059	-0.04211	-0.17646	-0.6174	0.612986	0.085559	-0.048577	-0.365526	0.15234	0.459065	-0.639026	-0.670113	1.127239	2.414705	40	40	40	40	40
-0.367663	-0.23608	-0.15347	-0.395899	-0.17072	-1.516218	2.167462	-0.059	-0.04211	-0.17646	0.021637	-1.395004	-0.069986	0.193863	0.478035	0.15234	0.200833	-1.380789	-0.67917	0.652738	2.459806	40	40	40	40	40
-0.37073	-0.23608	-0.15347	-0.396859	-0.17072	-1.392717	2.774434	-0.059	-0.04211	-0.17646	0.079228	-1.41634	-0.12196	-0.080846	0.113509	0.15234	0.473929	-1.512238	-0.793565	0.638321	2.655507	40	40	40	40	40
0.264384	-0.23608	-0.15347	-0.396065	-0.17072	1.964845	2.183767	-0.059	-0.04211	-0.176458	1.464026	0.382152	-1.8484	-0.207873	0.370423	1.665382	-0.747874	0.69437	-0.339225	-0.267844	1.686899	40	40	40	40	40
0.265529	-0.23608	-0.15347	-0.396287	-0.17072	1.015762	0.713811	-0.059	-0.04211	-0.17646	1.948065	1.088807	-1.394423	0.469771	1.019887	0.899313	-1.219369	0.219305	0.695007	-0.991537	-0.731826	40	40	40	40	40
0.298157	-0.23608	-0.15347	-0.387981	-0.17072	1.287281	0.833892	-0.059	-0.04211	-0.176444	1.92999	0.76153	-1.357063	-0.002186	0.906419	0.524174	-0.992405	0.71154	1.785026	-1.029527	0.745065	40	40	40	40	40
0.275738	-0.23608	-0.15347	-0.393358	-0.17072	1.073376	0.679881	-0.059	-0.04211	-0.176457	1.807877	0.578324	-1.286614	-0.294343	0.845728	-0.082618	-1.016999	0.746851	1.854913	-1.692904	0.953595	40	40	40	40	40
0.234937	-0.23608	-0.15347	-0.116143	-0.17072	0.89658	0.922292	-0.059	-0.04211	-0.107746	1.755536	0.510819	-1.127807	-0.180703	1.153361	0.138781	-0.84648	0.994653	2.381154	-0.853089	1.474531	40	40	40	40	40
0.06184	-0.23608	-0.15347	2.378384	-0.17072	0.158286	1.167306	-0.059	-0.04211	3.948618	0.827598	-0.052982	-0.502685	-0.298716	0.971858	-0.182527	-0.762303	1.214128	1.668467	-0.278352	2.319915	40	40	40	40	40
-0.337998	-0.23608	-0.15347	7.319455	-0.17072	-1.147243	1.661408	-0.059	-0.04211	17.081647	-0.635825	-1.250234	0.705753	-0.825942	0.42704	-2.5055	-1.936488	1.34826	0.218703	0.401488	2.838657	40	40	40	40	40
-0.130615	-0.23608	-0.15347	5.363687	-0.17072	-0.364061	0.708737	-0.059	-0.04211	8.313806	-0.646618	-0.084879	0.168462	-0.289129	-0.21119	-0.624289	-0.234118	1.189488	0.490336	0.517641	2.981129	40	40	40	40	40
-0.047501	-0.23608	-0.15347	4.619587	-0.17072	-0.050822	0.392099	-0.059	-0.04211	4.944585	-0.659512	0.53165	-0.087335	-0.152472	-0.474155	0.14829	0.471813	1.108114	0.930708	0.580009	2.898537	40	40	40	40	40
-0.04727	-0.23608	-0.15347	4.028784	-0.17072	-0.049953	0.230161	-0.059	-0.04211	3.658401	-0.659549	0.466896	-0.071379	-0.001001	-0.474886	0.150438	0.473776	0.960737	0.557004	0.626338	2.820418	40	40	40	40	40
-0.04706	-0.23608	-0.15347	2.967699	-0.17072	-0.04916	0.063498	-0.059	-0.04211	1.894319	-0.65955	0.601223	-0.11866	0.076436	-0.47552	0.15234	0.47549	0.632881	0.441102	0.589858	2.160342	40	40	40	40	40
-0.04706	-0.23608	-0.15347	2.61416	-0.17072	-0.04916	-0.104382	-0.059	-0.04211	1.351431	-0.65955	0.629573	-0.109301	0.050425	-0.47552	0.15234	0.47549	0.493785	0.325034	0.793495	1.852155	40	40	40	40	40
-0.04706	-0.23608	-0.15347	2.168133	-0.17072	-0.04916	-0.093667	-0.059	-0.04211	1.001864	-0.65955	0.686756	-0.152713	0.073635	-0.47552	0.15234	0.47549	0.371562	0.105678	0.70627	1.974557	40	40	40	40	40
-0.04706	-0.23608	-0.15347	1.235065	-0.17072	-0.04916	-0.271072	-0.059	-0.04211	0.169369	-0.659548	0.762449	-0.166437	0.046614	-0.47552	0.15234	0.47549	0.072925	-0.169266	0.671221	2.073295	40	40	40	40	40
-0.04706	-0.23608	-0.15347	0.836499	-0.17072	-0.04916	-0.433053	-0.059	-0.04211	-0.066506	-0.65955	0.784759	-0.094676	-0.212993	-0.47552	0.15234	0.47549	-0.204666	-0.276808	0.356129	0.663447	40	40	40	40	40
-0.04706	-0.23608	-0.15347	0.606924	-0.17072	-0.04916	-0.614875	-0.059	-0.04211	-0.176388	-0.65955	0.712278	-0.111779	-0.811203	-0.47552	0.15234	0.47549	-0.322925	-0.205977	0.162864	-0.026512	40	40	40	40	40
-0.04706	-0.23608	-0.15347	0.606546	-0.17072	-0.04916	-0.467962	-0.059	-0.04211	-0.17646	-0.65955	0.811424	-0.048458	-0.292301	-0.47552	0.15234	0.47549	-0.410408	-0.401567	0.123819	-0.556447	40	40	40	40	40
-0.04706	-0.23608	-0.15347	-0.085966	-0.17072	-0.04916	-0.809131	-0.059	-0.04211	-0.17646	-0.65955	0.632912	-0.160938	-0.016777	-0.47552	0.15234	0.47549	-0.312225	0.433961	0.414493	0.991831	40	40	40	40	40
-0.04706	-0.23608	-0.15347	-0.396658	-0.17072	-0.04916	-1.009376	-0.059	-0.04211	-0.17646	-0.65955	0.630434	-0.101628	0.050329	-0.47552	0.15234	0.47549	-0.317122	0.279435	0.576386	0.76324	40	40	40	40	40
-0.04706	-0.23608	-0.15347	-0.39686	-0.17072	-0.04916	-0.861484	-0.059	-0.04211	-0.17646	-0.659542	0.442153	-0.280046	0.050327	-0.47552	0.15234	0.47549	-0.632407	0.642864	0.579955	1.293678	40	40	40	40	40
-0.04706	-0.23608	-0.15347	-0.39686	-0.17072	-0.04916	-0.54748	-0.059	-0.04211	-0.17646	-0.658675	0.622853	-0.192805	0.050039	-0.47552	0.15234	0.47549	-0.354605	0.161913	0.637648	1.024482	40	40	40	40	40
-0.04706	-0.23608	-0.15347	-0.39686	-0.17072	-0.04916	-0.286308	-0.059	-0.04211	-0.17646	-0.659491	0.686456	-0.254937	0.050302	-0.47552	0.15234	0.47549	-0.491164	-0.150267	0.504683	0.688077	40	40	40	40	40
-0.04706	-0.23608	-0.15347	-0.39686	-0.17072	-0.049161	-0.303287	-0.059	-0.04211	-0.17646	-0.655881	0.724399	0.000437	-0.025028	-0.475513	0.15234	0.47549	-0.358366	-0.358543	0.959576	1.73401	40	40	40	40	40
-0.047134	-0.23608	-0.15347	-0.39686	-0.17072	-0.049293	-0.404286	-0.059	-0.04211	-0.17646	-0.659311	0.886134	0.030909	0.048174	-0.475004	0.15234	0.47549	-0.192513	-0.60031	1.179644	3.040691	40	40	40	40	40
-0.202743	-0.23608	-0.15347	-0.394272	-0.17072	-0.357794	0.075325	-0.059	-0.04211	-0.17646	-0.636544	-0.281464	0.269932	-0.040477	0.572937	0.15234	0.466333	-1.077098	-0.702936	0.958796	1.925383	40	40	40	40	40
-0.370524	-0.23608	-0.15347	-0.38362	-0.17072	-1.082536	2.253428	-0.059	-0.04211	-0.17646	-0.098069	-1.414896	0.015361	0.015156	0.753857	0.15234	0.475166	-1.386448	-0.78939	0.453265	2.195319	40	40	40	40	40
-0.37073	-0.23608	-0.15347	-0.39506	-0.17072	-0.790294	1.570618	-0.059	-0.04211	-0.17646	-0.356988	-1.41634	0.181237	0.011388	1.179214	0.15234	0.475463	-1.591908	-0.793503	0.582934	1.685126	40	40	40	40	40
0.491795	-0.23608	-0.15347	-0.204176	-0.17072	2.648261	1.214841	-0.059	-0.04211	-0.17646	2.070778	0.876914	-1.7307	0.080856	0.67185	1.683329	-0.72077	0.38452	0.872328	-0.628732	1.478023	40	40	40	40	40
0.307139	-0.23608	-0.15347	-0.370248	-0.17072	2.014836	1.328812	-0.059	-0.04211	-0.17646	2.05029	0.687544	-1.606552	-0.187746	0.638953	1.70943	-0.797562	0.745845	1.189226	-1.285013	1.220001	40	40	40	40	40
0.628701	-0.23608	-0.15347	-0.39294	-0.17072	1.992298	0.823558	-0.059	-0.04211	-0.176451	1.911817	0.488311	-1.5352	-0.073025	0.72594	0.654023	-0.875056	0.770984	1.585636	-0.913838	1.169119	40	40	40	40	40
0.326328	-0.23608	-0.15347	-0.396151	-0.17072	1.347198	0.95852	-0.059	-0.04211	-0.176432	2.061629	0.743775	-1.269329	0.070422	1.037535	0.133709	-0.927527	1.210514	3.481304	0.324222	1.738026	40	40	40	40	40
0.631686	-0.23608	-0.15347	-0.341335	-0.17072	1.514734	0.614966	-0.059	-0.04211	-0.149179	1.743304	0.202609	-1.344418	-0.125759	0.678778	-0.03358	-0.931745	1.001461	2.296297	-0.836315	1.523539	40	40	40	40	40
0.048078	-0.23608	-0.15347	2.956542	-0.17072	0.10202	0.817329	-0.059	-0.04211	4.316058	-0.043255	0.118598	-0.319666	0.223952	0.026674	-0.98468	-1.31109	1.404393	1.335657	-0.834062	2.657703	40	40	40	40	40
-0.094122	-0.23608	-0.15347	3.876893	-0.17072	-0.227443	0.707103	-0.059	-0.04211	4.957373	-0.59537	0.254169	-0.054014	0.288043	-0.261008	-0.883672	-0.902795	1.393273	1.018975	-0.535216	2.852687	40	40	40	40	40
-0.08428	-0.23608	-0.15347	4.256642	-0.17072	-0.189717	0.58958	-0.059	-0.04211	5.207167	-0.659443	0.335413	-0.031989	0.098177	-0.363132	-0.563124	-0.400956	1.261842	0.946531	-0.093129	2.83145	40	40	40	40	40
-0.047675	-0.23608	-0.15347	3.93996	-0.17072	-0.051482	0.268164	-0.059	-0.04211	3.533125	-0.659548	0.546316	-0.091954	-0.022587	-0.473664	0.144614	0.467251	0.970861	0.826832	0.468112	2.642851	40	40	40	40	40
-0.047061	-0.23608	-0.15347	3.618809	-0.17072	-0.049164	0.219987	-0.059	-0.04211	2.788231	-0.65955	0.54311	-0.091685	0.05012	-0.475517	0.15233	0.475481	0.931553	0.885384	0.338508	2.595369	40	40	40	40	40
-0.04706	-0.23608	-0.15347	2.979193	-0.17072	-0.04916	0.07832	-0.059	-0.04211	1.908647	-0.65955	0.591523	-0.120687	0.081648	-0.47552	0.15234	0.47549	0.651429	0.484719	0.543137	2.183115	40	40	40	40	40
-0.04706	-0.23608	-0.15347	2.614268	-0.17072	-0.04916	0.070605	-0.059	-0.04211	1.439434	-0.65955	0.599885	-0.148946	0.125021	-0.47552	0.15234	0.47549	0.541735	0.314772	0.419305	2.001615	40	40	40	40	40
-0.04706	-0.23608	-0.15347	2.251495	-0.17072	-0.04916	-0.119884	-0.059	-0.04211	0.989801	-0.65955	0.65515	-0.118021	0.075177	-0.47552	0.15234	0.47549	0.34773	0.145284	0.714962	1.892494	40	40	40	40	40
-0.04706	-0.23608	-0.15347	1.610586	-0.17072	-0.04916	-0.314136	-0.059	-0.04211	0.310097	-0.65955	0.733059	-0.096869	0.050329	-0.47552	0.15234	0.47549	0.071262	-0.247394	1.000477	2.057149	40	40	40	40	40
-0.04706	-0.23608	-0.15347	0.917388	-0.17072	-0.04916	-0.453454	-0.059	-0.04211	-0.03492	-0.65955	0.775646	-0.067276	-0.200127	-0.47552	0.15234	0.47549	-0.291115	-0.315938	0.489478	0.583401	40	40	40	40	40
-0.04706	-0.23608	-0.15347	0.607129	-0.17072	-0.04916	-0.487725	-0.059	-0.04211	-0.176344	-0.65955	0.81692	-0.011187	0.005193	-0.47552	0.15234	0.47549	-0.412764	-0.432982	0.403495	0.895439	40	40	40	40	40
-0.047071	-0.23608	-0.15347	0.606582	-0.17072	-0.049175	-0.685373	-0.059	-0.04211	-0.17646	-0.65955	0.804395	-0.057151	-0.293102	-0.47552	0.15234	0.47549	-0.484315	-0.433698	0.675243	-0.211324	40	40	40	40	40
-0.047736	-0.23608	-0.15347	0.088267	-0.17072	-0.050089	-0.800162	-0.059	-0.04211	-0.17646	-0.65955	0.66833	-0.142074	-0.007719	-0.47552	0.15234	0.47549	-0.240602	0.31384	0.553207	0.950118	40	40	40	40	40
-0.047091	-0.23608	-0.15347	-0.395972	-0.17072	-0.049203	-0.981039	-0.059	-0.04211	-0.17646	-0.65955	0.43891	-0.222267	0.050315	-0.47552	0.15234	0.47549	-0.206633	1.594395	0.412616	1.738283	40	40	40	40	40
-0.04738	-0.23608	-0.15347	-0.39686	-0.17072	-0.0496	-0.689819	-0.059	-0.04211	-0.17646	-0.657975	0.620978	-0.218122	0.050187	-0.47552	0.15234	0.47549	-0.123514	0.515848	0.511308	1.070936	40	40	40	40	40
-0.047266	-0.23608	-0.15347	-0.39686	-0.17072	-0.049444	-0.144947	-0.059	-0.04211	-0.17646	-0.562045	0.617927	-0.217685	0.050234	-0.475519	0.15234	0.47549	0.038201	0.331634	0.78314	1.388652	40	40	40	40	40
-0.04706	-0.23608	-0.15347	-0.39686	-0.17072	-0.04916	0.293842	-0.059	-0.04211	-0.17646	-0.65657	0.627177	-0.114184	0.050312	-0.47552	0.15234	0.47549	0.445108	0.275878	1.067152	2.283097	40	40	40	40	40
-0.047094	-0.23608	-0.15347	-0.39686	-0.17072	-0.049265	0.084929	-0.059	-0.04211	-0.17646	-0.50151	0.664328	-0.144039	0.048947	-0.475364	0.15234	0.47549	0.155685	0.142977	1.013871	2.193582	40	40	40	40	40
-0.072581	-0.23608	-0.15347	-0.396668	-0.17072	-0.098216	-0.065026	-0.059	-0.04211	-0.17646	-0.586275	0.585633	-0.021214	0.031642	-0.303132	0.15234	0.475307	-0.157342	-0.251433	1.095712	2.083915	40	40	40	40	40
-0.287805	-0.23608	-0.15347	-0.392404	-0.17072	-0.512642	0.626821	-0.059	-0.04211	-0.17646	-0.631796	-0.834172	0.26351	0.006661	1.159718	0.15234	0.475481	-0.939339	-0.678655	0.919502	2.016424	40	40	40	40	40
-0.370716	-0.23608	-0.15347	-0.394749	-0.17072	-0.629634	0.507435	-0.059	-0.04211	-0.17646	-0.657038	-1.416246	0.408348	0.002735	1.776796	0.15234	0.47549	-1.770441	-0.689159	0.722877	1.411719	40	40	40	40	40
-0.37073	-0.23608	-0.15347	0.440062	-0.17072	-0.647585	1.38341	-0.059	-0.04211	-0.17646	-0.644375	-1.416334	0.307501	0.002589	1.804126	0.15234	0.47549	-0.927644	-0.789148	0.959569	2.269872	40	40	40	40	40
0.600771	-0.236078	-0.15347	0.512757	-0.17072	3.945463	0.880507	-0.059	-0.04211	-0.17646	2.530817	1.111147	-1.774758	0.625081	0.439747	2.590115	-0.338099	-0.118844	1.751353	0.311399	3.336322	40	40	40	40	40
0.741137	-0.23608	-0.15347	-0.39207	-0.17072	3.483493	1.319727	-0.059	-0.04211	-0.17646	2.129883	0.854198	-1.926851	-0.322234	0.721334	1.636974	-0.574189	0.539474	0.879137	-0.889248	1.927504	40	40	40	40	40
0.761871	-0.236039	-0.15347	-0.389765	-0.17072	2.9829	0.874338	-0.059	-0.04211	-0.176432	1.92225	0.258486	-1.703472	-0.154	0.586654	1.069402	-0.502908	1.001394	1.886011	-0.65759	2.352787	40	40	40	40	40
1.468622	-0.235908	-0.15347	-0.396055	-0.17072	2.492217	0.255823	-0.059	-0.04211	-0.176179	1.595072	-0.785478	-1.595791	-0.07122	0.193772	-0.04114	-0.772616	1.188305	2.053508	-0.450136	2.099012	40	40	40	40	40
0.615354	-0.236076	-0.15347	-0.319857	-0.17072	1.31488	0.314938	-0.059	-0.04211	-0.130742	1.110724	0.067693	-1.115528	0.01186	0.290374	0.083515	-0.911541	1.035169	2.661068	-0.401573	1.904267	40	40	40	40	40
0.066316	-0.23608	-0.15347	1.152479	-0.17072	0.22333	0.277268	-0.059	-0.04211	0.842489	-0.170376	0.43922	-0.490709	0.394315	-0.250437	-0.436389	-1.233513	1.174778	2.038704	-1.154488	2.345419	40	40	40	40	40
-0.047011	-0.23608	-0.15347	2.518291	-0.17072	-0.04904	0.684042	-0.059	-0.04211	1.41035	-0.65868	0.640792	-0.274675	1.053684	-0.475009	-1.411132	-1.919878	1.747761	1.538994	-1.857938	3.031047	40	40	40	40	40
-0.047067	-0.23608	-0.15347	2.538942	-0.17072	-0.049186	0.332499	-0.059	-0.04211	1.476	-0.659077	0.648469	-0.233523	0.702379	-0.475499	-0.361681	-0.308964	1.22805	0.912636	-0.704518	2.307834	40	40	40	40	40
-0.047061	-0.23608	-0.15347	2.716789	-0.17072	-0.049163	0.149291	-0.059	-0.04211	1.678004	-0.659498	0.622411	-0.179457	0.370379	-0.475518	0.1393	0.455981	0.929162	0.671353	-0.058661	2.047552	40	40	40	40	40
-0.04706	-0.23608	-0.15347	2.355436	-0.17072	-0.04916	0.076137	-0.059	-0.04211	1.192968	-0.659548	0.619785	-0.195241	0.277686	-0.47552	0.15234	0.47549	0.816208	0.620899	-0.10447	1.969743	40	40	40	40	40
-0.04706	-0.23608	-0.15347	2.316631	-0.17072	-0.04916	0.029869	-0.059	-0.04211	1.141031	-0.65955	0.630333	-0.176106	0.036941	-0.47552	0.15234	0.47549	0.660879	0.434705	0.199449	1.648665	40	40	40	40	40
-0.04706	-0.23608	-0.15347	1.957484	-0.17072	-0.04916	-0.062231	-0.059	-0.04211	0.712785	-0.65955	0.660738	-0.177362	0.031646	-0.47552	0.15234	0.47549	0.510349	0.255183	0.252701	1.506424	40	40	40	40	40
-0.04706	-0.23608	-0.15347	1.900697	-0.17072	-0.04916	-0.125768	-0.059	-0.04211	0.65791	-0.65955	0.694677	-0.145101	0.073367	-0.47552	0.15234	0.47549	0.36705	0.057885	0.495643	1.489039	40	40	40	40	40
-0.04706	-0.23608	-0.15347	1.610123	-0.17072	-0.04916	-0.276711	-0.059	-0.04211	0.241435	-0.65955	0.709917	-0.10783	0.050199	-0.47552	0.15234	0.47549	0.030212	-0.009082	0.711761	1.486963	40	40	40	40	40
-0.04706	-0.23608	-0.15347	1.240335	-0.17072	-0.04916	-0.387409	-0.059	-0.04211	0.124675	-0.65955	0.762531	-0.069823	0.044163	-0.47552	0.15234	0.47549	-0.160144	-0.273028	0.753257	1.482313	40	40	40	40	40
-0.047064	-0.23608	-0.15347	0.606973	-0.17072	-0.049163	-0.525806	-0.059	-0.04211	-0.176405	-0.65955	0.865564	-0.008244	0.048941	-0.47552	0.15234	0.47549	-0.726966	-0.564915	0.842762	1.055176	40	40	40	40	40
-0.047076	-0.23608	-0.15347	0.606631	-0.17072	-0.049177	-0.644847	-0.059	-0.04211	-0.17646	-0.65955	0.709809	-0.109024	0.04892	-0.47552	0.15234	0.47549	-0.317293	0.002583	0.721239	0.823654	40	40	40	40	40
-0.109717	-0.23608	-0.15347	0.032376	-0.17072	-0.134851	-0.630838	-0.059	-0.04211	-0.17646	-0.65955	0.614198	0.015162	-0.029259	-0.47552	0.15234	0.47549	-0.165513	0.14244	0.423101	0.784771	40	40	40	40	40
-0.057563	-0.23608	-0.15347	-0.394602	-0.17072	-0.06349	-0.799775	-0.059	-0.04211	-0.17646	-0.65955	0.766204	-0.191637	0.045597	-0.47552	0.15234	0.47549	0.270385	0.365661	0.38202	1.064021	40	40	40	40	40
-0.057	-0.23608	-0.15347	-0.39686	-0.17072	-0.062768	-0.159991	-0.059	-0.04211	-0.17646	-0.659125	0.793098	-0.264176	0.045865	-0.47552	0.15234	0.47549	0.237359	0.15007	0.295242	0.414483	40	40	40	40	40
-0.048215	-0.23608	-0.15347	-0.39686	-0.17072	-0.05083	0.312168	-0.059	-0.04211	-0.17646	-0.473843	0.630232	-0.173634	0.049772	-0.475437	0.15234	0.47549	0.559626	0.45814	0.978	2.139399	40	40	40	40	40
-0.047096	-0.23608	-0.15347	-0.39686	-0.17072	-0.049273	0.81079	-0.059	-0.04211	-0.17646	-0.009721	0.498931	-0.182209	0.050255	-0.475384	0.15234	0.47549	1.041865	0.970411	1.44411	3.382212	40	40	40	40	40
-0.123064	-0.23608	-0.15347	-0.39686	-0.17072	-0.350464	0.832423	-0.059	-0.04211	-0.17646	-0.203925	0.141802	-0.120036	0.033423	-0.223824	0.15234	0.47549	0.601257	0.330131	1.072029	2.760211	40	40	40	40	40
-0.314139	-0.23608	-0.15347	-0.396739	-0.17072	-0.900034	1.036131	-0.059	-0.04211	-0.17646	-0.076331	-0.892094	0.065341	0.007799	0.572258	0.15234	0.475384	0.146274	-0.447309	0.561459	2.018619	40	40	40	40	40
-0.365894	-0.23608	-0.15347	-0.38938	-0.17072	-0.819488	0.991848	-0.059	-0.04211	-0.17646	-0.381234	-1.31264	0.246717	-0.009897	1.355877	0.15234	0.475487	-0.645978	-0.668327	0.661986	1.888804	40	40	40	40	40
-0.370689	-0.23608	-0.15347	-0.385727	-0.17072	-0.659424	1.338015	-0.059	-0.04211	-0.17646	-0.638223	-1.408668	0.315143	-0.006601	1.794405	0.15234	0.47549	-0.285633	-0.774275	0.986423	2.484377	40	40	40	40	40
-0.370716	-0.23608	-0.15347	-0.39434	-0.17072	-0.526682	0.969981	-0.059	-0.04211	-0.17646	-0.659451	-1.416309	0.447202	-0.013729	3.481651	0.15234	0.47549	-1.148555	-0.790988	0.741862	1.30747	40	40	40	40	40
0.563381	-0.19165	-0.15347	-0.173671	-0.17072	4.358591	1.106329	-0.059	-0.04211	-0.17646	1.909692	0.257599	-1.903953	-0.061649	0.500683	2.394475	0.158641	0.793969	2.033163	-0.891396	2.830575	40	40	40	40	40
0.595741	-0.232895	-0.15347	-0.367065	-0.17072	4.898688	0.672322	-0.059	-0.04211	-0.17646	1.964198	0.236455	-1.960476	-0.15872	0.548575	1.963077	0.323203	1.167752	2.282298	-0.801278	4.494044	40	40	40	40	40
0.761672	-0.159874	-0.15347	-0.37117	-0.17072	3.040334	1.239944	-0.059	-0.04211	-0.176368	1.83602	0.036091	-1.704468	-0.197092	0.423528	1.684163	-0.043821	1.064797	1.741339	-0.937141	2.486492	40	40	40	40	40
0.053378	-0.235698	-0.15347	-0.395187	-0.17072	0.159261	2.739974	-0.059	-0.04211	-0.175846	1.653796	-0.109536	-1.120397	-0.18952	0.234187	2.828974	0.700227	1.133648	1.870319	-1.361812	0.856503	40	40	40	40	40
0.457987	-0.236062	-0.15347	-0.298924	-0.17072	0.799669	0.915099	-0.059	-0.04211	-0.136131	0.846589	-0.142921	-0.993759	-0.018562	-0.030485	1.025307	-0.310899	1.055641	2.149181	-1.063904	1.655908	40	40	40	40	40
-0.03811	-0.23608	-0.15347	-0.241466	-0.17072	-0.03084	-0.571492	-0.059	-0.04211	-0.095133	-0.622347	0.352222	-0.344558	0.109051	-0.463747	0.075558	-1.136527	0.647211	2.732373	-0.849762	2.014163	40	40	40	40	40
-0.046769	-0.23608	-0.15347	1.339346	-0.17072	-0.048404	0.096825	-0.059	-0.04211	0.74147	-0.585692	0.568031	-0.288615	0.636513	-0.474611	-0.488819	-1.002204	1.164835	1.704255	-1.174421	2.304701	40	40	40	40	40
-0.04706	-0.23608	-0.15347	1.931683	-0.17072	-0.04916	0.285778	-0.059	-0.04211	0.765996	-0.620967	0.704337	-0.287171	0.924678	-0.47552	-0.363152	-0.307058	1.221145	0.79605	-0.913699	2.034586	40	40	40	40	40
-0.04706	-0.23608	-0.15347	1.613122	-0.17072	-0.04916	0.099055	-0.059	-0.04211	0.291006	-0.659549	0.739062	-0.321134	0.957021	-0.47552	0.151944	0.474897	0.994176	0.415332	-0.472231	1.544867	40	40	40	40	40
-0.047059	-0.23608	-0.15347	1.689304	-0.17072	-0.04916	-0.008699	-0.059	-0.04211	0.385452	-0.659537	0.672212	-0.250799	0.438246	-0.47552	0.15234	0.47549	0.768185	0.479848	-0.289735	1.716072	40	40	40	40	40
-0.04706	-0.23608	-0.15347	1.611644	-0.17072	-0.04916	-0.145001	-0.059	-0.04211	0.230424	-0.65955	0.591613	-0.190879	-0.155754	-0.47552	0.15234	0.47549	0.509421	0.590439	-0.189921	1.992582	40	40	40	40	40
-0.04706	-0.23608	-0.15347	1.610642	-0.17072	-0.04916	-0.054811	-0.059	-0.04211	0.361903	-0.65955	0.766973	-0.238085	0.049319	-0.47552	0.15234	0.47549	0.698636	0.094763	0.245865	0.410801	40	40	40	40	40
-0.04706	-0.23608	-0.15347	1.6106	-0.17072	-0.04916	-0.247108	-0.059	-0.04211	0.420503	-0.65955	0.708946	-0.110604	0.050333	-0.47552	0.15234	0.47549	0.171734	0.007449	0.402779	1.57642	40	40	40	40	40
-0.047116	-0.23608	-0.15347	1.609542	-0.17072	-0.049245	-0.248887	-0.059	-0.04211	0.361543	-0.65955	0.712812	-0.075538	0.050592	-0.47552	0.15234	0.47549	0.167299	-0.182488	0.404973	1.522912	40	40	40	40	40
-0.051939	-0.23608	-0.15347	1.033585	-0.17072	-0.054519	-0.454142	-0.059	-0.04211	0.031606	-0.65955	0.745919	-0.044926	0.062133	-0.47552	0.15234	0.47549	-0.287311	-0.279362	0.740392	1.245007	40	40	40	40	40
-0.048329	-0.23608	-0.15347	0.608063	-0.17072	-0.050569	-0.699159	-0.059	-0.04211	-0.173924	-0.65955	0.792515	-0.086013	0.052994	-0.47552	0.15234	0.47549	-0.486272	-0.258563	0.972594	1.281526	40	40	40	40	40
-0.121018	-0.23608	-0.15347	0.353433	-0.17072	-0.097959	-0.563331	-0.059	-0.04211	-0.17646	-0.65955	0.598715	0.215137	0.018269	-0.47552	0.15234	0.47549	-0.396598	-0.380718	0.709858	1.39517	40	40	40	40	40
-0.199189	-0.23608	-0.15347	-0.078225	-0.17072	-0.209041	-0.463745	-0.059	-0.04211	-0.17646	-0.657506	0.455658	0.362209	-0.006392	-0.473665	0.15234	0.47549	-0.03491	-0.26696	0.367036	1.190278	40	40	40	40	40
-0.35242	-0.23608	-0.15347	-0.394324	-0.17072	-0.464223	-0.026736	-0.059	-0.04211	-0.17646	-0.659246	0.357554	0.65694	-0.097722	-0.475244	0.15234	0.47549	0.153722	-0.563653	-0.144043	0.326342	40	40	40	40	40
-0.243518	-0.23608	-0.15347	-0.39686	-0.17072	-0.344949	0.058896	-0.059	-0.04211	-0.17646	-0.651211	0.051691	0.30711	-0.148291	-0.473819	0.15234	0.47549	0.33377	-0.270629	0.086982	0.998463	40	40	40	40	40
-0.190882	-0.23608	-0.15347	-0.39686	-0.17072	-0.276383	0.398292	-0.059	-0.04211	-0.17646	-0.483669	-0.013447	0.161115	-0.139916	-0.473813	0.15234	0.47549	0.559627	0.027068	0.461098	1.784092	40	40	40	40	40
-0.207177	-0.23608	-0.15347	-0.39686	-0.17072	-0.392685	0.978148	-0.059	-0.04211	-0.17646	-0.323698	-0.238409	0.108723	-0.18768	-0.238868	0.15234	0.47549	0.910763	0.00893	0.790511	2.15941	40	40	40	40	40
-0.213774	-0.23608	-0.15347	-0.39686	-0.17072	-0.622534	1.439135	-0.059	-0.04211	-0.17646	-0.047358	-0.436285	-0.071548	-0.189312	0.103576	0.15234	0.47549	0.961596	0.053443	1.051746	2.561949	40	40	40	40	40
-0.368693	-0.23608	-0.15347	-0.396859	-0.17072	-1.372557	1.800641	-0.059	-0.04211	-0.17646	0.144623	-1.240175	-0.054414	-0.003475	0.558532	0.15234	0.47549	0.171289	-0.602453	0.426495	2.577352	40	40	40	40	40
-0.370708	-0.23608	-0.15347	-0.396774	-0.17072	-0.992524	0.950461	-0.059	-0.04211	-0.17646	-0.013427	-1.184868	0.144965	0.021235	0.808391	0.15234	0.47549	0.098943	-0.603254	0.404599	1.694962	40	40	40	40	40
