35	35	14	2	0
-0.05635	-0.58218	-1.09336	-1.33851	-0.89844	-0.93949	-0.61499	-0.22779	2.54633	-0.13914	-0.17835	1.90109	0.99999	0.00001	65	32	32	32	32
-0.07162	-0.56915	-1.07687	-1.31480	-0.87483	-0.89119	-0.67082	-0.69271	2.54633	-0.13914	-0.17835	1.90109	0.99535	0.00465	65	32	32	32	32
-0.01414	-0.48924	-0.86909	-1.16468	-0.76247	-0.72270	-0.58981	-0.86351	2.54749	-0.13914	-0.17835	1.90201	0.97633	0.02367	32	32	32	32	32
0.04067	-0.45424	-0.65929	-1.20115	-0.63772	-0.52019	-0.52928	-0.91206	2.67906	-0.13914	-0.17835	2.00594	0.93725	0.06275	32	32	32	32	32
0.14074	-0.41950	-0.30923	-1.32996	-0.56052	-0.43037	-0.49594	-0.75129	3.26829	-0.13914	-0.17835	2.47145	0.91955	0.08045	32	32	32	32	32
0.14446	-0.45257	0.00568	-1.45742	-0.67253	-0.54802	-0.58987	-0.33661	4.26220	-0.13914	-0.17835	3.25666	0.93928	0.06072	32	32	32	32	32
0.17887	-0.44519	0.19678	-1.50870	-0.76081	-0.73622	-0.64839	-0.11672	5.05545	-0.13914	-0.17835	3.88335	0.97766	0.02234	65	32	32	32	32
0.05379	-0.49398	0.27075	-1.47376	-0.76837	-0.67677	-0.62913	0.52060	3.94322	-0.13914	-0.17835	3.00466	0.93191	0.06809	32	32	32	32	32
-0.01402	-0.54086	0.40527	-1.41736	-0.83093	-0.72516	-0.64635	1.40392	2.86406	-0.13914	-0.17835	2.15210	0.88442	0.11558	65	32	32	32	32
0.00192	-0.45280	0.42959	-1.09901	-0.49068	-0.28790	-0.38140	1.08046	2.90479	-0.13914	-0.17835	2.18428	0.71533	0.28467	32	32	32	32	32
0.12110	-0.26583	0.50038	-0.59156	-0.10168	0.03966	-0.04104	0.85294	3.35522	-0.13914	-0.17835	2.54013	0.53701	0.46299	32	32	32	32	32
0.28704	-0.07458	0.62876	-0.03132	0.21502	0.26269	0.26448	0.85083	4.13444	-0.13914	-0.17835	3.15573	0.34146	0.65854	66	32	32	32	32
0.31631	-0.03914	0.36592	-0.05852	0.14821	0.17087	0.13443	0.76036	3.13132	-0.13914	-0.17835	2.36324	0.69673	0.30327	32	32	32	32	32
0.43823	0.07197	0.21709	0.09935	0.21791	0.16784	0.15310	0.77100	2.60788	-0.13914	-0.17835	1.94971	0.96601	0.03399	65	32	32	32	32
0.53888	0.22855	-0.02448	0.28994	0.22253	0.23060	0.39514	0.69497	2.54278	-0.13914	-0.17835	1.90266	0.99929	0.00071	65	32	32	32	32
0.45673	0.10056	0.00157	0.14188	0.21587	0.03229	0.14078	0.74620	2.31432	-0.13914	-0.17835	1.93201	0.98803	0.01197	32	32	32	32	32
0.31312	0.18257	-0.27504	0.01205	0.08600	-0.49984	-0.19905	0.46345	0.83898	-0.13914	-0.17835	2.45409	0.97712	0.02288	32	32	32	32	32
0.28606	0.36872	-0.51787	0.02954	0.12059	-0.82140	-0.24648	0.15522	-0.26915	-0.13914	-0.17835	3.47799	0.97984	0.02016	32	32	32	32	32
0.29440	0.51478	-0.61731	0.19417	0.21209	-0.82147	-0.11684	-0.05978	-0.36118	-0.13901	-0.17835	4.04262	0.99714	0.00286	65	32	32	32	32
0.23168	0.09818	-0.27038	-0.46481	-0.07930	-1.10163	-0.40013	0.28622	-0.36118	-0.11734	-0.17835	3.99676	0.98375	0.01625	65	32	32	32	32
0.15621	0.04906	-0.25167	-0.32656	0.06126	-0.66797	-0.21303	0.62178	-0.36118	1.00640	-0.17835	3.58194	0.78598	0.21402	32	32	32	32	32
0.16992	0.17617	-0.37719	0.31035	0.52265	0.25995	0.27569	0.68223	-0.36118	5.04818	-0.17835	2.88868	0.20672	0.79328	66	32	32	32	32
0.23235	0.22083	-0.56679	0.58900	0.72208	0.70603	0.44183	0.56596	-0.36118	7.89589	-0.17835	1.66323	0.03167	0.96833	32	32	32	32	32
0.35576	0.25056	-0.70615	0.68551	0.78476	0.88095	0.48989	0.55605	-0.36118	10.05364	-0.17835	0.36893	0.02747	0.97253	66	32	32	32	32
0.23184	0.04226	-0.12013	0.35222	0.69296	0.46852	0.33748	0.42610	-0.36118	8.11589	-0.17835	0.01951	0.16812	0.83188	32	32	32	32	32
0.06909	-0.22804	0.70425	0.02231	0.58428	0.08635	0.20690	0.04314	-0.36118	6.78544	-0.17835	-0.35209	0.40432	0.59568	32	32	32	32	32
-0.07539	-0.45147	1.45403	-0.26271	0.49337	-0.18942	0.10116	-0.45231	-0.36118	6.31067	-0.17835	-0.39445	0.66931	0.33069	65	32	32	32	32
0.17798	-0.44029	1.45854	0.74287	0.49891	-0.18460	0.38685	-0.21955	-0.36118	6.19760	-0.17696	-0.39570	0.47557	0.52443	66	32	32	32	32
0.32652	0.77559	1.18984	1.10426	0.69330	0.06962	0.69949	0.08058	-0.36118	4.74908	-0.13319	-0.39585	0.27104	0.72896	32	32	32	32	32
0.68247	3.50215	1.20152	2.27054	1.00257	0.52168	1.47389	0.26549	-0.36118	1.56599	0.26809	-0.39564	0.14625	0.85375	32	32	32	32	32
0.94420	5.28054	1.15220	2.86530	1.15319	0.75877	1.75980	0.30588	-0.36118	-0.07993	0.58569	-0.38690	0.09927	0.90073	66	32	32	32	32
1.00507	5.70180	0.68935	2.88845	1.15275	0.88983	1.94832	0.41042	-0.36118	-0.13899	2.01775	-0.34602	0.08414	0.91586	66	32	32	32	32
1.01254	6.32723	0.46393	2.99628	1.18355	0.92669	2.94836	0.59350	-0.36118	-0.13914	0.48634	-0.04747	0.10912	0.89088	66	32	32	32	32
0.98938	7.13005	-0.03407	3.08125	1.19614	1.05473	3.91188	0.70674	-0.36118	-0.13914	0.14508	1.51941	0.19134	0.80866	32	32	32	32	32
0.81554	7.77335	-0.29992	3.05728	1.12175	1.07707	3.81737	0.71381	-0.36118	-0.13914	-0.11149	4.27173	0.10873	0.89127	66	32	32	32	32
-0.12699	-0.55189	-1.00892	-0.95791	-0.99128	-1.00670	-0.69519	-0.69093	2.54633	-0.13914	-0.17835	1.90109	0.99999	0.00001	32	32	32	32	32
-0.11764	-0.54697	-0.99999	-0.97433	-0.96980	-0.96932	-0.68765	-0.70317	2.54633	-0.13914	-0.17835	1.90109	0.99760	0.00240	32	32	32	32	32
-0.06610	-0.51139	-0.87068	-1.13708	-0.74430	-0.58942	-0.61762	-0.92523	2.54663	-0.13914	-0.17835	1.90133	0.94685	0.05315	32	32	32	32	32
0.12966	-0.39616	-0.55344	-1.23463	-0.47614	-0.34905	-0.42729	-0.99706	2.58390	-0.13914	-0.17835	1.93077	0.88367	0.11633	65	32	32	32	32
0.13453	-0.44755	-0.42313	-1.34264	-0.49445	-0.18453	-0.51395	-0.86726	3.00167	-0.13914	-0.17835	2.26082	0.76757	0.23243	32	32	32	32	32
0.17112	-0.45522	-0.04180	-1.43896	-0.60800	-0.40595	-0.57362	-0.47797	4.04115	-0.13914	-0.17835	3.08203	0.77534	0.22466	32	32	32	32	32
0.13408	-0.48020	0.11009	-1.46531	-0.64932	-0.45571	-0.58315	-0.15580	4.02592	-0.13914	-0.17835	3.06999	0.78090	0.21910	32	32	32	32	32
0.08952	-0.49315	0.24638	-1.47054	-0.71682	-0.58991	-0.60014	0.36646	3.80645	-0.13914	-0.17835	2.89661	0.86249	0.13751	32	32	32	32	32
-0.15409	-0.53172	0.30910	-1.31603	-0.56871	-0.25143	-0.44801	0.84053	2.85861	-0.13914	-0.17835	2.14779	0.85763	0.14237	32	32	32	32	32
-0.07248	-0.52562	0.37785	-1.12354	-0.44946	-0.07289	-0.36202	0.93329	2.68592	-0.13914	-0.17835	2.01137	0.72016	0.27984	32	32	32	32	32
0.02723	-0.40134	0.44781	-0.84796	-0.20324	0.13606	-0.17939	0.76112	2.95963	-0.13914	-0.17835	2.22761	0.53831	0.46169	32	32	32	32	32
0.18110	-0.27720	0.46728	-0.63840	-0.07038	0.11499	-0.08001	0.64730	2.99782	-0.13914	-0.17835	2.25778	0.50017	0.49983	32	32	32	32	32
0.27822	-0.06315	0.39458	-0.26052	0.10565	0.09634	0.06930	0.67303	3.00834	-0.13914	-0.17835	2.26609	0.64510	0.35490	32	32	32	32	32
0.32296	0.04768	0.11137	0.03136	0.14990	0.01079	0.10761	0.64883	2.59590	-0.13914	-0.17835	1.94025	0.97150	0.02850	32	32	32	32	32
0.40626	-0.05016	0.09558	0.05438	0.25909	-0.01284	-0.01671	0.80079	2.54317	-0.13914	-0.17835	1.90229	0.99895	0.00105	65	32	32	32	32
0.34875	0.07228	0.01639	0.11004	0.15061	-0.03496	0.07771	0.68967	2.36622	-0.13914	-0.17835	1.91806	0.99165	0.00835	32	32	32	32	32
0.26983	0.10409	-0.19541	-0.21312	0.02218	-0.58739	-0.25367	0.77086	0.55910	-0.13914	-0.17835	2.31326	0.89383	0.10617	32	32	32	32	32
0.29447	0.27703	-0.50338	-0.07683	0.04070	-0.84208	-0.40707	0.34785	-0.33963	-0.13914	-0.17835	2.72991	0.95730	0.04270	65	32	32	32	32
0.17963	0.13520	-0.37991	-0.29588	-0.01955	-0.88533	-0.35063	0.46688	-0.36118	-0.13894	-0.17835	3.34874	0.95165	0.04835	32	32	32	32	32
0.12675	0.01262	-0.22617	-0.49396	-0.02995	-0.81699	-0.28262	0.77430	-0.36118	-0.13210	-0.17835	3.73527	0.96163	0.03837	65	32	32	32	32
0.13502	-0.02287	-0.14541	-0.51420	-0.01078	-0.73594	-0.26316	0.91337	-0.36118	0.73967	-0.17835	3.35375	0.74775	0.25225	32	32	32	32	32
0.10132	0.04843	-0.34536	-0.01367	0.41237	0.13491	0.13671	0.75195	-0.36118	4.53745	-0.17835	2.25754	0.29272	0.70728	32	32	32	32	32
0.13837	0.07702	-0.49711	0.37786	0.69203	0.74417	0.36678	0.62155	-0.36118	7.80125	-0.17835	0.86907	0.01652	0.98348	32	32	32	32	32
0.15163	0.05793	-0.43846	0.36387	0.70171	0.72433	0.36741	0.60181	-0.36118	7.98556	-0.17835	0.53669	0.02443	0.97557	32	32	32	32	32
0.17039	0.00253	-0.17117	0.26183	0.68191	0.52025	0.30452	0.51268	-0.36118	7.68728	-0.17835	-0.11490	0.11127	0.88873	32	32	32	32	32
0.15699	-0.11723	0.38048	0.05841	0.62685	0.12451	0.20538	0.36061	-0.36118	6.49830	-0.17835	-0.38271	0.23737	0.76263	32	32	32	32	32
0.19728	-0.19470	0.70600	0.28069	0.60003	0.00212	0.25862	0.24159	-0.36118	6.29069	-0.17835	-0.39518	0.29181	0.70819	32	32	32	32	32
0.22362	-0.15124	0.84820	0.32428	0.59876	-0.08143	0.28934	0.15906	-0.36118	6.19098	-0.17721	-0.39576	0.33407	0.66593	32	32	32	32	32
0.33506	0.74080	1.13008	1.08586	0.70145	0.08290	0.69425	0.11428	-0.36118	4.85790	-0.13818	-0.39586	0.26046	0.73954	32	32	32	32	32
0.61894	3.56378	1.33584	2.42455	1.03733	0.57464	1.64298	0.25056	-0.36118	0.97486	0.12360	-0.39577	0.09638	0.90362	32	32	32	32	32
0.77908	4.53853	1.09404	2.79407	1.14171	0.76802	2.11231	0.38016	-0.36118	-0.09954	0.58345	-0.39061	0.22189	0.77811	32	32	32	32	32
0.84925	4.81511	0.86047	2.83993	1.18021	0.84195	2.45972	0.49226	-0.36118	-0.13908	0.42143	-0.36667	0.28563	0.71437	32	32	32	32	32
0.98106	5.35089	0.38595	2.95978	1.23986	0.98909	3.19768	0.64678	-0.36118	-0.13914	0.71810	-0.03878	0.38257	0.61743	32	32	32	32	32
1.07974	6.33791	-0.04326	3.15900	1.32709	1.19306	4.48314	0.75702	-0.36118	-0.13914	0.12145	0.92292	0.33112	0.66888	32	32	32	32	32
1.14606	7.61311	-0.36624	3.26184	1.30913	1.23260	5.34128	0.79507	-0.36118	-0.13914	0.03118	0.97894	0.21366	0.78634	66	32	32	32	32
-0.22474	-0.50915	-0.93517	-0.52812	-1.12344	-1.09709	-0.76146	-1.00874	2.54633	-0.13914	-0.17835	1.90109	1.00000	0.00000	65	32	32	32	32
-0.24811	-0.55398	-0.79158	-0.58451	-1.02208	-1.00369	-0.71499	-0.98776	2.54633	-0.13914	-0.17835	1.90109	0.99676	0.00324	65	32	32	32	32
-0.14841	-0.51412	-0.74343	-0.95545	-0.76240	-0.58950	-0.62064	-0.93932	2.54641	-0.13914	-0.17835	1.90115	0.95123	0.04877	32	32	32	32	32
-0.06877	-0.52828	-0.81848	-1.26472	-0.55085	0.01694	-0.62969	-1.01166	2.56763	-0.13914	-0.17835	1.91792	0.78957	0.21043	65	32	32	32	32
0.10796	-0.48189	-0.45193	-1.29568	-0.44300	0.02515	-0.51555	-0.95456	2.78654	-0.13914	-0.17835	2.09086	0.53768	0.46232	32	32	32	32	32
0.18269	-0.46259	-0.19749	-1.32821	-0.41001	0.08783	-0.49030	-0.86584	2.86479	-0.13914	-0.17835	2.15268	0.32283	0.67717	32	32	32	32	32
0.19119	-0.46719	0.06279	-1.33560	-0.43368	-0.01897	-0.45672	-0.52079	2.93068	-0.13914	-0.17835	2.20473	0.40901	0.59099	32	32	32	32	32
0.05731	-0.46348	0.24083	-1.34937	-0.46655	-0.07279	-0.42037	-0.14804	2.92779	-0.13914	-0.17835	2.20245	0.63390	0.36610	32	32	32	32	32
-0.15471	-0.51860	0.29429	-1.27918	-0.45174	-0.02096	-0.36508	0.42512	2.84269	-0.13914	-0.17835	2.13522	0.82354	0.17646	32	32	32	32	32
-0.33907	-0.56188	0.25743	-1.18583	-0.37647	0.14528	-0.27610	0.75516	2.60029	-0.13914	-0.17835	1.94372	0.87123	0.12877	65	32	32	32	32
0.08942	-0.53320	0.42247	-0.98344	-0.31804	0.15916	-0.30441	0.64965	2.58881	-0.13914	-0.17835	1.93465	0.54525	0.45475	66	32	32	32	32
0.18523	-0.29087	0.50078	-0.85897	-0.12614	0.08925	-0.21912	0.59424	2.62551	-0.13914	-0.17835	1.96364	0.39740	0.60260	66	32	32	32	32
0.13599	-0.10990	0.29024	-0.53888	0.01287	-0.10294	0.00395	0.46525	2.63104	-0.13914	-0.17835	1.96801	0.81054	0.18946	65	32	32	32	32
0.18030	-0.06870	0.18943	-0.12092	0.10700	-0.09714	-0.03697	0.62979	2.63451	-0.13914	-0.17835	1.97076	0.94701	0.05299	32	32	32	32	32
0.05530	-0.02719	0.08458	0.02186	-0.01085	-0.23633	-0.14627	0.54387	2.50197	-0.13914	-0.17835	1.90385	0.99636	0.00364	65	32	32	32	32
0.26474	-0.01176	0.08211	-0.01446	0.11663	-0.18968	-0.11213	0.69780	2.15746	-0.13914	-0.17835	1.93099	0.98250	0.01750	32	32	32	32	32
0.27567	0.07511	-0.17960	-0.31095	0.01205	-0.60610	-0.25472	0.79750	0.38751	-0.13914	-0.17835	2.23481	0.91321	0.08679	32	32	32	32	32
0.08156	-0.14422	-0.05210	-0.79833	-0.17335	-0.84225	-0.44436	1.41718	-0.34355	-0.13914	-0.17835	2.12518	0.72669	0.27331	32	32	32	32	32
-0.08465	-0.28674	-0.21025	-0.72471	-0.25088	-0.79346	-0.51862	1.18307	-0.36118	-0.13909	-0.17835	2.17144	0.82381	0.17619	65	32	32	32	32
0.01458	-0.20709	0.01365	-0.88249	-0.19474	-0.83727	-0.42236	1.57475	-0.36118	-0.12979	-0.17835	2.42435	0.69427	0.30573	32	32	32	32	32
0.10060	-0.02994	-0.12176	-0.54514	0.00389	-0.65253	-0.23244	1.11203	-0.36118	0.45444	-0.17835	3.07887	0.72668	0.27332	32	32	32	32	32
0.05147	-0.04867	-0.24818	-0.28697	0.31603	0.03673	0.02546	0.94542	-0.36118	3.74238	-0.17835	1.78188	0.33775	0.66225	32	32	32	32	32
-0.09133	-0.16794	-0.37326	-0.10788	0.59079	0.64807	0.19786	0.57953	-0.36118	6.74436	-0.17835	0.22217	0.02568	0.97432	32	32	32	32	32
-0.06249	-0.22003	-0.22140	-0.05097	0.60524	0.70502	0.21060	0.68551	-0.36118	6.59186	-0.17835	-0.12677	0.01400	0.98600	32	32	32	32	32
0.00589	-0.16118	-0.07923	0.02385	0.62349	0.53516	0.20998	0.64087	-0.36118	6.45581	-0.17835	-0.23666	0.06229	0.93771	32	32	32	32	32
0.20219	0.01506	-0.02100	0.29366	0.68757	0.37527	0.26200	0.69674	-0.36118	6.35548	-0.17835	-0.39013	0.03507	0.96493	66	32	32	32	32
0.39413	0.09768	0.02510	0.31312	0.70781	0.05983	0.28348	0.83438	-0.36118	6.27533	-0.17835	-0.39560	0.03414	0.96586	66	32	32	32	32
0.37302	0.19031	0.30630	0.46617	0.71972	0.09486	0.39305	0.57202	-0.36118	6.13297	-0.17584	-0.39554	0.12775	0.87225	32	32	32	32	32
0.38709	1.22001	0.91483	1.10442	0.79676	0.21956	0.81210	0.27069	-0.36118	4.28513	-0.12276	-0.39587	0.20205	0.79795	32	32	32	32	32
0.56418	3.14783	1.28100	2.32021	1.01841	0.56116	1.69430	0.28058	-0.36118	1.20910	0.18452	-0.39580	0.11695	0.88305	32	32	32	32	32
0.49961	3.74140	1.61403	2.70978	1.12170	0.67956	2.26051	0.31399	-0.36118	-0.10986	-0.02924	-0.39165	0.15149	0.84851	66	32	32	32	32
0.82017	4.04634	0.75418	2.79154	1.20926	0.84562	2.90003	0.60606	-0.36118	-0.13911	-0.01911	-0.36472	0.59861	0.40139	65	32	32	32	32
0.99451	4.59680	0.23412	2.89945	1.34157	1.10069	3.76496	0.79750	-0.36118	-0.13914	0.12104	-0.08514	0.66244	0.33756	65	32	32	32	32
1.14565	4.77879	-0.00014	3.18880	1.46147	1.29867	4.82008	0.76930	-0.36118	-0.13914	0.84832	0.01423	0.40925	0.59075	32	32	32	32	32
1.31764	4.97658	0.00656	3.43778	1.61182	1.50518	5.93140	0.75300	-0.36118	-0.13914	0.28003	-0.16354	0.41443	0.58557	66	32	32	32	32
-0.45168	-0.56914	-0.73764	-0.50202	-1.12340	-1.10810	-0.69531	-1.02749	2.54633	-0.13914	-0.17835	1.90109	1.00000	0.00000	65	32	32	32	32
-0.37784	-0.56192	-0.65679	-0.51715	-1.00651	-0.95111	-0.72280	-1.02760	2.54633	-0.13914	-0.17835	1.90109	0.99840	0.00160	65	32	32	32	32
-0.48011	-0.56479	-0.66717	-0.71294	-0.82873	-0.46096	-0.68187	-1.02311	2.54636	-0.13914	-0.17835	1.90112	0.91995	0.08005	32	32	32	32	32
-0.33180	-0.55874	-0.61250	-0.95807	-0.61705	0.00437	-0.63590	-1.01057	2.56982	-0.13914	-0.17835	1.91965	0.67707	0.32293	32	32	32	32	32
-0.03212	-0.54345	-0.53089	-1.23623	-0.47532	0.31734	-0.60733	-1.02185	2.56070	-0.13914	-0.17835	1.91244	0.29600	0.70400	66	32	32	32	32
0.27167	-0.49537	-0.17123	-1.24927	-0.29756	0.29325	-0.41700	-1.00433	2.55825	-0.13914	-0.17835	1.91050	0.18785	0.81215	66	32	32	32	32
0.20817	-0.36570	0.14520	-1.21248	-0.31494	0.30475	-0.37577	-0.92986	2.56742	-0.13914	-0.17835	1.91775	0.21080	0.78920	66	32	32	32	32
0.05777	-0.42607	0.41301	-1.19863	-0.36636	0.28957	-0.35689	-0.50960	2.58100	-0.13914	-0.17835	1.92847	0.51189	0.48811	32	32	32	32	32
-0.15977	-0.53459	0.36188	-1.26332	-0.40377	0.16485	-0.32679	0.13775	2.56418	-0.13914	-0.17835	1.91519	0.84365	0.15635	65	32	32	32	32
-0.14541	-0.55424	0.55244	-1.12852	-0.32419	0.14501	-0.30806	0.44581	2.55911	-0.13914	-0.17835	1.91118	0.76945	0.23055	32	32	32	32	32
-0.18806	-0.51951	0.59614	-1.00176	-0.25552	0.18217	-0.24670	0.56384	2.54971	-0.13914	-0.17835	1.90375	0.70907	0.29093	32	32	32	32	32
-0.07329	-0.43840	0.65208	-0.87683	-0.17750	0.12250	-0.20161	0.50059	2.54898	-0.13914	-0.17835	1.90318	0.67869	0.32131	32	32	32	32	32
-0.09591	-0.30302	0.61804	-0.71415	-0.07206	0.06704	-0.13681	0.61782	2.55059	-0.13914	-0.17835	1.90445	0.78318	0.21682	32	32	32	32	32
-0.05966	-0.17034	0.46829	-0.43544	-0.04397	-0.10781	-0.15035	0.61522	2.54649	-0.13914	-0.17835	1.90122	0.93630	0.06370	32	32	32	32	32
0.05955	-0.09718	0.42780	-0.24347	0.02288	-0.11542	-0.17145	0.67541	2.34587	-0.13914	-0.17835	1.88581	0.93131	0.06869	32	32	32	32	32
0.25193	0.04603	0.21541	-0.11552	0.03023	-0.36231	-0.23768	0.60337	1.46312	-0.13914	-0.17835	1.93529	0.92555	0.07445	32	32	32	32	32
0.26942	-0.03205	0.07442	-0.47763	-0.03138	-0.61106	-0.33049	0.99766	0.27449	-0.13914	-0.17835	1.92720	0.86560	0.13440	32	32	32	32	32
0.10991	-0.19880	0.02069	-0.91274	-0.15658	-0.75988	-0.36480	1.42628	-0.34234	-0.13914	-0.17835	1.92766	0.78908	0.21092	65	32	32	32	32
0.01788	-0.26638	0.21932	-1.13666	-0.25357	-0.89323	-0.45461	2.10086	-0.36118	-0.13912	-0.17835	1.90833	0.52722	0.47278	65	32	32	32	32
-0.02460	-0.25831	0.11303	-0.94877	-0.18540	-0.71038	-0.40863	1.82655	-0.36118	-0.12429	-0.17835	1.95681	0.55175	0.44825	32	32	32	32	32
0.01073	-0.17904	0.13434	-0.77924	-0.01408	-0.43249	-0.24420	1.68038	-0.36118	0.25296	-0.17835	1.98522	0.47476	0.52524	32	32	32	32	32
0.01501	-0.12660	-0.03179	-0.50065	0.26703	0.01394	-0.03524	1.10275	-0.36118	2.33544	-0.17835	1.46244	0.35595	0.64405	32	32	32	32	32
-0.04757	-0.25037	-0.16127	-0.27951	0.61247	0.70442	0.24773	0.53556	-0.36118	5.52747	-0.17835	-0.21034	0.05131	0.94869	32	32	32	32	32
-0.21889	-0.37008	-0.26579	-0.46048	0.54963	0.66384	0.13319	0.43275	-0.36118	6.11157	-0.17835	-0.36630	0.01975	0.98025	66	32	32	32	32
0.03822	-0.23405	-0.06969	0.09576	0.62010	0.78956	0.23651	0.85158	-0.36118	6.23663	-0.17835	-0.38910	0.00464	0.99536	66	32	32	32	32
0.13955	0.00744	-0.07668	0.25640	0.69980	0.40399	0.28215	0.95113	-0.36118	6.18166	-0.17835	-0.38880	0.01325	0.98675	66	32	32	32	32
0.40073	0.26686	-0.05193	0.54481	0.80297	0.33829	0.49553	0.81236	-0.36118	6.08433	-0.17835	-0.39496	0.02967	0.97033	66	32	32	32	32
0.45667	0.27914	0.04473	0.56718	0.79254	0.25152	0.54204	0.72799	-0.36118	5.57318	-0.17581	-0.39566	0.08159	0.91841	32	32	32	32	32
0.49531	1.12598	0.47270	1.23873	0.91557	0.46222	1.14804	0.56386	-0.36118	3.47450	-0.10596	-0.39589	0.16082	0.83918	32	32	32	32	32
0.65463	2.49102	0.96978	2.30245	1.10188	0.72807	2.05409	0.53467	-0.36118	0.72411	-0.12231	-0.39587	0.23222	0.76778	32	32	32	32	32
0.80943	2.94083	0.81970	2.58954	1.21282	0.87633	2.66166	0.66977	-0.36118	-0.08652	-0.13340	-0.38903	0.40534	0.59466	32	32	32	32	32
0.89305	3.14781	0.66304	2.63400	1.28823	0.96835	3.09245	0.73435	-0.36118	-0.13913	-0.14140	-0.35687	0.45759	0.54241	32	32	32	32	32
1.20847	3.01371	0.27325	2.60225	1.48179	1.20020	4.02878	0.80812	-0.36118	-0.13914	0.01511	-0.36756	0.55591	0.44409	32	32	32	32	32
1.30966	3.31860	0.02576	2.88743	1.58343	1.37851	4.89997	0.83904	-0.36118	-0.13914	0.54359	-0.37322	0.44977	0.55023	32	32	32	32	32
1.22859	3.22217	-0.12146	3.07405	1.57287	1.37577	5.05745	0.74990	-0.36118	-0.13914	1.90638	-0.36628	0.24871	0.75129	66	32	32	32	32
-0.75559	-0.58050	-0.45890	-0.49964	-1.26602	-1.21732	-0.72004	-1.02898	2.54633	-0.13914	-0.17835	1.90109	1.00000	0.00000	65	32	32	32	32
-0.84625	-0.57953	-0.58102	-0.51179	-1.14646	-1.00180	-0.71272	-1.02893	2.54633	-0.13914	-0.17835	1.90109	0.99718	0.00282	32	32	32	32	32
-0.81480	-0.57870	-0.57662	-0.53355	-0.87884	-0.39713	-0.68742	-1.02892	2.54634	-0.13914	-0.17835	1.90110	0.95105	0.04895	65	32	32	32	32
-0.44535	-0.57770	-0.34235	-0.70187	-0.55527	0.08851	-0.57887	-1.02878	2.54637	-0.13914	-0.17835	1.90112	0.62405	0.37595	32	32	32	32	32
-0.17938	-0.54972	-0.21541	-0.85718	-0.42795	0.29870	-0.50499	-1.02577	2.54642	-0.13914	-0.17835	1.90116	0.44776	0.55224	32	32	32	32	32
-0.00916	-0.45243	-0.03828	-0.97272	-0.43152	0.60359	-0.47659	-1.01972	2.54639	-0.13914	-0.17835	1.90114	0.34193	0.65807	32	32	32	32	32
0.11254	-0.37105	0.20152	-1.13085	-0.39280	0.67576	-0.41094	-0.99286	2.54642	-0.13914	-0.17835	1.90116	0.41175	0.58825	32	32	32	32	32
0.03488	-0.36945	0.39560	-1.14351	-0.42047	0.64143	-0.39326	-0.76669	2.54649	-0.13914	-0.17835	1.90121	0.55414	0.44586	32	32	32	32	32
-0.01431	-0.47510	0.79388	-1.09731	-0.30693	0.25206	-0.33095	-0.31131	2.54649	-0.13914	-0.17835	1.90121	0.65943	0.34057	32	32	32	32	32
-0.12379	-0.54661	0.95419	-1.03591	-0.26812	0.12152	-0.31468	0.06603	2.54650	-0.13914	-0.17835	1.90122	0.72779	0.27221	32	32	32	32	32
-0.28444	-0.56815	1.14052	-1.00772	-0.21595	0.11602	-0.29524	0.30026	2.54642	-0.13914	-0.17835	1.90116	0.86298	0.13702	65	32	32	32	32
-0.58248	-0.56222	0.93281	-0.84197	-0.19913	0.31283	-0.11472	0.54977	2.54635	-0.13914	-0.17835	1.90110	0.92814	0.07186	65	32	32	32	32
-0.37660	-0.48550	1.03441	-0.84894	-0.16566	0.22588	-0.24152	0.79221	2.54613	-0.13914	-0.17835	1.90093	0.81281	0.18719	32	32	32	32	32
-0.12993	-0.32814	0.97016	-0.72285	-0.00843	0.16001	-0.22881	0.91353	2.49700	-0.13914	-0.17835	1.86215	0.82606	0.17394	65	32	32	32	32
0.07513	-0.22893	0.93618	-0.54721	0.01638	-0.08726	-0.27667	0.80792	1.95077	-0.13914	-0.17835	1.65327	0.72313	0.27687	32	32	32	32	32
0.38523	0.03172	0.63471	-0.28589	0.06776	-0.45037	-0.32071	0.74392	0.59956	-0.13914	-0.17835	1.50352	0.81094	0.18906	32	32	32	32	32
0.46657	0.10469	0.29686	-0.34900	0.01694	-0.64204	-0.35572	0.78316	-0.16089	-0.13914	-0.17835	1.75038	0.88663	0.11337	65	32	32	32	32
0.17129	-0.15099	0.25474	-0.88632	-0.14370	-0.77838	-0.40194	1.63895	-0.34017	-0.13914	-0.17835	1.78269	0.65647	0.34353	32	32	32	32	32
0.07370	-0.21134	0.27617	-0.98375	-0.13462	-0.68205	-0.35714	1.85896	-0.36118	-0.13889	-0.17835	1.74898	0.54843	0.45157	32	32	32	32	32
0.02763	-0.21718	0.31938	-0.97568	-0.09919	-0.56706	-0.31208	2.03918	-0.36118	-0.13829	-0.17835	1.78112	0.41840	0.58160	32	32	32	32	32
0.04475	-0.15814	0.40904	-0.71343	0.11745	-0.11089	-0.11475	1.85835	-0.36118	0.02154	-0.17835	1.55407	0.30057	0.69943	66	32	32	32	32
0.28566	-0.06834	0.55778	-0.28507	0.47264	0.47668	0.15418	1.09123	-0.36118	1.58559	-0.17835	0.35865	0.21913	0.78087	32	32	32	32	32
0.24979	-0.13924	0.26605	-0.14969	0.69004	0.92437	0.34634	0.49412	-0.36118	3.50035	-0.17835	-0.35415	0.07038	0.92962	32	32	32	32	32
0.27230	-0.19995	0.03010	-0.05639	0.74114	0.90556	0.48857	0.47055	-0.36118	4.64688	-0.17835	-0.39420	0.07188	0.92812	32	32	32	32	32
0.21172	-0.15078	-0.05195	0.00675	0.72019	0.72917	0.40774	0.58112	-0.36118	5.26341	-0.17835	-0.39499	0.04510	0.95490	32	32	32	32	32
0.32966	-0.02472	-0.00047	0.26382	0.77638	0.71569	0.51665	0.69059	-0.36118	5.22080	-0.17835	-0.39531	0.05845	0.94155	32	32	32	32	32
0.42663	-0.04815	-0.01004	0.71392	0.88523	0.71991	0.98876	0.62656	-0.36118	3.72115	-0.17835	-0.39505	0.29767	0.70233	32	32	32	32	32
0.52965	-0.01195	0.01647	0.95386	0.95401	0.74823	1.32578	0.53791	-0.36118	2.82314	-0.17615	-0.39576	0.43717	0.56283	32	32	32	32	32
0.38306	0.47676	0.21597	1.47041	0.92164	0.68355	1.46998	0.71658	-0.36118	2.10501	-0.17557	-0.39590	0.44477	0.55523	32	32	32	32	32
0.66093	0.90428	0.25492	2.03692	1.10013	0.94319	2.23673	0.91428	-0.36118	0.38372	-0.17572	-0.39589	0.61487	0.38513	32	32	32	32	32
1.04370	1.09209	0.15110	2.27644	1.27603	1.11338	2.79621	1.10299	-0.36118	-0.12977	-0.17553	-0.39287	0.60839	0.39161	32	32	32	32	32
1.34785	1.43344	0.09933	2.32313	1.46205	1.22048	3.46213	1.22522	-0.36118	-0.13913	-0.15936	-0.39433	0.46456	0.53544	32	32	32	32	32
1.38168	1.74456	0.16854	2.40039	1.55785	1.27298	4.15745	1.14676	-0.36118	-0.13914	-0.08626	-0.39553	0.31716	0.68284	66	32	32	32	32
1.62790	1.68965	-0.06883	2.07941	1.74595	1.49882	4.50123	0.61187	-0.36118	-0.13914	0.42400	-0.39554	0.48448	0.51552	32	32	32	32	32
1.74008	1.98912	-0.10479	2.01839	1.84258	1.60993	4.77076	0.25588	-0.36118	-0.13914	0.69397	-0.39408	0.52430	0.47570	32	32	32	32	32
-1.43615	-0.58288	-0.41909	-0.49886	-1.36290	-1.28574	-0.73703	-1.02898	2.54633	-0.13914	-0.17835	1.90109	1.00000	0.00000	65	32	32	32	32
-1.23952	-0.57933	-0.27762	-0.50032	-1.27005	-1.07843	-0.73245	-1.02898	2.54633	-0.13914	-0.17835	1.90109	0.99639	0.00361	32	32	32	32	32
-0.80589	-0.57380	-0.31342	-0.53758	-0.88761	-0.51354	-0.64209	-1.02898	2.54633	-0.13914	-0.17835	1.90109	0.91110	0.08890	32	32	32	32	32
-0.58824	-0.57656	-0.22137	-0.54501	-0.56645	-0.01401	-0.52264	-1.02898	2.54633	-0.13914	-0.17835	1.90109	0.81967	0.18033	65	32	32	32	32
-0.32336	-0.56715	-0.03250	-0.55179	-0.39040	0.32075	-0.48334	-1.02791	2.54633	-0.13914	-0.17835	1.90109	0.57837	0.42163	66	32	32	32	32
-0.17535	-0.46219	0.10750	-0.74880	-0.44059	0.73706	-0.49164	-1.02660	2.54633	-0.13914	-0.17835	1.90109	0.55423	0.44577	32	32	32	32	32
-0.06051	-0.33847	0.22790	-0.90914	-0.58470	1.21854	-0.49854	-1.01725	2.54628	-0.13914	-0.17835	1.90109	0.55781	0.44219	65	32	32	32	32
0.07212	-0.31729	0.57917	-1.24512	-0.33504	0.63406	-0.35783	-0.95610	2.54623	-0.13914	-0.17835	1.90109	0.65000	0.35000	65	32	32	32	32
0.04281	-0.41989	0.95614	-1.05284	-0.25380	0.33634	-0.30493	-0.61211	2.54602	-0.13914	-0.17835	1.90109	0.53298	0.46702	32	32	32	32	32
-0.05932	-0.55006	1.31839	-0.83973	-0.23226	0.11255	-0.31020	-0.25333	2.54608	-0.13914	-0.17835	1.90101	0.55605	0.44395	65	32	32	32	32
-0.37708	-0.57844	1.23564	-0.96412	-0.27148	0.13223	-0.28557	0.27850	2.54570	-0.13914	-0.17835	1.90079	0.83622	0.16378	32	32	32	32	32
-0.59439	-0.57952	1.37342	-1.12795	-0.38727	0.09729	-0.37072	0.68160	2.54588	-0.13914	-0.17835	1.90085	0.96495	0.03505	65	32	32	32	32
-0.53059	-0.54379	1.04606	-0.76266	-0.04283	0.55280	-0.23326	0.89850	2.54384	-0.13914	-0.17835	1.89946	0.88181	0.11819	65	32	32	32	32
-0.16096	-0.50856	1.29572	-0.78005	-0.03732	0.24190	-0.28969	1.00057	2.46828	-0.13914	-0.17835	1.84095	0.47315	0.52685	66	32	32	32	32
0.18499	-0.21361	1.28165	-0.55080	0.03989	-0.19596	-0.36697	0.79641	1.34232	-0.13914	-0.17835	1.17314	0.63895	0.36105	32	32	32	32	32
0.48878	0.02802	1.03025	-0.33953	0.09284	-0.56048	-0.40728	0.71382	0.10617	-0.13914	-0.17835	0.92616	0.75094	0.24906	32	32	32	32	32
0.57562	0.07201	1.05629	-0.25739	0.13699	-0.67032	-0.35855	0.94638	-0.32259	-0.13914	-0.17835	0.88531	0.76122	0.23878	32	32	32	32	32
0.56639	0.09236	1.00204	-0.23940	0.17230	-0.57947	-0.27556	1.04648	-0.36091	-0.13914	-0.17835	1.05135	0.69775	0.30225	32	32	32	32	32
0.49847	0.08809	1.10717	-0.25486	0.28906	-0.20653	-0.08507	1.33822	-0.36118	-0.13914	-0.17835	0.89831	0.49057	0.50943	32	32	32	32	32
0.41412	0.03593	1.13470	-0.31368	0.36288	0.18990	0.04069	1.53354	-0.36118	-0.13821	-0.17835	0.74244	0.35857	0.64143	32	32	32	32	32
0.42501	0.03056	1.14074	-0.27754	0.39870	0.31017	0.10241	1.51641	-0.36118	-0.05995	-0.17835	0.64465	0.36476	0.63524	32	32	32	32	32
0.49328	0.06392	1.06861	-0.09474	0.60603	0.87713	0.32555	1.06095	-0.36118	0.34793	-0.17835	0.02132	0.25135	0.74865	32	32	32	32	32
0.78005	0.11323	0.80678	0.27549	0.81928	1.16339	0.54213	0.54754	-0.36118	1.28637	-0.17835	-0.39065	0.18371	0.81629	32	32	32	32	32
0.89811	0.04553	0.52957	0.28006	0.95703	1.27707	0.78645	0.17438	-0.36118	1.33243	-0.17835	-0.39581	0.14918	0.85082	32	32	32	32	32
1.09858	0.00821	0.37138	0.15712	1.12726	1.32801	1.26199	-0.19229	-0.36118	1.07824	-0.17835	-0.39591	0.23030	0.76970	32	32	32	32	32
1.01732	-0.04725	0.25853	0.15857	1.16040	1.30973	1.36058	-0.26434	-0.36118	1.33716	-0.17835	-0.39591	0.24538	0.75462	32	32	32	32	32
0.78443	-0.29319	0.06470	0.70292	1.11240	1.16406	1.77382	0.12568	-0.36118	0.94139	-0.17835	-0.39591	0.59977	0.40023	32	32	32	32	32
0.30180	-0.47704	-0.05118	1.63565	0.95030	1.04549	1.92605	0.70289	-0.36118	0.19174	-0.17834	-0.39591	0.90062	0.09938	32	32	32	32	32
0.22578	-0.45951	-0.07986	1.80864	0.92248	1.01022	1.94574	0.84779	-0.36118	0.14164	-0.17834	-0.39591	0.92670	0.07330	32	32	32	32	32
0.46406	-0.18605	-0.08624	1.94225	1.02865	1.06244	2.22340	1.04202	-0.36118	-0.02716	-0.17834	-0.39590	0.85768	0.14232	32	32	32	32	32
1.20429	0.53800	-0.07500	2.02198	1.32977	1.18262	2.81035	1.33980	-0.36118	-0.13594	-0.17731	-0.39591	0.63007	0.36993	32	32	32	32	32
1.55468	0.92211	-0.03050	2.28503	1.47224	1.25298	3.20987	1.38720	-0.36118	-0.13914	-0.17263	-0.39591	0.49314	0.50686	66	32	32	32	32
1.50490	0.96188	-0.15648	2.13142	1.57929	1.35400	3.88213	1.38357	-0.36118	-0.13914	-0.12315	-0.39591	0.46830	0.53170	65	32	32	32	32
1.80400	1.10689	-0.10782	1.68334	1.80444	1.55921	4.21828	0.62489	-0.36118	-0.13914	-0.03350	-0.39591	0.53545	0.46455	32	32	32	32	32
2.34206	1.02261	-0.16898	0.97728	2.17471	1.94183	4.69811	-0.52163	-0.36118	-0.13914	-0.06365	-0.39591	0.82823	0.17177	65	32	32	32	32
-1.60731	-0.58093	0.09005	-0.49898	-1.45808	-1.34659	-0.78302	-1.02601	2.54633	-0.13914	-0.17835	1.90109	1.00000	0.00000	65	32	32	32	32
-1.16710	-0.54765	-0.05231	-0.50042	-1.23503	-1.16978	-0.72648	-1.02451	2.54633	-0.13914	-0.17835	1.90109	0.99674	0.00326	32	32	32	32	32
-0.65815	-0.53259	0.06668	-0.50297	-0.82444	-0.57478	-0.57852	-1.02251	2.54633	-0.13914	-0.17835	1.90109	0.95774	0.04226	32	32	32	32	32
-0.44831	-0.53715	0.09925	-0.50651	-0.58229	-0.15881	-0.51068	-1.02263	2.54633	-0.13914	-0.17835	1.90109	0.82961	0.17039	32	32	32	32	32
-0.45007	-0.55185	0.11061	-0.54468	-0.44541	0.27821	-0.49557	-1.02896	2.54633	-0.13914	-0.17835	1.90109	0.77826	0.22174	32	32	32	32	32
-0.29831	-0.50662	0.18709	-0.61962	-0.35179	0.75832	-0.52507	-1.02899	2.54633	-0.13914	-0.17835	1.90109	0.74556	0.25444	65	32	32	32	32
-0.16839	-0.39967	0.36096	-0.87695	-0.42828	0.82590	-0.46254	-1.02541	2.53284	-0.13914	-0.17835	1.90109	0.68913	0.31087	32	32	32	32	32
-0.03171	-0.34889	0.58256	-1.00306	-0.41283	0.78406	-0.38817	-0.95643	2.52665	-0.13914	-0.17835	1.90109	0.55183	0.44817	32	32	32	32	32
0.11697	-0.36291	0.99959	-1.07955	-0.19829	0.37485	-0.23786	-0.77603	2.52901	-0.13914	-0.17835	1.90109	0.37556	0.62444	66	32	32	32	32
-0.10078	-0.49558	1.18122	-0.96003	-0.23115	0.21395	-0.28432	-0.25094	2.50705	-0.13914	-0.17835	1.90050	0.59871	0.40129	32	32	32	32	32
-0.34005	-0.57009	1.34686	-0.97341	-0.31876	0.10292	-0.35559	0.23761	2.49734	-0.13914	-0.17835	1.88806	0.78328	0.21672	32	32	32	32	32
-0.45658	-0.56178	1.27389	-0.96634	-0.24142	0.25448	-0.34478	0.58438	2.44471	-0.13914	-0.17835	1.85092	0.87501	0.12499	32	32	32	32	32
-0.43527	-0.55640	1.31293	-0.95247	-0.22167	0.25996	-0.34706	0.76076	2.40813	-0.13914	-0.17835	1.83041	0.77365	0.22635	32	32	32	32	32
-0.31401	-0.50153	1.29054	-0.79899	-0.09041	0.30881	-0.31024	0.78726	2.17056	-0.13914	-0.17835	1.62557	0.66786	0.33214	32	32	32	32	32
0.22173	-0.21967	1.47032	-0.55475	0.01983	-0.23113	-0.41343	0.66695	0.99025	-0.13914	-0.17835	0.88520	0.54271	0.45729	32	32	32	32	32
0.51012	-0.01532	1.53450	-0.35435	0.09049	-0.67101	-0.50331	0.61976	-0.12430	-0.13914	-0.17835	0.04969	0.68952	0.31048	65	32	32	32	32
0.70681	0.13478	1.91232	0.01877	0.27226	-0.63601	-0.32244	0.56154	-0.30194	-0.13914	-0.17835	-0.03066	0.64142	0.35858	32	32	32	32	32
1.01769	0.30498	2.38801	0.62085	0.60412	-0.40461	-0.00987	0.58034	-0.36092	-0.13914	-0.17835	-0.07826	0.65947	0.34053	32	32	32	32	32
1.08244	0.37426	2.26765	0.76169	0.73596	-0.03564	0.18775	0.70817	-0.36118	-0.13914	-0.17835	-0.05487	0.71079	0.28921	32	32	32	32	32
1.04701	0.40235	2.14985	0.69183	0.82284	0.48677	0.35116	0.83002	-0.36118	-0.13850	-0.17835	-0.25002	0.60145	0.39855	32	32	32	32	32
0.59586	0.16830	1.66078	0.00120	0.65549	0.99763	0.30103	1.18665	-0.36118	-0.13863	-0.17835	-0.29199	0.25290	0.74710	66	32	32	32	32
0.78669	0.18794	1.38173	0.16475	0.72754	1.16278	0.46243	0.91952	-0.36118	-0.11637	-0.17835	-0.27384	0.39019	0.60981	32	32	32	32	32
0.84431	0.15408	1.06689	0.36954	0.87972	1.36839	0.65609	0.54733	-0.36118	-0.11090	-0.17835	-0.39475	0.34532	0.65468	32	32	32	32	32
1.08817	0.19279	0.78913	0.47410	0.97778	1.38830	0.82770	0.25099	-0.36118	-0.11977	-0.17835	-0.39589	0.22873	0.77127	66	32	32	32	32
1.10870	0.13107	0.52347	0.38174	1.18958	1.56667	1.13804	-0.32573	-0.36118	-0.11595	-0.17835	-0.39591	0.19332	0.80668	66	32	32	32	32
1.46718	-0.05669	0.30708	-0.05206	1.42160	1.52223	2.06603	-0.77769	-0.36118	-0.11352	-0.17835	-0.39591	0.44948	0.55052	66	32	32	32	32
0.86705	-0.22192	0.14249	0.78068	1.18247	1.31039	1.92579	0.03846	-0.36118	-0.08557	-0.17835	-0.39591	0.73644	0.26356	32	32	32	32	32
0.33596	-0.54777	-0.08350	1.62366	0.96088	1.04590	1.94320	0.77217	-0.36118	-0.11801	-0.17835	-0.39591	0.97256	0.02744	65	32	32	32	32
0.07323	-0.57603	-0.07822	2.03232	0.87774	1.04985	2.02405	0.88019	-0.36118	-0.13833	-0.17835	-0.39591	0.99577	0.00423	65	32	32	32	32
0.48668	-0.19669	-0.08680	1.93621	1.04008	1.07763	2.25202	1.06570	-0.36118	-0.13605	-0.17834	-0.39591	0.86343	0.13657	32	32	32	32	32
1.28046	0.58947	-0.10848	1.89311	1.36197	1.16320	2.83188	1.45204	-0.36118	-0.13831	-0.17807	-0.39591	0.62208	0.37792	65	32	32	32	32
1.48392	0.77133	-0.12136	1.91808	1.47564	1.24279	3.16359	1.49207	-0.36118	-0.13914	-0.17233	-0.39591	0.42469	0.57531	32	32	32	32	32
1.58052	0.80255	-0.12258	1.86993	1.53662	1.30052	3.28603	1.37720	-0.36118	-0.13914	-0.17176	-0.39591	0.37854	0.62146	32	32	32	32	32
1.91518	0.86645	-0.16396	1.45544	1.83099	1.60506	3.99205	0.62950	-0.36118	-0.13914	-0.16613	-0.39591	0.59853	0.40147	32	32	32	32	32
2.08980	0.94191	-0.13959	1.24182	1.96721	1.73494	4.26801	0.18657	-0.36118	-0.13914	-0.13873	-0.39591	0.67260	0.32740	32	32	32	32	32
-0.86584	-0.56136	0.19839	-0.50655	-1.21764	-1.22037	-0.80869	-1.00382	2.54633	-0.13914	-0.17835	1.90109	1.00000	0.00000	65	32	32	32	32
-0.78734	-0.52806	0.18928	-0.50842	-1.18101	-1.16626	-0.74336	-1.00084	2.54633	-0.13914	-0.17835	1.90109	0.99858	0.00142	32	32	32	32	32
-0.36383	-0.45414	0.23047	-0.50618	-0.84908	-0.83027	-0.58813	-1.00998	2.54633	-0.13914	-0.17835	1.90109	0.98410	0.01590	65	32	32	32	32
-0.59418	-0.55141	0.49453	-0.50127	-0.57482	-0.14526	-0.48085	-1.02494	2.54633	-0.13914	-0.17835	1.90109	0.97592	0.02408	65	32	32	32	32
-0.66804	-0.55871	0.53420	-0.52626	-0.45630	0.26327	-0.48048	-1.02897	2.54633	-0.13914	-0.17835	1.90109	0.93310	0.06690	32	32	32	32	32
-0.66101	-0.54660	0.56830	-0.57590	-0.42088	0.35436	-0.46970	-1.02900	2.54633	-0.13914	-0.17835	1.90109	0.90265	0.09735	32	32	32	32	32
-0.60113	-0.52266	0.53171	-0.62320	-0.40768	0.45635	-0.48672	-1.02508	2.53132	-0.13914	-0.17835	1.90092	0.84041	0.15959	32	32	32	32	32
-0.36042	-0.42999	0.62581	-0.78091	-0.47386	0.51342	-0.45452	-0.92646	2.16053	-0.13914	-0.17835	1.90040	0.66091	0.33909	32	32	32	32	32
-0.13058	-0.40508	0.66448	-0.88501	-0.43607	0.54760	-0.42049	-0.74292	2.07455	-0.13914	-0.17835	1.89828	0.62127	0.37873	32	32	32	32	32
-0.07588	-0.42896	0.86369	-0.98977	-0.39422	0.34859	-0.39368	-0.43565	2.02096	-0.13914	-0.17835	1.89377	0.65472	0.34528	32	32	32	32	32
-0.19889	-0.48608	0.89625	-0.87573	-0.43245	0.29802	-0.47524	-0.05337	1.69197	-0.13914	-0.17835	1.71993	0.75135	0.24865	32	32	32	32	32
-0.16911	-0.48371	1.01393	-0.87188	-0.41731	0.24375	-0.49917	0.05205	1.56163	-0.13914	-0.17835	1.58409	0.69756	0.30244	32	32	32	32	32
-0.08689	-0.41110	1.60103	-1.08188	-0.29356	0.03313	-0.50308	0.15335	1.33949	-0.13914	-0.17835	1.05431	0.63313	0.36687	32	32	32	32	32
-0.03498	-0.34933	1.74789	-1.03407	-0.25419	-0.05170	-0.51325	0.23233	1.07137	-0.13914	-0.17835	0.76439	0.57002	0.42998	32	32	32	32	32
0.27080	-0.17545	1.80417	-0.73171	-0.07014	-0.28811	-0.52764	0.25427	0.31754	-0.13914	-0.17835	0.14997	0.51199	0.48801	32	32	32	32	32
0.54006	0.00711	2.15005	-0.39741	0.08301	-0.57465	-0.45799	0.26174	-0.14470	-0.13914	-0.17835	-0.22117	0.46597	0.53403	32	32	32	32	32
0.71009	0.18325	2.49053	0.04804	0.26554	-0.71970	-0.30208	0.30696	-0.34522	-0.13914	-0.17835	-0.38229	0.41955	0.58045	66	32	32	32	32
1.01062	0.32125	2.65514	0.75471	0.62653	-0.35163	0.08605	0.50626	-0.36070	-0.13914	-0.17835	-0.39463	0.71637	0.28363	32	32	32	32	32
1.42761	0.49027	2.98190	1.38811	0.98195	-0.11747	0.35063	0.53213	-0.36118	-0.13914	-0.17835	-0.39573	0.90620	0.09380	65	32	32	32	32
1.10789	0.44782	2.20064	0.77190	0.87302	0.58230	0.38877	0.71359	-0.36118	-0.13914	-0.17835	-0.39564	0.58521	0.41479	32	32	32	32	32
0.95766	0.38230	1.65441	0.45408	0.81897	1.06009	0.43038	0.77729	-0.36118	-0.13914	-0.17835	-0.39579	0.47011	0.52989	32	32	32	32	32
0.90954	0.10749	1.47731	0.22550	0.77174	1.29462	0.41138	0.84902	-0.36118	-0.13914	-0.17835	-0.39585	0.29393	0.70607	66	32	32	32	32
0.74668	0.09318	1.11471	0.32617	0.82142	1.43365	0.71840	0.71841	-0.36118	-0.13914	-0.17835	-0.39588	0.58808	0.41192	65	32	32	32	32
0.63014	0.21657	0.75357	0.51799	1.04223	1.43964	0.85950	0.25603	-0.36118	-0.13914	-0.17835	-0.39591	0.31424	0.68576	66	32	32	32	32
0.96865	0.27522	0.55825	0.38144	1.18007	1.52280	1.23204	-0.05440	-0.36118	-0.13914	-0.17835	-0.39591	0.42026	0.57974	32	32	32	32	32
0.99732	0.31382	0.46284	0.36957	1.23329	1.58138	1.37386	-0.12572	-0.36118	-0.13914	-0.17835	-0.39591	0.52291	0.47709	32	32	32	32	32
0.82342	-0.06294	0.13317	0.79370	1.17373	1.31618	1.86023	0.18120	-0.36118	-0.13914	-0.17835	-0.39591	0.70764	0.29236	32	32	32	32	32
0.34564	-0.36051	-0.06900	1.63397	0.96873	1.05345	1.96672	0.78396	-0.36118	-0.13914	-0.17835	-0.39591	0.92537	0.07463	32	32	32	32	32
0.33059	-0.30739	-0.10466	1.73642	0.95479	1.00086	1.95653	0.94490	-0.36118	-0.13914	-0.17835	-0.39591	0.94829	0.05171	32	32	32	32	32
0.54498	-0.08774	-0.10512	1.83894	1.04689	1.02900	2.18750	1.10866	-0.36118	-0.13914	-0.17835	-0.39591	0.89102	0.10898	32	32	32	32	32
1.26077	0.49168	-0.11591	1.54145	1.33949	1.12251	2.56311	1.48783	-0.36118	-0.13914	-0.17835	-0.39591	0.49312	0.50688	32	32	32	32	32
1.49637	0.61785	-0.13762	1.51688	1.44235	1.17886	2.71773	1.57098	-0.36118	-0.13914	-0.17835	-0.39591	0.15345	0.84655	66	32	32	32	32
1.65301	0.71236	-0.08083	1.42399	1.54574	1.30075	2.93542	1.43907	-0.36118	-0.13914	-0.17835	-0.39591	0.28109	0.71891	32	32	32	32	32
1.69037	0.80291	-0.03014	1.58279	1.58875	1.35237	3.21760	1.16368	-0.36118	-0.13914	-0.17835	-0.39591	0.40160	0.59840	32	32	32	32	32
1.73152	0.85331	-0.00028	1.55097	1.64400	1.40701	3.45864	0.91177	-0.36118	-0.13914	-0.17834	-0.39591	0.44846	0.55154	32	32	32	32	32
-0.37434	-0.55140	0.37553	-0.57258	-1.15741	-1.19955	-0.78356	-0.81532	2.54633	-0.13914	-0.17835	1.90109	1.00000	0.00000	32	32	32	32	32
-0.26235	-0.51599	0.25136	-0.52386	-1.11052	-1.14799	-0.76558	-0.96635	2.54633	-0.13914	-0.17835	1.90109	0.99961	0.00039	65	32	32	32	32
-0.39505	-0.52378	0.41580	-0.47303	-0.96796	-0.91411	-0.67703	-0.91641	2.54633	-0.13914	-0.17835	1.90109	0.99844	0.00156	32	32	32	32	32
-0.67275	-0.54847	0.73552	-0.50033	-0.53760	-0.15271	-0.46809	-1.02420	2.54633	-0.13914	-0.17835	1.90109	0.99684	0.00316	32	32	32	32	32
-0.81085	-0.58283	0.83913	-0.50047	-0.45803	0.09582	-0.42349	-1.02898	2.54633	-0.13914	-0.17835	1.90109	0.99766	0.00234	65	32	32	32	32
-1.12765	-0.58441	0.85662	-0.50180	-0.52537	0.12907	-0.49546	-1.02900	2.54633	-0.13914	-0.17835	1.90108	0.99575	0.00425	32	32	32	32	32
-1.34464	-0.57504	0.73191	-0.51887	-0.59331	0.22122	-0.55459	-1.02400	2.52663	-0.13914	-0.17835	1.90054	0.96971	0.03029	32	32	32	32	32
-1.16470	-0.53761	0.52577	-0.53884	-0.66060	0.36031	-0.61262	-1.00513	2.11394	-0.13914	-0.17835	1.87720	0.93561	0.06439	32	32	32	32	32
-0.28028	-0.42048	0.10143	-0.60343	-0.82276	0.60693	-0.70596	-0.90727	0.77130	-0.13914	-0.17835	1.83740	0.89392	0.10608	32	32	32	32	32
-0.07676	-0.38847	0.07305	-0.63385	-0.82451	0.62952	-0.71719	-0.86091	0.44364	-0.13914	-0.17835	1.69899	0.86212	0.13788	32	32	32	32	32
-0.04622	-0.37646	0.14564	-0.66120	-0.80143	0.51929	-0.72771	-0.75770	0.23060	-0.13914	-0.17835	1.50602	0.80970	0.19030	32	32	32	32	32
0.03242	-0.34093	0.71736	-0.84093	-0.58349	0.21127	-0.69855	-0.40418	0.19088	-0.13914	-0.17835	0.74431	0.55536	0.44464	32	32	32	32	32
0.17566	-0.26913	1.49255	-1.05291	-0.39267	-0.08776	-0.67411	-0.31538	0.10078	-0.13914	-0.17835	0.12911	0.39636	0.60364	32	32	32	32	32
0.36155	-0.16879	2.17256	-1.19755	-0.30307	-0.30303	-0.68830	-0.45718	-0.20490	-0.13914	-0.17835	-0.25575	0.38349	0.61651	32	32	32	32	32
0.44452	-0.09445	2.41366	-1.02816	-0.18574	-0.40602	-0.62734	-0.37747	-0.27689	-0.13914	-0.17835	-0.32717	0.42019	0.57981	32	32	32	32	32
0.53495	0.00923	2.58431	-0.71273	-0.01909	-0.49289	-0.49878	-0.22298	-0.35584	-0.13914	-0.17835	-0.39168	0.38700	0.61300	32	32	32	32	32
0.64742	0.16778	2.47891	0.12298	0.30654	-0.40176	-0.12227	0.34873	-0.36039	-0.13914	-0.17835	-0.39528	0.51945	0.48055	32	32	32	32	32
0.79501	0.28214	2.58081	0.70466	0.53366	-0.26796	0.22442	0.64734	-0.36118	-0.13914	-0.17835	-0.39591	0.77492	0.22508	65	32	32	32	32
0.94674	0.34293	2.45207	0.84847	0.74910	0.11445	0.27339	0.58490	-0.36118	-0.13914	-0.17835	-0.39591	0.67294	0.32706	32	32	32	32	32
1.14166	0.46899	2.19956	0.89826	0.91082	0.55298	0.39497	0.54128	-0.36118	-0.13914	-0.17835	-0.39591	0.60040	0.39960	32	32	32	32	32
1.11350	0.52141	1.62168	0.60680	0.88350	1.04337	0.47768	0.56265	-0.36118	-0.13914	-0.17835	-0.39591	0.48089	0.51911	66	32	32	32	32
0.77999	0.28274	1.40374	0.56349	0.85401	1.23071	0.52872	0.74153	-0.36118	-0.13914	-0.17835	-0.39591	0.61067	0.38933	65	32	32	32	32
0.61090	0.17461	1.15862	0.47675	0.94683	1.36738	0.69970	0.70724	-0.36118	-0.13914	-0.17835	-0.39591	0.28531	0.71469	66	32	32	32	32
0.54019	0.40316	0.77986	0.52737	1.03255	1.58060	0.88100	0.60951	-0.36118	-0.13914	-0.17835	-0.39591	0.53565	0.46435	32	32	32	32	32
0.55524	0.64681	0.67339	0.60165	1.10135	1.63262	0.89157	0.46034	-0.36118	-0.13914	-0.17835	-0.39591	0.77769	0.22231	65	32	32	32	32
0.55537	0.70991	0.46918	0.70077	1.09363	1.56845	1.05679	0.63161	-0.36118	-0.13914	-0.17835	-0.39591	0.50760	0.49240	32	32	32	32	32
0.62577	0.42984	0.12102	1.02345	1.06940	1.23543	1.51801	0.65131	-0.36118	-0.13914	-0.17835	-0.39591	0.54830	0.45170	32	32	32	32	32
0.68500	0.45445	-0.07325	1.15635	1.06353	0.98319	1.75327	0.81523	-0.36118	-0.13914	-0.17835	-0.39591	0.64621	0.35379	32	32	32	32	32
0.74867	0.39266	-0.14403	1.30714	1.04548	0.83774	1.80298	1.14236	-0.36118	-0.13914	-0.17835	-0.39591	0.84032	0.15968	32	32	32	32	32
0.90089	0.39877	-0.18000	1.38439	1.11837	0.83487	1.94612	1.29218	-0.36118	-0.13914	-0.17835	-0.39591	0.89179	0.10821	65	32	32	32	32
1.19376	0.40163	-0.12296	1.33067	1.26354	1.03005	2.24912	1.45186	-0.36118	-0.13914	-0.17835	-0.39591	0.53033	0.46967	32	32	32	32	32
1.64573	0.67440	0.01970	1.09684	1.47591	1.21506	2.47631	1.72040	-0.36118	-0.13914	-0.17835	-0.39591	0.13102	0.86898	66	32	32	32	32
1.42234	0.77673	0.16432	1.55376	1.35368	1.10838	2.39313	1.43935	-0.36118	-0.13914	-0.17835	-0.39591	0.09006	0.90994	32	32	32	32	32
1.32669	0.87540	0.30032	1.72020	1.29282	1.06478	2.32243	1.29631	-0.36118	-0.13914	-0.17835	-0.39591	0.14369	0.85631	32	32	32	32	32
1.35486	0.96603	0.30702	1.86312	1.32410	1.15942	2.31383	1.14789	-0.36118	-0.13914	-0.17835	-0.39591	0.19644	0.80356	32	32	32	32	32
-0.17492	-0.56761	0.56228	-0.79712	-1.18623	-1.24085	-0.75165	-0.54484	2.54625	-0.13914	-0.17835	1.90103	1.00000	0.00000	65	32	32	32	32
-0.24665	-0.56714	0.63935	-0.42634	-1.15459	-1.23025	-0.78638	-0.62085	2.54603	-0.13914	-0.17835	1.90085	0.99991	0.00009	65	32	32	32	32
-0.36631	-0.54396	0.50103	-0.47243	-1.01699	-0.97723	-0.71869	-0.86553	2.54553	-0.13914	-0.17835	1.90045	0.99975	0.00025	32	32	32	32	32
-0.77452	-0.57346	0.86156	-0.49930	-0.54144	-0.11823	-0.47577	-1.01720	2.54568	-0.13914	-0.17835	1.90057	0.99975	0.00025	32	32	32	32	32
-0.79338	-0.58447	1.04908	-0.49887	-0.42196	0.00688	-0.42977	-1.02897	2.54608	-0.13914	-0.17835	1.90089	0.99991	0.00009	65	32	32	32	32
-1.18416	-0.58619	0.87845	-0.49896	-0.54017	0.11528	-0.49941	-1.02900	2.54537	-0.13914	-0.17835	1.90033	0.99963	0.00037	32	32	32	32	32
-1.74274	-0.58546	0.72313	-0.49906	-0.69987	0.21662	-0.61796	-1.02891	2.53372	-0.13914	-0.17835	1.89780	0.99842	0.00158	65	32	32	32	32
-1.26969	-0.54855	0.53618	-0.50236	-0.71943	0.30402	-0.63935	-1.02385	1.92937	-0.13914	-0.17835	1.77691	0.94378	0.05622	32	32	32	32	32
-0.36255	-0.44087	0.00902	-0.50710	-0.89564	0.56596	-0.76930	-1.01689	0.32226	-0.13914	-0.17835	1.54585	0.84314	0.15686	32	32	32	32	32
-0.06798	-0.37198	-0.27548	-0.50278	-1.02103	0.70746	-0.84221	-1.02287	-0.30389	-0.13914	-0.17835	1.69083	0.92559	0.07441	65	32	32	32	32
-0.09686	-0.37066	0.07524	-0.54528	-0.79518	0.50466	-0.78824	-0.93187	-0.31528	-0.13914	-0.17835	0.96781	0.78658	0.21342	32	32	32	32	32
-0.02039	-0.33201	0.58030	-0.71474	-0.56296	0.22950	-0.74245	-0.65197	-0.31860	-0.13914	-0.17835	0.21322	0.52010	0.47990	32	32	32	32	32
0.15475	-0.25196	1.09783	-0.95735	-0.38919	-0.02676	-0.71982	-0.26570	-0.34408	-0.13914	-0.17835	-0.31266	0.25185	0.74815	66	32	32	32	32
0.30719	-0.18475	1.97825	-1.11942	-0.30733	-0.23159	-0.70059	-0.59412	-0.35092	-0.13914	-0.17835	-0.37854	0.40039	0.59961	32	32	32	32	32
0.50595	-0.10757	2.83699	-1.32534	-0.26249	-0.44642	-0.68944	-0.84021	-0.35956	-0.13914	-0.17835	-0.39419	0.47465	0.52535	65	32	32	32	32
0.44573	-0.03769	2.54791	-0.79264	-0.06977	-0.30263	-0.48195	-0.27759	-0.35806	-0.13914	-0.17835	-0.39344	0.37519	0.62481	32	32	32	32	32
0.45951	0.09947	2.25998	0.06556	0.29546	-0.06540	-0.06328	0.48392	-0.36117	-0.13914	-0.17835	-0.39590	0.39371	0.60629	32	32	32	32	32
0.40113	0.15745	2.05039	0.31286	0.42106	0.07047	0.11125	0.58874	-0.36118	-0.13914	-0.17835	-0.39591	0.40036	0.59964	32	32	32	32	32
0.44700	0.20252	1.95619	0.39008	0.51929	0.26568	0.18784	0.57750	-0.36118	-0.13914	-0.17835	-0.39591	0.39439	0.60561	32	32	32	32	32
0.55677	0.27002	1.70392	0.64787	0.82454	0.87598	0.38086	0.37281	-0.36118	-0.13914	-0.17835	-0.39591	0.35916	0.64084	32	32	32	32	32
0.59191	0.26992	1.58737	0.68036	0.87561	1.05381	0.45356	0.42988	-0.36118	-0.13914	-0.17835	-0.39591	0.44021	0.55979	32	32	32	32	32
0.48216	0.26000	1.34658	0.58187	0.90088	1.19108	0.54891	0.53229	-0.36118	-0.13914	-0.17835	-0.39591	0.34845	0.65155	32	32	32	32	32
0.48554	0.41707	1.14962	0.56690	0.95078	1.33578	0.66553	0.79306	-0.36118	-0.13914	-0.17835	-0.39591	0.41504	0.58496	32	32	32	32	32
0.41208	0.59102	0.80816	0.59685	1.02252	1.55186	0.79148	0.83245	-0.36118	-0.13914	-0.17835	-0.39591	0.54291	0.45709	32	32	32	32	32
0.28232	0.70210	0.54259	0.70484	1.04720	1.74297	0.85630	0.98560	-0.36118	-0.13914	-0.17835	-0.39591	0.52333	0.47667	66	32	32	32	32
0.48121	0.78266	0.45092	0.74506	1.04116	1.45954	1.00870	0.82514	-0.36118	-0.13914	-0.17835	-0.39591	0.49389	0.50611	32	32	32	32	32
0.61695	1.00345	0.08138	0.99022	1.03515	1.11319	1.33465	0.91319	-0.36118	-0.13914	-0.17835	-0.39591	0.20402	0.79598	66	32	32	32	32
0.91152	0.83778	-0.09015	1.06637	1.03596	0.77111	1.41461	1.02831	-0.36118	-0.13914	-0.17835	-0.39591	0.44410	0.55590	32	32	32	32	32
0.87945	0.78370	-0.23816	1.18949	1.06885	0.66224	1.65263	1.16808	-0.36118	-0.13914	-0.17835	-0.39591	0.77702	0.22298	65	32	32	32	32
1.11510	0.51138	-0.19201	1.10705	1.10084	0.76035	1.80272	1.33394	-0.36118	-0.13914	-0.17835	-0.39591	0.85844	0.14156	65	32	32	32	32
1.35110	0.60099	-0.11548	1.21451	1.22955	0.91654	1.93715	1.42199	-0.36118	-0.13914	-0.17835	-0.39591	0.58585	0.41415	32	32	32	32	32
1.41592	0.75732	0.10467	1.44924	1.24262	0.94838	2.03724	1.34978	-0.36118	-0.13914	-0.17835	-0.39591	0.24977	0.75023	32	32	32	32	32
1.19644	0.93993	0.39543	1.71875	1.16057	0.86121	2.13277	1.21739	-0.36118	-0.13914	-0.17835	-0.39591	0.06260	0.93740	66	32	32	32	32
1.12042	1.05917	0.50731	2.03694	1.17144	1.04859	1.82556	1.04730	-0.36118	-0.13914	-0.17835	-0.39591	0.04279	0.95721	66	32	32	32	32
1.08187	1.22073	0.46605	2.05718	1.17382	1.10284	1.69266	0.91340	-0.36118	-0.13914	-0.17835	-0.39591	0.09945	0.90055	32	32	32	32	32
-0.46223	-0.58486	0.92282	-0.42946	-1.25636	-1.33572	-0.73595	-0.36389	2.54062	-0.13914	-0.17835	1.89657	0.99942	0.00058	65	32	32	32	32
-0.34581	-0.57856	0.81822	-0.53404	-1.20528	-1.27094	-0.75396	-0.46232	2.49538	-0.13914	-0.17835	1.86084	0.99259	0.00741	32	32	32	32	32
-0.50080	-0.57017	0.86039	-0.47303	-0.95637	-0.84551	-0.68429	-0.73626	2.40648	-0.13914	-0.17835	1.79060	0.97337	0.02663	32	32	32	32	32
-0.83857	-0.57394	0.98141	-0.49968	-0.57241	-0.16888	-0.50979	-1.00760	2.43219	-0.13914	-0.17835	1.81091	0.98303	0.01697	32	32	32	32	32
-1.04557	-0.58301	1.04279	-0.49893	-0.50717	0.03054	-0.48655	-1.02869	2.41759	-0.13914	-0.17835	1.79938	0.98076	0.01924	32	32	32	32	32
-1.26867	-0.58471	0.94172	-0.49894	-0.57146	0.09493	-0.53112	-1.02900	2.44587	-0.13914	-0.17835	1.82173	0.98326	0.01674	32	32	32	32	32
-1.48404	-0.58215	0.86005	-0.49907	-0.66076	0.15108	-0.58567	-1.02890	2.31558	-0.13914	-0.17835	1.74130	0.96198	0.03802	32	32	32	32	32
-1.28810	-0.55416	0.63064	-0.49916	-0.77019	0.25112	-0.66699	-1.02886	1.64636	-0.13914	-0.17835	1.50719	0.87313	0.12687	32	32	32	32	32
-0.44382	-0.46314	0.11685	-0.49945	-0.92825	0.46649	-0.79358	-1.02871	-0.00082	-0.13914	-0.17835	1.10445	0.70836	0.29164	32	32	32	32	32
-0.27255	-0.44644	0.04066	-0.49993	-0.91873	0.47521	-0.80875	-1.02786	-0.35088	-0.13914	-0.17835	0.88193	0.66236	0.33764	32	32	32	32	32
-0.17405	-0.40219	0.13094	-0.52866	-0.79128	0.43812	-0.79500	-0.96088	-0.35740	-0.13914	-0.17835	0.70100	0.64454	0.35546	32	32	32	32	32
-0.13285	-0.36187	0.60316	-0.62242	-0.45792	0.18329	-0.71812	-0.78105	-0.36024	-0.13914	-0.17835	-0.12268	0.55732	0.44268	32	32	32	32	32
-0.05640	-0.31658	0.97361	-0.74159	-0.32397	0.06951	-0.68905	-0.73396	-0.36022	-0.13914	-0.17835	-0.36086	0.51994	0.48006	32	32	32	32	32
0.15790	-0.23385	1.63623	-0.95782	-0.27577	-0.10385	-0.68380	-0.76071	-0.36077	-0.13914	-0.17835	-0.39246	0.54098	0.45902	32	32	32	32	32
0.25510	-0.17754	2.08903	-0.98648	-0.23726	-0.16423	-0.63759	-0.65450	-0.36026	-0.13914	-0.17835	-0.39413	0.40869	0.59131	32	32	32	32	32
0.31379	-0.08398	2.36753	-0.78823	-0.09659	-0.17951	-0.49643	-0.24122	-0.36116	-0.13914	-0.17835	-0.39589	0.33399	0.66601	32	32	32	32	32
0.20030	-0.03336	1.94434	-0.26586	0.11616	0.09995	-0.25792	0.35567	-0.36117	-0.13914	-0.17835	-0.39590	0.16290	0.83710	32	32	32	32	32
0.14720	0.00632	1.73150	-0.07801	0.26870	0.26494	-0.09930	0.63243	-0.36118	-0.13914	-0.17835	-0.39591	0.07871	0.92129	66	32	32	32	32
0.06352	0.17508	1.46810	0.42013	0.52644	0.42005	0.32725	0.36502	-0.36118	-0.13914	-0.17835	-0.39591	0.29684	0.70316	32	32	32	32	32
0.08560	0.21945	1.38360	0.65437	0.73490	0.76749	0.48885	0.22082	-0.36118	-0.13914	-0.17835	-0.39591	0.35662	0.64338	32	32	32	32	32
0.13151	0.15621	1.44308	0.63172	0.85503	1.12127	0.41332	0.15667	-0.36118	-0.13914	-0.17835	-0.39591	0.18688	0.81312	66	32	32	32	32
0.19913	0.25165	1.24991	0.58554	0.83149	1.15823	0.51353	0.47430	-0.36118	-0.13914	-0.17835	-0.39591	0.37860	0.62140	32	32	32	32	32
0.19986	0.48038	0.89895	0.52320	0.87492	1.24538	0.69915	0.91859	-0.36118	-0.13914	-0.17835	-0.39591	0.54780	0.45220	32	32	32	32	32
0.22197	0.77627	0.85088	0.58796	0.98217	1.37990	0.74433	1.11522	-0.36118	-0.13914	-0.17835	-0.39591	0.35773	0.64227	66	32	32	32	32
0.32161	0.65935	0.54335	0.63420	0.97517	1.29817	0.90211	1.12420	-0.36118	-0.13914	-0.17835	-0.39591	0.55571	0.44429	32	32	32	32	32
0.50920	0.79962	0.31289	0.79523	0.97206	1.17961	1.04723	0.98013	-0.36118	-0.13914	-0.17835	-0.39591	0.39497	0.60503	32	32	32	32	32
0.74572	0.89870	0.23034	0.84407	0.95131	0.90661	1.15447	0.90885	-0.36118	-0.13914	-0.17835	-0.39591	0.22896	0.77104	66	32	32	32	32
0.88277	0.97132	-0.11174	1.06402	1.03198	0.61657	1.32823	1.03237	-0.36118	-0.13914	-0.17835	-0.39591	0.26507	0.73493	66	32	32	32	32
1.29586	0.63647	-0.28206	1.15329	1.07332	0.60629	1.41749	1.13535	-0.36118	-0.13914	-0.17835	-0.39591	0.66542	0.33458	65	32	32	32	32
1.38032	0.65859	-0.25896	1.26130	1.09858	0.66574	1.47668	1.24055	-0.36118	-0.13914	-0.17835	-0.39591	0.59110	0.40890	32	32	32	32	32
1.49991	0.68278	-0.18674	1.37696	1.11198	0.71033	1.48133	1.25158	-0.36118	-0.13914	-0.17835	-0.39591	0.48063	0.51937	32	32	32	32	32
1.38277	1.04485	0.07566	1.82588	1.10300	0.78788	1.56676	0.93913	-0.36118	-0.13914	-0.17835	-0.39591	0.42203	0.57797	32	32	32	32	32
1.22382	1.25254	0.28821	2.08281	1.09528	0.91912	1.60580	0.73645	-0.36118	-0.13914	-0.17835	-0.39591	0.23118	0.76882	32	32	32	32	32
1.02302	1.36078	0.35077	2.18063	1.06866	0.96362	1.59095	0.65467	-0.36118	-0.13914	-0.17835	-0.39591	0.12797	0.87203	32	32	32	32	32
0.91445	1.42529	0.60198	2.19079	1.11481	1.14464	1.36351	0.67396	-0.36118	-0.13914	-0.17835	-0.39591	0.01928	0.98072	66	32	32	32	32
-0.46525	-0.56855	1.14489	-0.45084	-1.23507	-1.48841	-0.75726	-0.44275	2.23718	-0.13914	-0.17835	1.65685	0.97946	0.02054	32	32	32	32	32
-0.48516	-0.56330	1.23571	-0.45303	-1.17962	-1.35748	-0.75201	-0.48506	2.07466	-0.13914	-0.17835	1.52846	0.94257	0.05743	32	32	32	32	32
-0.62003	-0.55299	1.48360	-0.51444	-0.92335	-0.89729	-0.70224	-0.75586	1.64956	-0.13914	-0.17835	1.19262	0.88415	0.11585	32	32	32	32	32
-1.14711	-0.54947	1.78162	-0.50021	-0.75604	-0.39453	-0.67992	-0.99400	1.08570	-0.13914	-0.17835	0.74716	0.74088	0.25912	32	32	32	32	32
-1.30570	-0.55394	1.70969	-0.49875	-0.69267	-0.16062	-0.66186	-1.02855	0.91177	-0.13914	-0.17835	0.60975	0.77234	0.22766	32	32	32	32	32
-1.37223	-0.56680	1.61196	-0.49885	-0.70950	-0.06242	-0.65327	-1.02900	0.94991	-0.13914	-0.17835	0.63988	0.74982	0.25018	32	32	32	32	32
-1.33897	-0.58242	1.36180	-0.49885	-0.80858	0.04997	-0.67482	-1.02900	0.85958	-0.13914	-0.17835	0.58990	0.70027	0.29973	32	32	32	32	32
-1.15457	-0.55232	0.98476	-0.49885	-0.90011	0.17291	-0.74641	-1.02900	0.33618	-0.13914	-0.17835	0.49253	0.62127	0.37873	32	32	32	32	32
-0.74256	-0.55123	0.65100	-0.49886	-0.91100	0.13651	-0.77889	-1.02900	-0.09362	-0.13914	-0.17835	0.16191	0.47384	0.52616	32	32	32	32	32
-0.49843	-0.55269	0.40901	-0.49900	-0.84580	0.14686	-0.78573	-1.02880	-0.36023	-0.13914	-0.17835	-0.10880	0.27266	0.72734	32	32	32	32	32
-0.42337	-0.51627	0.43842	-0.51991	-0.72667	0.16223	-0.76046	-0.97949	-0.36118	-0.13914	-0.17835	-0.17935	0.30542	0.69458	32	32	32	32	32
-0.33911	-0.42781	0.48579	-0.52669	-0.45689	0.24634	-0.70804	-0.97905	-0.36118	-0.13914	-0.17835	-0.22449	0.47077	0.52923	32	32	32	32	32
-0.20986	-0.35924	0.78634	-0.55193	-0.23669	0.18876	-0.63780	-1.00342	-0.36118	-0.13914	-0.17835	-0.39163	0.77761	0.22239	65	32	32	32	32
-0.24836	-0.37924	0.87585	-0.63589	-0.22961	0.26147	-0.58152	-0.93931	-0.36118	-0.13914	-0.17835	-0.39391	0.49231	0.50769	32	32	32	32	32
-0.11967	-0.32191	1.30024	-0.68989	-0.12065	0.20983	-0.47478	-0.63641	-0.36118	-0.13914	-0.17835	-0.39457	0.33990	0.66010	32	32	32	32	32
0.00176	-0.24798	1.60541	-0.40549	-0.03938	0.15941	-0.36624	-0.14637	-0.36117	-0.13914	-0.17835	-0.39590	0.13233	0.86767	32	32	32	32	32
0.00475	-0.13361	1.68261	-0.36031	0.02876	0.16351	-0.37713	0.25126	-0.36118	-0.13914	-0.17835	-0.39591	0.05037	0.94963	66	32	32	32	32
0.05863	-0.02677	1.41626	0.16741	0.18107	0.34807	-0.08331	0.39717	-0.36118	-0.13914	-0.17835	-0.39591	0.09300	0.90700	32	32	32	32	32
0.00965	0.11501	1.27130	0.48701	0.43461	0.46810	0.27324	0.31444	-0.36118	-0.13914	-0.17835	-0.39591	0.21475	0.78525	32	32	32	32	32
-0.10716	0.27827	1.13088	0.75890	0.67686	0.53702	0.63027	0.08533	-0.36118	-0.13914	-0.17835	-0.39591	0.38866	0.61134	65	32	32	32	32
0.02723	0.22892	1.13023	0.67005	0.68592	0.87851	0.49940	0.24808	-0.36118	-0.13914	-0.17835	-0.39591	0.34926	0.65074	32	32	32	32	32
0.08026	0.25455	1.06245	0.56516	0.63648	1.12845	0.40769	0.47034	-0.36118	-0.13914	-0.17835	-0.39591	0.53802	0.46198	65	32	32	32	32
0.10729	0.49643	0.76943	0.48967	0.78091	1.07360	0.66397	0.95696	-0.36118	-0.13914	-0.17835	-0.39591	0.49859	0.50141	32	32	32	32	32
0.06446	0.48901	0.53504	0.41918	0.83345	0.93113	0.89102	1.30039	-0.36118	-0.13914	-0.17835	-0.39591	0.65668	0.34332	65	32	32	32	32
0.31092	0.72218	0.44740	0.66813	0.83367	0.88537	0.87342	1.08356	-0.36118	-0.13914	-0.17835	-0.39591	0.50364	0.49636	32	32	32	32	32
0.61206	0.69078	0.28953	0.78762	0.86323	0.77669	0.97024	1.01293	-0.36118	-0.13914	-0.17835	-0.39591	0.60236	0.39764	65	32	32	32	32
0.74641	0.82725	0.04456	0.87374	0.91781	0.60254	1.14468	0.93568	-0.36118	-0.13914	-0.17835	-0.39591	0.24565	0.75435	66	32	32	32	32
1.03849	0.80337	-0.08242	1.02926	0.99443	0.61879	1.22812	1.00435	-0.36118	-0.13914	-0.17835	-0.39591	0.35391	0.64609	32	32	32	32	32
1.39597	0.74696	-0.21772	1.23463	1.06523	0.60704	1.22265	1.12397	-0.36118	-0.13914	-0.17835	-0.39591	0.37599	0.62401	32	32	32	32	32
1.82045	0.64996	-0.25571	1.34366	1.10637	0.63867	1.18235	1.25551	-0.36118	-0.13914	-0.17835	-0.39591	0.24035	0.75965	66	32	32	32	32
1.61651	0.87377	-0.29214	1.70981	1.09766	0.61807	1.20383	1.07814	-0.36118	-0.13914	-0.17835	-0.39591	0.33702	0.66298	32	32	32	32	32
1.50199	1.09875	-0.19556	1.97962	1.10083	0.69923	1.23771	0.85858	-0.36118	-0.13914	-0.17835	-0.39591	0.44117	0.55883	32	32	32	32	32
1.39972	1.47705	0.04651	2.21668	1.08875	0.87804	1.24352	0.52826	-0.36118	-0.13914	-0.17835	-0.39591	0.49931	0.50069	65	32	32	32	32
1.07334	1.62387	0.30509	2.24677	1.03795	1.03429	1.35389	0.31637	-0.36118	-0.13914	-0.17835	-0.39591	0.12480	0.87520	66	32	32	32	32
0.63509	1.60031	0.14816	2.35006	0.94702	0.85493	1.66230	0.42362	-0.36118	-0.13914	-0.17835	-0.39591	0.03630	0.96370	66	32	32	32	32
-0.79777	-0.53056	2.23821	-0.46959	-1.53374	-3.25648	-0.89064	-0.76354	0.84964	-0.13914	-0.17835	0.56066	0.83993	0.16007	32	32	32	32	32
-0.67373	-0.48850	2.49181	-0.48026	-1.19058	-2.40518	-0.85597	-0.86503	0.43113	-0.13914	-0.17835	0.23003	0.79729	0.20271	32	32	32	32	32
-0.68032	-0.48286	2.54462	-0.48575	-1.02694	-1.81456	-0.83769	-0.91951	0.19159	-0.13914	-0.17835	0.04079	0.71319	0.28681	32	32	32	32	32
-0.95608	-0.49326	2.58087	-0.49943	-0.86008	-0.78806	-0.81829	-1.00739	-0.18217	-0.13914	-0.17835	-0.25449	0.66857	0.33143	32	32	32	32	32
-1.39105	-0.54231	2.39178	-0.49879	-0.88844	-0.30681	-0.79729	-1.02875	-0.29248	-0.13914	-0.17835	-0.34163	0.48608	0.51392	32	32	32	32	32
-1.72756	-0.57601	2.03886	-0.49885	-0.86415	-0.04779	-0.74336	-1.02900	-0.29821	-0.13914	-0.17835	-0.34616	0.60772	0.39228	32	32	32	32	32
-1.66125	-0.58343	1.74818	-0.49885	-0.84640	0.06547	-0.73296	-1.02900	-0.28270	-0.13914	-0.17835	-0.31834	0.55166	0.44834	32	32	32	32	32
-1.19678	-0.58500	1.26358	-0.49885	-0.97986	0.03004	-0.76474	-1.02900	-0.30435	-0.13914	-0.17835	-0.33846	0.55021	0.44979	32	32	32	32	32
-0.74614	-0.58481	0.94941	-0.49885	-1.02430	-0.09633	-0.82878	-1.02900	-0.32152	-0.13914	-0.17835	-0.35078	0.22990	0.77010	66	32	32	32	32
-0.46918	-0.58390	0.65872	-0.49888	-0.97965	-0.03828	-0.82963	-1.02896	-0.36101	-0.13914	-0.17835	-0.38761	0.15405	0.84595	66	32	32	32	32
-0.58679	-0.56700	0.35084	-0.49963	-0.66747	0.10431	-0.76795	-1.02750	-0.36118	-0.13914	-0.17835	-0.39071	0.16349	0.83651	66	32	32	32	32
-0.48823	-0.49345	0.48896	-0.50249	-0.45871	0.34676	-0.63970	-1.02779	-0.36118	-0.13914	-0.17835	-0.39179	0.35267	0.64733	32	32	32	32	32
-0.41750	-0.43181	0.55790	-0.51268	-0.34359	0.44875	-0.62214	-1.02674	-0.36118	-0.13914	-0.17835	-0.39270	0.26445	0.73555	66	32	32	32	32
-0.43678	-0.48024	0.70227	-0.58940	-0.17490	0.50852	-0.42236	-1.01156	-0.36118	-0.13914	-0.17835	-0.39500	0.33919	0.66081	32	32	32	32	32
-0.37933	-0.45566	0.97409	-0.63163	0.08891	0.51388	-0.25906	-0.82057	-0.36118	-0.13914	-0.17835	-0.39457	0.23172	0.76828	32	32	32	32	32
-0.26822	-0.39736	1.19112	-0.42560	0.13163	0.44908	-0.20088	-0.38951	-0.36118	-0.13914	-0.17835	-0.39591	0.07109	0.92891	32	32	32	32	32
-0.10667	-0.38488	1.09174	0.27893	-0.08697	0.30551	-0.23298	-0.03982	-0.36118	-0.13914	-0.17835	-0.39591	0.07325	0.92675	32	32	32	32	32
-0.02744	-0.22779	1.04408	0.56215	-0.02142	0.34453	-0.11758	0.13135	-0.36118	-0.13914	-0.17835	-0.39591	0.10795	0.89205	32	32	32	32	32
0.00256	-0.00809	0.85608	0.88301	0.23867	0.56098	0.21649	0.15578	-0.36118	-0.13914	-0.17835	-0.39591	0.17851	0.82149	32	32	32	32	32
0.02368	0.16208	0.85538	0.81461	0.45013	0.69104	0.36973	0.26842	-0.36118	-0.13914	-0.17835	-0.39591	0.25408	0.74592	32	32	32	32	32
0.01139	0.21706	0.78170	0.70448	0.51339	0.75307	0.44909	0.37442	-0.36118	-0.13914	-0.17835	-0.39591	0.30893	0.69107	32	32	32	32	32
0.05793	0.25563	0.70917	0.49450	0.57003	0.82025	0.52438	0.63928	-0.36118	-0.13914	-0.17835	-0.39591	0.29319	0.70681	32	32	32	32	32
0.10783	0.36092	0.59816	0.39693	0.61495	0.75477	0.59272	0.85333	-0.36118	-0.13914	-0.17835	-0.39591	0.38614	0.61386	32	32	32	32	32
0.19726	0.61814	0.35346	0.55253	0.63161	0.59874	0.71864	0.95745	-0.36118	-0.13914	-0.17835	-0.39591	0.49932	0.50068	32	32	32	32	32
0.25069	0.83752	0.32631	0.75995	0.69002	0.62224	0.81779	0.92033	-0.36118	-0.13914	-0.17835	-0.39591	0.54575	0.45425	65	32	32	32	32
0.55113	0.81534	0.07574	0.78251	0.77621	0.51452	0.84590	0.96927	-0.36118	-0.13914	-0.17835	-0.39591	0.49099	0.50901	32	32	32	32	32
0.94839	0.69724	0.01513	0.90611	0.88677	0.54130	0.85246	0.95191	-0.36118	-0.13914	-0.17835	-0.39591	0.50343	0.49657	32	32	32	32	32
1.23871	0.68628	-0.08152	1.14916	0.93751	0.52777	0.87306	0.96072	-0.36118	-0.13914	-0.17835	-0.39591	0.34591	0.65409	32	32	32	32	32
1.57676	0.62892	-0.06651	1.34749	1.01671	0.60804	0.93349	1.03502	-0.36118	-0.13914	-0.17835	-0.39591	0.37723	0.62277	32	32	32	32	32
1.65658	0.69213	-0.22168	1.63832	1.05713	0.59288	0.97630	1.01315	-0.36118	-0.13914	-0.17835	-0.39591	0.45406	0.54594	32	32	32	32	32
1.67730	0.86456	-0.39468	1.78165	1.09210	0.59307	0.99135	0.98653	-0.36118	-0.13914	-0.17835	-0.39591	0.58945	0.41055	65	32	32	32	32
1.56740	1.15968	-0.31628	2.16857	1.11543	0.59097	1.11305	0.85453	-0.36118	-0.13914	-0.17835	-0.39591	0.23112	0.76888	66	32	32	32	32
1.19097	1.53210	0.00423	2.18273	1.02961	0.75172	1.17692	0.53949	-0.36118	-0.13914	-0.17835	-0.39591	0.33815	0.66185	32	32	32	32	32
0.81560	1.99932	0.10359	2.26003	0.94805	0.85343	1.24485	0.34739	-0.36118	-0.13914	-0.17835	-0.39591	0.32477	0.67523	32	32	32	32	32
0.74786	2.14200	0.17545	2.29917	0.93048	0.91074	1.22829	0.31447	-0.36118	-0.13914	-0.17835	-0.39591	0.28199	0.71801	32	32	32	32	32
-1.34300	-0.53377	3.18655	-0.49775	-2.26507	-5.24839	-1.05264	-1.02390	-0.33310	-0.13914	-0.17835	-0.37372	0.54179	0.45821	66	32	32	32	32
-1.00336	-0.48976	3.09017	-0.49856	-1.64194	-4.10742	-0.97839	-1.02771	-0.35410	-0.13914	-0.17835	-0.39031	0.68911	0.31089	32	32	32	32	32
-0.51613	-0.40773	2.96224	-0.49879	-0.72369	-1.64810	-0.83421	-1.02872	-0.35964	-0.13914	-0.17835	-0.39469	0.78115	0.21885	65	32	32	32	32
-0.91115	-0.51467	2.64744	-0.49882	-0.97919	-0.70294	-0.83639	-1.02885	-0.36033	-0.13914	-0.17835	-0.39524	0.42070	0.57930	66	32	32	32	32
-1.60392	-0.56223	2.45184	-0.49884	-1.08655	-0.30601	-0.82772	-1.02893	-0.36077	-0.13914	-0.17835	-0.39559	0.58459	0.41541	65	32	32	32	32
-1.81449	-0.58185	2.18484	-0.49885	-0.85416	0.06965	-0.78899	-1.02900	-0.36114	-0.13914	-0.17835	-0.39588	0.39816	0.60184	66	32	32	32	32
-1.80729	-0.58595	1.58351	-0.49885	-0.72938	0.08017	-0.66675	-1.02900	-0.36115	-0.13914	-0.17835	-0.39584	0.79569	0.20431	65	32	32	32	32
-1.26748	-0.58625	1.28081	-0.49885	-1.00997	-0.00427	-0.77729	-1.02900	-0.36112	-0.13914	-0.17835	-0.39576	0.56142	0.43858	32	32	32	32	32
-0.71879	-0.58624	1.01249	-0.49885	-1.26497	0.05761	-0.84209	-1.02900	-0.36118	-0.13914	-0.17835	-0.39586	0.42518	0.57482	65	32	32	32	32
-0.66692	-0.58446	0.68802	-0.49888	-0.94322	0.00542	-0.78613	-1.02896	-0.36118	-0.13914	-0.17835	-0.39582	0.24847	0.75153	32	32	32	32	32
-0.61827	-0.56418	0.43556	-0.49998	-0.58965	0.14379	-0.68023	-1.02898	-0.36118	-0.13914	-0.17835	-0.39588	0.33581	0.66419	32	32	32	32	32
-0.62560	-0.55786	0.35987	-0.49975	-0.48270	0.37863	-0.63812	-1.02898	-0.36118	-0.13914	-0.17835	-0.39590	0.22559	0.77441	66	32	32	32	32
-0.62582	-0.56312	0.50085	-0.50757	-0.51804	0.66019	-0.50127	-1.02808	-0.36118	-0.13914	-0.17835	-0.39589	0.14658	0.85342	66	32	32	32	32
-0.56873	-0.52772	0.66584	-0.60313	-0.13131	0.64989	-0.37000	-1.02028	-0.36118	-0.13914	-0.17835	-0.39570	0.18032	0.81968	32	32	32	32	32
-0.52860	-0.55477	0.90412	-0.75616	0.30124	0.72035	-0.06837	-0.99320	-0.36118	-0.13914	-0.17835	-0.39552	0.09421	0.90579	66	32	32	32	32
-0.54676	-0.54176	0.89935	-0.41177	0.22634	0.70092	-0.14998	-0.75176	-0.36118	-0.13914	-0.17835	-0.39591	0.12233	0.87767	32	32	32	32	32
-0.30573	-0.51946	0.78344	0.41771	-0.00560	0.54760	-0.18066	-0.22559	-0.36118	-0.13914	-0.17835	-0.39591	0.16441	0.83559	32	32	32	32	32
-0.04816	-0.48766	0.70595	1.03179	-0.22300	0.31146	-0.12716	-0.00511	-0.36118	-0.13914	-0.17835	-0.39591	0.13042	0.86958	66	32	32	32	32
0.06131	-0.21772	0.64721	0.96881	0.11624	0.59477	0.03916	0.28917	-0.36118	-0.13914	-0.17835	-0.39591	0.25195	0.74805	32	32	32	32	32
0.18923	0.06893	0.51540	0.98842	0.30040	0.91371	0.15227	0.44072	-0.36118	-0.13914	-0.17835	-0.39591	0.15106	0.84894	66	32	32	32	32
0.10482	0.07494	0.52368	0.69864	0.44498	0.81140	0.34642	0.55078	-0.36118	-0.13914	-0.17835	-0.39591	0.21099	0.78901	32	32	32	32	32
0.02308	0.13192	0.47064	0.34099	0.53776	0.60322	0.54773	0.71345	-0.36118	-0.13914	-0.17835	-0.39591	0.13243	0.86757	66	32	32	32	32
0.19173	0.26657	0.39162	0.50903	0.50738	0.60597	0.58629	0.76514	-0.36118	-0.13914	-0.17835	-0.39591	0.15551	0.84449	66	32	32	32	32
0.32825	0.62826	0.39397	0.54177	0.53971	0.48229	0.49677	0.77347	-0.36118	-0.13914	-0.17835	-0.39591	0.32319	0.67681	66	32	32	32	32
0.29644	0.78117	0.06432	0.59737	0.58305	0.31710	0.65163	0.88107	-0.36118	-0.13914	-0.17835	-0.39591	0.70967	0.29033	65	32	32	32	32
0.48990	0.78637	0.05588	0.74964	0.69501	0.43427	0.66968	0.88722	-0.36118	-0.13914	-0.17835	-0.39591	0.59444	0.40556	32	32	32	32	32
1.06128	0.74242	-0.22827	0.96246	0.87531	0.42787	0.65357	0.98260	-0.36118	-0.13914	-0.17835	-0.39591	0.30722	0.69278	66	32	32	32	32
1.41621	0.51348	0.07045	1.13522	0.96278	0.60521	0.68119	0.89271	-0.36118	-0.13914	-0.17835	-0.39591	0.60224	0.39776	65	32	32	32	32
1.48150	0.50365	0.01507	1.56889	0.93441	0.57659	0.76527	0.88280	-0.36118	-0.13914	-0.17835	-0.39591	0.38600	0.61400	66	32	32	32	32
1.54188	0.61172	-0.10637	1.82905	1.02544	0.59224	0.79107	0.81645	-0.36118	-0.13914	-0.17835	-0.39591	0.71264	0.28736	32	32	32	32	32
1.52845	0.81074	-0.26510	2.05869	1.09003	0.58354	0.91428	0.74640	-0.36118	-0.13914	-0.17835	-0.39591	0.75741	0.24259	65	32	32	32	32
1.33414	1.05627	-0.19480	2.04662	1.04424	0.55056	0.99285	0.74488	-0.36118	-0.13914	-0.17835	-0.39591	0.53390	0.46610	32	32	32	32	32
0.81821	1.46725	-0.19523	2.06721	0.94811	0.46710	1.20694	0.58575	-0.36118	-0.13914	-0.17835	-0.39591	0.25809	0.74191	66	32	32	32	32
0.82055	2.14370	0.18277	2.20480	0.89346	0.75070	0.98260	0.42435	-0.36118	-0.13914	-0.17835	-0.39591	0.55308	0.44692	65	32	32	32	32
0.64986	2.87062	0.11554	2.32979	0.91864	0.92413	1.00368	0.29017	-0.36118	-0.13914	-0.17835	-0.39591	0.32531	0.67469	65	32	32	32	32
-1.18204	-0.52431	3.21214	-0.49885	-1.97879	-6.13463	-1.05212	-1.02900	-0.36117	-0.13914	-0.17835	-0.39590	0.81665	0.18335	65	32	32	32	32
-1.05882	-0.49588	2.97761	-0.49885	-1.60549	-3.96629	-0.96189	-1.02900	-0.36118	-0.13914	-0.17835	-0.39591	0.69003	0.30997	32	32	32	32	32
-1.02371	-0.49329	2.59038	-0.49885	-1.17323	-1.63221	-0.87245	-1.02900	-0.36118	-0.13914	-0.17835	-0.39591	0.54509	0.45491	32	32	32	32	32
-1.38254	-0.53214	2.53148	-0.49885	-1.24485	-0.87485	-0.84932	-1.02900	-0.36118	-0.13914	-0.17835	-0.39591	0.38799	0.61201	66	32	32	32	32
-1.52724	-0.55479	2.26942	-0.49885	-1.08066	-0.42592	-0.82224	-1.02900	-0.36118	-0.13914	-0.17835	-0.39591	0.39564	0.60436	32	32	32	32	32
-1.81354	-0.58172	1.92133	-0.49885	-1.01651	-0.08972	-0.76514	-1.02900	-0.36118	-0.13914	-0.17835	-0.39591	0.44387	0.55613	66	32	32	32	32
-1.78913	-0.58594	1.63707	-0.49885	-1.04796	-0.05138	-0.79744	-1.02900	-0.36118	-0.13914	-0.17835	-0.39591	0.68001	0.31999	65	32	32	32	32
-1.29404	-0.58627	1.18735	-0.49885	-1.00709	-0.03755	-0.77318	-1.02900	-0.36118	-0.13914	-0.17835	-0.39591	0.49230	0.50770	32	32	32	32	32
-1.01880	-0.58624	0.89345	-0.49885	-1.04572	-0.06260	-0.79094	-1.02900	-0.36118	-0.13914	-0.17835	-0.39590	0.25914	0.74086	32	32	32	32	32
-0.90345	-0.58499	0.73649	-0.49886	-0.92280	-0.01507	-0.72383	-1.02900	-0.36118	-0.13914	-0.17835	-0.39591	0.23908	0.76092	32	32	32	32	32
-0.81778	-0.57908	0.39190	-0.49984	-0.51824	0.14680	-0.56747	-1.02900	-0.36118	-0.13914	-0.17835	-0.39591	0.51510	0.48490	65	32	32	32	32
-0.84186	-0.58152	0.44806	-0.50939	-0.29406	0.32572	-0.49703	-1.02899	-0.36118	-0.13914	-0.17835	-0.39591	0.54884	0.45116	65	32	32	32	32
-0.85671	-0.57790	0.54421	-0.53701	-0.26222	0.53600	-0.46955	-1.02703	-0.36118	-0.13914	-0.17835	-0.39590	0.35905	0.64095	32	32	32	32	32
-0.93251	-0.57829	0.70838	-0.60399	0.08721	0.88858	-0.35393	-1.02204	-0.36118	-0.13914	-0.17835	-0.39590	0.20830	0.79170	32	32	32	32	32
-1.00337	-0.57125	0.79573	-0.63659	0.36154	1.01662	-0.30315	-0.99133	-0.36118	-0.13914	-0.17835	-0.39583	0.19009	0.80991	32	32	32	32	32
-0.96655	-0.57933	0.81822	-0.50822	0.38237	1.01891	-0.26310	-0.89510	-0.36118	-0.13914	-0.17835	-0.39591	0.16647	0.83353	32	32	32	32	32
-0.34608	-0.54517	0.71739	0.39351	0.03905	0.66600	-0.18291	-0.23829	-0.36118	-0.13914	-0.17835	-0.39591	0.16602	0.83398	32	32	32	32	32
-0.01924	-0.46066	0.64579	0.82572	0.06016	0.58304	-0.10578	0.35269	-0.36118	-0.13914	-0.17835	-0.39591	0.39831	0.60169	32	32	32	32	32
0.10885	-0.40253	0.59241	1.01769	0.23135	0.53566	-0.04389	0.49275	-0.36118	-0.13914	-0.17835	-0.39591	0.53833	0.46167	65	32	32	32	32
0.12549	-0.25671	0.48344	0.81603	0.38758	0.86268	0.13245	0.64762	-0.36118	-0.13914	-0.17835	-0.39591	0.47616	0.52384	32	32	32	32	32
0.19377	-0.08908	0.36832	0.73484	0.51258	0.91977	0.35412	0.61789	-0.36118	-0.13914	-0.17835	-0.39591	0.23901	0.76099	32	32	32	32	32
0.21971	-0.03704	0.33463	0.61178	0.56359	0.77923	0.47924	0.68625	-0.36118	-0.13914	-0.17835	-0.39591	0.19660	0.80340	32	32	32	32	32
0.29775	0.15363	0.36961	0.58016	0.51263	0.56741	0.43196	0.69002	-0.36118	-0.13914	-0.17835	-0.39591	0.10866	0.89134	66	32	32	32	32
0.37498	0.33685	0.21496	0.60330	0.54809	0.41365	0.43375	0.70082	-0.36118	-0.13914	-0.17835	-0.39591	0.48105	0.51895	32	32	32	32	32
0.43702	0.51051	0.16638	0.61982	0.56384	0.34575	0.35033	0.64553	-0.36118	-0.13914	-0.17835	-0.39591	0.74231	0.25769	65	32	32	32	32
0.62570	0.54612	-0.05744	0.72585	0.68414	0.33047	0.48280	0.77660	-0.36118	-0.13914	-0.17835	-0.39591	0.64996	0.35004	32	32	32	32	32
1.04283	0.52347	-0.03393	0.96940	0.85092	0.52308	0.60203	0.80730	-0.36118	-0.13914	-0.17835	-0.39591	0.49600	0.50400	32	32	32	32	32
1.36489	0.41340	-0.01565	1.21155	0.96001	0.59856	0.67442	0.82145	-0.36118	-0.13914	-0.17835	-0.39591	0.31881	0.68119	66	32	32	32	32
1.48359	0.33507	0.05544	1.57857	0.97153	0.67832	0.63026	0.78047	-0.36118	-0.13914	-0.17835	-0.39591	0.68166	0.31834	65	32	32	32	32
1.47893	0.53726	-0.08645	1.91402	0.98495	0.63394	0.66010	0.63368	-0.36118	-0.13914	-0.17835	-0.39591	0.75824	0.24176	65	32	32	32	32
1.34465	0.81296	0.11240	1.98692	0.98149	0.61030	0.71599	0.60402	-0.36118	-0.13914	-0.17835	-0.39591	0.79977	0.20023	65	32	32	32	32
1.02237	1.11707	-0.02885	2.15762	0.96587	0.47252	0.83800	0.61377	-0.36118	-0.13914	-0.17835	-0.39591	0.74741	0.25259	65	32	32	32	32
0.84944	1.49742	0.08138	2.04866	0.88362	0.54425	0.89662	0.52507	-0.36118	-0.13914	-0.17835	-0.39591	0.53369	0.46631	32	32	32	32	32
0.68649	2.04304	0.05174	2.09915	0.83746	0.59510	0.88681	0.41628	-0.36118	-0.13914	-0.17835	-0.39591	0.35133	0.64867	32	32	32	32	32
0.67523	2.32534	0.05422	2.16925	0.82908	0.62043	0.84930	0.37163	-0.36118	-0.13914	-0.17835	-0.39591	0.32974	0.67026	32	32	32	32	32
-1.25236	-0.53105	2.84424	-0.49885	-1.86049	-4.93070	-1.00362	-1.02900	-0.36118	-0.13914	-0.17835	-0.39591	0.72602	0.27398	32	32	32	32	32
-1.34705	-0.53886	2.64717	-0.49885	-1.69711	-4.07115	-0.94853	-1.02900	-0.36118	-0.13914	-0.17835	-0.39591	0.68777	0.31223	32	32	32	32	32
-1.56187	-0.55865	2.02833	-0.49885	-1.41360	-1.84119	-0.86035	-1.02900	-0.36118	-0.13914	-0.17835	-0.39591	0.49338	0.50662	32	32	32	32	32
-1.72999	-0.57189	1.65406	-0.49885	-1.53627	-0.86847	-0.90053	-1.02900	-0.36118	-0.13914	-0.17835	-0.39591	0.41394	0.58606	32	32	32	32	32
-1.75039	-0.57369	1.58520	-0.49885	-1.51238	-0.56178	-0.89596	-1.02900	-0.36118	-0.13914	-0.17835	-0.39591	0.35294	0.64706	32	32	32	32	32
-1.77630	-0.57830	1.34958	-0.49885	-1.47134	-0.29421	-0.91316	-1.02900	-0.36118	-0.13914	-0.17835	-0.39591	0.41948	0.58052	32	32	32	32	32
-1.67949	-0.58560	1.21416	-0.49885	-1.20732	-0.13069	-0.84637	-1.02900	-0.36118	-0.13914	-0.17835	-0.39591	0.41407	0.58593	32	32	32	32	32
-1.57326	-0.58627	1.00909	-0.49885	-1.06849	-0.11656	-0.80909	-1.02900	-0.36118	-0.13914	-0.17835	-0.39591	0.31375	0.68625	32	32	32	32	32
-1.32906	-0.58626	0.71523	-0.49885	-0.93538	-0.17327	-0.74753	-1.02900	-0.36118	-0.13914	-0.17835	-0.39591	0.14249	0.85751	66	32	32	32	32
-1.24718	-0.58587	0.55270	-0.49886	-0.76186	-0.01294	-0.67464	-1.02900	-0.36118	-0.13914	-0.17835	-0.39591	0.19330	0.80670	32	32	32	32	32
-1.15286	-0.58602	0.49754	-0.49984	-0.58793	0.08191	-0.57970	-1.02900	-0.36118	-0.13914	-0.17835	-0.39591	0.23177	0.76823	66	32	32	32	32
-1.28929	-0.58567	0.61743	-0.52693	-0.32455	0.26804	-0.50833	-1.02895	-0.36118	-0.13914	-0.17835	-0.39591	0.46798	0.53202	32	32	32	32	32
-1.42603	-0.58599	0.95681	-0.60453	0.18183	0.53792	-0.29120	-1.02725	-0.36118	-0.13914	-0.17835	-0.39591	0.77102	0.22898	65	32	32	32	32
-1.46775	-0.58593	0.95279	-0.64731	0.26936	0.84258	-0.33837	-0.97593	-0.36118	-0.13914	-0.17835	-0.39591	0.54235	0.45765	32	32	32	32	32
-1.56801	-0.58591	0.84809	-0.59599	0.46228	1.24237	-0.45666	-0.95058	-0.36118	-0.13914	-0.17835	-0.39591	0.31035	0.68965	66	32	32	32	32
-1.05363	-0.58270	0.70921	-0.41726	0.44512	1.35756	-0.42654	-0.66435	-0.36118	-0.13914	-0.17835	-0.39591	0.17548	0.82452	66	32	32	32	32
-0.42696	-0.53565	0.74143	-0.11299	0.29237	1.12363	-0.22038	0.06705	-0.36118	-0.13914	-0.17835	-0.39591	0.24181	0.75819	32	32	32	32	32
-0.05187	-0.44712	0.65016	0.44777	0.28134	0.95290	-0.13258	0.67359	-0.36118	-0.13914	-0.17835	-0.39591	0.49045	0.50955	32	32	32	32	32
0.00662	-0.49308	0.59752	0.53070	0.34337	0.89385	-0.11746	0.85883	-0.36118	-0.13914	-0.17835	-0.39591	0.73393	0.26607	65	32	32	32	32
0.12420	-0.43555	0.42372	0.65221	0.42811	0.84465	0.09319	0.74296	-0.36118	-0.13914	-0.17835	-0.39591	0.66981	0.33019	32	32	32	32	32
0.19360	-0.39052	0.24438	0.66211	0.65734	1.03067	0.42378	0.78629	-0.36118	-0.13914	-0.17835	-0.39591	0.63671	0.36329	65	32	32	32	32
0.40189	-0.20786	0.19121	0.85255	0.65717	0.95442	0.43875	0.52207	-0.36118	-0.13914	-0.17835	-0.39591	0.19948	0.80052	66	32	32	32	32
0.32335	-0.16080	0.15608	0.80858	0.55528	0.64373	0.41248	0.58871	-0.36118	-0.13914	-0.17835	-0.39591	0.29329	0.70671	32	32	32	32	32
0.38431	-0.05239	0.11138	0.77062	0.54632	0.45646	0.33445	0.55109	-0.36118	-0.13914	-0.17835	-0.39591	0.45888	0.54112	32	32	32	32	32
0.59675	-0.00734	0.01855	0.71254	0.65828	0.35196	0.28142	0.56156	-0.36118	-0.13914	-0.17835	-0.39591	0.74901	0.25099	65	32	32	32	32
0.65995	0.17609	-0.00930	0.78326	0.64835	0.40102	0.33960	0.53516	-0.36118	-0.13914	-0.17835	-0.39591	0.65855	0.34145	32	32	32	32	32
0.97150	0.32996	-0.06578	0.99127	0.77569	0.55591	0.50281	0.66532	-0.36118	-0.13914	-0.17835	-0.39591	0.62062	0.37938	32	32	32	32	32
1.21768	0.42277	-0.04827	1.32225	0.87883	0.76922	0.53703	0.63615	-0.36118	-0.13914	-0.17835	-0.39591	0.64752	0.35248	32	32	32	32	32
1.30579	0.49210	-0.03924	1.55774	0.90447	0.80005	0.55222	0.55446	-0.36118	-0.13914	-0.17835	-0.39591	0.62159	0.37841	32	32	32	32	32
1.32415	0.66320	0.12300	1.73408	0.81899	0.90440	0.49495	0.37726	-0.36118	-0.13914	-0.17835	-0.39591	0.54350	0.45650	66	32	32	32	32
1.23433	0.76163	0.09537	1.94854	0.85616	0.59101	0.55641	0.36126	-0.36118	-0.13914	-0.17835	-0.39591	0.70328	0.29672	32	32	32	32	32
1.07360	0.95042	0.18480	1.97967	0.84880	0.52217	0.63611	0.37208	-0.36118	-0.13914	-0.17835	-0.39591	0.69562	0.30438	32	32	32	32	32
0.77227	1.28363	0.26409	1.92524	0.82245	0.58994	0.77523	0.48419	-0.36118	-0.13914	-0.17835	-0.39591	0.53106	0.46894	66	32	32	32	32
0.68825	1.71138	0.13531	1.94278	0.76208	0.38849	0.73041	0.43652	-0.36118	-0.13914	-0.17835	-0.39591	0.30723	0.69277	32	32	32	32	32
0.60756	2.02545	-0.16048	2.06355	0.71770	0.19024	0.72839	0.43136	-0.36118	-0.13914	-0.17835	-0.39591	0.07029	0.92971	66	32	32	32	32
-1.30614	-0.56028	1.57996	-0.49885	-1.35927	-3.21586	-0.90675	-1.02900	-0.36118	-0.13914	-0.17835	-0.39591	0.77847	0.22153	32	32	32	32	32
-1.47074	-0.57042	1.57992	-0.49885	-1.32018	-2.67560	-0.87035	-1.02900	-0.36118	-0.13914	-0.17835	-0.39591	0.73331	0.26669	32	32	32	32	32
-1.71577	-0.57850	1.55903	-0.49885	-1.34370	-2.17049	-0.81927	-1.02900	-0.36118	-0.13914	-0.17835	-0.39591	0.71152	0.28848	65	32	32	32	32
-1.84502	-0.58410	1.14224	-0.49885	-1.52972	-0.92460	-0.86154	-1.02900	-0.36118	-0.13914	-0.17835	-0.39591	0.34136	0.65864	66	32	32	32	32
-1.86394	-0.58547	1.03937	-0.49885	-2.03559	-0.50591	-1.05862	-1.02900	-0.36118	-0.13914	-0.17835	-0.39591	0.41518	0.58482	65	32	32	32	32
-1.84709	-0.58487	0.79545	-0.49885	-1.59618	-0.36193	-0.97246	-1.02900	-0.36118	-0.13914	-0.17835	-0.39591	0.24454	0.75546	32	32	32	32	32
-1.82335	-0.58558	0.61063	-0.49885	-1.29351	-0.20034	-0.89647	-1.02900	-0.36118	-0.13914	-0.17835	-0.39591	0.13675	0.86325	66	32	32	32	32
-1.62232	-0.58627	0.49171	-0.49885	-1.09404	-0.19921	-0.81546	-1.02900	-0.36118	-0.13914	-0.17835	-0.39591	0.27549	0.72451	32	32	32	32	32
-1.46279	-0.58627	0.40338	-0.49885	-0.93451	-0.15139	-0.75757	-1.02900	-0.36118	-0.13914	-0.17835	-0.39591	0.29608	0.70392	32	32	32	32	32
-1.37323	-0.58627	0.35745	-0.49886	-0.84524	-0.06452	-0.75190	-1.02900	-0.36118	-0.13914	-0.17835	-0.39591	0.17919	0.82081	66	32	32	32	32
-1.66550	-0.58627	0.60871	-0.50080	-0.66067	0.01249	-0.66565	-1.02900	-0.36118	-0.13914	-0.17835	-0.39591	0.19548	0.80452	66	32	32	32	32
-1.66009	-0.58627	0.75623	-0.52514	-0.33407	0.27035	-0.59731	-1.02892	-0.36118	-0.13914	-0.17835	-0.39591	0.47742	0.52258	32	32	32	32	32
-1.75294	-0.58627	1.00374	-0.61204	0.01927	0.47961	-0.43425	-1.02572	-0.36118	-0.13914	-0.17835	-0.39591	0.71786	0.28214	32	32	32	32	32
-1.77418	-0.58627	1.28504	-0.76548	0.34874	0.65834	-0.15213	-1.00665	-0.36118	-0.13914	-0.17835	-0.39591	0.84069	0.15931	65	32	32	32	32
-1.46386	-0.58618	1.03520	-0.69175	0.37473	1.10256	-0.30401	-0.65450	-0.36118	-0.13914	-0.17835	-0.39591	0.45228	0.54772	32	32	32	32	32
-1.09783	-0.58105	0.85994	-0.54461	0.46426	1.50323	-0.39707	-0.09034	-0.36118	-0.13914	-0.17835	-0.39591	0.19690	0.80310	32	32	32	32	32
-0.50041	-0.54999	0.78711	-0.29352	0.37128	1.55552	-0.31285	0.67018	-0.36118	-0.13914	-0.17835	-0.39591	0.31363	0.68637	32	32	32	32	32
-0.09168	-0.49516	0.59354	-0.03493	0.39972	1.40205	-0.23153	0.92885	-0.36118	-0.13914	-0.17835	-0.39591	0.42241	0.57759	32	32	32	32	32
0.10913	-0.47490	0.45326	0.13105	0.35170	1.23929	-0.12848	0.94160	-0.36118	-0.13914	-0.17835	-0.39591	0.56904	0.43096	32	32	32	32	32
0.20239	-0.46123	0.28517	0.34355	0.48815	0.98832	0.07228	0.76749	-0.36118	-0.13914	-0.17835	-0.39591	0.65761	0.34239	32	32	32	32	32
0.27436	-0.46830	0.07993	0.63228	0.59163	0.79229	0.21695	0.58066	-0.36118	-0.13914	-0.17835	-0.39591	0.69436	0.30564	32	32	32	32	32
0.26318	-0.49642	0.01042	0.76199	0.57475	0.73268	0.31161	0.54465	-0.36118	-0.13914	-0.17835	-0.39591	0.64813	0.35187	32	32	32	32	32
0.23522	-0.50272	-0.03445	0.99507	0.51235	0.64388	0.43359	0.54330	-0.36118	-0.13914	-0.17835	-0.39591	0.38469	0.61531	66	32	32	32	32
0.36681	-0.37506	-0.08775	0.92290	0.54379	0.50136	0.31595	0.41768	-0.36118	-0.13914	-0.17835	-0.39591	0.51127	0.48873	32	32	32	32	32
0.48900	-0.20397	-0.12149	0.93353	0.57117	0.43956	0.26141	0.28667	-0.36118	-0.13914	-0.17835	-0.39591	0.37367	0.62633	66	32	32	32	32
0.73707	-0.02997	-0.10001	0.82276	0.63517	0.47383	0.33321	0.49839	-0.36118	-0.13914	-0.17835	-0.39591	0.78154	0.21846	65	32	32	32	32
0.79072	0.33918	-0.11039	0.92777	0.63463	0.62641	0.31149	0.57957	-0.36118	-0.13914	-0.17835	-0.39591	0.79992	0.20008	32	32	32	32	32
0.87885	0.65187	-0.19472	1.20973	0.67823	0.90174	0.32093	0.51616	-0.36118	-0.13914	-0.17835	-0.39591	0.83924	0.16076	32	32	32	32	32
0.94964	0.68217	-0.10343	1.35818	0.72480	1.07046	0.34787	0.30323	-0.36118	-0.13914	-0.17835	-0.39591	0.79236	0.20764	65	32	32	32	32
0.93746	0.69906	-0.07151	1.56447	0.71804	0.82545	0.36907	0.23518	-0.36118	-0.13914	-0.17835	-0.39591	0.75569	0.24431	32	32	32	32	32
1.17567	0.72090	0.13961	1.86706	0.73651	0.60970	0.37067	0.03087	-0.36118	-0.13914	-0.17835	-0.39591	0.76148	0.23852	65	32	32	32	32
1.07727	0.71030	0.20653	1.89908	0.79029	0.41453	0.52852	0.16840	-0.36118	-0.13914	-0.17835	-0.39591	0.60376	0.39624	66	32	32	32	32
0.88530	1.00373	0.25018	1.86692	0.76243	0.41598	0.55351	0.25039	-0.36118	-0.13914	-0.17835	-0.39591	0.55950	0.44050	32	32	32	32	32
0.59096	1.55479	0.27253	1.94021	0.71967	0.31566	0.67725	0.33740	-0.36118	-0.13914	-0.17835	-0.39591	0.25539	0.74461	32	32	32	32	32
0.56150	1.82426	0.35824	1.77095	0.65872	0.15911	0.58556	0.39375	-0.36118	-0.13914	-0.17835	-0.39591	0.08370	0.91630	66	32	32	32	32
-1.31802	-0.58485	0.51304	-0.49885	-1.03134	-1.99761	-0.85729	-1.02900	-0.36118	-0.13914	-0.17835	-0.39591	0.82220	0.17780	65	32	32	32	32
-1.45572	-0.58502	0.49652	-0.49885	-1.23974	-1.89759	-0.83832	-1.02900	-0.36118	-0.13914	-0.17835	-0.39591	0.72895	0.27105	32	32	32	32	32
-1.76308	-0.58545	0.56957	-0.49885	-1.46207	-1.42305	-0.87965	-1.02900	-0.36118	-0.13914	-0.17835	-0.39591	0.66185	0.33815	32	32	32	32	32
-1.85511	-0.58570	0.83501	-0.49885	-1.76050	-1.03178	-0.95662	-1.02900	-0.36118	-0.13914	-0.17835	-0.39591	0.53517	0.46483	32	32	32	32	32
-1.86973	-0.58623	0.69124	-0.49885	-1.75569	-0.62880	-0.99410	-1.02900	-0.36118	-0.13914	-0.17835	-0.39591	0.34936	0.65064	32	32	32	32	32
-1.86864	-0.58627	0.58381	-0.49885	-1.58246	-0.37839	-1.03304	-1.02900	-0.36118	-0.13914	-0.17835	-0.39591	0.17845	0.82155	66	32	32	32	32
-1.84964	-0.58627	0.28520	-0.49885	-1.29825	-0.27354	-0.89947	-1.02900	-0.36118	-0.13914	-0.17835	-0.39591	0.19006	0.80994	66	32	32	32	32
-1.73828	-0.58627	0.20683	-0.49885	-1.10598	-0.23674	-0.83968	-1.02900	-0.36118	-0.13914	-0.17835	-0.39591	0.36803	0.63197	32	32	32	32	32
-1.50643	-0.58627	0.11999	-0.49885	-0.95845	-0.18704	-0.78139	-1.02900	-0.36118	-0.13914	-0.17835	-0.39591	0.62860	0.37140	65	32	32	32	32
-1.60747	-0.58627	0.25056	-0.49887	-0.77735	-0.08176	-0.73031	-1.02900	-0.36118	-0.13914	-0.17835	-0.39591	0.44201	0.55799	32	32	32	32	32
-1.70860	-0.58627	0.48483	-0.50134	-0.57841	0.03983	-0.71597	-1.02900	-0.36118	-0.13914	-0.17835	-0.39591	0.40365	0.59635	32	32	32	32	32
-1.84511	-0.58627	0.76122	-0.50868	-0.39763	0.14706	-0.72736	-1.02895	-0.36118	-0.13914	-0.17835	-0.39591	0.52160	0.47840	66	32	32	32	32
-1.82254	-0.58627	0.86817	-0.57613	-0.10353	0.53275	-0.53831	-1.02745	-0.36118	-0.13914	-0.17835	-0.39591	0.82616	0.17384	65	32	32	32	32
-1.73503	-0.58622	0.97502	-0.66011	0.14843	0.62504	-0.33381	-0.93513	-0.36118	-0.13914	-0.17835	-0.39591	0.80513	0.19487	32	32	32	32	32
-1.48970	-0.58604	1.12770	-0.74268	0.28944	0.92168	-0.21235	-0.53401	-0.36118	-0.13914	-0.17835	-0.39591	0.60372	0.39628	32	32	32	32	32
-0.91519	-0.58245	1.07188	-0.75892	0.25798	1.46140	-0.23021	0.45915	-0.36118	-0.13914	-0.17835	-0.39591	0.14709	0.85291	66	32	32	32	32
-0.58589	-0.55854	0.74581	-0.35279	0.52584	1.71401	-0.33170	0.88869	-0.36118	-0.13914	-0.17835	-0.39591	0.17423	0.82577	66	32	32	32	32
-0.02371	-0.52096	0.53495	-0.09049	0.24430	1.60478	-0.29342	1.10680	-0.36118	-0.13914	-0.17835	-0.39591	0.53107	0.46893	65	32	32	32	32
0.31427	-0.37638	0.30270	-0.12494	0.36960	1.24131	-0.11593	0.76701	-0.36118	-0.13914	-0.17835	-0.39591	0.26936	0.73064	66	32	32	32	32
0.32730	-0.44726	0.09732	0.14815	0.43992	0.92924	-0.01564	0.63215	-0.36118	-0.13914	-0.17835	-0.39591	0.45202	0.54798	32	32	32	32	32
0.22509	-0.55964	-0.08248	0.44572	0.46912	0.57216	0.05033	0.45882	-0.36118	-0.13914	-0.17835	-0.39591	0.82159	0.17841	65	32	32	32	32
0.21158	-0.58103	-0.09387	0.62316	0.51764	0.53003	0.10977	0.48899	-0.36118	-0.13914	-0.17835	-0.39591	0.92011	0.07989	65	32	32	32	32
0.24184	-0.56816	-0.13891	0.75413	0.48980	0.53071	0.23338	0.36223	-0.36118	-0.13914	-0.17835	-0.39591	0.83005	0.16995	65	32	32	32	32
0.30421	-0.50945	-0.28953	1.13161	0.48975	0.52928	0.33043	0.34431	-0.36118	-0.13914	-0.17835	-0.39591	0.36648	0.63352	66	32	32	32	32
0.47569	-0.28658	-0.24637	0.87424	0.52964	0.50244	0.23256	0.43826	-0.36118	-0.13914	-0.17835	-0.39591	0.55962	0.44038	32	32	32	32	32
0.58445	0.02141	-0.22791	0.74769	0.53198	0.57659	0.18994	0.51778	-0.36118	-0.13914	-0.17835	-0.39591	0.64245	0.35755	32	32	32	32	32
0.63145	0.48584	-0.23468	0.73582	0.46710	0.74130	0.12613	0.64104	-0.36118	-0.13914	-0.17835	-0.39591	0.84360	0.15640	32	32	32	32	32
0.66467	0.75246	-0.25721	0.90907	0.48776	0.94626	0.13167	0.57505	-0.36118	-0.13914	-0.17835	-0.39591	0.85539	0.14461	32	32	32	32	32
0.58890	0.91924	-0.33520	1.05462	0.50941	0.98210	0.15574	0.53720	-0.36118	-0.13914	-0.17835	-0.39591	0.89302	0.10698	65	32	32	32	32
0.73073	0.74988	-0.11220	1.40386	0.63996	0.71785	0.30874	0.15144	-0.36118	-0.13914	-0.17835	-0.39591	0.75280	0.24720	32	32	32	32	32
0.74263	0.53694	-0.05537	1.73679	0.74078	0.43063	0.41923	-0.05931	-0.36118	-0.13914	-0.17835	-0.39591	0.76498	0.23502	65	32	32	32	32
0.95838	0.63159	0.15522	1.79947	0.76538	0.36545	0.39298	0.02583	-0.36118	-0.13914	-0.17835	-0.39591	0.74186	0.25814	65	32	32	32	32
0.89299	0.84936	0.29554	1.78494	0.69103	0.30584	0.44547	0.11768	-0.36118	-0.13914	-0.17835	-0.39591	0.58611	0.41389	32	32	32	32	32
0.53967	1.22367	0.50441	1.68968	0.55098	0.12901	0.33945	0.09152	-0.36118	-0.13914	-0.17835	-0.39591	0.33015	0.66985	32	32	32	32	32
0.28508	1.26165	0.73711	1.88323	0.58878	0.20227	0.53878	-0.00003	-0.36118	-0.13914	-0.17835	-0.39591	0.19984	0.80016	66	32	32	32	32
-1.12672	-0.58621	0.02699	-0.49885	-1.39261	-1.92301	-0.83930	-1.02900	-0.36118	-0.13914	-0.17835	-0.39591	0.50172	0.49828	66	32	32	32	32
-1.63007	-0.58625	-0.06602	-0.49885	-1.33860	-1.67071	-0.89230	-1.02900	-0.36118	-0.13914	-0.17835	-0.39591	0.84270	0.15730	65	32	32	32	32
-1.77868	-0.58625	0.00864	-0.49885	-1.72670	-1.39280	-0.97339	-1.02900	-0.36118	-0.13914	-0.17835	-0.39591	0.79409	0.20591	32	32	32	32	32
-1.85956	-0.58625	-0.09722	-0.49885	-1.93090	-0.92259	-1.02721	-1.02900	-0.36118	-0.13914	-0.17835	-0.39591	0.62528	0.37472	32	32	32	32	32
-1.87027	-0.58626	0.12187	-0.49885	-1.80689	-0.61104	-1.02767	-1.02900	-0.36118	-0.13914	-0.17835	-0.39591	0.42210	0.57790	32	32	32	32	32
-1.86744	-0.58627	0.03668	-0.49885	-1.61009	-0.44387	-0.98336	-1.02900	-0.36118	-0.13914	-0.17835	-0.39591	0.40846	0.59154	32	32	32	32	32
-1.85513	-0.58627	0.09093	-0.49885	-1.29227	-0.37462	-0.91267	-1.02900	-0.36118	-0.13914	-0.17835	-0.39591	0.48697	0.51303	32	32	32	32	32
-1.82121	-0.58627	0.00548	-0.49885	-1.09462	-0.34648	-0.85577	-1.02900	-0.36118	-0.13914	-0.17835	-0.39591	0.52840	0.47160	66	32	32	32	32
-1.75649	-0.58627	-0.06806	-0.49885	-0.95628	-0.18305	-0.83651	-1.02900	-0.36118	-0.13914	-0.17835	-0.39591	0.52301	0.47699	32	32	32	32	32
-1.73461	-0.58627	-0.00378	-0.49887	-0.70897	-0.05300	-0.79325	-1.02900	-0.36118	-0.13914	-0.17835	-0.39591	0.58832	0.41168	32	32	32	32	32
-1.83891	-0.58627	0.18058	-0.50028	-0.43894	0.03043	-0.69718	-1.02900	-0.36118	-0.13914	-0.17835	-0.39591	0.62845	0.37155	32	32	32	32	32
-1.84811	-0.58627	0.35522	-0.51230	-0.30882	0.16938	-0.62417	-1.02895	-0.36118	-0.13914	-0.17835	-0.39591	0.78327	0.21673	32	32	32	32	32
-1.85344	-0.58627	0.45203	-0.52022	-0.23695	0.20221	-0.56636	-1.02207	-0.36118	-0.13914	-0.17835	-0.39591	0.80703	0.19297	32	32	32	32	32
-1.71625	-0.58612	0.57873	-0.59462	-0.10015	0.53056	-0.46866	-0.81216	-0.36118	-0.13914	-0.17835	-0.39591	0.80655	0.19345	32	32	32	32	32
-1.21557	-0.58567	0.74620	-0.70717	0.12021	1.14489	-0.23189	0.03411	-0.36118	-0.13914	-0.17835	-0.39591	0.44449	0.55551	32	32	32	32	32
-0.85680	-0.58078	0.74619	-0.59674	0.28172	1.42405	-0.19100	0.54663	-0.36118	-0.13914	-0.17835	-0.39591	0.26354	0.73646	32	32	32	32	32
-0.43601	-0.55924	0.55821	-0.51063	0.17756	1.47417	-0.12816	0.91188	-0.36118	-0.13914	-0.17835	-0.39591	0.17882	0.82118	66	32	32	32	32
-0.10660	-0.45358	0.34558	-0.35216	0.30115	1.37330	-0.21069	0.81804	-0.36118	-0.13914	-0.17835	-0.39591	0.25230	0.74770	32	32	32	32	32
0.21504	-0.45103	0.13420	-0.19660	0.31098	1.06683	-0.16924	0.74246	-0.36118	-0.13914	-0.17835	-0.39591	0.40661	0.59339	32	32	32	32	32
0.40201	-0.48457	-0.04328	-0.03519	0.39214	0.79376	-0.09993	0.59777	-0.36118	-0.13914	-0.17835	-0.39591	0.29902	0.70098	66	32	32	32	32
0.24266	-0.56796	-0.09370	0.32370	0.46144	0.53637	0.00650	0.48177	-0.36118	-0.13914	-0.17835	-0.39591	0.80643	0.19357	32	32	32	32	32
0.14375	-0.58544	-0.14815	0.50174	0.46139	0.44570	0.05305	0.28589	-0.36118	-0.13914	-0.17835	-0.39591	0.97448	0.02552	65	32	32	32	32
0.26211	-0.57733	-0.23653	0.65489	0.50343	0.42842	0.06557	0.42673	-0.36118	-0.13914	-0.17835	-0.39591	0.90651	0.09349	32	32	32	32	32
0.32529	-0.50818	-0.30411	0.72394	0.51741	0.38747	0.09271	0.49282	-0.36118	-0.13914	-0.17835	-0.39591	0.86085	0.13915	32	32	32	32	32
0.36169	-0.34815	-0.35478	0.73073	0.51127	0.44819	0.13086	0.57624	-0.36118	-0.13914	-0.17835	-0.39591	0.71023	0.28977	32	32	32	32	32
0.53467	0.20655	-0.37086	0.46628	0.43377	0.71231	0.08659	0.70833	-0.36118	-0.13914	-0.17835	-0.39591	0.63469	0.36531	32	32	32	32	32
0.60190	0.57498	-0.33322	0.53403	0.39814	0.87375	0.05436	0.72558	-0.36118	-0.13914	-0.17835	-0.39591	0.70530	0.29470	32	32	32	32	32
0.55693	0.78435	-0.29264	0.66550	0.35705	0.88504	-0.00047	0.74542	-0.36118	-0.13914	-0.17835	-0.39591	0.85904	0.14096	65	32	32	32	32
0.56652	0.82624	-0.26187	0.83682	0.43338	0.71449	0.13340	0.56452	-0.36118	-0.13914	-0.17835	-0.39591	0.73852	0.26148	32	32	32	32	32
0.62517	0.79548	-0.19760	1.20868	0.56093	0.45797	0.26355	0.24980	-0.36118	-0.13914	-0.17835	-0.39591	0.71229	0.28771	32	32	32	32	32
0.61439	0.78091	0.00730	1.36871	0.64200	0.38643	0.36949	0.03238	-0.36118	-0.13914	-0.17835	-0.39591	0.50159	0.49841	66	32	32	32	32
0.79553	0.68572	-0.01826	1.53919	0.69153	0.23149	0.34751	0.04149	-0.36118	-0.13914	-0.17835	-0.39591	0.71060	0.28940	32	32	32	32	32
0.84680	0.76029	0.35337	1.64839	0.65408	0.12196	0.35488	0.09417	-0.36118	-0.13914	-0.17835	-0.39591	0.61993	0.38007	32	32	32	32	32
0.56095	0.87706	0.66711	1.59051	0.50036	0.16215	0.37090	0.04036	-0.36118	-0.13914	-0.17835	-0.39591	0.59175	0.40825	65	32	32	32	32
0.50227	1.13362	0.44506	1.52304	0.42178	-0.06893	0.01168	-0.03810	-0.36118	-0.13914	-0.17835	-0.39591	0.34451	0.65549	66	32	32	32	32
-1.53252	-0.58627	-0.30124	-0.49885	-1.64460	-1.89353	-0.94194	-1.02900	-0.36118	-0.13914	-0.17835	-0.39591	0.68418	0.31582	32	32	32	32	32
-1.67387	-0.58627	-0.24711	-0.49885	-1.87817	-1.77216	-1.00474	-1.02900	-0.36118	-0.13914	-0.17835	-0.39591	0.81897	0.18103	65	32	32	32	32
-1.81646	-0.58627	-0.50336	-0.49885	-1.77689	-1.50711	-0.98918	-1.02900	-0.36118	-0.13914	-0.17835	-0.39591	0.89809	0.10191	65	32	32	32	32
-1.86153	-0.58627	-0.57871	-0.49885	-1.94692	-1.00438	-1.03447	-1.02900	-0.36118	-0.13914	-0.17835	-0.39591	0.66546	0.33454	32	32	32	32	32
-1.87076	-0.58627	-0.59270	-0.49885	-2.11781	-0.50824	-1.08303	-1.02900	-0.36118	-0.13914	-0.17835	-0.39591	0.50880	0.49120	66	32	32	32	32
-1.86858	-0.58627	-0.47220	-0.49885	-1.62029	-0.53588	-0.97916	-1.02900	-0.36118	-0.13914	-0.17835	-0.39591	0.62000	0.38000	32	32	32	32	32
-1.85951	-0.58627	-0.29103	-0.49885	-1.15435	-0.54412	-0.87951	-1.02900	-0.36118	-0.13914	-0.17835	-0.39591	0.79607	0.20393	65	32	32	32	32
-1.85876	-0.58627	-0.32650	-0.49885	-1.11594	-0.25534	-0.88617	-1.02900	-0.36118	-0.13914	-0.17835	-0.39591	0.76859	0.23141	65	32	32	32	32
-1.85583	-0.58627	-0.38550	-0.49885	-0.91938	-0.19012	-0.91119	-1.02900	-0.36118	-0.13914	-0.17835	-0.39591	0.49767	0.50233	32	32	32	32	32
-1.85772	-0.58627	-0.32664	-0.49886	-0.64390	-0.04159	-0.86971	-1.02900	-0.36118	-0.13914	-0.17835	-0.39591	0.36534	0.63466	66	32	32	32	32
-1.86077	-0.58627	-0.16793	-0.49970	-0.47878	0.04303	-0.78198	-1.02900	-0.36118	-0.13914	-0.17835	-0.39591	0.77143	0.22857	65	32	32	32	32
-1.86944	-0.58627	-0.05958	-0.49993	-0.22390	-0.04169	-0.49362	-1.02890	-0.36118	-0.13914	-0.17835	-0.39591	0.94521	0.05479	65	32	32	32	32
-1.85999	-0.58627	0.08399	-0.50715	-0.26558	0.09093	-0.50639	-1.01352	-0.36118	-0.13914	-0.17835	-0.39591	0.93612	0.06388	65	32	32	32	32
-1.59979	-0.58572	0.22155	-0.62502	-0.19699	0.51156	-0.43667	-0.58742	-0.36118	-0.13914	-0.17835	-0.39591	0.68674	0.31326	32	32	32	32	32
-1.00108	-0.58505	0.04678	-0.73017	-0.07102	1.20642	-0.22980	0.40010	-0.36118	-0.13914	-0.17835	-0.39591	0.49374	0.50626	32	32	32	32	32
-0.63542	-0.57826	-0.01787	-0.61423	-0.03075	1.42941	-0.05856	0.90764	-0.36118	-0.13914	-0.17835	-0.39591	0.32871	0.67129	32	32	32	32	32
-0.50202	-0.54097	-0.01273	-0.59170	0.01757	1.32848	-0.05048	0.89891	-0.36118	-0.13914	-0.17835	-0.39591	0.29127	0.70873	32	32	32	32	32
-0.27130	-0.48918	0.01394	-0.46781	0.13456	1.16048	-0.07771	0.76807	-0.36118	-0.13914	-0.17835	-0.39591	0.20597	0.79403	32	32	32	32	32
0.17296	-0.38747	-0.03298	-0.38924	0.31372	0.80776	-0.21426	0.45447	-0.36118	-0.13914	-0.17835	-0.39591	0.28215	0.71785	66	32	32	32	32
0.24906	-0.53950	-0.03279	-0.20547	0.41001	0.56011	-0.11710	0.60877	-0.36118	-0.13914	-0.17835	-0.39591	0.69943	0.30057	65	32	32	32	32
0.19462	-0.57184	-0.15205	0.03843	0.41928	0.46590	-0.06479	0.48006	-0.36118	-0.13914	-0.17835	-0.39591	0.73526	0.26474	32	32	32	32	32
0.25647	-0.58462	-0.22640	0.37569	0.48640	0.34206	-0.01581	0.47546	-0.36118	-0.13914	-0.17835	-0.39591	0.95717	0.04283	32	32	32	32	32
0.33967	-0.58052	-0.26318	0.56020	0.52338	0.29225	-0.01812	0.44292	-0.36118	-0.13914	-0.17835	-0.39591	0.99542	0.00458	65	32	32	32	32
0.31281	-0.54222	-0.40237	0.55870	0.53776	0.37449	-0.03585	0.67387	-0.36118	-0.13914	-0.17835	-0.39591	0.98209	0.01791	65	32	32	32	32
0.36006	-0.21050	-0.35891	0.51916	0.50089	0.35186	0.07001	0.66483	-0.36118	-0.13914	-0.17835	-0.39591	0.88226	0.11774	65	32	32	32	32
0.52855	0.27155	-0.37820	0.32992	0.45027	0.66377	0.17011	0.71922	-0.36118	-0.13914	-0.17835	-0.39591	0.54732	0.45268	32	32	32	32	32
0.63005	0.53003	-0.43566	0.24281	0.34425	1.00110	0.01545	0.85636	-0.36118	-0.13914	-0.17835	-0.39591	0.55177	0.44823	65	32	32	32	32
0.61146	0.66355	-0.30959	0.49100	0.41170	0.72229	0.14079	0.67139	-0.36118	-0.13914	-0.17835	-0.39591	0.57785	0.42215	32	32	32	32	32
0.58998	0.80234	-0.17783	0.78741	0.39925	0.47054	0.16045	0.53477	-0.36118	-0.13914	-0.17835	-0.39591	0.59893	0.40107	65	32	32	32	32
0.66899	0.80339	-0.15957	1.01909	0.52286	0.35060	0.23671	0.31854	-0.36118	-0.13914	-0.17835	-0.39591	0.63705	0.36295	32	32	32	32	32
0.79755	0.82401	-0.27694	1.10066	0.58543	0.11139	0.22701	0.23352	-0.36118	-0.13914	-0.17835	-0.39591	0.80359	0.19641	65	32	32	32	32
0.87069	0.79606	0.01961	1.19882	0.64157	0.02911	0.33898	0.23721	-0.36118	-0.13914	-0.17835	-0.39591	0.68250	0.31750	32	32	32	32	32
0.84356	0.79094	0.33188	1.40913	0.61249	-0.05823	0.36620	0.21997	-0.36118	-0.13914	-0.17835	-0.39591	0.66429	0.33571	32	32	32	32	32
0.83381	0.80346	0.47581	1.57746	0.57519	-0.12149	0.19817	0.11169	-0.36118	-0.13914	-0.17835	-0.39591	0.47778	0.52222	32	32	32	32	32
0.78472	0.80181	0.52887	1.58814	0.55685	-0.10371	0.17980	0.07913	-0.36118	-0.13914	-0.17835	-0.39591	0.44540	0.55460	32	32	32	32	32
-1.79939	-0.58627	-0.68893	-0.49885	-2.02014	-2.29972	-1.05834	-1.02900	-0.36118	-0.13914	-0.17835	-0.39591	0.71963	0.28037	32	32	32	32	32
-1.82478	-0.58627	-0.74900	-0.49885	-2.01517	-2.06843	-1.04364	-1.02900	-0.36118	-0.13914	-0.17835	-0.39591	0.69622	0.30378	32	32	32	32	32
-1.82736	-0.58627	-0.74043	-0.49885	-2.07502	-1.71004	-1.02631	-1.02900	-0.36118	-0.13914	-0.17835	-0.39591	0.66705	0.33295	32	32	32	32	32
-1.86603	-0.58627	-0.87118	-0.49885	-1.82819	-1.09725	-0.98644	-1.02900	-0.36118	-0.13914	-0.17835	-0.39591	0.69231	0.30769	32	32	32	32	32
-1.87076	-0.58627	-0.97593	-0.49885	-1.66717	-0.81407	-0.96167	-1.02900	-0.36118	-0.13914	-0.17835	-0.39591	0.69565	0.30435	32	32	32	32	32
-1.87005	-0.58627	-0.92763	-0.49885	-1.53629	-0.61231	-0.95734	-1.02900	-0.36118	-0.13914	-0.17835	-0.39591	0.69236	0.30764	32	32	32	32	32
-1.86961	-0.58627	-0.88971	-0.49885	-1.33965	-0.39202	-0.93852	-1.02900	-0.36118	-0.13914	-0.17835	-0.39591	0.70882	0.29118	32	32	32	32	32
-1.86995	-0.58627	-0.95225	-0.49885	-1.13862	-0.27937	-0.96210	-1.02900	-0.36118	-0.13914	-0.17835	-0.39591	0.74682	0.25318	32	32	32	32	32
-1.87010	-0.58627	-0.82679	-0.49885	-0.84544	-0.14743	-0.94778	-1.02900	-0.36118	-0.13914	-0.17835	-0.39591	0.59776	0.40224	32	32	32	32	32
-1.87039	-0.58627	-0.70257	-0.49886	-0.55523	-0.09256	-0.97456	-1.02900	-0.36118	-0.13914	-0.17835	-0.39591	0.45132	0.54868	66	32	32	32	32
-1.86968	-0.58627	-0.48618	-0.49964	-0.39704	-0.06170	-0.73735	-1.02900	-0.36118	-0.13914	-0.17835	-0.39591	0.67687	0.32313	32	32	32	32	32
-1.86841	-0.58627	-0.38674	-0.50061	-0.29779	-0.01498	-0.60818	-1.02881	-0.36118	-0.13914	-0.17835	-0.39591	0.84740	0.15260	32	32	32	32	32
-1.85611	-0.58627	-0.34221	-0.51102	-0.21782	0.07602	-0.50631	-1.00529	-0.36118	-0.13914	-0.17835	-0.39591	0.84288	0.15712	32	32	32	32	32
-1.62060	-0.58581	-0.43952	-0.60107	-0.16575	0.48467	-0.39298	-0.63268	-0.36118	-0.13914	-0.17835	-0.39591	0.69172	0.30828	32	32	32	32	32
-0.97372	-0.58137	-0.59822	-0.80337	-0.17000	1.17629	-0.15690	0.37183	-0.36118	-0.13914	-0.17835	-0.39591	0.44060	0.55940	32	32	32	32	32
-0.65892	-0.57742	-0.56454	-0.90446	-0.22211	1.33846	-0.08580	0.90409	-0.36118	-0.13914	-0.17835	-0.39591	0.52672	0.47328	65	32	32	32	32
-0.68199	-0.56498	-0.52731	-0.52305	-0.12062	1.33124	0.09293	0.94076	-0.36118	-0.13914	-0.17835	-0.39591	0.19147	0.80853	66	32	32	32	32
-0.34292	-0.49651	-0.20161	-0.50613	0.10959	0.76452	-0.07080	0.68451	-0.36118	-0.13914	-0.17835	-0.39591	0.19855	0.80145	32	32	32	32	32
-0.07488	-0.52372	-0.11605	-0.40547	0.27672	0.49149	-0.16168	0.60208	-0.36118	-0.13914	-0.17835	-0.39591	0.47125	0.52875	32	32	32	32	32
-0.00727	-0.55889	-0.22212	-0.36069	0.32628	0.41812	-0.18039	0.45874	-0.36118	-0.13914	-0.17835	-0.39591	0.53572	0.46428	66	32	32	32	32
0.21963	-0.57898	-0.19283	-0.20646	0.43839	0.31094	-0.11296	0.67823	-0.36118	-0.13914	-0.17835	-0.39591	0.87601	0.12399	65	32	32	32	32
0.30634	-0.58016	-0.33255	0.15937	0.49753	0.27280	-0.05632	0.63213	-0.36118	-0.13914	-0.17835	-0.39591	0.94841	0.05159	32	32	32	32	32
0.31318	-0.56143	-0.41794	0.33528	0.52715	0.27224	-0.03876	0.68352	-0.36118	-0.13914	-0.17835	-0.39591	0.97943	0.02057	65	32	32	32	32
0.32955	-0.42019	-0.33794	0.41460	0.52175	0.34257	0.04102	0.67745	-0.36118	-0.13914	-0.17835	-0.39591	0.94646	0.05354	32	32	32	32	32
0.43632	-0.19871	-0.37934	0.34664	0.48618	0.43036	0.15255	0.73489	-0.36118	-0.13914	-0.17835	-0.39591	0.71860	0.28140	32	32	32	32	32
0.56676	0.22111	-0.37135	0.22764	0.44591	0.60265	0.22815	0.77104	-0.36118	-0.13914	-0.17835	-0.39591	0.51199	0.48801	32	32	32	32	32
0.62197	0.42625	-0.33714	0.17724	0.53205	0.52274	0.40337	0.59845	-0.36118	-0.13914	-0.17835	-0.39591	0.25415	0.74585	66	32	32	32	32
0.71097	0.52405	-0.30529	0.39485	0.44409	0.60359	0.21161	0.65637	-0.36118	-0.13914	-0.17835	-0.39591	0.45852	0.54148	32	32	32	32	32
0.89235	0.52396	-0.19412	0.61792	0.54723	0.43847	0.25872	0.48222	-0.36118	-0.13914	-0.17835	-0.39591	0.65395	0.34605	32	32	32	32	32
0.91822	0.60926	-0.21259	0.76511	0.57168	0.30611	0.23920	0.40895	-0.36118	-0.13914	-0.17835	-0.39591	0.77571	0.22429	32	32	32	32	32
1.05090	0.60180	-0.17355	0.81827	0.66318	0.14714	0.32027	0.36938	-0.36118	-0.13914	-0.17835	-0.39591	0.84966	0.15034	32	32	32	32	32
1.01315	0.77156	-0.07652	0.97226	0.64284	-0.15569	0.37970	0.47267	-0.36118	-0.13914	-0.17835	-0.39591	0.85082	0.14918	65	32	32	32	32
1.03530	0.84106	0.35856	1.23196	0.65170	-0.12601	0.36587	0.42548	-0.36118	-0.13914	-0.17835	-0.39591	0.68199	0.31801	65	32	32	32	32
1.05172	0.68329	0.53645	1.45880	0.68302	-0.19553	0.28314	0.32576	-0.36118	-0.13914	-0.17835	-0.39591	0.42893	0.57107	32	32	32	32	32
1.15389	0.48760	0.51644	1.72663	0.74949	-0.28688	0.24247	0.20591	-0.36118	-0.13914	-0.17835	-0.39591	0.33053	0.66947	66	32	32	32	32
-1.86741	-0.58627	-0.95605	-0.49885	-1.97841	-2.85275	-1.08312	-1.02900	-0.36118	-0.13914	-0.17835	-0.39591	0.60329	0.39671	65	32	32	32	32
-1.86894	-0.58627	-0.99939	-0.49885	-2.29621	-2.31657	-1.07093	-1.02900	-0.36118	-0.13914	-0.17835	-0.39591	0.56327	0.43673	65	32	32	32	32
-1.86903	-0.58627	-1.17868	-0.49885	-2.17820	-1.63250	-1.00116	-1.02900	-0.36118	-0.13914	-0.17835	-0.39591	0.30840	0.69160	66	32	32	32	32
-1.86770	-0.58627	-1.28625	-0.49885	-1.71073	-1.27715	-0.92184	-1.02900	-0.36118	-0.13914	-0.17835	-0.39591	0.60835	0.39165	32	32	32	32	32
-1.87082	-0.58627	-1.29453	-0.49885	-1.29314	-1.11552	-0.86198	-1.02900	-0.36118	-0.13914	-0.17835	-0.39591	0.86507	0.13493	65	32	32	32	32
-1.87082	-0.58627	-1.38597	-0.49885	-1.39492	-0.71474	-0.89306	-1.02900	-0.36118	-0.13914	-0.17835	-0.39591	0.67626	0.32374	32	32	32	32	32
-1.87083	-0.58627	-1.39880	-0.49885	-1.51000	-0.32385	-0.98506	-1.02900	-0.36118	-0.13914	-0.17835	-0.39591	0.54256	0.45744	66	32	32	32	32
-1.87082	-0.58627	-1.38066	-0.49885	-1.11442	-0.28904	-0.92876	-1.02900	-0.36118	-0.13914	-0.17835	-0.39591	0.64745	0.35255	32	32	32	32	32
-1.87082	-0.58627	-1.21813	-0.49885	-0.92556	-0.01570	-0.97495	-1.02900	-0.36118	-0.13914	-0.17835	-0.39591	0.76920	0.23080	65	32	32	32	32
-1.87082	-0.58627	-1.13101	-0.49886	-0.50176	-0.19890	-0.95390	-1.02900	-0.36118	-0.13914	-0.17835	-0.39591	0.72789	0.27211	65	32	32	32	32
-1.87082	-0.58627	-1.03650	-0.49927	-0.33699	-0.13184	-0.79264	-1.02900	-0.36118	-0.13914	-0.17835	-0.39591	0.68410	0.31590	65	32	32	32	32
