<?xml version="1.0" encoding="UTF-8"?>
<PMML version="4.2" xmlns="http://www.dmg.org/PMML-4_2">
  <Header copyright="MMarzo">
    <Application name="KNIME" version="3.7.2"/>
  </Header>
  <DataDictionary numberOfFields="3">
    <DataField dataType="double" name="MATS1e" optype="continuous">
      <Interval closure="closedClosed" leftMargin="0.0" rightMargin="1.0"/>
    </DataField>
    <DataField dataType="double" name="SsOH" optype="continuous">
      <Interval closure="closedClosed" leftMargin="0.0" rightMargin="1.0"/>
    </DataField>
    <DataField dataType="string" name="Target" optype="categorical">
      <Value value="1"/>
      <Value value="0"/>
    </DataField>
  </DataDictionary>
  <MiningModel functionName="classification">
    <MiningSchema>
      <MiningField invalidValueTreatment="asIs" name="Target" usageType="target" highValue="0.0" lowValue="0.0"/>
      <MiningField invalidValueTreatment="asIs" name="MATS1e" highValue="0.0" lowValue="0.0"/>
      <MiningField invalidValueTreatment="asIs" name="SsOH" highValue="0.0" lowValue="0.0"/>
    </MiningSchema>
    <Segmentation multipleModelMethod="majorityVote">
      <Segment>
        <True/>
        <TreeModel functionName="classification" missingValueStrategy="none" modelName="DecisionTree" noTrueChildStrategy="returnLastPrediction" splitCharacteristic="binarySplit">
          <MiningSchema>
            <MiningField invalidValueTreatment="asIs" name="MATS1e"/>
            <MiningField invalidValueTreatment="asIs" name="SsOH"/>
            <MiningField invalidValueTreatment="asIs" name="Target" usageType="target"/>
          </MiningSchema>
          <Node id="0" recordCount="1.0" score="0">
            <True/>
            <ScoreDistribution recordCount="0.0" value="1"/>
            <ScoreDistribution recordCount="1.0" value="0"/>
            <Node id="1" recordCount="1.0" score="0">
              <CompoundPredicate booleanOperator="or">
                <SimplePredicate field="SsOH" operator="lessOrEqual" value="0.2520299404859543"/>
                <SimplePredicate field="SsOH" operator="isMissing"/>
              </CompoundPredicate>
              <ScoreDistribution recordCount="0.0" value="1"/>
              <ScoreDistribution recordCount="1.0" value="0"/>
              <Node id="2" recordCount="1.0" score="0">
                <SimplePredicate field="MATS1e" operator="lessOrEqual" value="0.3919803649187088"/>
                <ScoreDistribution recordCount="0.0" value="1"/>
                <ScoreDistribution recordCount="1.0" value="0"/>
                <Node id="3" recordCount="1.0" score="0">
                  <CompoundPredicate booleanOperator="or">
                    <SimplePredicate field="MATS1e" operator="lessOrEqual" value="0.3862520456314087"/>
                    <SimplePredicate field="MATS1e" operator="isMissing"/>
                  </CompoundPredicate>
                  <ScoreDistribution recordCount="0.0" value="1"/>
                  <ScoreDistribution recordCount="1.0" value="0"/>
                  <Node id="4" recordCount="1.0" score="0">
                    <SimplePredicate field="MATS1e" operator="lessOrEqual" value="0.17103110253810883"/>
                    <ScoreDistribution recordCount="0.0" value="1"/>
                    <ScoreDistribution recordCount="1.0" value="0"/>
                  </Node>
                  <Node id="5" recordCount="1.0" score="0">
                    <CompoundPredicate booleanOperator="or">
                      <SimplePredicate field="MATS1e" operator="greaterThan" value="0.17103110253810883"/>
                      <SimplePredicate field="MATS1e" operator="isMissing"/>
                    </CompoundPredicate>
                    <ScoreDistribution recordCount="0.0" value="1"/>
                    <ScoreDistribution recordCount="1.0" value="0"/>
                    <Node id="6" recordCount="1.0" score="1">
                      <CompoundPredicate booleanOperator="or">
                        <SimplePredicate field="MATS1e" operator="lessOrEqual" value="0.321603924036026"/>
                        <SimplePredicate field="MATS1e" operator="isMissing"/>
                      </CompoundPredicate>
                      <ScoreDistribution recordCount="1.0" value="1"/>
                      <ScoreDistribution recordCount="0.0" value="0"/>
                      <Node id="7" recordCount="1.0" score="1">
                        <CompoundPredicate booleanOperator="or">
                          <SimplePredicate field="SsOH" operator="lessOrEqual" value="0.21094932407140732"/>
                          <SimplePredicate field="SsOH" operator="isMissing"/>
                        </CompoundPredicate>
                        <ScoreDistribution recordCount="1.0" value="1"/>
                        <ScoreDistribution recordCount="0.0" value="0"/>
                        <Node id="8" recordCount="1.0" score="1">
                          <CompoundPredicate booleanOperator="or">
                            <SimplePredicate field="MATS1e" operator="lessOrEqual" value="0.30932897329330444"/>
                            <SimplePredicate field="MATS1e" operator="isMissing"/>
                          </CompoundPredicate>
                          <ScoreDistribution recordCount="1.0" value="1"/>
                          <ScoreDistribution recordCount="0.0" value="0"/>
                          <Node id="9" recordCount="1.0" score="1">
                            <SimplePredicate field="SsOH" operator="lessOrEqual" value="0.1049654558300972"/>
                            <ScoreDistribution recordCount="1.0" value="1"/>
                            <ScoreDistribution recordCount="0.0" value="0"/>
                            <Node id="10" recordCount="1.0" score="0">
                              <SimplePredicate field="MATS1e" operator="lessOrEqual" value="0.2487725019454956"/>
                              <ScoreDistribution recordCount="0.0" value="1"/>
                              <ScoreDistribution recordCount="1.0" value="0"/>
                            </Node>
                            <Node id="11" recordCount="1.0" score="1">
                              <CompoundPredicate booleanOperator="or">
                                <SimplePredicate field="MATS1e" operator="greaterThan" value="0.2487725019454956"/>
                                <SimplePredicate field="MATS1e" operator="isMissing"/>
                              </CompoundPredicate>
                              <ScoreDistribution recordCount="1.0" value="1"/>
                              <ScoreDistribution recordCount="0.0" value="0"/>
                            </Node>
                          </Node>
                          <Node id="12" recordCount="1.0" score="1">
                            <CompoundPredicate booleanOperator="or">
                              <SimplePredicate field="SsOH" operator="greaterThan" value="0.1049654558300972"/>
                              <SimplePredicate field="SsOH" operator="isMissing"/>
                            </CompoundPredicate>
                            <ScoreDistribution recordCount="1.0" value="1"/>
                            <ScoreDistribution recordCount="0.0" value="0"/>
                          </Node>
                        </Node>
                        <Node id="13" recordCount="1.0" score="1">
                          <SimplePredicate field="MATS1e" operator="greaterThan" value="0.30932897329330444"/>
                          <ScoreDistribution recordCount="1.0" value="1"/>
                          <ScoreDistribution recordCount="0.0" value="0"/>
                        </Node>
                      </Node>
                      <Node id="14" recordCount="1.0" score="0">
                        <SimplePredicate field="SsOH" operator="greaterThan" value="0.21094932407140732"/>
                        <ScoreDistribution recordCount="0.0" value="1"/>
                        <ScoreDistribution recordCount="1.0" value="0"/>
                        <Node id="15" recordCount="1.0" score="0">
                          <CompoundPredicate booleanOperator="or">
                            <SimplePredicate field="SsOH" operator="lessOrEqual" value="0.24490104615688324"/>
                            <SimplePredicate field="SsOH" operator="isMissing"/>
                          </CompoundPredicate>
                          <ScoreDistribution recordCount="0.0" value="1"/>
                          <ScoreDistribution recordCount="1.0" value="0"/>
                          <Node id="16" recordCount="1.0" score="0">
                            <SimplePredicate field="MATS1e" operator="lessOrEqual" value="0.26104746758937836"/>
                            <ScoreDistribution recordCount="0.0" value="1"/>
                            <ScoreDistribution recordCount="1.0" value="0"/>
                          </Node>
                          <Node id="17" recordCount="1.0" score="0">
                            <CompoundPredicate booleanOperator="or">
                              <SimplePredicate field="MATS1e" operator="greaterThan" value="0.26104746758937836"/>
                              <SimplePredicate field="MATS1e" operator="isMissing"/>
                            </CompoundPredicate>
                            <ScoreDistribution recordCount="0.0" value="1"/>
                            <ScoreDistribution recordCount="1.0" value="0"/>
                            <Node id="18" recordCount="1.0" score="1">
                              <SimplePredicate field="MATS1e" operator="lessOrEqual" value="0.27414076030254364"/>
                              <ScoreDistribution recordCount="1.0" value="1"/>
                              <ScoreDistribution recordCount="0.0" value="0"/>
                            </Node>
                            <Node id="19" recordCount="1.0" score="0">
                              <CompoundPredicate booleanOperator="or">
                                <SimplePredicate field="MATS1e" operator="greaterThan" value="0.27414076030254364"/>
                                <SimplePredicate field="MATS1e" operator="isMissing"/>
                              </CompoundPredicate>
                              <ScoreDistribution recordCount="0.0" value="1"/>
                              <ScoreDistribution recordCount="1.0" value="0"/>
                            </Node>
                          </Node>
                        </Node>
                        <Node id="20" recordCount="1.0" score="1">
                          <SimplePredicate field="SsOH" operator="greaterThan" value="0.24490104615688324"/>
                          <ScoreDistribution recordCount="1.0" value="1"/>
                          <ScoreDistribution recordCount="0.0" value="0"/>
                        </Node>
                      </Node>
                    </Node>
                    <Node id="21" recordCount="1.0" score="0">
                      <SimplePredicate field="MATS1e" operator="greaterThan" value="0.321603924036026"/>
                      <ScoreDistribution recordCount="0.0" value="1"/>
                      <ScoreDistribution recordCount="1.0" value="0"/>
                    </Node>
                  </Node>
                </Node>
                <Node id="22" recordCount="1.0" score="1">
                  <SimplePredicate field="MATS1e" operator="greaterThan" value="0.3862520456314087"/>
                  <ScoreDistribution recordCount="1.0" value="1"/>
                  <ScoreDistribution recordCount="0.0" value="0"/>
                </Node>
              </Node>
              <Node id="23" recordCount="1.0" score="0">
                <CompoundPredicate booleanOperator="or">
                  <SimplePredicate field="MATS1e" operator="greaterThan" value="0.3919803649187088"/>
                  <SimplePredicate field="MATS1e" operator="isMissing"/>
                </CompoundPredicate>
                <ScoreDistribution recordCount="0.0" value="1"/>
                <ScoreDistribution recordCount="1.0" value="0"/>
                <Node id="24" recordCount="1.0" score="0">
                  <CompoundPredicate booleanOperator="or">
                    <SimplePredicate field="SsOH" operator="lessOrEqual" value="0.11381465196609497"/>
                    <SimplePredicate field="SsOH" operator="isMissing"/>
                  </CompoundPredicate>
                  <ScoreDistribution recordCount="0.0" value="1"/>
                  <ScoreDistribution recordCount="1.0" value="0"/>
                </Node>
                <Node id="25" recordCount="1.0" score="0">
                  <SimplePredicate field="SsOH" operator="greaterThan" value="0.11381465196609497"/>
                  <ScoreDistribution recordCount="0.0" value="1"/>
                  <ScoreDistribution recordCount="1.0" value="0"/>
                </Node>
              </Node>
            </Node>
            <Node id="26" recordCount="1.0" score="1">
              <SimplePredicate field="SsOH" operator="greaterThan" value="0.2520299404859543"/>
              <ScoreDistribution recordCount="1.0" value="1"/>
              <ScoreDistribution recordCount="0.0" value="0"/>
              <Node id="27" recordCount="1.0" score="1">
                <CompoundPredicate booleanOperator="or">
                  <SimplePredicate field="MATS1e" operator="lessOrEqual" value="0.3617021143436432"/>
                  <SimplePredicate field="MATS1e" operator="isMissing"/>
                </CompoundPredicate>
                <ScoreDistribution recordCount="1.0" value="1"/>
                <ScoreDistribution recordCount="0.0" value="0"/>
                <Node id="28" recordCount="1.0" score="1">
                  <SimplePredicate field="MATS1e" operator="lessOrEqual" value="0.267594113945961"/>
                  <ScoreDistribution recordCount="1.0" value="1"/>
                  <ScoreDistribution recordCount="0.0" value="0"/>
                  <Node id="29" recordCount="1.0" score="0">
                    <CompoundPredicate booleanOperator="or">
                      <SimplePredicate field="SsOH" operator="lessOrEqual" value="0.3895020931959152"/>
                      <SimplePredicate field="SsOH" operator="isMissing"/>
                    </CompoundPredicate>
                    <ScoreDistribution recordCount="0.0" value="1"/>
                    <ScoreDistribution recordCount="1.0" value="0"/>
                    <Node id="30" recordCount="1.0" score="1">
                      <SimplePredicate field="MATS1e" operator="lessOrEqual" value="0.2078559771180153"/>
                      <ScoreDistribution recordCount="1.0" value="1"/>
                      <ScoreDistribution recordCount="0.0" value="0"/>
                    </Node>
                    <Node id="31" recordCount="1.0" score="0">
                      <CompoundPredicate booleanOperator="or">
                        <SimplePredicate field="MATS1e" operator="greaterThan" value="0.2078559771180153"/>
                        <SimplePredicate field="MATS1e" operator="isMissing"/>
                      </CompoundPredicate>
                      <ScoreDistribution recordCount="0.0" value="1"/>
                      <ScoreDistribution recordCount="1.0" value="0"/>
                    </Node>
                  </Node>
                  <Node id="32" recordCount="1.0" score="1">
                    <SimplePredicate field="SsOH" operator="greaterThan" value="0.3895020931959152"/>
                    <ScoreDistribution recordCount="1.0" value="1"/>
                    <ScoreDistribution recordCount="0.0" value="0"/>
                  </Node>
                </Node>
                <Node id="33" recordCount="1.0" score="1">
                  <CompoundPredicate booleanOperator="or">
                    <SimplePredicate field="MATS1e" operator="greaterThan" value="0.267594113945961"/>
                    <SimplePredicate field="MATS1e" operator="isMissing"/>
                  </CompoundPredicate>
                  <ScoreDistribution recordCount="1.0" value="1"/>
                  <ScoreDistribution recordCount="0.0" value="0"/>
                  <Node id="34" recordCount="1.0" score="1">
                    <SimplePredicate field="SsOH" operator="lessOrEqual" value="0.25925517082214355"/>
                    <ScoreDistribution recordCount="1.0" value="1"/>
                    <ScoreDistribution recordCount="0.0" value="0"/>
                  </Node>
                  <Node id="35" recordCount="1.0" score="1">
                    <CompoundPredicate booleanOperator="or">
                      <SimplePredicate field="SsOH" operator="greaterThan" value="0.25925517082214355"/>
                      <SimplePredicate field="SsOH" operator="isMissing"/>
                    </CompoundPredicate>
                    <ScoreDistribution recordCount="1.0" value="1"/>
                    <ScoreDistribution recordCount="0.0" value="0"/>
                    <Node id="36" recordCount="1.0" score="0">
                      <SimplePredicate field="SsOH" operator="lessOrEqual" value="0.2610030025243759"/>
                      <ScoreDistribution recordCount="0.0" value="1"/>
                      <ScoreDistribution recordCount="1.0" value="0"/>
                    </Node>
                    <Node id="37" recordCount="1.0" score="1">
                      <CompoundPredicate booleanOperator="or">
                        <SimplePredicate field="SsOH" operator="greaterThan" value="0.2610030025243759"/>
                        <SimplePredicate field="SsOH" operator="isMissing"/>
                      </CompoundPredicate>
                      <ScoreDistribution recordCount="1.0" value="1"/>
                      <ScoreDistribution recordCount="0.0" value="0"/>
                      <Node id="38" recordCount="1.0" score="1">
                        <CompoundPredicate booleanOperator="or">
                          <SimplePredicate field="MATS1e" operator="lessOrEqual" value="0.35270048677921295"/>
                          <SimplePredicate field="MATS1e" operator="isMissing"/>
                        </CompoundPredicate>
                        <ScoreDistribution recordCount="1.0" value="1"/>
                        <ScoreDistribution recordCount="0.0" value="0"/>
                        <Node id="39" recordCount="1.0" score="1">
                          <CompoundPredicate booleanOperator="or">
                            <SimplePredicate field="SsOH" operator="lessOrEqual" value="0.3960942476987839"/>
                            <SimplePredicate field="SsOH" operator="isMissing"/>
                          </CompoundPredicate>
                          <ScoreDistribution recordCount="1.0" value="1"/>
                          <ScoreDistribution recordCount="0.0" value="0"/>
                        </Node>
                        <Node id="40" recordCount="1.0" score="1">
                          <SimplePredicate field="SsOH" operator="greaterThan" value="0.3960942476987839"/>
                          <ScoreDistribution recordCount="1.0" value="1"/>
                          <ScoreDistribution recordCount="0.0" value="0"/>
                          <Node id="41" recordCount="1.0" score="1">
                            <SimplePredicate field="MATS1e" operator="lessOrEqual" value="0.3019639849662781"/>
                            <ScoreDistribution recordCount="1.0" value="1"/>
                            <ScoreDistribution recordCount="0.0" value="0"/>
                          </Node>
                          <Node id="42" recordCount="1.0" score="1">
                            <CompoundPredicate booleanOperator="or">
                              <SimplePredicate field="MATS1e" operator="greaterThan" value="0.3019639849662781"/>
                              <SimplePredicate field="MATS1e" operator="isMissing"/>
                            </CompoundPredicate>
                            <ScoreDistribution recordCount="1.0" value="1"/>
                            <ScoreDistribution recordCount="0.0" value="0"/>
                          </Node>
                        </Node>
                      </Node>
                      <Node id="43" recordCount="1.0" score="1">
                        <SimplePredicate field="MATS1e" operator="greaterThan" value="0.35270048677921295"/>
                        <ScoreDistribution recordCount="1.0" value="1"/>
                        <ScoreDistribution recordCount="0.0" value="0"/>
                      </Node>
                    </Node>
                  </Node>
                </Node>
              </Node>
              <Node id="44" recordCount="1.0" score="0">
                <SimplePredicate field="MATS1e" operator="greaterThan" value="0.3617021143436432"/>
                <ScoreDistribution recordCount="0.0" value="1"/>
                <ScoreDistribution recordCount="1.0" value="0"/>
              </Node>
            </Node>
          </Node>
        </TreeModel>
      </Segment>
      <Segment>
        <True/>
        <TreeModel functionName="classification" missingValueStrategy="none" modelName="DecisionTree" noTrueChildStrategy="returnLastPrediction" splitCharacteristic="binarySplit">
          <MiningSchema>
            <MiningField invalidValueTreatment="asIs" name="MATS1e"/>
            <MiningField invalidValueTreatment="asIs" name="SsOH"/>
            <MiningField invalidValueTreatment="asIs" name="Target" usageType="target"/>
          </MiningSchema>
          <Node id="0" recordCount="1.0" score="0">
            <True/>
            <ScoreDistribution recordCount="0.0" value="1"/>
            <ScoreDistribution recordCount="1.0" value="0"/>
            <Node id="1" recordCount="1.0" score="0">
              <CompoundPredicate booleanOperator="or">
                <SimplePredicate field="SsOH" operator="lessOrEqual" value="0.2520299404859543"/>
                <SimplePredicate field="SsOH" operator="isMissing"/>
              </CompoundPredicate>
              <ScoreDistribution recordCount="0.0" value="1"/>
              <ScoreDistribution recordCount="1.0" value="0"/>
              <Node id="2" recordCount="1.0" score="1">
                <SimplePredicate field="MATS1e" operator="lessOrEqual" value="0.25286415964365005"/>
                <ScoreDistribution recordCount="1.0" value="1"/>
                <ScoreDistribution recordCount="0.0" value="0"/>
                <Node id="3" recordCount="1.0" score="0">
                  <SimplePredicate field="MATS1e" operator="lessOrEqual" value="0.17266776412725449"/>
                  <ScoreDistribution recordCount="0.0" value="1"/>
                  <ScoreDistribution recordCount="1.0" value="0"/>
                  <Node id="4" recordCount="1.0" score="1">
                    <SimplePredicate field="MATS1e" operator="lessOrEqual" value="0.08756137266755104"/>
                    <ScoreDistribution recordCount="1.0" value="1"/>
                    <ScoreDistribution recordCount="0.0" value="0"/>
                  </Node>
                  <Node id="5" recordCount="1.0" score="0">
                    <CompoundPredicate booleanOperator="or">
                      <SimplePredicate field="MATS1e" operator="greaterThan" value="0.08756137266755104"/>
                      <SimplePredicate field="MATS1e" operator="isMissing"/>
                    </CompoundPredicate>
                    <ScoreDistribution recordCount="0.0" value="1"/>
                    <ScoreDistribution recordCount="1.0" value="0"/>
                  </Node>
                </Node>
                <Node id="6" recordCount="1.0" score="1">
                  <CompoundPredicate booleanOperator="or">
                    <SimplePredicate field="MATS1e" operator="greaterThan" value="0.17266776412725449"/>
                    <SimplePredicate field="MATS1e" operator="isMissing"/>
                  </CompoundPredicate>
                  <ScoreDistribution recordCount="1.0" value="1"/>
                  <ScoreDistribution recordCount="0.0" value="0"/>
                </Node>
              </Node>
              <Node id="7" recordCount="1.0" score="0">
                <CompoundPredicate booleanOperator="or">
                  <SimplePredicate field="MATS1e" operator="greaterThan" value="0.25286415964365005"/>
                  <SimplePredicate field="MATS1e" operator="isMissing"/>
                </CompoundPredicate>
                <ScoreDistribution recordCount="0.0" value="1"/>
                <ScoreDistribution recordCount="1.0" value="0"/>
                <Node id="8" recordCount="1.0" score="0">
                  <CompoundPredicate booleanOperator="or">
                    <SimplePredicate field="SsOH" operator="lessOrEqual" value="0.24373125284910202"/>
                    <SimplePredicate field="SsOH" operator="isMissing"/>
                  </CompoundPredicate>
                  <ScoreDistribution recordCount="0.0" value="1"/>
                  <ScoreDistribution recordCount="1.0" value="0"/>
                  <Node id="9" recordCount="1.0" score="0">
                    <CompoundPredicate booleanOperator="or">
                      <SimplePredicate field="SsOH" operator="lessOrEqual" value="0.1049654558300972"/>
                      <SimplePredicate field="SsOH" operator="isMissing"/>
                    </CompoundPredicate>
                    <ScoreDistribution recordCount="0.0" value="1"/>
                    <ScoreDistribution recordCount="1.0" value="0"/>
                    <Node id="10" recordCount="1.0" score="1">
                      <SimplePredicate field="MATS1e" operator="lessOrEqual" value="0.3977086842060089"/>
                      <ScoreDistribution recordCount="1.0" value="1"/>
                      <ScoreDistribution recordCount="0.0" value="0"/>
                    </Node>
                    <Node id="11" recordCount="1.0" score="0">
                      <CompoundPredicate booleanOperator="or">
                        <SimplePredicate field="MATS1e" operator="greaterThan" value="0.3977086842060089"/>
                        <SimplePredicate field="MATS1e" operator="isMissing"/>
                      </CompoundPredicate>
                      <ScoreDistribution recordCount="0.0" value="1"/>
                      <ScoreDistribution recordCount="1.0" value="0"/>
                    </Node>
                  </Node>
                  <Node id="12" recordCount="1.0" score="0">
                    <SimplePredicate field="SsOH" operator="greaterThan" value="0.1049654558300972"/>
                    <ScoreDistribution recordCount="0.0" value="1"/>
                    <ScoreDistribution recordCount="1.0" value="0"/>
                  </Node>
                </Node>
                <Node id="13" recordCount="1.0" score="0">
                  <SimplePredicate field="SsOH" operator="greaterThan" value="0.24373125284910202"/>
                  <ScoreDistribution recordCount="0.0" value="1"/>
                  <ScoreDistribution recordCount="1.0" value="0"/>
                  <Node id="14" recordCount="1.0" score="1">
                    <SimplePredicate field="SsOH" operator="lessOrEqual" value="0.2471856027841568"/>
                    <ScoreDistribution recordCount="1.0" value="1"/>
                    <ScoreDistribution recordCount="0.0" value="0"/>
                  </Node>
                  <Node id="15" recordCount="1.0" score="0">
                    <CompoundPredicate booleanOperator="or">
                      <SimplePredicate field="SsOH" operator="greaterThan" value="0.2471856027841568"/>
                      <SimplePredicate field="SsOH" operator="isMissing"/>
                    </CompoundPredicate>
                    <ScoreDistribution recordCount="0.0" value="1"/>
                    <ScoreDistribution recordCount="1.0" value="0"/>
                  </Node>
                </Node>
              </Node>
            </Node>
            <Node id="16" recordCount="1.0" score="1">
              <SimplePredicate field="SsOH" operator="greaterThan" value="0.2520299404859543"/>
              <ScoreDistribution recordCount="1.0" value="1"/>
              <ScoreDistribution recordCount="0.0" value="0"/>
              <Node id="17" recordCount="1.0" score="1">
                <CompoundPredicate booleanOperator="or">
                  <SimplePredicate field="MATS1e" operator="lessOrEqual" value="0.3617021143436432"/>
                  <SimplePredicate field="MATS1e" operator="isMissing"/>
                </CompoundPredicate>
                <ScoreDistribution recordCount="1.0" value="1"/>
                <ScoreDistribution recordCount="0.0" value="0"/>
                <Node id="18" recordCount="1.0" score="1">
                  <SimplePredicate field="MATS1e" operator="lessOrEqual" value="0.2602291405200958"/>
                  <ScoreDistribution recordCount="1.0" value="1"/>
                  <ScoreDistribution recordCount="0.0" value="0"/>
                </Node>
                <Node id="19" recordCount="1.0" score="1">
                  <CompoundPredicate booleanOperator="or">
                    <SimplePredicate field="MATS1e" operator="greaterThan" value="0.2602291405200958"/>
                    <SimplePredicate field="MATS1e" operator="isMissing"/>
                  </CompoundPredicate>
                  <ScoreDistribution recordCount="1.0" value="1"/>
                  <ScoreDistribution recordCount="0.0" value="0"/>
                  <Node id="20" recordCount="1.0" score="0">
                    <SimplePredicate field="MATS1e" operator="lessOrEqual" value="0.267594113945961"/>
                    <ScoreDistribution recordCount="0.0" value="1"/>
                    <ScoreDistribution recordCount="1.0" value="0"/>
                  </Node>
                  <Node id="21" recordCount="1.0" score="1">
                    <CompoundPredicate booleanOperator="or">
                      <SimplePredicate field="MATS1e" operator="greaterThan" value="0.267594113945961"/>
                      <SimplePredicate field="MATS1e" operator="isMissing"/>
                    </CompoundPredicate>
                    <ScoreDistribution recordCount="1.0" value="1"/>
                    <ScoreDistribution recordCount="0.0" value="0"/>
                    <Node id="22" recordCount="1.0" score="1">
                      <CompoundPredicate booleanOperator="or">
                        <SimplePredicate field="SsOH" operator="lessOrEqual" value="0.2655996233224869"/>
                        <SimplePredicate field="SsOH" operator="isMissing"/>
                      </CompoundPredicate>
                      <ScoreDistribution recordCount="1.0" value="1"/>
                      <ScoreDistribution recordCount="0.0" value="0"/>
                      <Node id="23" recordCount="1.0" score="1">
                        <SimplePredicate field="SsOH" operator="lessOrEqual" value="0.2611543834209442"/>
                        <ScoreDistribution recordCount="1.0" value="1"/>
                        <ScoreDistribution recordCount="0.0" value="0"/>
                        <Node id="24" recordCount="1.0" score="1">
                          <SimplePredicate field="MATS1e" operator="lessOrEqual" value="0.3346972167491913"/>
                          <ScoreDistribution recordCount="1.0" value="1"/>
                          <ScoreDistribution recordCount="0.0" value="0"/>
                        </Node>
                        <Node id="25" recordCount="1.0" score="1">
                          <CompoundPredicate booleanOperator="or">
                            <SimplePredicate field="MATS1e" operator="greaterThan" value="0.3346972167491913"/>
                            <SimplePredicate field="MATS1e" operator="isMissing"/>
                          </CompoundPredicate>
                          <ScoreDistribution recordCount="1.0" value="1"/>
                          <ScoreDistribution recordCount="0.0" value="0"/>
                        </Node>
                      </Node>
                      <Node id="26" recordCount="1.0" score="1">
                        <CompoundPredicate booleanOperator="or">
                          <SimplePredicate field="SsOH" operator="greaterThan" value="0.2611543834209442"/>
                          <SimplePredicate field="SsOH" operator="isMissing"/>
                        </CompoundPredicate>
                        <ScoreDistribution recordCount="1.0" value="1"/>
                        <ScoreDistribution recordCount="0.0" value="0"/>
                      </Node>
                    </Node>
                    <Node id="27" recordCount="1.0" score="1">
                      <SimplePredicate field="SsOH" operator="greaterThan" value="0.2655996233224869"/>
                      <ScoreDistribution recordCount="1.0" value="1"/>
                      <ScoreDistribution recordCount="0.0" value="0"/>
                      <Node id="28" recordCount="1.0" score="1">
                        <CompoundPredicate booleanOperator="or">
                          <SimplePredicate field="SsOH" operator="lessOrEqual" value="0.5291761755943298"/>
                          <SimplePredicate field="SsOH" operator="isMissing"/>
                        </CompoundPredicate>
                        <ScoreDistribution recordCount="1.0" value="1"/>
                        <ScoreDistribution recordCount="0.0" value="0"/>
                        <Node id="29" recordCount="1.0" score="1">
                          <CompoundPredicate booleanOperator="or">
                            <SimplePredicate field="SsOH" operator="lessOrEqual" value="0.3999064117670059"/>
                            <SimplePredicate field="SsOH" operator="isMissing"/>
                          </CompoundPredicate>
                          <ScoreDistribution recordCount="1.0" value="1"/>
                          <ScoreDistribution recordCount="0.0" value="0"/>
                          <Node id="30" recordCount="1.0" score="1">
                            <CompoundPredicate booleanOperator="or">
                              <SimplePredicate field="MATS1e" operator="lessOrEqual" value="0.3510638326406479"/>
                              <SimplePredicate field="MATS1e" operator="isMissing"/>
                            </CompoundPredicate>
                            <ScoreDistribution recordCount="1.0" value="1"/>
                            <ScoreDistribution recordCount="0.0" value="0"/>
                          </Node>
                          <Node id="31" recordCount="1.0" score="0">
                            <SimplePredicate field="MATS1e" operator="greaterThan" value="0.3510638326406479"/>
                            <ScoreDistribution recordCount="0.0" value="1"/>
                            <ScoreDistribution recordCount="1.0" value="0"/>
                          </Node>
                        </Node>
                        <Node id="32" recordCount="1.0" score="0">
                          <SimplePredicate field="SsOH" operator="greaterThan" value="0.3999064117670059"/>
                          <ScoreDistribution recordCount="0.0" value="1"/>
                          <ScoreDistribution recordCount="1.0" value="0"/>
                        </Node>
                      </Node>
                      <Node id="33" recordCount="1.0" score="1">
                        <SimplePredicate field="SsOH" operator="greaterThan" value="0.5291761755943298"/>
                        <ScoreDistribution recordCount="1.0" value="1"/>
                        <ScoreDistribution recordCount="0.0" value="0"/>
                      </Node>
                    </Node>
                  </Node>
                </Node>
              </Node>
              <Node id="34" recordCount="1.0" score="0">
                <SimplePredicate field="MATS1e" operator="greaterThan" value="0.3617021143436432"/>
                <ScoreDistribution recordCount="0.0" value="1"/>
                <ScoreDistribution recordCount="1.0" value="0"/>
              </Node>
            </Node>
          </Node>
        </TreeModel>
      </Segment>
      <Segment>
        <True/>
        <TreeModel functionName="classification" missingValueStrategy="none" modelName="DecisionTree" noTrueChildStrategy="returnLastPrediction" splitCharacteristic="binarySplit">
          <MiningSchema>
            <MiningField invalidValueTreatment="asIs" name="MATS1e"/>
            <MiningField invalidValueTreatment="asIs" name="SsOH"/>
            <MiningField invalidValueTreatment="asIs" name="Target" usageType="target"/>
          </MiningSchema>
          <Node id="0" recordCount="1.0" score="0">
            <True/>
            <ScoreDistribution recordCount="0.0" value="1"/>
            <ScoreDistribution recordCount="1.0" value="0"/>
            <Node id="1" recordCount="1.0" score="1">
              <CompoundPredicate booleanOperator="or">
                <SimplePredicate field="MATS1e" operator="lessOrEqual" value="0.3919803649187088"/>
                <SimplePredicate field="MATS1e" operator="isMissing"/>
              </CompoundPredicate>
              <ScoreDistribution recordCount="1.0" value="1"/>
              <ScoreDistribution recordCount="0.0" value="0"/>
              <Node id="2" recordCount="1.0" score="0">
                <CompoundPredicate booleanOperator="or">
                  <SimplePredicate field="SsOH" operator="lessOrEqual" value="0.2520299404859543"/>
                  <SimplePredicate field="SsOH" operator="isMissing"/>
                </CompoundPredicate>
                <ScoreDistribution recordCount="0.0" value="1"/>
                <ScoreDistribution recordCount="1.0" value="0"/>
                <Node id="3" recordCount="1.0" score="1">
                  <CompoundPredicate booleanOperator="or">
                    <SimplePredicate field="SsOH" operator="lessOrEqual" value="0.21667446941137314"/>
                    <SimplePredicate field="SsOH" operator="isMissing"/>
                  </CompoundPredicate>
                  <ScoreDistribution recordCount="1.0" value="1"/>
                  <ScoreDistribution recordCount="0.0" value="0"/>
                  <Node id="4" recordCount="1.0" score="0">
                    <SimplePredicate field="MATS1e" operator="lessOrEqual" value="0.07937806844711304"/>
                    <ScoreDistribution recordCount="0.0" value="1"/>
                    <ScoreDistribution recordCount="1.0" value="0"/>
                  </Node>
                  <Node id="5" recordCount="1.0" score="1">
                    <CompoundPredicate booleanOperator="or">
                      <SimplePredicate field="MATS1e" operator="greaterThan" value="0.07937806844711304"/>
                      <SimplePredicate field="MATS1e" operator="isMissing"/>
                    </CompoundPredicate>
                    <ScoreDistribution recordCount="1.0" value="1"/>
                    <ScoreDistribution recordCount="0.0" value="0"/>
                    <Node id="6" recordCount="1.0" score="1">
                      <SimplePredicate field="MATS1e" operator="lessOrEqual" value="0.2405892014503479"/>
                      <ScoreDistribution recordCount="1.0" value="1"/>
                      <ScoreDistribution recordCount="0.0" value="0"/>
                      <Node id="7" recordCount="1.0" score="0">
                        <SimplePredicate field="SsOH" operator="lessOrEqual" value="0.10287357866764069"/>
                        <ScoreDistribution recordCount="0.0" value="1"/>
                        <ScoreDistribution recordCount="1.0" value="0"/>
                      </Node>
                      <Node id="8" recordCount="1.0" score="1">
                        <CompoundPredicate booleanOperator="or">
                          <SimplePredicate field="SsOH" operator="greaterThan" value="0.10287357866764069"/>
                          <SimplePredicate field="SsOH" operator="isMissing"/>
                        </CompoundPredicate>
                        <ScoreDistribution recordCount="1.0" value="1"/>
                        <ScoreDistribution recordCount="0.0" value="0"/>
                      </Node>
                    </Node>
                    <Node id="9" recordCount="1.0" score="1">
                      <CompoundPredicate booleanOperator="or">
                        <SimplePredicate field="MATS1e" operator="greaterThan" value="0.2405892014503479"/>
                        <SimplePredicate field="MATS1e" operator="isMissing"/>
                      </CompoundPredicate>
                      <ScoreDistribution recordCount="1.0" value="1"/>
                      <ScoreDistribution recordCount="0.0" value="0"/>
                      <Node id="10" recordCount="1.0" score="1">
                        <SimplePredicate field="MATS1e" operator="lessOrEqual" value="0.28232406079769135"/>
                        <ScoreDistribution recordCount="1.0" value="1"/>
                        <ScoreDistribution recordCount="0.0" value="0"/>
                      </Node>
                      <Node id="11" recordCount="1.0" score="1">
                        <CompoundPredicate booleanOperator="or">
                          <SimplePredicate field="MATS1e" operator="greaterThan" value="0.28232406079769135"/>
                          <SimplePredicate field="MATS1e" operator="isMissing"/>
                        </CompoundPredicate>
                        <ScoreDistribution recordCount="1.0" value="1"/>
                        <ScoreDistribution recordCount="0.0" value="0"/>
                        <Node id="12" recordCount="1.0" score="1">
                          <CompoundPredicate booleanOperator="or">
                            <SimplePredicate field="SsOH" operator="lessOrEqual" value="0.21094932407140732"/>
                            <SimplePredicate field="SsOH" operator="isMissing"/>
                          </CompoundPredicate>
                          <ScoreDistribution recordCount="1.0" value="1"/>
                          <ScoreDistribution recordCount="0.0" value="0"/>
                          <Node id="13" recordCount="1.0" score="1">
                            <CompoundPredicate booleanOperator="or">
                              <SimplePredicate field="SsOH" operator="lessOrEqual" value="0.21002724766731262"/>
                              <SimplePredicate field="SsOH" operator="isMissing"/>
                            </CompoundPredicate>
                            <ScoreDistribution recordCount="1.0" value="1"/>
                            <ScoreDistribution recordCount="0.0" value="0"/>
                            <Node id="14" recordCount="1.0" score="0">
                              <SimplePredicate field="MATS1e" operator="lessOrEqual" value="0.36579377949237823"/>
                              <ScoreDistribution recordCount="0.0" value="1"/>
                              <ScoreDistribution recordCount="1.0" value="0"/>
                            </Node>
                            <Node id="15" recordCount="1.0" score="1">
                              <CompoundPredicate booleanOperator="or">
                                <SimplePredicate field="MATS1e" operator="greaterThan" value="0.36579377949237823"/>
                                <SimplePredicate field="MATS1e" operator="isMissing"/>
                              </CompoundPredicate>
                              <ScoreDistribution recordCount="1.0" value="1"/>
                              <ScoreDistribution recordCount="0.0" value="0"/>
                            </Node>
                          </Node>
                          <Node id="16" recordCount="1.0" score="1">
                            <SimplePredicate field="SsOH" operator="greaterThan" value="0.21002724766731262"/>
                            <ScoreDistribution recordCount="1.0" value="1"/>
                            <ScoreDistribution recordCount="0.0" value="0"/>
                          </Node>
                        </Node>
                        <Node id="17" recordCount="1.0" score="0">
                          <SimplePredicate field="SsOH" operator="greaterThan" value="0.21094932407140732"/>
                          <ScoreDistribution recordCount="0.0" value="1"/>
                          <ScoreDistribution recordCount="1.0" value="0"/>
                        </Node>
                      </Node>
                    </Node>
                  </Node>
                </Node>
                <Node id="18" recordCount="1.0" score="0">
                  <SimplePredicate field="SsOH" operator="greaterThan" value="0.21667446941137314"/>
                  <ScoreDistribution recordCount="0.0" value="1"/>
                  <ScoreDistribution recordCount="1.0" value="0"/>
                </Node>
              </Node>
              <Node id="19" recordCount="1.0" score="1">
                <SimplePredicate field="SsOH" operator="greaterThan" value="0.2520299404859543"/>
                <ScoreDistribution recordCount="1.0" value="1"/>
                <ScoreDistribution recordCount="0.0" value="0"/>
                <Node id="20" recordCount="1.0" score="1">
                  <CompoundPredicate booleanOperator="or">
                    <SimplePredicate field="SsOH" operator="lessOrEqual" value="0.881574958562851"/>
                    <SimplePredicate field="SsOH" operator="isMissing"/>
                  </CompoundPredicate>
                  <ScoreDistribution recordCount="1.0" value="1"/>
                  <ScoreDistribution recordCount="0.0" value="0"/>
                  <Node id="21" recordCount="1.0" score="1">
                    <CompoundPredicate booleanOperator="or">
                      <SimplePredicate field="MATS1e" operator="lessOrEqual" value="0.35270048677921295"/>
                      <SimplePredicate field="MATS1e" operator="isMissing"/>
                    </CompoundPredicate>
                    <ScoreDistribution recordCount="1.0" value="1"/>
                    <ScoreDistribution recordCount="0.0" value="0"/>
                    <Node id="22" recordCount="1.0" score="1">
                      <SimplePredicate field="SsOH" operator="lessOrEqual" value="0.26166360080242157"/>
                      <ScoreDistribution recordCount="1.0" value="1"/>
                      <ScoreDistribution recordCount="0.0" value="0"/>
                      <Node id="23" recordCount="1.0" score="1">
                        <CompoundPredicate booleanOperator="or">
                          <SimplePredicate field="SsOH" operator="lessOrEqual" value="0.2595441937446594"/>
                          <SimplePredicate field="SsOH" operator="isMissing"/>
                        </CompoundPredicate>
                        <ScoreDistribution recordCount="1.0" value="1"/>
                        <ScoreDistribution recordCount="0.0" value="0"/>
                      </Node>
                      <Node id="24" recordCount="1.0" score="0">
                        <SimplePredicate field="SsOH" operator="greaterThan" value="0.2595441937446594"/>
                        <ScoreDistribution recordCount="0.0" value="1"/>
                        <ScoreDistribution recordCount="1.0" value="0"/>
                      </Node>
                    </Node>
                    <Node id="25" recordCount="1.0" score="1">
                      <CompoundPredicate booleanOperator="or">
                        <SimplePredicate field="SsOH" operator="greaterThan" value="0.26166360080242157"/>
                        <SimplePredicate field="SsOH" operator="isMissing"/>
                      </CompoundPredicate>
                      <ScoreDistribution recordCount="1.0" value="1"/>
                      <ScoreDistribution recordCount="0.0" value="0"/>
                    </Node>
                  </Node>
                  <Node id="26" recordCount="1.0" score="0">
                    <SimplePredicate field="MATS1e" operator="greaterThan" value="0.35270048677921295"/>
                    <ScoreDistribution recordCount="0.0" value="1"/>
                    <ScoreDistribution recordCount="1.0" value="0"/>
                    <Node id="27" recordCount="1.0" score="0">
                      <CompoundPredicate booleanOperator="or">
                        <SimplePredicate field="MATS1e" operator="lessOrEqual" value="0.354337140917778"/>
                        <SimplePredicate field="MATS1e" operator="isMissing"/>
                      </CompoundPredicate>
                      <ScoreDistribution recordCount="0.0" value="1"/>
                      <ScoreDistribution recordCount="1.0" value="0"/>
                    </Node>
                    <Node id="28" recordCount="1.0" score="1">
                      <SimplePredicate field="MATS1e" operator="greaterThan" value="0.354337140917778"/>
                      <ScoreDistribution recordCount="1.0" value="1"/>
                      <ScoreDistribution recordCount="0.0" value="0"/>
                    </Node>
                  </Node>
                </Node>
                <Node id="29" recordCount="1.0" score="0">
                  <SimplePredicate field="SsOH" operator="greaterThan" value="0.881574958562851"/>
                  <ScoreDistribution recordCount="0.0" value="1"/>
                  <ScoreDistribution recordCount="1.0" value="0"/>
                </Node>
              </Node>
            </Node>
            <Node id="30" recordCount="1.0" score="0">
              <SimplePredicate field="MATS1e" operator="greaterThan" value="0.3919803649187088"/>
              <ScoreDistribution recordCount="0.0" value="1"/>
              <ScoreDistribution recordCount="1.0" value="0"/>
              <Node id="31" recordCount="1.0" score="0">
                <CompoundPredicate booleanOperator="or">
                  <SimplePredicate field="MATS1e" operator="lessOrEqual" value="0.821603924036026"/>
                  <SimplePredicate field="MATS1e" operator="isMissing"/>
                </CompoundPredicate>
                <ScoreDistribution recordCount="0.0" value="1"/>
                <ScoreDistribution recordCount="1.0" value="0"/>
              </Node>
              <Node id="32" recordCount="1.0" score="1">
                <SimplePredicate field="MATS1e" operator="greaterThan" value="0.821603924036026"/>
                <ScoreDistribution recordCount="1.0" value="1"/>
                <ScoreDistribution recordCount="0.0" value="0"/>
              </Node>
            </Node>
          </Node>
        </TreeModel>
      </Segment>
      <Segment>
        <True/>
        <TreeModel functionName="classification" missingValueStrategy="none" modelName="DecisionTree" noTrueChildStrategy="returnLastPrediction" splitCharacteristic="binarySplit">
          <MiningSchema>
            <MiningField invalidValueTreatment="asIs" name="MATS1e"/>
            <MiningField invalidValueTreatment="asIs" name="SsOH"/>
            <MiningField invalidValueTreatment="asIs" name="Target" usageType="target"/>
          </MiningSchema>
          <Node id="0" recordCount="1.0" score="0">
            <True/>
            <ScoreDistribution recordCount="0.0" value="1"/>
            <ScoreDistribution recordCount="1.0" value="0"/>
            <Node id="1" recordCount="1.0" score="0">
              <CompoundPredicate booleanOperator="or">
                <SimplePredicate field="SsOH" operator="lessOrEqual" value="0.20704081654548645"/>
                <SimplePredicate field="SsOH" operator="isMissing"/>
              </CompoundPredicate>
              <ScoreDistribution recordCount="0.0" value="1"/>
              <ScoreDistribution recordCount="1.0" value="0"/>
              <Node id="2" recordCount="1.0" score="0">
                <SimplePredicate field="MATS1e" operator="lessOrEqual" value="0.3977086842060089"/>
                <ScoreDistribution recordCount="0.0" value="1"/>
                <ScoreDistribution recordCount="1.0" value="0"/>
                <Node id="3" recordCount="1.0" score="0">
                  <CompoundPredicate booleanOperator="or">
                    <SimplePredicate field="MATS1e" operator="lessOrEqual" value="0.3707037717103958"/>
                    <SimplePredicate field="MATS1e" operator="isMissing"/>
                  </CompoundPredicate>
                  <ScoreDistribution recordCount="0.0" value="1"/>
                  <ScoreDistribution recordCount="1.0" value="0"/>
                </Node>
                <Node id="4" recordCount="1.0" score="1">
                  <SimplePredicate field="MATS1e" operator="greaterThan" value="0.3707037717103958"/>
                  <ScoreDistribution recordCount="1.0" value="1"/>
                  <ScoreDistribution recordCount="0.0" value="0"/>
                </Node>
              </Node>
              <Node id="5" recordCount="1.0" score="0">
                <CompoundPredicate booleanOperator="or">
                  <SimplePredicate field="MATS1e" operator="greaterThan" value="0.3977086842060089"/>
                  <SimplePredicate field="MATS1e" operator="isMissing"/>
                </CompoundPredicate>
                <ScoreDistribution recordCount="0.0" value="1"/>
                <ScoreDistribution recordCount="1.0" value="0"/>
              </Node>
            </Node>
            <Node id="6" recordCount="1.0" score="1">
              <SimplePredicate field="SsOH" operator="greaterThan" value="0.20704081654548645"/>
              <ScoreDistribution recordCount="1.0" value="1"/>
              <ScoreDistribution recordCount="0.0" value="0"/>
              <Node id="7" recordCount="1.0" score="1">
                <CompoundPredicate booleanOperator="or">
                  <SimplePredicate field="MATS1e" operator="lessOrEqual" value="0.3617021143436432"/>
                  <SimplePredicate field="MATS1e" operator="isMissing"/>
                </CompoundPredicate>
                <ScoreDistribution recordCount="1.0" value="1"/>
                <ScoreDistribution recordCount="0.0" value="0"/>
                <Node id="8" recordCount="1.0" score="1">
                  <SimplePredicate field="MATS1e" operator="lessOrEqual" value="0.2463175132870674"/>
                  <ScoreDistribution recordCount="1.0" value="1"/>
                  <ScoreDistribution recordCount="0.0" value="0"/>
                </Node>
                <Node id="9" recordCount="1.0" score="1">
                  <CompoundPredicate booleanOperator="or">
                    <SimplePredicate field="MATS1e" operator="greaterThan" value="0.2463175132870674"/>
                    <SimplePredicate field="MATS1e" operator="isMissing"/>
                  </CompoundPredicate>
                  <ScoreDistribution recordCount="1.0" value="1"/>
                  <ScoreDistribution recordCount="0.0" value="0"/>
                  <Node id="10" recordCount="1.0" score="0">
                    <SimplePredicate field="SsOH" operator="lessOrEqual" value="0.24951142817735672"/>
                    <ScoreDistribution recordCount="0.0" value="1"/>
                    <ScoreDistribution recordCount="1.0" value="0"/>
                    <Node id="11" recordCount="1.0" score="1">
                      <SimplePredicate field="MATS1e" operator="lessOrEqual" value="0.3248772472143173"/>
                      <ScoreDistribution recordCount="1.0" value="1"/>
                      <ScoreDistribution recordCount="0.0" value="0"/>
                    </Node>
                    <Node id="12" recordCount="1.0" score="0">
                      <CompoundPredicate booleanOperator="or">
                        <SimplePredicate field="MATS1e" operator="greaterThan" value="0.3248772472143173"/>
                        <SimplePredicate field="MATS1e" operator="isMissing"/>
                      </CompoundPredicate>
                      <ScoreDistribution recordCount="0.0" value="1"/>
                      <ScoreDistribution recordCount="1.0" value="0"/>
                    </Node>
                  </Node>
                  <Node id="13" recordCount="1.0" score="1">
                    <CompoundPredicate booleanOperator="or">
                      <SimplePredicate field="SsOH" operator="greaterThan" value="0.24951142817735672"/>
                      <SimplePredicate field="SsOH" operator="isMissing"/>
                    </CompoundPredicate>
                    <ScoreDistribution recordCount="1.0" value="1"/>
                    <ScoreDistribution recordCount="0.0" value="0"/>
                    <Node id="14" recordCount="1.0" score="1">
                      <CompoundPredicate booleanOperator="or">
                        <SimplePredicate field="SsOH" operator="lessOrEqual" value="0.2655996233224869"/>
                        <SimplePredicate field="SsOH" operator="isMissing"/>
                      </CompoundPredicate>
                      <ScoreDistribution recordCount="1.0" value="1"/>
                      <ScoreDistribution recordCount="0.0" value="0"/>
                      <Node id="15" recordCount="1.0" score="1">
                        <SimplePredicate field="MATS1e" operator="lessOrEqual" value="0.310147300362587"/>
                        <ScoreDistribution recordCount="1.0" value="1"/>
                        <ScoreDistribution recordCount="0.0" value="0"/>
                        <Node id="16" recordCount="1.0" score="1">
                          <CompoundPredicate booleanOperator="or">
                            <SimplePredicate field="MATS1e" operator="lessOrEqual" value="0.2978723347187042"/>
                            <SimplePredicate field="MATS1e" operator="isMissing"/>
                          </CompoundPredicate>
                          <ScoreDistribution recordCount="1.0" value="1"/>
                          <ScoreDistribution recordCount="0.0" value="0"/>
                        </Node>
                        <Node id="17" recordCount="1.0" score="0">
                          <SimplePredicate field="MATS1e" operator="greaterThan" value="0.2978723347187042"/>
                          <ScoreDistribution recordCount="0.0" value="1"/>
                          <ScoreDistribution recordCount="1.0" value="0"/>
                        </Node>
                      </Node>
                      <Node id="18" recordCount="1.0" score="1">
                        <CompoundPredicate booleanOperator="or">
                          <SimplePredicate field="MATS1e" operator="greaterThan" value="0.310147300362587"/>
                          <SimplePredicate field="MATS1e" operator="isMissing"/>
                        </CompoundPredicate>
                        <ScoreDistribution recordCount="1.0" value="1"/>
                        <ScoreDistribution recordCount="0.0" value="0"/>
                      </Node>
                    </Node>
                    <Node id="19" recordCount="1.0" score="1">
                      <SimplePredicate field="SsOH" operator="greaterThan" value="0.2655996233224869"/>
                      <ScoreDistribution recordCount="1.0" value="1"/>
                      <ScoreDistribution recordCount="0.0" value="0"/>
                      <Node id="20" recordCount="1.0" score="1">
                        <SimplePredicate field="MATS1e" operator="lessOrEqual" value="0.27741406857967377"/>
                        <ScoreDistribution recordCount="1.0" value="1"/>
                        <ScoreDistribution recordCount="0.0" value="0"/>
                      </Node>
                      <Node id="21" recordCount="1.0" score="0">
                        <CompoundPredicate booleanOperator="or">
                          <SimplePredicate field="MATS1e" operator="greaterThan" value="0.27741406857967377"/>
                          <SimplePredicate field="MATS1e" operator="isMissing"/>
                        </CompoundPredicate>
                        <ScoreDistribution recordCount="0.0" value="1"/>
                        <ScoreDistribution recordCount="1.0" value="0"/>
                        <Node id="22" recordCount="1.0" score="0">
                          <CompoundPredicate booleanOperator="or">
                            <SimplePredicate field="MATS1e" operator="lessOrEqual" value="0.30605563521385193"/>
                            <SimplePredicate field="MATS1e" operator="isMissing"/>
                          </CompoundPredicate>
                          <ScoreDistribution recordCount="0.0" value="1"/>
                          <ScoreDistribution recordCount="1.0" value="0"/>
                        </Node>
                        <Node id="23" recordCount="1.0" score="1">
                          <SimplePredicate field="MATS1e" operator="greaterThan" value="0.30605563521385193"/>
                          <ScoreDistribution recordCount="1.0" value="1"/>
                          <ScoreDistribution recordCount="0.0" value="0"/>
                        </Node>
                      </Node>
                    </Node>
                  </Node>
                </Node>
              </Node>
              <Node id="24" recordCount="1.0" score="0">
                <SimplePredicate field="MATS1e" operator="greaterThan" value="0.3617021143436432"/>
                <ScoreDistribution recordCount="0.0" value="1"/>
                <ScoreDistribution recordCount="1.0" value="0"/>
                <Node id="25" recordCount="1.0" score="0">
                  <SimplePredicate field="SsOH" operator="lessOrEqual" value="0.2471856027841568"/>
                  <ScoreDistribution recordCount="0.0" value="1"/>
                  <ScoreDistribution recordCount="1.0" value="0"/>
                  <Node id="26" recordCount="1.0" score="0">
                    <CompoundPredicate booleanOperator="or">
                      <SimplePredicate field="MATS1e" operator="lessOrEqual" value="0.6268412321805954"/>
                      <SimplePredicate field="MATS1e" operator="isMissing"/>
                    </CompoundPredicate>
                    <ScoreDistribution recordCount="0.0" value="1"/>
                    <ScoreDistribution recordCount="1.0" value="0"/>
                  </Node>
                  <Node id="27" recordCount="1.0" score="1">
                    <SimplePredicate field="MATS1e" operator="greaterThan" value="0.6268412321805954"/>
                    <ScoreDistribution recordCount="1.0" value="1"/>
                    <ScoreDistribution recordCount="0.0" value="0"/>
                  </Node>
                </Node>
                <Node id="28" recordCount="1.0" score="0">
                  <CompoundPredicate booleanOperator="or">
                    <SimplePredicate field="SsOH" operator="greaterThan" value="0.2471856027841568"/>
                    <SimplePredicate field="SsOH" operator="isMissing"/>
                  </CompoundPredicate>
                  <ScoreDistribution recordCount="0.0" value="1"/>
                  <ScoreDistribution recordCount="1.0" value="0"/>
                </Node>
              </Node>
            </Node>
          </Node>
        </TreeModel>
      </Segment>
      <Segment>
        <True/>
        <TreeModel functionName="classification" missingValueStrategy="none" modelName="DecisionTree" noTrueChildStrategy="returnLastPrediction" splitCharacteristic="binarySplit">
          <MiningSchema>
            <MiningField invalidValueTreatment="asIs" name="MATS1e"/>
            <MiningField invalidValueTreatment="asIs" name="SsOH"/>
            <MiningField invalidValueTreatment="asIs" name="Target" usageType="target"/>
          </MiningSchema>
          <Node id="0" recordCount="1.0" score="0">
            <True/>
            <ScoreDistribution recordCount="0.0" value="1"/>
            <ScoreDistribution recordCount="1.0" value="0"/>
            <Node id="1" recordCount="1.0" score="0">
              <CompoundPredicate booleanOperator="or">
                <SimplePredicate field="SsOH" operator="lessOrEqual" value="0.2520299404859543"/>
                <SimplePredicate field="SsOH" operator="isMissing"/>
              </CompoundPredicate>
              <ScoreDistribution recordCount="0.0" value="1"/>
              <ScoreDistribution recordCount="1.0" value="0"/>
              <Node id="2" recordCount="1.0" score="0">
                <CompoundPredicate booleanOperator="or">
                  <SimplePredicate field="SsOH" operator="lessOrEqual" value="0.2458644136786461"/>
                  <SimplePredicate field="SsOH" operator="isMissing"/>
                </CompoundPredicate>
                <ScoreDistribution recordCount="0.0" value="1"/>
                <ScoreDistribution recordCount="1.0" value="0"/>
                <Node id="3" recordCount="1.0" score="0">
                  <SimplePredicate field="MATS1e" operator="lessOrEqual" value="0.3919803649187088"/>
                  <ScoreDistribution recordCount="0.0" value="1"/>
                  <ScoreDistribution recordCount="1.0" value="0"/>
                  <Node id="4" recordCount="1.0" score="0">
                    <CompoundPredicate booleanOperator="or">
                      <SimplePredicate field="MATS1e" operator="lessOrEqual" value="0.3895253688097"/>
                      <SimplePredicate field="MATS1e" operator="isMissing"/>
                    </CompoundPredicate>
                    <ScoreDistribution recordCount="0.0" value="1"/>
                    <ScoreDistribution recordCount="1.0" value="0"/>
                    <Node id="5" recordCount="1.0" score="0">
                      <CompoundPredicate booleanOperator="or">
                        <SimplePredicate field="SsOH" operator="lessOrEqual" value="0.2048526033759117"/>
                        <SimplePredicate field="SsOH" operator="isMissing"/>
                      </CompoundPredicate>
                      <ScoreDistribution recordCount="0.0" value="1"/>
                      <ScoreDistribution recordCount="1.0" value="0"/>
                      <Node id="6" recordCount="1.0" score="0">
                        <CompoundPredicate booleanOperator="or">
                          <SimplePredicate field="SsOH" operator="lessOrEqual" value="0.10197902470827103"/>
                          <SimplePredicate field="SsOH" operator="isMissing"/>
                        </CompoundPredicate>
                        <ScoreDistribution recordCount="0.0" value="1"/>
                        <ScoreDistribution recordCount="1.0" value="0"/>
                        <Node id="7" recordCount="1.0" score="0">
                          <CompoundPredicate booleanOperator="or">
                            <SimplePredicate field="MATS1e" operator="lessOrEqual" value="0.2242225781083107"/>
                            <SimplePredicate field="MATS1e" operator="isMissing"/>
                          </CompoundPredicate>
                          <ScoreDistribution recordCount="0.0" value="1"/>
                          <ScoreDistribution recordCount="1.0" value="0"/>
                        </Node>
                        <Node id="8" recordCount="1.0" score="0">
                          <SimplePredicate field="MATS1e" operator="greaterThan" value="0.2242225781083107"/>
                          <ScoreDistribution recordCount="0.0" value="1"/>
                          <ScoreDistribution recordCount="1.0" value="0"/>
                        </Node>
                      </Node>
                      <Node id="9" recordCount="1.0" score="0">
                        <SimplePredicate field="SsOH" operator="greaterThan" value="0.10197902470827103"/>
                        <ScoreDistribution recordCount="0.0" value="1"/>
                        <ScoreDistribution recordCount="1.0" value="0"/>
                      </Node>
                    </Node>
                    <Node id="10" recordCount="1.0" score="0">
                      <SimplePredicate field="SsOH" operator="greaterThan" value="0.2048526033759117"/>
                      <ScoreDistribution recordCount="0.0" value="1"/>
                      <ScoreDistribution recordCount="1.0" value="0"/>
                      <Node id="11" recordCount="1.0" score="1">
                        <CompoundPredicate booleanOperator="or">
                          <SimplePredicate field="SsOH" operator="lessOrEqual" value="0.21141724288463593"/>
                          <SimplePredicate field="SsOH" operator="isMissing"/>
                        </CompoundPredicate>
                        <ScoreDistribution recordCount="1.0" value="1"/>
                        <ScoreDistribution recordCount="0.0" value="0"/>
                        <Node id="12" recordCount="1.0" score="1">
                          <SimplePredicate field="SsOH" operator="lessOrEqual" value="0.20920150727033615"/>
                          <ScoreDistribution recordCount="1.0" value="1"/>
                          <ScoreDistribution recordCount="0.0" value="0"/>
                        </Node>
                        <Node id="13" recordCount="1.0" score="1">
                          <CompoundPredicate booleanOperator="or">
                            <SimplePredicate field="SsOH" operator="greaterThan" value="0.20920150727033615"/>
                            <SimplePredicate field="SsOH" operator="isMissing"/>
                          </CompoundPredicate>
                          <ScoreDistribution recordCount="1.0" value="1"/>
                          <ScoreDistribution recordCount="0.0" value="0"/>
                          <Node id="14" recordCount="1.0" score="1">
                            <SimplePredicate field="MATS1e" operator="lessOrEqual" value="0.27414075285196304"/>
                            <ScoreDistribution recordCount="1.0" value="1"/>
                            <ScoreDistribution recordCount="0.0" value="0"/>
                          </Node>
                          <Node id="15" recordCount="1.0" score="0">
                            <CompoundPredicate booleanOperator="or">
                              <SimplePredicate field="MATS1e" operator="greaterThan" value="0.27414075285196304"/>
                              <SimplePredicate field="MATS1e" operator="isMissing"/>
                            </CompoundPredicate>
                            <ScoreDistribution recordCount="0.0" value="1"/>
                            <ScoreDistribution recordCount="1.0" value="0"/>
                            <Node id="16" recordCount="1.0" score="1">
                              <CompoundPredicate booleanOperator="or">
                                <SimplePredicate field="SsOH" operator="lessOrEqual" value="0.21021991968154907"/>
                                <SimplePredicate field="SsOH" operator="isMissing"/>
                              </CompoundPredicate>
                              <ScoreDistribution recordCount="1.0" value="1"/>
                              <ScoreDistribution recordCount="0.0" value="0"/>
                            </Node>
                            <Node id="17" recordCount="1.0" score="0">
                              <SimplePredicate field="SsOH" operator="greaterThan" value="0.21021991968154907"/>
                              <ScoreDistribution recordCount="0.0" value="1"/>
                              <ScoreDistribution recordCount="1.0" value="0"/>
                            </Node>
                          </Node>
                        </Node>
                      </Node>
                      <Node id="18" recordCount="1.0" score="0">
                        <SimplePredicate field="SsOH" operator="greaterThan" value="0.21141724288463593"/>
                        <ScoreDistribution recordCount="0.0" value="1"/>
                        <ScoreDistribution recordCount="1.0" value="0"/>
                      </Node>
                    </Node>
                  </Node>
                  <Node id="19" recordCount="1.0" score="1">
                    <SimplePredicate field="MATS1e" operator="greaterThan" value="0.3895253688097"/>
                    <ScoreDistribution recordCount="1.0" value="1"/>
                    <ScoreDistribution recordCount="0.0" value="0"/>
                  </Node>
                </Node>
                <Node id="20" recordCount="1.0" score="0">
                  <CompoundPredicate booleanOperator="or">
                    <SimplePredicate field="MATS1e" operator="greaterThan" value="0.3919803649187088"/>
                    <SimplePredicate field="MATS1e" operator="isMissing"/>
                  </CompoundPredicate>
                  <ScoreDistribution recordCount="0.0" value="1"/>
                  <ScoreDistribution recordCount="1.0" value="0"/>
                  <Node id="21" recordCount="1.0" score="0">
                    <CompoundPredicate booleanOperator="or">
                      <SimplePredicate field="SsOH" operator="lessOrEqual" value="0.24044205248355865"/>
                      <SimplePredicate field="SsOH" operator="isMissing"/>
                    </CompoundPredicate>
                    <ScoreDistribution recordCount="0.0" value="1"/>
                    <ScoreDistribution recordCount="1.0" value="0"/>
                  </Node>
                  <Node id="22" recordCount="1.0" score="1">
                    <SimplePredicate field="SsOH" operator="greaterThan" value="0.24044205248355865"/>
                    <ScoreDistribution recordCount="1.0" value="1"/>
                    <ScoreDistribution recordCount="0.0" value="0"/>
                  </Node>
                </Node>
              </Node>
              <Node id="23" recordCount="1.0" score="0">
                <SimplePredicate field="SsOH" operator="greaterThan" value="0.2458644136786461"/>
                <ScoreDistribution recordCount="0.0" value="1"/>
                <ScoreDistribution recordCount="1.0" value="0"/>
              </Node>
            </Node>
            <Node id="24" recordCount="1.0" score="1">
              <SimplePredicate field="SsOH" operator="greaterThan" value="0.2520299404859543"/>
              <ScoreDistribution recordCount="1.0" value="1"/>
              <ScoreDistribution recordCount="0.0" value="0"/>
              <Node id="25" recordCount="1.0" score="1">
                <CompoundPredicate booleanOperator="or">
                  <SimplePredicate field="MATS1e" operator="lessOrEqual" value="0.3617021143436432"/>
                  <SimplePredicate field="MATS1e" operator="isMissing"/>
                </CompoundPredicate>
                <ScoreDistribution recordCount="1.0" value="1"/>
                <ScoreDistribution recordCount="0.0" value="0"/>
                <Node id="26" recordCount="1.0" score="1">
                  <SimplePredicate field="SsOH" operator="lessOrEqual" value="0.26166360080242157"/>
                  <ScoreDistribution recordCount="1.0" value="1"/>
                  <ScoreDistribution recordCount="0.0" value="0"/>
                  <Node id="27" recordCount="1.0" score="1">
                    <CompoundPredicate booleanOperator="or">
                      <SimplePredicate field="SsOH" operator="lessOrEqual" value="0.2589248865842819"/>
                      <SimplePredicate field="SsOH" operator="isMissing"/>
                    </CompoundPredicate>
                    <ScoreDistribution recordCount="1.0" value="1"/>
                    <ScoreDistribution recordCount="0.0" value="0"/>
                  </Node>
                  <Node id="28" recordCount="1.0" score="0">
                    <SimplePredicate field="SsOH" operator="greaterThan" value="0.2589248865842819"/>
                    <ScoreDistribution recordCount="0.0" value="1"/>
                    <ScoreDistribution recordCount="1.0" value="0"/>
                  </Node>
                </Node>
                <Node id="29" recordCount="1.0" score="1">
                  <CompoundPredicate booleanOperator="or">
                    <SimplePredicate field="SsOH" operator="greaterThan" value="0.26166360080242157"/>
                    <SimplePredicate field="SsOH" operator="isMissing"/>
                  </CompoundPredicate>
                  <ScoreDistribution recordCount="1.0" value="1"/>
                  <ScoreDistribution recordCount="0.0" value="0"/>
                  <Node id="30" recordCount="1.0" score="1">
                    <SimplePredicate field="MATS1e" operator="lessOrEqual" value="0.3019639849662781"/>
                    <ScoreDistribution recordCount="1.0" value="1"/>
                    <ScoreDistribution recordCount="0.0" value="0"/>
                    <Node id="31" recordCount="1.0" score="1">
                      <CompoundPredicate booleanOperator="or">
                        <SimplePredicate field="MATS1e" operator="lessOrEqual" value="0.2806873917579651"/>
                        <SimplePredicate field="MATS1e" operator="isMissing"/>
                      </CompoundPredicate>
                      <ScoreDistribution recordCount="1.0" value="1"/>
                      <ScoreDistribution recordCount="0.0" value="0"/>
                    </Node>
                    <Node id="32" recordCount="1.0" score="1">
                      <SimplePredicate field="MATS1e" operator="greaterThan" value="0.2806873917579651"/>
                      <ScoreDistribution recordCount="1.0" value="1"/>
                      <ScoreDistribution recordCount="0.0" value="0"/>
                    </Node>
                  </Node>
                  <Node id="33" recordCount="1.0" score="1">
                    <CompoundPredicate booleanOperator="or">
                      <SimplePredicate field="MATS1e" operator="greaterThan" value="0.3019639849662781"/>
                      <SimplePredicate field="MATS1e" operator="isMissing"/>
                    </CompoundPredicate>
                    <ScoreDistribution recordCount="1.0" value="1"/>
                    <ScoreDistribution recordCount="0.0" value="0"/>
                  </Node>
                </Node>
              </Node>
              <Node id="34" recordCount="1.0" score="0">
                <SimplePredicate field="MATS1e" operator="greaterThan" value="0.3617021143436432"/>
                <ScoreDistribution recordCount="0.0" value="1"/>
                <ScoreDistribution recordCount="1.0" value="0"/>
              </Node>
            </Node>
          </Node>
        </TreeModel>
      </Segment>
      <Segment>
        <True/>
        <TreeModel functionName="classification" missingValueStrategy="none" modelName="DecisionTree" noTrueChildStrategy="returnLastPrediction" splitCharacteristic="binarySplit">
          <MiningSchema>
            <MiningField invalidValueTreatment="asIs" name="MATS1e"/>
            <MiningField invalidValueTreatment="asIs" name="SsOH"/>
            <MiningField invalidValueTreatment="asIs" name="Target" usageType="target"/>
          </MiningSchema>
          <Node id="0" recordCount="1.0" score="0">
            <True/>
            <ScoreDistribution recordCount="0.0" value="1"/>
            <ScoreDistribution recordCount="1.0" value="0"/>
            <Node id="1" recordCount="1.0" score="0">
              <SimplePredicate field="SsOH" operator="lessOrEqual" value="0.2048526033759117"/>
              <ScoreDistribution recordCount="0.0" value="1"/>
              <ScoreDistribution recordCount="1.0" value="0"/>
              <Node id="2" recordCount="1.0" score="0">
                <SimplePredicate field="MATS1e" operator="lessOrEqual" value="0.3142389506101608"/>
                <ScoreDistribution recordCount="0.0" value="1"/>
                <ScoreDistribution recordCount="1.0" value="0"/>
                <Node id="3" recordCount="1.0" score="0">
                  <CompoundPredicate booleanOperator="or">
                    <SimplePredicate field="SsOH" operator="lessOrEqual" value="0.10197902470827103"/>
                    <SimplePredicate field="SsOH" operator="isMissing"/>
                  </CompoundPredicate>
                  <ScoreDistribution recordCount="0.0" value="1"/>
                  <ScoreDistribution recordCount="1.0" value="0"/>
                </Node>
                <Node id="4" recordCount="1.0" score="0">
                  <SimplePredicate field="SsOH" operator="greaterThan" value="0.10197902470827103"/>
                  <ScoreDistribution recordCount="0.0" value="1"/>
                  <ScoreDistribution recordCount="1.0" value="0"/>
                </Node>
              </Node>
              <Node id="5" recordCount="1.0" score="0">
                <CompoundPredicate booleanOperator="or">
                  <SimplePredicate field="MATS1e" operator="greaterThan" value="0.3142389506101608"/>
                  <SimplePredicate field="MATS1e" operator="isMissing"/>
                </CompoundPredicate>
                <ScoreDistribution recordCount="0.0" value="1"/>
                <ScoreDistribution recordCount="1.0" value="0"/>
                <Node id="6" recordCount="1.0" score="0">
                  <CompoundPredicate booleanOperator="or">
                    <SimplePredicate field="MATS1e" operator="lessOrEqual" value="0.5016366690397263"/>
                    <SimplePredicate field="MATS1e" operator="isMissing"/>
                  </CompoundPredicate>
                  <ScoreDistribution recordCount="0.0" value="1"/>
                  <ScoreDistribution recordCount="1.0" value="0"/>
                </Node>
                <Node id="7" recordCount="1.0" score="0">
                  <SimplePredicate field="MATS1e" operator="greaterThan" value="0.5016366690397263"/>
                  <ScoreDistribution recordCount="0.0" value="1"/>
                  <ScoreDistribution recordCount="1.0" value="0"/>
                </Node>
              </Node>
            </Node>
            <Node id="8" recordCount="1.0" score="1">
              <CompoundPredicate booleanOperator="or">
                <SimplePredicate field="SsOH" operator="greaterThan" value="0.2048526033759117"/>
                <SimplePredicate field="SsOH" operator="isMissing"/>
              </CompoundPredicate>
              <ScoreDistribution recordCount="1.0" value="1"/>
              <ScoreDistribution recordCount="0.0" value="0"/>
              <Node id="9" recordCount="1.0" score="1">
                <SimplePredicate field="MATS1e" operator="lessOrEqual" value="0.2970540076494217"/>
                <ScoreDistribution recordCount="1.0" value="1"/>
                <ScoreDistribution recordCount="0.0" value="0"/>
                <Node id="10" recordCount="1.0" score="1">
                  <SimplePredicate field="MATS1e" operator="lessOrEqual" value="0.26104746758937836"/>
                  <ScoreDistribution recordCount="1.0" value="1"/>
                  <ScoreDistribution recordCount="0.0" value="0"/>
                  <Node id="11" recordCount="1.0" score="1">
                    <CompoundPredicate booleanOperator="or">
                      <SimplePredicate field="MATS1e" operator="lessOrEqual" value="0.2463175132870674"/>
                      <SimplePredicate field="MATS1e" operator="isMissing"/>
                    </CompoundPredicate>
                    <ScoreDistribution recordCount="1.0" value="1"/>
                    <ScoreDistribution recordCount="0.0" value="0"/>
                  </Node>
                  <Node id="12" recordCount="1.0" score="0">
                    <SimplePredicate field="MATS1e" operator="greaterThan" value="0.2463175132870674"/>
                    <ScoreDistribution recordCount="0.0" value="1"/>
                    <ScoreDistribution recordCount="1.0" value="0"/>
                  </Node>
                </Node>
                <Node id="13" recordCount="1.0" score="1">
                  <CompoundPredicate booleanOperator="or">
                    <SimplePredicate field="MATS1e" operator="greaterThan" value="0.26104746758937836"/>
                    <SimplePredicate field="MATS1e" operator="isMissing"/>
                  </CompoundPredicate>
                  <ScoreDistribution recordCount="1.0" value="1"/>
                  <ScoreDistribution recordCount="0.0" value="0"/>
                </Node>
              </Node>
              <Node id="14" recordCount="1.0" score="1">
                <CompoundPredicate booleanOperator="or">
                  <SimplePredicate field="MATS1e" operator="greaterThan" value="0.2970540076494217"/>
                  <SimplePredicate field="MATS1e" operator="isMissing"/>
                </CompoundPredicate>
                <ScoreDistribution recordCount="1.0" value="1"/>
                <ScoreDistribution recordCount="0.0" value="0"/>
                <Node id="15" recordCount="1.0" score="0">
                  <CompoundPredicate booleanOperator="or">
                    <SimplePredicate field="SsOH" operator="lessOrEqual" value="0.5263136029243469"/>
                    <SimplePredicate field="SsOH" operator="isMissing"/>
                  </CompoundPredicate>
                  <ScoreDistribution recordCount="0.0" value="1"/>
                  <ScoreDistribution recordCount="1.0" value="0"/>
                  <Node id="16" recordCount="1.0" score="0">
                    <SimplePredicate field="MATS1e" operator="lessOrEqual" value="0.31505729258060455"/>
                    <ScoreDistribution recordCount="0.0" value="1"/>
                    <ScoreDistribution recordCount="1.0" value="0"/>
                  </Node>
                  <Node id="17" recordCount="1.0" score="1">
                    <CompoundPredicate booleanOperator="or">
                      <SimplePredicate field="MATS1e" operator="greaterThan" value="0.31505729258060455"/>
                      <SimplePredicate field="MATS1e" operator="isMissing"/>
                    </CompoundPredicate>
                    <ScoreDistribution recordCount="1.0" value="1"/>
                    <ScoreDistribution recordCount="0.0" value="0"/>
                    <Node id="18" recordCount="1.0" score="1">
                      <CompoundPredicate booleanOperator="or">
                        <SimplePredicate field="SsOH" operator="lessOrEqual" value="0.3861027657985687"/>
                        <SimplePredicate field="SsOH" operator="isMissing"/>
                      </CompoundPredicate>
                      <ScoreDistribution recordCount="1.0" value="1"/>
                      <ScoreDistribution recordCount="0.0" value="0"/>
                      <Node id="19" recordCount="1.0" score="1">
                        <CompoundPredicate booleanOperator="or">
                          <SimplePredicate field="SsOH" operator="lessOrEqual" value="0.2662189304828644"/>
                          <SimplePredicate field="SsOH" operator="isMissing"/>
                        </CompoundPredicate>
                        <ScoreDistribution recordCount="1.0" value="1"/>
                        <ScoreDistribution recordCount="0.0" value="0"/>
                        <Node id="20" recordCount="1.0" score="1">
                          <CompoundPredicate booleanOperator="or">
                            <SimplePredicate field="MATS1e" operator="lessOrEqual" value="0.6342062056064606"/>
                            <SimplePredicate field="MATS1e" operator="isMissing"/>
                          </CompoundPredicate>
                          <ScoreDistribution recordCount="1.0" value="1"/>
                          <ScoreDistribution recordCount="0.0" value="0"/>
                          <Node id="21" recordCount="1.0" score="0">
                            <SimplePredicate field="SsOH" operator="lessOrEqual" value="0.2520574778318405"/>
                            <ScoreDistribution recordCount="0.0" value="1"/>
                            <ScoreDistribution recordCount="1.0" value="0"/>
                            <Node id="22" recordCount="1.0" score="1">
                              <SimplePredicate field="MATS1e" operator="lessOrEqual" value="0.3248772472143173"/>
                              <ScoreDistribution recordCount="1.0" value="1"/>
                              <ScoreDistribution recordCount="0.0" value="0"/>
                            </Node>
                            <Node id="23" recordCount="1.0" score="0">
                              <CompoundPredicate booleanOperator="or">
                                <SimplePredicate field="MATS1e" operator="greaterThan" value="0.3248772472143173"/>
                                <SimplePredicate field="MATS1e" operator="isMissing"/>
                              </CompoundPredicate>
                              <ScoreDistribution recordCount="0.0" value="1"/>
                              <ScoreDistribution recordCount="1.0" value="0"/>
                            </Node>
                          </Node>
                          <Node id="24" recordCount="1.0" score="1">
                            <CompoundPredicate booleanOperator="or">
                              <SimplePredicate field="SsOH" operator="greaterThan" value="0.2520574778318405"/>
                              <SimplePredicate field="SsOH" operator="isMissing"/>
                            </CompoundPredicate>
                            <ScoreDistribution recordCount="1.0" value="1"/>
                            <ScoreDistribution recordCount="0.0" value="0"/>
                            <Node id="25" recordCount="1.0" score="1">
                              <SimplePredicate field="SsOH" operator="lessOrEqual" value="0.26078279316425323"/>
                              <ScoreDistribution recordCount="1.0" value="1"/>
                              <ScoreDistribution recordCount="0.0" value="0"/>
                            </Node>
                            <Node id="26" recordCount="1.0" score="0">
                              <CompoundPredicate booleanOperator="or">
                                <SimplePredicate field="SsOH" operator="greaterThan" value="0.26078279316425323"/>
                                <SimplePredicate field="SsOH" operator="isMissing"/>
                              </CompoundPredicate>
                              <ScoreDistribution recordCount="0.0" value="1"/>
                              <ScoreDistribution recordCount="1.0" value="0"/>
                              <Node id="27" recordCount="1.0" score="1">
                                <CompoundPredicate booleanOperator="or">
                                  <SimplePredicate field="SsOH" operator="lessOrEqual" value="0.26489773392677307"/>
                                  <SimplePredicate field="SsOH" operator="isMissing"/>
                                </CompoundPredicate>
                                <ScoreDistribution recordCount="1.0" value="1"/>
                                <ScoreDistribution recordCount="0.0" value="0"/>
                              </Node>
                              <Node id="28" recordCount="1.0" score="0">
                                <SimplePredicate field="SsOH" operator="greaterThan" value="0.26489773392677307"/>
                                <ScoreDistribution recordCount="0.0" value="1"/>
                                <ScoreDistribution recordCount="1.0" value="0"/>
                              </Node>
                            </Node>
                          </Node>
                        </Node>
                        <Node id="29" recordCount="1.0" score="1">
                          <SimplePredicate field="MATS1e" operator="greaterThan" value="0.6342062056064606"/>
                          <ScoreDistribution recordCount="1.0" value="1"/>
                          <ScoreDistribution recordCount="0.0" value="0"/>
                        </Node>
                      </Node>
                      <Node id="30" recordCount="1.0" score="1">
                        <SimplePredicate field="SsOH" operator="greaterThan" value="0.2662189304828644"/>
                        <ScoreDistribution recordCount="1.0" value="1"/>
                        <ScoreDistribution recordCount="0.0" value="0"/>
                      </Node>
                    </Node>
                    <Node id="31" recordCount="1.0" score="0">
                      <SimplePredicate field="SsOH" operator="greaterThan" value="0.3861027657985687"/>
                      <ScoreDistribution recordCount="0.0" value="1"/>
                      <ScoreDistribution recordCount="1.0" value="0"/>
                    </Node>
                  </Node>
                </Node>
                <Node id="32" recordCount="1.0" score="1">
                  <SimplePredicate field="SsOH" operator="greaterThan" value="0.5263136029243469"/>
                  <ScoreDistribution recordCount="1.0" value="1"/>
                  <ScoreDistribution recordCount="0.0" value="0"/>
                </Node>
              </Node>
            </Node>
          </Node>
        </TreeModel>
      </Segment>
      <Segment>
        <True/>
        <TreeModel functionName="classification" missingValueStrategy="none" modelName="DecisionTree" noTrueChildStrategy="returnLastPrediction" splitCharacteristic="binarySplit">
          <MiningSchema>
            <MiningField invalidValueTreatment="asIs" name="MATS1e"/>
            <MiningField invalidValueTreatment="asIs" name="SsOH"/>
            <MiningField invalidValueTreatment="asIs" name="Target" usageType="target"/>
          </MiningSchema>
          <Node id="0" recordCount="1.0" score="0">
            <True/>
            <ScoreDistribution recordCount="0.0" value="1"/>
            <ScoreDistribution recordCount="1.0" value="0"/>
            <Node id="1" recordCount="1.0" score="1">
              <CompoundPredicate booleanOperator="or">
                <SimplePredicate field="MATS1e" operator="lessOrEqual" value="0.35761046409606934"/>
                <SimplePredicate field="MATS1e" operator="isMissing"/>
              </CompoundPredicate>
              <ScoreDistribution recordCount="1.0" value="1"/>
              <ScoreDistribution recordCount="0.0" value="0"/>
              <Node id="2" recordCount="1.0" score="0">
                <CompoundPredicate booleanOperator="or">
                  <SimplePredicate field="MATS1e" operator="lessOrEqual" value="0.3510638326406479"/>
                  <SimplePredicate field="MATS1e" operator="isMissing"/>
                </CompoundPredicate>
                <ScoreDistribution recordCount="0.0" value="1"/>
                <ScoreDistribution recordCount="1.0" value="0"/>
                <Node id="3" recordCount="1.0" score="0">
                  <SimplePredicate field="SsOH" operator="lessOrEqual" value="0.2054581493139267"/>
                  <ScoreDistribution recordCount="0.0" value="1"/>
                  <ScoreDistribution recordCount="1.0" value="0"/>
                </Node>
                <Node id="4" recordCount="1.0" score="1">
                  <CompoundPredicate booleanOperator="or">
                    <SimplePredicate field="SsOH" operator="greaterThan" value="0.2054581493139267"/>
                    <SimplePredicate field="SsOH" operator="isMissing"/>
                  </CompoundPredicate>
                  <ScoreDistribution recordCount="1.0" value="1"/>
                  <ScoreDistribution recordCount="0.0" value="0"/>
                  <Node id="5" recordCount="1.0" score="0">
                    <SimplePredicate field="SsOH" operator="lessOrEqual" value="0.2470342069864273"/>
                    <ScoreDistribution recordCount="0.0" value="1"/>
                    <ScoreDistribution recordCount="1.0" value="0"/>
                    <Node id="6" recordCount="1.0" score="1">
                      <SimplePredicate field="MATS1e" operator="lessOrEqual" value="0.2463175132870674"/>
                      <ScoreDistribution recordCount="1.0" value="1"/>
                      <ScoreDistribution recordCount="0.0" value="0"/>
                    </Node>
                    <Node id="7" recordCount="1.0" score="0">
                      <CompoundPredicate booleanOperator="or">
                        <SimplePredicate field="MATS1e" operator="greaterThan" value="0.2463175132870674"/>
                        <SimplePredicate field="MATS1e" operator="isMissing"/>
                      </CompoundPredicate>
                      <ScoreDistribution recordCount="0.0" value="1"/>
                      <ScoreDistribution recordCount="1.0" value="0"/>
                      <Node id="8" recordCount="1.0" score="1">
                        <SimplePredicate field="SsOH" operator="lessOrEqual" value="0.21021991968154907"/>
                        <ScoreDistribution recordCount="1.0" value="1"/>
                        <ScoreDistribution recordCount="0.0" value="0"/>
                        <Node id="9" recordCount="1.0" score="0">
                          <SimplePredicate field="MATS1e" operator="lessOrEqual" value="0.30932897329330444"/>
                          <ScoreDistribution recordCount="0.0" value="1"/>
                          <ScoreDistribution recordCount="1.0" value="0"/>
                        </Node>
                        <Node id="10" recordCount="1.0" score="1">
                          <CompoundPredicate booleanOperator="or">
                            <SimplePredicate field="MATS1e" operator="greaterThan" value="0.30932897329330444"/>
                            <SimplePredicate field="MATS1e" operator="isMissing"/>
                          </CompoundPredicate>
                          <ScoreDistribution recordCount="1.0" value="1"/>
                          <ScoreDistribution recordCount="0.0" value="0"/>
                        </Node>
                      </Node>
                      <Node id="11" recordCount="1.0" score="0">
                        <CompoundPredicate booleanOperator="or">
                          <SimplePredicate field="SsOH" operator="greaterThan" value="0.21021991968154907"/>
                          <SimplePredicate field="SsOH" operator="isMissing"/>
                        </CompoundPredicate>
                        <ScoreDistribution recordCount="0.0" value="1"/>
                        <ScoreDistribution recordCount="1.0" value="0"/>
                      </Node>
                    </Node>
                  </Node>
                  <Node id="12" recordCount="1.0" score="1">
                    <CompoundPredicate booleanOperator="or">
                      <SimplePredicate field="SsOH" operator="greaterThan" value="0.2470342069864273"/>
                      <SimplePredicate field="SsOH" operator="isMissing"/>
                    </CompoundPredicate>
                    <ScoreDistribution recordCount="1.0" value="1"/>
                    <ScoreDistribution recordCount="0.0" value="0"/>
                    <Node id="13" recordCount="1.0" score="1">
                      <CompoundPredicate booleanOperator="or">
                        <SimplePredicate field="SsOH" operator="lessOrEqual" value="0.5204783976078033"/>
                        <SimplePredicate field="SsOH" operator="isMissing"/>
                      </CompoundPredicate>
                      <ScoreDistribution recordCount="1.0" value="1"/>
                      <ScoreDistribution recordCount="0.0" value="0"/>
                      <Node id="14" recordCount="1.0" score="1">
                        <CompoundPredicate booleanOperator="or">
                          <SimplePredicate field="MATS1e" operator="lessOrEqual" value="0.310147300362587"/>
                          <SimplePredicate field="MATS1e" operator="isMissing"/>
                        </CompoundPredicate>
                        <ScoreDistribution recordCount="1.0" value="1"/>
                        <ScoreDistribution recordCount="0.0" value="0"/>
                        <Node id="15" recordCount="1.0" score="1">
                          <CompoundPredicate booleanOperator="or">
                            <SimplePredicate field="SsOH" operator="lessOrEqual" value="0.3910434693098068"/>
                            <SimplePredicate field="SsOH" operator="isMissing"/>
