<?xml version="1.0"?>
<PMML version="4.4.1" xmlns="http://www.dmg.org/PMML-4_4" xmlns:xsi="http://www.w3.org/2001/XMLSchema-instance" xsi:schemaLocation="http://www.dmg.org/PMML-4_4 http://www.dmg.org/pmml/v4-4/pmml-4-4.xsd">
 <Header copyright="Copyright (c) 2021 jacop" description="">
  <Extension name="user" value="jacop" extender="SoftwareAG PMML Generator"/>
  <Application name="SoftwareAG PMML Generator" version="2.4.0"/>
  <Timestamp>2021-11-17 16:10:15</Timestamp>
 </Header>
 <DataDictionary numberOfFields="8">
  <DataField name="Exp" optype="categorical" dataType="string">
   <Value value="0"/>
   <Value value="1"/>
  </DataField>
  <DataField name="ATSC5m" optype="continuous" dataType="double"/>
  <DataField name="SpMin3_Bh.v." optype="continuous" dataType="double"/>
  <DataField name="SpMaxA_B.s." optype="continuous" dataType="double"/>
  <DataField name="ChiA_D" optype="continuous" dataType="double"/>
  <DataField name="ATS7s" optype="continuous" dataType="double"/>
  <DataField name="ATSC7e" optype="continuous" dataType="double"/>
  <DataField name="Si" optype="continuous" dataType="double"/>
 </DataDictionary>
 <MiningModel modelName="randomForest_Model" algorithmName="randomForest" functionName="classification">
  <MiningSchema>
   <MiningField name="Exp" usageType="predicted" invalidValueTreatment="returnInvalid"/>
   <MiningField name="ATSC5m" usageType="active" invalidValueTreatment="returnInvalid"/>
   <MiningField name="SpMin3_Bh.v." usageType="active" invalidValueTreatment="returnInvalid"/>
   <MiningField name="SpMaxA_B.s." usageType="active" invalidValueTreatment="returnInvalid"/>
   <MiningField name="ChiA_D" usageType="active" invalidValueTreatment="returnInvalid"/>
   <MiningField name="ATS7s" usageType="active" invalidValueTreatment="returnInvalid"/>
   <MiningField name="ATSC7e" usageType="active" invalidValueTreatment="returnInvalid"/>
   <MiningField name="Si" usageType="active" invalidValueTreatment="returnInvalid"/>
  </MiningSchema>
  <Output>
   <OutputField name="Predicted_Exp" optype="categorical" dataType="string" feature="predictedValue"/>
   <OutputField name="Probability_0" optype="continuous" dataType="double" feature="probability" value="0"/>
   <OutputField name="Probability_1" optype="continuous" dataType="double" feature="probability" value="1"/>
  </Output>
  <Segmentation multipleModelMethod="majorityVote">
   <Segment id="1">
    <True/>
    <TreeModel modelName="randomForest_Model" functionName="classification" algorithmName="randomForest" splitCharacteristic="binarySplit">
     <MiningSchema>
      <MiningField name="Exp" usageType="predicted" invalidValueTreatment="asIs"/>
      <MiningField name="ATSC5m" usageType="active" invalidValueTreatment="asIs"/>
      <MiningField name="SpMin3_Bh.v." usageType="active" invalidValueTreatment="asIs"/>
      <MiningField name="SpMaxA_B.s." usageType="active" invalidValueTreatment="asIs"/>
      <MiningField name="ChiA_D" usageType="active" invalidValueTreatment="asIs"/>
      <MiningField name="ATS7s" usageType="active" invalidValueTreatment="asIs"/>
      <MiningField name="ATSC7e" usageType="active" invalidValueTreatment="asIs"/>
      <MiningField name="Si" usageType="active" invalidValueTreatment="asIs"/>
     </MiningSchema>
     <Node id="1">
      <True/>
      <Node id="2">
       <SimplePredicate field="Si" operator="lessOrEqual" value="0.074344952411476706"/>
       <Node id="4">
        <SimplePredicate field="ATSC7e" operator="lessOrEqual" value="0.76436179376407787"/>
        <Node id="8">
         <SimplePredicate field="ChiA_D" operator="lessOrEqual" value="-0.36919311497796659"/>
         <Node id="12" score="0">
          <SimplePredicate field="SpMaxA_B.s." operator="lessOrEqual" value="-0.94575093249083719"/>
         </Node>
         <Node id="13">
          <SimplePredicate field="SpMaxA_B.s." operator="greaterThan" value="-0.94575093249083719"/>
          <Node id="20">
           <SimplePredicate field="Si" operator="lessOrEqual" value="-0.096662714491687285"/>
           <Node id="34" score="1">
            <SimplePredicate field="ATSC7e" operator="lessOrEqual" value="-0.085490092162761044"/>
           </Node>
           <Node id="35">
            <SimplePredicate field="ATSC7e" operator="greaterThan" value="-0.085490092162761044"/>
            <Node id="58" score="1">
             <SimplePredicate field="SpMaxA_B.s." operator="lessOrEqual" value="-0.25717348617433722"/>
            </Node>
            <Node id="59">
             <SimplePredicate field="SpMaxA_B.s." operator="greaterThan" value="-0.25717348617433722"/>
             <Node id="82" score="1">
              <SimplePredicate field="SpMin3_Bh.v." operator="lessOrEqual" value="-0.3326201349225964"/>
             </Node>
             <Node id="83">
              <SimplePredicate field="SpMin3_Bh.v." operator="greaterThan" value="-0.3326201349225964"/>
              <Node id="102" score="0">
               <SimplePredicate field="ATS7s" operator="lessOrEqual" value="0.27353161283952082"/>
              </Node>
              <Node id="103">
               <SimplePredicate field="ATS7s" operator="greaterThan" value="0.27353161283952082"/>
               <Node id="122" score="1">
                <SimplePredicate field="ATSC5m" operator="lessOrEqual" value="-0.47095050111175235"/>
               </Node>
               <Node id="123" score="0">
                <SimplePredicate field="ATSC5m" operator="greaterThan" value="-0.47095050111175235"/>
               </Node>
              </Node>
             </Node>
            </Node>
           </Node>
          </Node>
          <Node id="21">
           <SimplePredicate field="Si" operator="greaterThan" value="-0.096662714491687285"/>
           <Node id="36" score="0">
            <SimplePredicate field="Si" operator="lessOrEqual" value="-0.073780494477216435"/>
           </Node>
           <Node id="37">
            <SimplePredicate field="Si" operator="greaterThan" value="-0.073780494477216435"/>
            <Node id="60" score="0">
             <SimplePredicate field="ATSC7e" operator="lessOrEqual" value="-0.14673219037256655"/>
            </Node>
            <Node id="61" score="1">
             <SimplePredicate field="ATSC7e" operator="greaterThan" value="-0.14673219037256655"/>
            </Node>
           </Node>
          </Node>
         </Node>
        </Node>
        <Node id="9">
         <SimplePredicate field="ChiA_D" operator="greaterThan" value="-0.36919311497796659"/>
         <Node id="14">
          <SimplePredicate field="ATS7s" operator="lessOrEqual" value="-1.2110538788654561"/>
          <Node id="22">
           <SimplePredicate field="ATS7s" operator="lessOrEqual" value="-2.2669914469091368"/>
           <Node id="38">
            <SimplePredicate field="ChiA_D" operator="lessOrEqual" value="2.4492796407716213"/>
            <Node id="62">
             <SimplePredicate field="ATSC7e" operator="lessOrEqual" value="-0.67341423497689357"/>
             <Node id="84" score="1">
              <SimplePredicate field="SpMin3_Bh.v." operator="lessOrEqual" value="-1.6012918715189932"/>
             </Node>
             <Node id="85" score="0">
              <SimplePredicate field="SpMin3_Bh.v." operator="greaterThan" value="-1.6012918715189932"/>
             </Node>
            </Node>
            <Node id="63">
             <SimplePredicate field="ATSC7e" operator="greaterThan" value="-0.67341423497689357"/>
             <Node id="86" score="1">
              <SimplePredicate field="Si" operator="lessOrEqual" value="-1.1034026525915541"/>
             </Node>
             <Node id="87" score="0">
              <SimplePredicate field="Si" operator="greaterThan" value="-1.1034026525915541"/>
             </Node>
            </Node>
           </Node>
           <Node id="39" score="0">
            <SimplePredicate field="ChiA_D" operator="greaterThan" value="2.4492796407716213"/>
           </Node>
          </Node>
          <Node id="23">
           <SimplePredicate field="ATS7s" operator="greaterThan" value="-2.2669914469091368"/>
           <Node id="40" score="0">
            <SimplePredicate field="Si" operator="lessOrEqual" value="-1.2921097037188221"/>
           </Node>
           <Node id="41" score="1">
            <SimplePredicate field="Si" operator="greaterThan" value="-1.2921097037188221"/>
           </Node>
          </Node>
         </Node>
         <Node id="15">
          <SimplePredicate field="ATS7s" operator="greaterThan" value="-1.2110538788654561"/>
          <Node id="24">
           <SimplePredicate field="Si" operator="lessOrEqual" value="-0.92993313868796568"/>
           <Node id="42" score="1">
            <SimplePredicate field="SpMaxA_B.s." operator="lessOrEqual" value="0.49234001733831323"/>
           </Node>
           <Node id="43">
            <SimplePredicate field="SpMaxA_B.s." operator="greaterThan" value="0.49234001733831323"/>
            <Node id="64">
             <SimplePredicate field="SpMaxA_B.s." operator="lessOrEqual" value="1.8481672899526607"/>
             <Node id="88">
              <SimplePredicate field="SpMin3_Bh.v." operator="lessOrEqual" value="-1.1790683124940093"/>
              <Node id="104">
               <SimplePredicate field="Si" operator="lessOrEqual" value="-1.0163310113133861"/>
               <Node id="124">
                <SimplePredicate field="Si" operator="lessOrEqual" value="-1.1241599099319748"/>
                <Node id="146" score="0">
                 <SimplePredicate field="ATSC5m" operator="lessOrEqual" value="-0.77755462166691247"/>
                </Node>
                <Node id="147" score="1">
                 <SimplePredicate field="ATSC5m" operator="greaterThan" value="-0.77755462166691247"/>
                </Node>
               </Node>
               <Node id="125" score="0">
                <SimplePredicate field="Si" operator="greaterThan" value="-1.1241599099319748"/>
               </Node>
              </Node>
              <Node id="105" score="1">
               <SimplePredicate field="Si" operator="greaterThan" value="-1.0163310113133861"/>
              </Node>
             </Node>
             <Node id="89" score="0">
              <SimplePredicate field="SpMin3_Bh.v." operator="greaterThan" value="-1.1790683124940093"/>
             </Node>
            </Node>
            <Node id="65" score="0">
             <SimplePredicate field="SpMaxA_B.s." operator="greaterThan" value="1.8481672899526607"/>
            </Node>
           </Node>
          </Node>
          <Node id="25">
           <SimplePredicate field="Si" operator="greaterThan" value="-0.92993313868796568"/>
           <Node id="44">
            <SimplePredicate field="SpMin3_Bh.v." operator="lessOrEqual" value="0.015564221808907298"/>
            <Node id="66">
             <SimplePredicate field="ATSC7e" operator="lessOrEqual" value="-0.44917393691637508"/>
             <Node id="90">
              <SimplePredicate field="ATS7s" operator="lessOrEqual" value="-0.19399520023922531"/>
              <Node id="106">
               <SimplePredicate field="ATSC5m" operator="lessOrEqual" value="-0.60042233730234551"/>
               <Node id="126" score="1">
                <SimplePredicate field="ATS7s" operator="lessOrEqual" value="-0.34787719112677878"/>
               </Node>
               <Node id="127" score="0">
                <SimplePredicate field="ATS7s" operator="greaterThan" value="-0.34787719112677878"/>
               </Node>
              </Node>
              <Node id="107">
               <SimplePredicate field="ATSC5m" operator="greaterThan" value="-0.60042233730234551"/>
               <Node id="128">
                <SimplePredicate field="ATS7s" operator="lessOrEqual" value="-0.54815247863011307"/>
                <Node id="148" score="1">
                 <SimplePredicate field="ChiA_D" operator="lessOrEqual" value="1.218222575041916"/>
                </Node>
                <Node id="149" score="0">
                 <SimplePredicate field="ChiA_D" operator="greaterThan" value="1.218222575041916"/>
                </Node>
               </Node>
               <Node id="129" score="0">
                <SimplePredicate field="ATS7s" operator="greaterThan" value="-0.54815247863011307"/>
               </Node>
              </Node>
             </Node>
             <Node id="91">
              <SimplePredicate field="ATS7s" operator="greaterThan" value="-0.19399520023922531"/>
              <Node id="108">
               <SimplePredicate field="ChiA_D" operator="lessOrEqual" value="-0.17481568354696053"/>
               <Node id="130">
                <SimplePredicate field="Si" operator="lessOrEqual" value="-0.41942381333680157"/>
                <Node id="150" score="1">
                 <SimplePredicate field="ATSC7e" operator="lessOrEqual" value="-0.50476291836835241"/>
                </Node>
                <Node id="151" score="0">
                 <SimplePredicate field="ATSC7e" operator="greaterThan" value="-0.50476291836835241"/>
                </Node>
               </Node>
               <Node id="131" score="0">
                <SimplePredicate field="Si" operator="greaterThan" value="-0.41942381333680157"/>
               </Node>
              </Node>
              <Node id="109">
               <SimplePredicate field="ChiA_D" operator="greaterThan" value="-0.17481568354696053"/>
               <Node id="132" score="0">
                <SimplePredicate field="Si" operator="lessOrEqual" value="-0.68491457669835876"/>
               </Node>
               <Node id="133" score="1">
                <SimplePredicate field="Si" operator="greaterThan" value="-0.68491457669835876"/>
               </Node>
              </Node>
             </Node>
            </Node>
            <Node id="67">
             <SimplePredicate field="ATSC7e" operator="greaterThan" value="-0.44917393691637508"/>
             <Node id="92">
              <SimplePredicate field="ATS7s" operator="lessOrEqual" value="0.48295487432343187"/>
              <Node id="110">
               <SimplePredicate field="ATSC7e" operator="lessOrEqual" value="-0.10527600081515975"/>
               <Node id="134">
                <SimplePredicate field="ATS7s" operator="lessOrEqual" value="0.082404299316763283"/>
                <Node id="152" score="1">
                 <SimplePredicate field="SpMin3_Bh.v." operator="lessOrEqual" value="-1.1810693720154548"/>
                </Node>
                <Node id="153">
                 <SimplePredicate field="SpMin3_Bh.v." operator="greaterThan" value="-1.1810693720154548"/>
                 <Node id="160">
                  <SimplePredicate field="ATSC7e" operator="lessOrEqual" value="-0.25791015327652106"/>
                  <Node id="164" score="0">
                   <SimplePredicate field="ChiA_D" operator="lessOrEqual" value="-0.11002320640329193"/>
                  </Node>
                  <Node id="165">
                   <SimplePredicate field="ChiA_D" operator="greaterThan" value="-0.11002320640329193"/>
                   <Node id="166">
                    <SimplePredicate field="Si" operator="lessOrEqual" value="-0.7184993526199378"/>
                    <Node id="168" score="0">
                     <SimplePredicate field="SpMin3_Bh.v." operator="lessOrEqual" value="-0.95094752704923113"/>
                    </Node>
                    <Node id="169">
                     <SimplePredicate field="SpMin3_Bh.v." operator="greaterThan" value="-0.95094752704923113"/>
                     <Node id="170" score="1">
                      <SimplePredicate field="ATS7s" operator="lessOrEqual" value="-0.14629505019764788"/>
                     </Node>
                     <Node id="171" score="0">
                      <SimplePredicate field="ATS7s" operator="greaterThan" value="-0.14629505019764788"/>
                     </Node>
                    </Node>
                   </Node>
                   <Node id="167" score="1">
                    <SimplePredicate field="Si" operator="greaterThan" value="-0.7184993526199378"/>
                   </Node>
                  </Node>
                 </Node>
                 <Node id="161" score="0">
                  <SimplePredicate field="ATSC7e" operator="greaterThan" value="-0.25791015327652106"/>
                 </Node>
                </Node>
               </Node>
               <Node id="135">
                <SimplePredicate field="ATS7s" operator="greaterThan" value="0.082404299316763283"/>
                <Node id="154">
                 <SimplePredicate field="SpMin3_Bh.v." operator="lessOrEqual" value="-0.48269959903100296"/>
                 <Node id="162" score="0">
                  <SimplePredicate field="ATSC5m" operator="lessOrEqual" value="-0.58977016998864196"/>
                 </Node>
                 <Node id="163" score="1">
                  <SimplePredicate field="ATSC5m" operator="greaterThan" value="-0.58977016998864196"/>
                 </Node>
                </Node>
                <Node id="155" score="1">
                 <SimplePredicate field="SpMin3_Bh.v." operator="greaterThan" value="-0.48269959903100296"/>
                </Node>
               </Node>
              </Node>
              <Node id="111">
               <SimplePredicate field="ATSC7e" operator="greaterThan" value="-0.10527600081515975"/>
               <Node id="136" score="1">
                <SimplePredicate field="SpMaxA_B.s." operator="lessOrEqual" value="0.54718246881484867"/>
               </Node>
               <Node id="137">
                <SimplePredicate field="SpMaxA_B.s." operator="greaterThan" value="0.54718246881484867"/>
                <Node id="156" score="1">
                 <SimplePredicate field="ATSC5m" operator="lessOrEqual" value="-0.39279650959769191"/>
                </Node>
                <Node id="157" score="0">
                 <SimplePredicate field="ATSC5m" operator="greaterThan" value="-0.39279650959769191"/>
                </Node>
               </Node>
              </Node>
             </Node>
             <Node id="93" score="0">
              <SimplePredicate field="ATS7s" operator="greaterThan" value="0.48295487432343187"/>
             </Node>
            </Node>
           </Node>
           <Node id="45">
            <SimplePredicate field="SpMin3_Bh.v." operator="greaterThan" value="0.015564221808907298"/>
            <Node id="68" score="0">
             <SimplePredicate field="SpMin3_Bh.v." operator="lessOrEqual" value="0.12162037644551453"/>
            </Node>
            <Node id="69">
             <SimplePredicate field="SpMin3_Bh.v." operator="greaterThan" value="0.12162037644551453"/>
             <Node id="94">
              <SimplePredicate field="Si" operator="lessOrEqual" value="-0.19187140796073199"/>
              <Node id="112">
               <SimplePredicate field="ATSC7e" operator="lessOrEqual" value="-0.42185053925353877"/>
               <Node id="138" score="0">
                <SimplePredicate field="ATSC7e" operator="lessOrEqual" value="-0.56977376108337663"/>
               </Node>
               <Node id="139" score="1">
                <SimplePredicate field="ATSC7e" operator="greaterThan" value="-0.56977376108337663"/>
               </Node>
              </Node>
              <Node id="113" score="0">
               <SimplePredicate field="ATSC7e" operator="greaterThan" value="-0.42185053925353877"/>
              </Node>
             </Node>
             <Node id="95">
              <SimplePredicate field="Si" operator="greaterThan" value="-0.19187140796073199"/>
              <Node id="114" score="1">
               <SimplePredicate field="ATSC7e" operator="lessOrEqual" value="-0.41996616700092937"/>
              </Node>
              <Node id="115">
               <SimplePredicate field="ATSC7e" operator="greaterThan" value="-0.41996616700092937"/>
               <Node id="140">
                <SimplePredicate field="ATSC5m" operator="lessOrEqual" value="0.12209634177821052"/>
                <Node id="158" score="1">
                 <SimplePredicate field="ATSC5m" operator="lessOrEqual" value="-0.16599220898274386"/>
                </Node>
                <Node id="159" score="0">
                 <SimplePredicate field="ATSC5m" operator="greaterThan" value="-0.16599220898274386"/>
                </Node>
               </Node>
               <Node id="141" score="1">
                <SimplePredicate field="ATSC5m" operator="greaterThan" value="0.12209634177821052"/>
               </Node>
              </Node>
             </Node>
            </Node>
           </Node>
          </Node>
         </Node>
        </Node>
       </Node>
       <Node id="5" score="0">
        <SimplePredicate field="ATSC7e" operator="greaterThan" value="0.76436179376407787"/>
       </Node>
      </Node>
      <Node id="3">
       <SimplePredicate field="Si" operator="greaterThan" value="0.074344952411476706"/>
       <Node id="6">
        <SimplePredicate field="ATS7s" operator="lessOrEqual" value="1.1389952940733425"/>
        <Node id="10">
         <SimplePredicate field="SpMaxA_B.s." operator="lessOrEqual" value="-1.082857061182176"/>
         <Node id="16">
          <SimplePredicate field="Si" operator="lessOrEqual" value="1.3106326876667045"/>
          <Node id="26">
           <SimplePredicate field="SpMaxA_B.s." operator="lessOrEqual" value="-1.1285591040792888"/>
           <Node id="46" score="0">
            <SimplePredicate field="ChiA_D" operator="lessOrEqual" value="-0.88753293212731599"/>
           </Node>
           <Node id="47">
            <SimplePredicate field="ChiA_D" operator="greaterThan" value="-0.88753293212731599"/>
            <Node id="70" score="0">
             <SimplePredicate field="Si" operator="lessOrEqual" value="0.50677485658075982"/>
            </Node>
            <Node id="71" score="1">
             <SimplePredicate field="Si" operator="greaterThan" value="0.50677485658075982"/>
            </Node>
           </Node>
          </Node>
          <Node id="27" score="1">
           <SimplePredicate field="SpMaxA_B.s." operator="greaterThan" value="-1.1285591040792888"/>
          </Node>
         </Node>
         <Node id="17">
          <SimplePredicate field="Si" operator="greaterThan" value="1.3106326876667045"/>
          <Node id="28">
           <SimplePredicate field="SpMin3_Bh.v." operator="lessOrEqual" value="1.3742836368703486"/>
           <Node id="48" score="0">
            <SimplePredicate field="ATS7s" operator="lessOrEqual" value="0.87697118220111714"/>
           </Node>
           <Node id="49">
            <SimplePredicate field="ATS7s" operator="greaterThan" value="0.87697118220111714"/>
            <Node id="72" score="1">
             <SimplePredicate field="ATSC5m" operator="lessOrEqual" value="1.3068413625978175"/>
            </Node>
            <Node id="73" score="0">
             <SimplePredicate field="ATSC5m" operator="greaterThan" value="1.3068413625978175"/>
            </Node>
           </Node>
          </Node>
          <Node id="29">
           <SimplePredicate field="SpMin3_Bh.v." operator="greaterThan" value="1.3742836368703486"/>
           <Node id="50" score="1">
            <SimplePredicate field="ATSC7e" operator="lessOrEqual" value="-0.062877625131448303"/>
           </Node>
           <Node id="51" score="0">
            <SimplePredicate field="ATSC7e" operator="greaterThan" value="-0.062877625131448303"/>
           </Node>
          </Node>
         </Node>
        </Node>
        <Node id="11">
         <SimplePredicate field="SpMaxA_B.s." operator="greaterThan" value="-1.082857061182176"/>
         <Node id="18">
          <SimplePredicate field="Si" operator="lessOrEqual" value="0.2347278059443883"/>
          <Node id="30" score="1">
           <SimplePredicate field="SpMin3_Bh.v." operator="lessOrEqual" value="0.16164156687442299"/>
          </Node>
          <Node id="31">
           <SimplePredicate field="SpMin3_Bh.v." operator="greaterThan" value="0.16164156687442299"/>
           <Node id="52">
            <SimplePredicate field="SpMaxA_B.s." operator="lessOrEqual" value="-0.762942760902386"/>
            <Node id="74" score="1">
             <SimplePredicate field="ATSC7e" operator="lessOrEqual" value="-0.2334133139925989"/>
            </Node>
            <Node id="75" score="0">
             <SimplePredicate field="ATSC7e" operator="greaterThan" value="-0.2334133139925989"/>
            </Node>
           </Node>
           <Node id="53" score="0">
            <SimplePredicate field="SpMaxA_B.s." operator="greaterThan" value="-0.762942760902386"/>
           </Node>
          </Node>
         </Node>
         <Node id="19">
          <SimplePredicate field="Si" operator="greaterThan" value="0.2347278059443883"/>
          <Node id="32">
           <SimplePredicate field="SpMin3_Bh.v." operator="lessOrEqual" value="0.61788313776397907"/>
           <Node id="54">
            <SimplePredicate field="SpMaxA_B.s." operator="lessOrEqual" value="-0.69286629512681297"/>
            <Node id="76" score="1">
             <SimplePredicate field="Si" operator="lessOrEqual" value="0.25711765655877417"/>
            </Node>
            <Node id="77" score="0">
             <SimplePredicate field="Si" operator="greaterThan" value="0.25711765655877417"/>
            </Node>
           </Node>
           <Node id="55">
            <SimplePredicate field="SpMaxA_B.s." operator="greaterThan" value="-0.69286629512681297"/>
            <Node id="78" score="1">
             <SimplePredicate field="SpMaxA_B.s." operator="lessOrEqual" value="-0.43693485490298123"/>
            </Node>
            <Node id="79">
             <SimplePredicate field="SpMaxA_B.s." operator="greaterThan" value="-0.43693485490298123"/>
             <Node id="96" score="1">
              <SimplePredicate field="ATSC5m" operator="lessOrEqual" value="0.3744338417266494"/>
             </Node>
             <Node id="97" score="0">
              <SimplePredicate field="ATSC5m" operator="greaterThan" value="0.3744338417266494"/>
             </Node>
            </Node>
           </Node>
          </Node>
          <Node id="33">
           <SimplePredicate field="SpMin3_Bh.v." operator="greaterThan" value="0.61788313776397907"/>
           <Node id="56">
            <SimplePredicate field="ATS7s" operator="lessOrEqual" value="1.0298730330193233"/>
            <Node id="80">
             <SimplePredicate field="Si" operator="lessOrEqual" value="0.68060716898967399"/>
             <Node id="98">
              <SimplePredicate field="ATSC5m" operator="lessOrEqual" value="0.27239247930524979"/>
              <Node id="116" score="0">
               <SimplePredicate field="ATS7s" operator="lessOrEqual" value="0.73877143242312293"/>
              </Node>
              <Node id="117" score="1">
               <SimplePredicate field="ATS7s" operator="greaterThan" value="0.73877143242312293"/>
              </Node>
             </Node>
             <Node id="99">
              <SimplePredicate field="ATSC5m" operator="greaterThan" value="0.27239247930524979"/>
              <Node id="118" score="1">
               <SimplePredicate field="ATSC7e" operator="lessOrEqual" value="0.21695165438104744"/>
              </Node>
              <Node id="119">
               <SimplePredicate field="ATSC7e" operator="greaterThan" value="0.21695165438104744"/>
               <Node id="142" score="0">
                <SimplePredicate field="Si" operator="lessOrEqual" value="0.63681220656107163"/>
               </Node>
               <Node id="143" score="1">
                <SimplePredicate field="Si" operator="greaterThan" value="0.63681220656107163"/>
               </Node>
              </Node>
             </Node>
            </Node>
            <Node id="81">
             <SimplePredicate field="Si" operator="greaterThan" value="0.68060716898967399"/>
             <Node id="100" score="0">
              <SimplePredicate field="ATSC7e" operator="lessOrEqual" value="-0.15144312100409002"/>
             </Node>
             <Node id="101">
              <SimplePredicate field="ATSC7e" operator="greaterThan" value="-0.15144312100409002"/>
              <Node id="120">
               <SimplePredicate field="ATSC7e" operator="lessOrEqual" value="0.27819375259085294"/>
               <Node id="144" score="1">
                <SimplePredicate field="ATS7s" operator="lessOrEqual" value="0.85900194759641346"/>
               </Node>
               <Node id="145" score="0">
                <SimplePredicate field="ATS7s" operator="greaterThan" value="0.85900194759641346"/>
               </Node>
              </Node>
              <Node id="121" score="0">
               <SimplePredicate field="ATSC7e" operator="greaterThan" value="0.27819375259085294"/>
              </Node>
             </Node>
            </Node>
           </Node>
           <Node id="57" score="1">
            <SimplePredicate field="ATS7s" operator="greaterThan" value="1.0298730330193233"/>
           </Node>
          </Node>
         </Node>
        </Node>
       </Node>
       <Node id="7" score="0">
        <SimplePredicate field="ATS7s" operator="greaterThan" value="1.1389952940733425"/>
       </Node>
      </Node>
     </Node>
    </TreeModel>
   </Segment>
   <Segment id="2">
    <True/>
    <TreeModel modelName="randomForest_Model" functionName="classification" algorithmName="randomForest" splitCharacteristic="binarySplit">
     <MiningSchema>
      <MiningField name="Exp" usageType="predicted" invalidValueTreatment="asIs"/>
      <MiningField name="ATSC5m" usageType="active" invalidValueTreatment="asIs"/>
      <MiningField name="SpMin3_Bh.v." usageType="active" invalidValueTreatment="asIs"/>
      <MiningField name="SpMaxA_B.s." usageType="active" invalidValueTreatment="asIs"/>
      <MiningField name="ChiA_D" usageType="active" invalidValueTreatment="asIs"/>
      <MiningField name="ATS7s" usageType="active" invalidValueTreatment="asIs"/>
      <MiningField name="ATSC7e" usageType="active" invalidValueTreatment="asIs"/>
      <MiningField name="Si" usageType="active" invalidValueTreatment="asIs"/>
     </MiningSchema>
     <Node id="1">
      <True/>
      <Node id="2">
       <SimplePredicate field="SpMin3_Bh.v." operator="lessOrEqual" value="0.16364262639586863"/>
       <Node id="4">
        <SimplePredicate field="ATS7s" operator="lessOrEqual" value="0.33266673035681854"/>
        <Node id="8">
         <SimplePredicate field="ATS7s" operator="lessOrEqual" value="0.084364579455458028"/>
         <Node id="16">
          <SimplePredicate field="SpMin3_Bh.v." operator="lessOrEqual" value="-0.77085217011914353"/>
          <Node id="26">
           <SimplePredicate field="ChiA_D" operator="lessOrEqual" value="2.8380345036336334"/>
           <Node id="38">
            <SimplePredicate field="Si" operator="lessOrEqual" value="-0.78100435225176557"/>
            <Node id="56">
             <SimplePredicate field="ATSC5m" operator="lessOrEqual" value="-0.79277853460881476"/>
             <Node id="74">
              <SimplePredicate field="ChiA_D" operator="lessOrEqual" value="1.8985435850504373"/>
              <Node id="94" score="0">
               <SimplePredicate field="SpMaxA_B.s." operator="lessOrEqual" value="0.020085574068147379"/>
              </Node>
              <Node id="95">
               <SimplePredicate field="SpMaxA_B.s." operator="greaterThan" value="0.020085574068147379"/>
               <Node id="114">
                <SimplePredicate field="SpMin3_Bh.v." operator="lessOrEqual" value="-1.9774910615507333"/>
                <Node id="132" score="0">
                 <SimplePredicate field="ChiA_D" operator="lessOrEqual" value="1.8337511079067685"/>
                </Node>
                <Node id="133" score="1">
                 <SimplePredicate field="ChiA_D" operator="greaterThan" value="1.8337511079067685"/>
                </Node>
               </Node>
               <Node id="115" score="1">
                <SimplePredicate field="SpMin3_Bh.v." operator="greaterThan" value="-1.9774910615507333"/>
               </Node>
              </Node>
             </Node>
             <Node id="75" score="0">
              <SimplePredicate field="ChiA_D" operator="greaterThan" value="1.8985435850504373"/>
             </Node>
            </Node>
            <Node id="57">
             <SimplePredicate field="ATSC5m" operator="greaterThan" value="-0.79277853460881476"/>
             <Node id="76">
              <SimplePredicate field="SpMaxA_B.s." operator="lessOrEqual" value="1.8481672899526607"/>
              <Node id="96">
               <SimplePredicate field="ChiA_D" operator="lessOrEqual" value="0.99144890503907579"/>
               <Node id="116">
                <SimplePredicate field="ATSC5m" operator="lessOrEqual" value="-0.53342340512109043"/>
                <Node id="134">
                 <SimplePredicate field="ChiA_D" operator="lessOrEqual" value="0.92665642789540725"/>
                 <Node id="146">
                  <SimplePredicate field="ATSC5m" operator="lessOrEqual" value="-0.6461626523124756"/>
                  <Node id="156" score="1">
                   <SimplePredicate field="SpMin3_Bh.v." operator="lessOrEqual" value="-1.7673798117989636"/>
                  </Node>
                  <Node id="157">
                   <SimplePredicate field="SpMin3_Bh.v." operator="greaterThan" value="-1.7673798117989636"/>
                   <Node id="164" score="1">
                    <SimplePredicate field="ChiA_D" operator="lessOrEqual" value="0.2463354178868859"/>
                   </Node>
                   <Node id="165" score="0">
                    <SimplePredicate field="ChiA_D" operator="greaterThan" value="0.2463354178868859"/>
                   </Node>
                  </Node>
                 </Node>
                 <Node id="147" score="1">
                  <SimplePredicate field="ATSC5m" operator="greaterThan" value="-0.6461626523124756"/>
                 </Node>
                </Node>
                <Node id="135" score="0">
                 <SimplePredicate field="ChiA_D" operator="greaterThan" value="0.92665642789540725"/>
                </Node>
               </Node>
               <Node id="117" score="0">
                <SimplePredicate field="ATSC5m" operator="greaterThan" value="-0.53342340512109043"/>
               </Node>
              </Node>
              <Node id="97">
               <SimplePredicate field="ChiA_D" operator="greaterThan" value="0.99144890503907579"/>
               <Node id="118">
                <SimplePredicate field="Si" operator="lessOrEqual" value="-1.3763307853122881"/>
                <Node id="136" score="1">
                 <SimplePredicate field="SpMaxA_B.s." operator="lessOrEqual" value="1.4855977496355655"/>
                </Node>
                <Node id="137" score="0">
                 <SimplePredicate field="SpMaxA_B.s." operator="greaterThan" value="1.4855977496355655"/>
                </Node>
               </Node>
               <Node id="119" score="1">
                <SimplePredicate field="Si" operator="greaterThan" value="-1.3763307853122881"/>
               </Node>
              </Node>
             </Node>
             <Node id="77" score="0">
              <SimplePredicate field="SpMaxA_B.s." operator="greaterThan" value="1.8481672899526607"/>
             </Node>
            </Node>
           </Node>
           <Node id="39">
            <SimplePredicate field="Si" operator="greaterThan" value="-0.78100435225176557"/>
            <Node id="58">
             <SimplePredicate field="SpMin3_Bh.v." operator="lessOrEqual" value="-0.93894116992055898"/>
             <Node id="78">
              <SimplePredicate field="ATS7s" operator="lessOrEqual" value="-0.19007463996183527"/>
              <Node id="98" score="0">
               <SimplePredicate field="SpMaxA_B.s." operator="lessOrEqual" value="0.7848330918798353"/>
              </Node>
              <Node id="99">
               <SimplePredicate field="SpMaxA_B.s." operator="greaterThan" value="0.7848330918798353"/>
               <Node id="120" score="1">
                <SimplePredicate field="ChiA_D" operator="lessOrEqual" value="0.82946771217990412"/>
               </Node>
               <Node id="121" score="0">
                <SimplePredicate field="ChiA_D" operator="greaterThan" value="0.82946771217990412"/>
               </Node>
              </Node>
             </Node>
             <Node id="79">
              <SimplePredicate field="ATS7s" operator="greaterThan" value="-0.19007463996183527"/>
              <Node id="100" score="1">
               <SimplePredicate field="Si" operator="lessOrEqual" value="-0.4427984027513574"/>
              </Node>
              <Node id="101" score="0">
               <SimplePredicate field="Si" operator="greaterThan" value="-0.4427984027513574"/>
              </Node>
             </Node>
            </Node>
            <Node id="59" score="1">
             <SimplePredicate field="SpMin3_Bh.v." operator="greaterThan" value="-0.93894116992055898"/>
            </Node>
           </Node>
          </Node>
          <Node id="27" score="0">
           <SimplePredicate field="ChiA_D" operator="greaterThan" value="2.8380345036336334"/>
          </Node>
         </Node>
         <Node id="17">
          <SimplePredicate field="SpMin3_Bh.v." operator="greaterThan" value="-0.77085217011914353"/>
          <Node id="28">
           <SimplePredicate field="ATS7s" operator="lessOrEqual" value="-0.14335462998960563"/>
           <Node id="40">
            <SimplePredicate field="Si" operator="lessOrEqual" value="-0.085053162321265044"/>
            <Node id="60">
             <SimplePredicate field="ATS7s" operator="lessOrEqual" value="-0.55958744610583366"/>
             <Node id="80">
              <SimplePredicate field="SpMin3_Bh.v." operator="lessOrEqual" value="-0.44067734908064882"/>
              <Node id="102">
               <SimplePredicate field="ATSC5m" operator="lessOrEqual" value="-0.6387792831229343"/>
               <Node id="122" score="1">
                <SimplePredicate field="SpMaxA_B.s." operator="lessOrEqual" value="1.6744995269436314"/>
               </Node>
               <Node id="123" score="0">
                <SimplePredicate field="SpMaxA_B.s." operator="greaterThan" value="1.6744995269436314"/>
               </Node>
              </Node>
              <Node id="103">
               <SimplePredicate field="ATSC5m" operator="greaterThan" value="-0.6387792831229343"/>
               <Node id="124" score="1">
                <SimplePredicate field="SpMaxA_B.s." operator="lessOrEqual" value="0.44359117158139266"/>
               </Node>
               <Node id="125" score="0">
                <SimplePredicate field="SpMaxA_B.s." operator="greaterThan" value="0.44359117158139266"/>
               </Node>
              </Node>
             </Node>
             <Node id="81" score="0">
              <SimplePredicate field="SpMin3_Bh.v." operator="greaterThan" value="-0.44067734908064882"/>
             </Node>
            </Node>
            <Node id="61">
             <SimplePredicate field="ATS7s" operator="greaterThan" value="-0.55958744610583366"/>
             <Node id="82" score="0">
              <SimplePredicate field="ATSC7e" operator="lessOrEqual" value="-0.32103662373893593"/>
             </Node>
             <Node id="83">
              <SimplePredicate field="ATSC7e" operator="greaterThan" value="-0.32103662373893593"/>
              <Node id="104" score="0">
               <SimplePredicate field="SpMaxA_B.s." operator="lessOrEqual" value="0.78178628902002778"/>
              </Node>
              <Node id="105" score="1">
               <SimplePredicate field="SpMaxA_B.s." operator="greaterThan" value="0.78178628902002778"/>
              </Node>
             </Node>
            </Node>
           </Node>
           <Node id="41" score="1">
            <SimplePredicate field="Si" operator="greaterThan" value="-0.085053162321265044"/>
           </Node>
          </Node>
          <Node id="29">
           <SimplePredicate field="ATS7s" operator="greaterThan" value="-0.14335462998960563"/>
           <Node id="42">
            <SimplePredicate field="SpMin3_Bh.v." operator="lessOrEqual" value="-0.47469536094522125"/>
            <Node id="62" score="0">
             <SimplePredicate field="Si" operator="lessOrEqual" value="-0.67835828942354426"/>
            </Node>
            <Node id="63">
             <SimplePredicate field="Si" operator="greaterThan" value="-0.67835828942354426"/>
             <Node id="84" score="1">
              <SimplePredicate field="ChiA_D" operator="lessOrEqual" value="-0.23960816069062918"/>
             </Node>
             <Node id="85">
              <SimplePredicate field="ChiA_D" operator="greaterThan" value="-0.23960816069062918"/>
              <Node id="106" score="0">
               <SimplePredicate field="ATSC7e" operator="lessOrEqual" value="-0.18630400767736391"/>
              </Node>
              <Node id="107" score="1">
               <SimplePredicate field="ATSC7e" operator="greaterThan" value="-0.18630400767736391"/>
              </Node>
             </Node>
            </Node>
           </Node>
           <Node id="43">
            <SimplePredicate field="SpMin3_Bh.v." operator="greaterThan" value="-0.47469536094522125"/>
            <Node id="64" score="1">
             <SimplePredicate field="Si" operator="lessOrEqual" value="-0.43663082816082055"/>
            </Node>
            <Node id="65">
             <SimplePredicate field="Si" operator="greaterThan" value="-0.43663082816082055"/>
             <Node id="86" score="1">
              <SimplePredicate field="ATSC7e" operator="lessOrEqual" value="-0.35024439365438159"/>
             </Node>
             <Node id="87" score="0">
              <SimplePredicate field="ATSC7e" operator="greaterThan" value="-0.35024439365438159"/>
             </Node>
            </Node>
           </Node>
          </Node>
         </Node>
        </Node>
        <Node id="9">
         <SimplePredicate field="ATS7s" operator="greaterThan" value="0.084364579455458028"/>
         <Node id="18" score="0">
          <SimplePredicate field="ChiA_D" operator="lessOrEqual" value="-0.69315550069630993"/>
         </Node>
         <Node id="19">
          <SimplePredicate field="ChiA_D" operator="greaterThan" value="-0.69315550069630993"/>
          <Node id="30">
           <SimplePredicate field="ATSC5m" operator="lessOrEqual" value="-0.55753936330983966"/>
           <Node id="44" score="0">
            <SimplePredicate field="SpMin3_Bh.v." operator="lessOrEqual" value="-0.24857563502188862"/>
           </Node>
           <Node id="45" score="1">
            <SimplePredicate field="SpMin3_Bh.v." operator="greaterThan" value="-0.24857563502188862"/>
           </Node>
          </Node>
          <Node id="31">
           <SimplePredicate field="ATSC5m" operator="greaterThan" value="-0.55753936330983966"/>
           <Node id="46" score="1">
            <SimplePredicate field="Si" operator="lessOrEqual" value="-0.48654153682205603"/>
           </Node>
           <Node id="47">
            <SimplePredicate field="Si" operator="greaterThan" value="-0.48654153682205603"/>
            <Node id="66" score="1">
             <SimplePredicate field="SpMin3_Bh.v." operator="lessOrEqual" value="0.0015568051587891117"/>
            </Node>
            <Node id="67">
             <SimplePredicate field="SpMin3_Bh.v." operator="greaterThan" value="0.0015568051587891117"/>
             <Node id="88" score="1">
              <SimplePredicate field="ATSC7e" operator="lessOrEqual" value="-0.236239872371513"/>
             </Node>
             <Node id="89" score="0">
              <SimplePredicate field="ATSC7e" operator="greaterThan" value="-0.236239872371513"/>
             </Node>
            </Node>
           </Node>
          </Node>
         </Node>
        </Node>
       </Node>
       <Node id="5">
        <SimplePredicate field="ATS7s" operator="greaterThan" value="0.33266673035681854"/>
        <Node id="10">
         <SimplePredicate field="Si" operator="lessOrEqual" value="-0.067794319139342335"/>
         <Node id="20" score="1">
          <SimplePredicate field="SpMaxA_B.s." operator="lessOrEqual" value="-0.41865403774413606"/>
         </Node>
         <Node id="21">
          <SimplePredicate field="SpMaxA_B.s." operator="greaterThan" value="-0.41865403774413606"/>
          <Node id="32" score="0">
           <SimplePredicate field="ATSC5m" operator="lessOrEqual" value="-0.14967107709007377"/>
          </Node>
          <Node id="33">
           <SimplePredicate field="ATSC5m" operator="greaterThan" value="-0.14967107709007377"/>
           <Node id="48" score="0">
            <SimplePredicate field="SpMin3_Bh.v." operator="lessOrEqual" value="-0.36463708726572319"/>
           </Node>
           <Node id="49" score="1">
            <SimplePredicate field="SpMin3_Bh.v." operator="greaterThan" value="-0.36463708726572319"/>
           </Node>
          </Node>
         </Node>
        </Node>
        <Node id="11" score="1">
         <SimplePredicate field="Si" operator="greaterThan" value="-0.067794319139342335"/>
        </Node>
       </Node>
      </Node>
      <Node id="3">
       <SimplePredicate field="SpMin3_Bh.v." operator="greaterThan" value="0.16364262639586863"/>
       <Node id="6">
        <SimplePredicate field="ATS7s" operator="lessOrEqual" value="0.95309539425377121"/>
        <Node id="12" score="0">
         <SimplePredicate field="ATSC5m" operator="lessOrEqual" value="-0.4587667990126022"/>
        </Node>
        <Node id="13">
         <SimplePredicate field="ATSC5m" operator="greaterThan" value="-0.4587667990126022"/>
         <Node id="22" score="1">
          <SimplePredicate field="SpMaxA_B.s." operator="lessOrEqual" value="-1.2687120356304349"/>
         </Node>
         <Node id="23">
          <SimplePredicate field="SpMaxA_B.s." operator="greaterThan" value="-1.2687120356304349"/>
          <Node id="34">
           <SimplePredicate field="ATSC7e" operator="lessOrEqual" value="0.8519851035104149"/>
           <Node id="50">
            <SimplePredicate field="ATS7s" operator="lessOrEqual" value="0.8309045989417857"/>
            <Node id="68">
             <SimplePredicate field="ATSC7e" operator="lessOrEqual" value="0.19433918734973468"/>
             <Node id="90">
              <SimplePredicate field="ATS7s" operator="lessOrEqual" value="0.7969264098710731"/>
              <Node id="108">
               <SimplePredicate field="SpMin3_Bh.v." operator="lessOrEqual" value="0.52183228073459875"/>
               <Node id="126">
                <SimplePredicate field="SpMin3_Bh.v." operator="lessOrEqual" value="0.28570725720403922"/>
                <Node id="138" score="1">
                 <SimplePredicate field="ATSC7e" operator="lessOrEqual" value="-0.53114412990488391"/>
                </Node>
                <Node id="139">
                 <SimplePredicate field="ATSC7e" operator="greaterThan" value="-0.53114412990488391"/>
                 <Node id="148">
                  <SimplePredicate field="Si" operator="lessOrEqual" value="-0.12703413222323889"/>
                  <Node id="158" score="1">
                   <SimplePredicate field="SpMaxA_B.s." operator="lessOrEqual" value="0.13586408274083317"/>
                  </Node>
                  <Node id="159" score="0">
                   <SimplePredicate field="SpMaxA_B.s." operator="greaterThan" value="0.13586408274083317"/>
                  </Node>
                 </Node>
                 <Node id="149" score="0">
                  <SimplePredicate field="Si" operator="greaterThan" value="-0.12703413222323889"/>
                 </Node>
                </Node>
               </Node>
               <Node id="127">
                <SimplePredicate field="SpMin3_Bh.v." operator="greaterThan" value="0.28570725720403922"/>
                <Node id="140" score="0">
                 <SimplePredicate field="Si" operator="lessOrEqual" value="-0.30174752671651561"/>
                </Node>
                <Node id="141" score="1">
                 <SimplePredicate field="Si" operator="greaterThan" value="-0.30174752671651561"/>
                </Node>
               </Node>
              </Node>
              <Node id="109">
               <SimplePredicate field="SpMin3_Bh.v." operator="greaterThan" value="0.52183228073459875"/>
               <Node id="128">
                <SimplePredicate field="SpMaxA_B.s." operator="lessOrEqual" value="-0.65021105508950761"/>
                <Node id="142">
                 <SimplePredicate field="Si" operator="lessOrEqual" value="0.64761841918398722"/>
                 <Node id="150" score="1">
                  <SimplePredicate field="ChiA_D" operator="lessOrEqual" value="-0.56357054640897264"/>
                 </Node>
                 <Node id="151">
                  <SimplePredicate field="ChiA_D" operator="greaterThan" value="-0.56357054640897264"/>
                  <Node id="160">
                   <SimplePredicate field="Si" operator="lessOrEqual" value="0.45064474497108353"/>
                   <Node id="166" score="1">
                    <SimplePredicate field="ChiA_D" operator="lessOrEqual" value="-0.40158935354980091"/>
                   </Node>
                   <Node id="167" score="0">
                    <SimplePredicate field="ChiA_D" operator="greaterThan" value="-0.40158935354980091"/>
                   </Node>
                  </Node>
                  <Node id="161" score="0">
                   <SimplePredicate field="Si" operator="greaterThan" value="0.45064474497108353"/>
                  </Node>
                 </Node>
                </Node>
                <Node id="143">
                 <SimplePredicate field="Si" operator="greaterThan" value="0.64761841918398722"/>
                 <Node id="152" score="1">
                  <SimplePredicate field="ATS7s" operator="lessOrEqual" value="0.25033496453163095"/>
                 </Node>
                 <Node id="153">
                  <SimplePredicate field="ATS7s" operator="greaterThan" value="0.25033496453163095"/>
                  <Node id="162" score="1">
                   <SimplePredicate field="SpMaxA_B.s." operator="lessOrEqual" value="-1.1163718926400585"/>
                  </Node>
                  <Node id="163" score="0">
                   <SimplePredicate field="SpMaxA_B.s." operator="greaterThan" value="-1.1163718926400585"/>
                  </Node>
                 </Node>
                </Node>
               </Node>
               <Node id="129">
                <SimplePredicate field="SpMaxA_B.s." operator="greaterThan" value="-0.65021105508950761"/>
                <Node id="144">
                 <SimplePredicate field="ATSC5m" operator="lessOrEqual" value="-0.21173252399287401"/>
                 <Node id="154" score="0">
                  <SimplePredicate field="ATSC5m" operator="lessOrEqual" value="-0.27724563884496439"/>
                 </Node>
                 <Node id="155" score="1">
                  <SimplePredicate field="ATSC5m" operator="greaterThan" value="-0.27724563884496439"/>
                 </Node>
                </Node>
                <Node id="145" score="0">
                 <SimplePredicate field="ATSC5m" operator="greaterThan" value="-0.21173252399287401"/>
                </Node>
               </Node>
              </Node>
             </Node>
             <Node id="91" score="1">
              <SimplePredicate field="ATS7s" operator="greaterThan" value="0.7969264098710731"/>
             </Node>
            </Node>
            <Node id="69">
             <SimplePredicate field="ATSC7e" operator="greaterThan" value="0.19433918734973468"/>
             <Node id="92">
              <SimplePredicate field="ATSC7e" operator="lessOrEqual" value="0.55896521822965339"/>
              <Node id="110" score="1">
               <SimplePredicate field="ATSC5m" operator="lessOrEqual" value="0.54155400316546065"/>
              </Node>
              <Node id="111" score="0">
               <SimplePredicate field="ATSC5m" operator="greaterThan" value="0.54155400316546065"/>
              </Node>
             </Node>
             <Node id="93">
              <SimplePredicate field="ATSC7e" operator="greaterThan" value="0.55896521822965339"/>
              <Node id="112" score="0">
               <SimplePredicate field="ATSC7e" operator="lessOrEqual" value="0.66731662275469372"/>
              </Node>
              <Node id="113">
               <SimplePredicate field="ATSC7e" operator="greaterThan" value="0.66731662275469372"/>
               <Node id="130" score="0">
                <SimplePredicate field="Si" operator="lessOrEqual" value="0.18634603384131085"/>
               </Node>
               <Node id="131" score="1">
                <SimplePredicate field="Si" operator="greaterThan" value="0.18634603384131085"/>
               </Node>
              </Node>
             </Node>
            </Node>
           </Node>
           <Node id="51" score="0">
            <SimplePredicate field="ATS7s" operator="greaterThan" value="0.8309045989417857"/>
           </Node>
          </Node>
          <Node id="35">
           <SimplePredicate field="ATSC7e" operator="greaterThan" value="0.8519851035104149"/>
           <Node id="52">
            <SimplePredicate field="ChiA_D" operator="lessOrEqual" value="-0.56357054640897264"/>
            <Node id="70" score="1">
             <SimplePredicate field="SpMin3_Bh.v." operator="lessOrEqual" value="0.47981003078424511"/>
            </Node>
            <Node id="71" score="0">
             <SimplePredicate field="SpMin3_Bh.v." operator="greaterThan" value="0.47981003078424511"/>
            </Node>
           </Node>
           <Node id="53" score="0">
            <SimplePredicate field="ChiA_D" operator="greaterThan" value="-0.56357054640897264"/>
           </Node>
          </Node>
         </Node>
        </Node>
       </Node>
       <Node id="7">
        <SimplePredicate field="ATS7s" operator="greaterThan" value="0.95309539425377121"/>
        <Node id="14">
         <SimplePredicate field="ATSC7e" operator="lessOrEqual" value="1.2938703967473191"/>
         <Node id="24">
          <SimplePredicate field="ATSC7e" operator="lessOrEqual" value="1.2071892731272866"/>
          <Node id="36" score="0">
           <SimplePredicate field="ATS7s" operator="lessOrEqual" value="0.96845092200688154"/>
          </Node>
          <Node id="37">
           <SimplePredicate field="ATS7s" operator="greaterThan" value="0.96845092200688154"/>
           <Node id="54" score="1">
            <SimplePredicate field="Si" operator="lessOrEqual" value="1.4665064740619962"/>
           </Node>
           <Node id="55">
            <SimplePredicate field="Si" operator="greaterThan" value="1.4665064740619962"/>
            <Node id="72" score="1">
             <SimplePredicate field="SpMaxA_B.s." operator="lessOrEqual" value="-1.5551115044523418"/>
            </Node>
            <Node id="73" score="0">
             <SimplePredicate field="SpMaxA_B.s." operator="greaterThan" value="-1.5551115044523418"/>
            </Node>
           </Node>
          </Node>
         </Node>
         <Node id="25" score="1">
          <SimplePredicate field="ATSC7e" operator="greaterThan" value="1.2071892731272866"/>
         </Node>
        </Node>
        <Node id="15" score="0">
         <SimplePredicate field="ATSC7e" operator="greaterThan" value="1.2938703967473191"/>
        </Node>
       </Node>
      </Node>
     </Node>
    </TreeModel>
   </Segment>
   <Segment id="3">
    <True/>
    <TreeModel modelName="randomForest_Model" functionName="classification" algorithmName="randomForest" splitCharacteristic="binarySplit">
     <MiningSchema>
      <MiningField name="Exp" usageType="predicted" invalidValueTreatment="asIs"/>
      <MiningField name="ATSC5m" usageType="active" invalidValueTreatment="asIs"/>
      <MiningField name="SpMin3_Bh.v." usageType="active" invalidValueTreatment="asIs"/>
      <MiningField name="SpMaxA_B.s." usageType="active" invalidValueTreatment="asIs"/>
      <MiningField name="ChiA_D" usageType="active" invalidValueTreatment="asIs"/>
      <MiningField name="ATS7s" usageType="active" invalidValueTreatment="asIs"/>
      <MiningField name="ATSC7e" usageType="active" invalidValueTreatment="asIs"/>
      <MiningField name="Si" usageType="active" invalidValueTreatment="asIs"/>
     </MiningSchema>
     <Node id="1">
      <True/>
      <Node id="2">
       <SimplePredicate field="Si" operator="lessOrEqual" value="0.32760422330776751"/>
       <Node id="4">
        <SimplePredicate field="ChiA_D" operator="lessOrEqual" value="-0.36919311497796659"/>
        <Node id="8">
         <SimplePredicate field="ATS7s" operator="lessOrEqual" value="0.58619629496136594"/>
         <Node id="14" score="1">
          <SimplePredicate field="ATSC7e" operator="lessOrEqual" value="-0.11187130369929266"/>
         </Node>
         <Node id="15">
          <SimplePredicate field="ATSC7e" operator="greaterThan" value="-0.11187130369929266"/>
          <Node id="26">
           <SimplePredicate field="ATS7s" operator="lessOrEqual" value="0.41597863625135434"/>
           <Node id="42">
            <SimplePredicate field="ATS7s" operator="lessOrEqual" value="0.33528043720841183"/>
            <Node id="60" score="1">
             <SimplePredicate field="SpMin3_Bh.v." operator="lessOrEqual" value="-0.35663284917994148"/>
            </Node>
            <Node id="61">
             <SimplePredicate field="SpMin3_Bh.v." operator="greaterThan" value="-0.35663284917994148"/>
             <Node id="80" score="0">
              <SimplePredicate field="ATSC7e" operator="lessOrEqual" value="0.025687870741193476"/>
             </Node>
             <Node id="81">
              <SimplePredicate field="ATSC7e" operator="greaterThan" value="0.025687870741193476"/>
              <Node id="102" score="1">
               <SimplePredicate field="Si" operator="lessOrEqual" value="0.080616183717821061"/>
              </Node>
              <Node id="103" score="0">
               <SimplePredicate field="Si" operator="greaterThan" value="0.080616183717821061"/>
              </Node>
             </Node>
            </Node>
           </Node>
           <Node id="43" score="0">
            <SimplePredicate field="ATS7s" operator="greaterThan" value="0.33528043720841183"/>
           </Node>
          </Node>
          <Node id="27" score="1">
           <SimplePredicate field="ATS7s" operator="greaterThan" value="0.41597863625135434"/>
          </Node>
         </Node>
        </Node>
        <Node id="9">
         <SimplePredicate field="ATS7s" operator="greaterThan" value="0.58619629496136594"/>
         <Node id="16">
          <SimplePredicate field="ATS7s" operator="lessOrEqual" value="0.75249339339398791"/>
          <Node id="28">
           <SimplePredicate field="ATS7s" operator="lessOrEqual" value="0.66134036694467258"/>
           <Node id="44" score="0">
            <SimplePredicate field="ATSC5m" operator="lessOrEqual" value="-0.29214952959289286"/>
           </Node>
           <Node id="45" score="1">
            <SimplePredicate field="ATSC5m" operator="greaterThan" value="-0.29214952959289286"/>
           </Node>
          </Node>
          <Node id="29" score="0">
           <SimplePredicate field="ATS7s" operator="greaterThan" value="0.66134036694467258"/>
          </Node>
         </Node>
         <Node id="17">
          <SimplePredicate field="ATS7s" operator="greaterThan" value="0.75249339339398791"/>
          <Node id="30" score="1">
           <SimplePredicate field="ATSC7e" operator="lessOrEqual" value="0.75117118799581206"/>
          </Node>
          <Node id="31">
           <SimplePredicate field="ATSC7e" operator="greaterThan" value="0.75117118799581206"/>
           <Node id="46" score="0">
            <SimplePredicate field="Si" operator="lessOrEqual" value="0.12456663122013426"/>
           </Node>
           <Node id="47" score="1">
            <SimplePredicate field="Si" operator="greaterThan" value="0.12456663122013426"/>
           </Node>
          </Node>
         </Node>
        </Node>
       </Node>
       <Node id="5">
        <SimplePredicate field="ChiA_D" operator="greaterThan" value="-0.36919311497796659"/>
        <Node id="10">
         <SimplePredicate field="SpMaxA_B.s." operator="lessOrEqual" value="0.92193922057117361"/>
         <Node id="18">
          <SimplePredicate field="Si" operator="lessOrEqual" value="-0.78100435225176557"/>
          <Node id="32">
           <SimplePredicate field="ChiA_D" operator="lessOrEqual" value="2.8056382650617993"/>
           <Node id="48">
            <SimplePredicate field="ChiA_D" operator="lessOrEqual" value="0.50550532646156054"/>
            <Node id="62">
             <SimplePredicate field="ATSC7e" operator="lessOrEqual" value="-0.099622884057331551"/>
             <Node id="82">
              <SimplePredicate field="ATS7s" operator="lessOrEqual" value="-0.26423857187579408"/>
              <Node id="104" score="0">
               <SimplePredicate field="ChiA_D" operator="lessOrEqual" value="0.37592037217422325"/>
              </Node>
              <Node id="105">
               <SimplePredicate field="ChiA_D" operator="greaterThan" value="0.37592037217422325"/>
               <Node id="122" score="1">
                <SimplePredicate field="SpMaxA_B.s." operator="lessOrEqual" value="0.49538682019812097"/>
               </Node>
               <Node id="123" score="0">
                <SimplePredicate field="SpMaxA_B.s." operator="greaterThan" value="0.49538682019812097"/>
               </Node>
              </Node>
             </Node>
             <Node id="83" score="1">
              <SimplePredicate field="ATS7s" operator="greaterThan" value="-0.26423857187579408"/>
             </Node>
            </Node>
            <Node id="63" score="1">
             <SimplePredicate field="ATSC7e" operator="greaterThan" value="-0.099622884057331551"/>
            </Node>
           </Node>
           <Node id="49" score="1">
            <SimplePredicate field="ChiA_D" operator="greaterThan" value="0.50550532646156054"/>
           </Node>
          </Node>
          <Node id="33" score="0">
           <SimplePredicate field="ChiA_D" operator="greaterThan" value="2.8056382650617993"/>
          </Node>
         </Node>
         <Node id="19">
          <SimplePredicate field="Si" operator="greaterThan" value="-0.78100435225176557"/>
          <Node id="34">
           <SimplePredicate field="SpMaxA_B.s." operator="lessOrEqual" value="0.44054436872158531"/>
           <Node id="50">
            <SimplePredicate field="SpMin3_Bh.v." operator="lessOrEqual" value="-1.249105395744599"/>
            <Node id="64" score="0">
             <SimplePredicate field="ATSC5m" operator="lessOrEqual" value="-0.56515131978079092"/>
            </Node>
            <Node id="65">
             <SimplePredicate field="ATSC5m" operator="greaterThan" value="-0.56515131978079092"/>
             <Node id="84" score="1">
              <SimplePredicate field="SpMin3_Bh.v." operator="lessOrEqual" value="-1.2871255266520625"/>
             </Node>
             <Node id="85" score="0">
              <SimplePredicate field="SpMin3_Bh.v." operator="greaterThan" value="-1.2871255266520625"/>
             </Node>
            </Node>
           </Node>
           <Node id="51">
            <SimplePredicate field="SpMin3_Bh.v." operator="greaterThan" value="-1.249105395744599"/>
            <Node id="66">
             <SimplePredicate field="SpMin3_Bh.v." operator="lessOrEqual" value="-0.57474833701749195"/>
             <Node id="86">
              <SimplePredicate field="ATSC7e" operator="lessOrEqual" value="-0.56506283045185313"/>
              <Node id="106" score="1">
               <SimplePredicate field="Si" operator="lessOrEqual" value="-0.71093241236600169"/>
              </Node>
              <Node id="107">
               <SimplePredicate field="Si" operator="greaterThan" value="-0.71093241236600169"/>
               <Node id="124" score="1">
                <SimplePredicate field="ATS7s" operator="lessOrEqual" value="-0.17602596563452139"/>
               </Node>
               <Node id="125" score="0">
                <SimplePredicate field="ATS7s" operator="greaterThan" value="-0.17602596563452139"/>
               </Node>
              </Node>
             </Node>
             <Node id="87" score="1">
              <SimplePredicate field="ATSC7e" operator="greaterThan" value="-0.56506283045185313"/>
             </Node>
            </Node>
            <Node id="67">
             <SimplePredicate field="SpMin3_Bh.v." operator="greaterThan" value="-0.57474833701749195"/>
             <Node id="88">
              <SimplePredicate field="ChiA_D" operator="lessOrEqual" value="0.21393917931505152"/>
              <Node id="108">
               <SimplePredicate field="SpMaxA_B.s." operator="lessOrEqual" value="-0.43693485490298123"/>
               <Node id="126">
                <SimplePredicate field="ATSC5m" operator="lessOrEqual" value="0.15757308785303409"/>
                <Node id="136" score="0">
                 <SimplePredicate field="ATS7s" operator="lessOrEqual" value="0.17029019220158703"/>
                </Node>
                <Node id="137">
                 <SimplePredicate field="ATS7s" operator="greaterThan" value="0.17029019220158703"/>
                 <Node id="144">
                  <SimplePredicate field="ChiA_D" operator="lessOrEqual" value="-0.14241944497512618"/>
                  <Node id="154" score="0">
                   <SimplePredicate field="Si" operator="lessOrEqual" value="-0.063337080359626666"/>
                  </Node>
                  <Node id="155" score="1">
                   <SimplePredicate field="Si" operator="greaterThan" value="-0.063337080359626666"/>
                  </Node>
                 </Node>
                 <Node id="145" score="0">
                  <SimplePredicate field="ChiA_D" operator="greaterThan" value="-0.14241944497512618"/>
                 </Node>
                </Node>
               </Node>
               <Node id="127" score="1">
                <SimplePredicate field="ATSC5m" operator="greaterThan" value="0.15757308785303409"/>
               </Node>
              </Node>
              <Node id="109">
               <SimplePredicate field="SpMaxA_B.s." operator="greaterThan" value="-0.43693485490298123"/>
               <Node id="128" score="1">
                <SimplePredicate field="SpMaxA_B.s." operator="lessOrEqual" value="-0.31506274051068023"/>
               </Node>
               <Node id="129">
                <SimplePredicate field="SpMaxA_B.s." operator="greaterThan" value="-0.31506274051068023"/>
                <Node id="138">
                 <SimplePredicate field="ATS7s" operator="lessOrEqual" value="-0.10904972756244381"/>
                 <Node id="146" score="0">
                  <SimplePredicate field="SpMin3_Bh.v." operator="lessOrEqual" value="-0.13851736134239009"/>
                 </Node>
                 <Node id="147" score="1">
                  <SimplePredicate field="SpMin3_Bh.v." operator="greaterThan" value="-0.13851736134239009"/>
                 </Node>
                </Node>
                <Node id="139">
                 <SimplePredicate field="ATS7s" operator="greaterThan" value="-0.10904972756244381"/>
                 <Node id="148" score="1">
                  <SimplePredicate field="ATSC5m" operator="lessOrEqual" value="-0.5189081127515589"/>
                 </Node>
                 <Node id="149">
                  <SimplePredicate field="ATSC5m" operator="greaterThan" value="-0.5189081127515589"/>
                  <Node id="156" score="0">
                   <SimplePredicate field="ATSC5m" operator="lessOrEqual" value="-0.46226418441817441"/>
                  </Node>
                  <Node id="157">
                   <SimplePredicate field="ATSC5m" operator="greaterThan" value="-0.46226418441817441"/>
                   <Node id="160" score="1">
                    <SimplePredicate field="ATSC7e" operator="lessOrEqual" value="-0.30219290121284192"/>
                   </Node>
                   <Node id="161">
                    <SimplePredicate field="ATSC7e" operator="greaterThan" value="-0.30219290121284192"/>
                    <Node id="162">
                     <SimplePredicate field="ATSC7e" operator="lessOrEqual" value="0.78791644692169538"/>
                     <Node id="164" score="1">
                      <SimplePredicate field="SpMaxA_B.s." operator="lessOrEqual" value="-0.068271708866271028"/>
                     </Node>
                     <Node id="165">
                      <SimplePredicate field="SpMaxA_B.s." operator="greaterThan" value="-0.068271708866271028"/>
                      <Node id="166">
                       <SimplePredicate field="ATSC5m" operator="lessOrEqual" value="0.22905233074992409"/>
                       <Node id="168">
                        <SimplePredicate field="ATS7s" operator="lessOrEqual" value="0.39408884136926059"/>
                        <Node id="170">
                         <SimplePredicate field="Si" operator="lessOrEqual" value="-0.37150849645485717"/>
                         <Node id="172" score="1">
                          <SimplePredicate field="ATS7s" operator="lessOrEqual" value="0.16277578500325646"/>
                         </Node>
                         <Node id="173" score="0">
                          <SimplePredicate field="ATS7s" operator="greaterThan" value="0.16277578500325646"/>
                         </Node>
                        </Node>
                        <Node id="171" score="0">
                         <SimplePredicate field="Si" operator="greaterThan" value="-0.37150849645485717"/>
                        </Node>
                       </Node>
                       <Node id="169" score="1">
                        <SimplePredicate field="ATS7s" operator="greaterThan" value="0.39408884136926059"/>
                       </Node>
                      </Node>
                      <Node id="167" score="1">
                       <SimplePredicate field="ATSC5m" operator="greaterThan" value="0.22905233074992409"/>
                      </Node>
                     </Node>
                    </Node>
                    <Node id="163" score="0">
                     <SimplePredicate field="ATSC7e" operator="greaterThan" value="0.78791644692169538"/>
                    </Node>
                   </Node>
                  </Node>
                 </Node>
                </Node>
               </Node>
              </Node>
             </Node>
             <Node id="89">
              <SimplePredicate field="ChiA_D" operator="greaterThan" value="0.21393917931505152"/>
              <Node id="110">
               <SimplePredicate field="ATSC7e" operator="lessOrEqual" value="-0.58296436685164243"/>
               <Node id="130" score="1">
                <SimplePredicate field="ATSC7e" operator="lessOrEqual" value="-0.60934557838817405"/>
               </Node>
               <Node id="131" score="0">
                <SimplePredicate field="ATSC7e" operator="greaterThan" value="-0.60934557838817405"/>
               </Node>
              </Node>
              <Node id="111" score="1">
               <SimplePredicate field="ATSC7e" operator="greaterThan" value="-0.58296436685164243"/>
              </Node>
             </Node>
            </Node>
           </Node>
          </Node>
          <Node id="35">
           <SimplePredicate field="SpMaxA_B.s." operator="greaterThan" value="0.44054436872158531"/>
           <Node id="52">
            <SimplePredicate field="Si" operator="lessOrEqual" value="-0.45505580939557566"/>
            <Node id="68">
             <SimplePredicate field="SpMin3_Bh.v." operator="lessOrEqual" value="-0.15452583751395349"/>
             <Node id="90">
              <SimplePredicate field="SpMin3_Bh.v." operator="lessOrEqual" value="-0.36263602774427756"/>
              <Node id="112" score="0">
               <SimplePredicate field="ATSC7e" operator="lessOrEqual" value="-0.49439887097900065"/>
              </Node>
              <Node id="113">
               <SimplePredicate field="ATSC7e" operator="greaterThan" value="-0.49439887097900065"/>
               <Node id="132">
                <SimplePredicate field="ATS7s" operator="lessOrEqual" value="0.043525409899313472"/>
                <Node id="140">
                 <SimplePredicate field="SpMaxA_B.s." operator="lessOrEqual" value="0.78787989473964282"/>
                 <Node id="150">
                  <SimplePredicate field="SpMaxA_B.s." operator="lessOrEqual" value="0.66600778034734209"/>
                  <Node id="158" score="1">
                   <SimplePredicate field="ATSC5m" operator="lessOrEqual" value="-0.51794804616963708"/>
                  </Node>
                  <Node id="159" score="0">
                   <SimplePredicate field="ATSC5m" operator="greaterThan" value="-0.51794804616963708"/>
                  </Node>
                 </Node>
                 <Node id="151" score="0">
                  <SimplePredicate field="SpMaxA_B.s." operator="greaterThan" value="0.66600778034734209"/>
                 </Node>
                </Node>
                <Node id="141" score="1">
                 <SimplePredicate field="SpMaxA_B.s." operator="greaterThan" value="0.78787989473964282"/>
                </Node>
               </Node>
               <Node id="133" score="1">
                <SimplePredicate field="ATS7s" operator="greaterThan" value="0.043525409899313472"/>
               </Node>
              </Node>
             </Node>
             <Node id="91" score="0">
              <SimplePredicate field="SpMin3_Bh.v." operator="greaterThan" value="-0.36263602774427756"/>
             </Node>
            </Node>
            <Node id="69" score="1">
             <SimplePredicate field="SpMin3_Bh.v." operator="greaterThan" value="-0.15452583751395349"/>
            </Node>
           </Node>
           <Node id="53" score="0">
            <SimplePredicate field="Si" operator="greaterThan" value="-0.45505580939557566"/>
           </Node>
          </Node>
         </Node>
        </Node>
        <Node id="11">
         <SimplePredicate field="SpMaxA_B.s." operator="greaterThan" value="0.92193922057117361"/>
         <Node id="20">
          <SimplePredicate field="Si" operator="lessOrEqual" value="-0.87175580694109434"/>
          <Node id="36">
           <SimplePredicate field="SpMin3_Bh.v." operator="lessOrEqual" value="-1.2731181100019442"/>
           <Node id="54">
            <SimplePredicate field="ATSC5m" operator="lessOrEqual" value="-0.76722247654718279"/>
            <Node id="70">
             <SimplePredicate field="ATSC7e" operator="lessOrEqual" value="-0.62724711478796336"/>
             <Node id="92">
              <SimplePredicate field="Si" operator="lessOrEqual" value="-1.225665748886315"/>
              <Node id="114" score="1">
               <SimplePredicate field="ChiA_D" operator="lessOrEqual" value="2.0605247779096088"/>
              </Node>
              <Node id="115" score="0">
               <SimplePredicate field="ChiA_D" operator="greaterThan" value="2.0605247779096088"/>
              </Node>
             </Node>
             <Node id="93" score="1">
              <SimplePredicate field="Si" operator="greaterThan" value="-1.225665748886315"/>
             </Node>
            </Node>
            <Node id="71" score="0">
             <SimplePredicate field="ATSC7e" operator="greaterThan" value="-0.62724711478796336"/>
            </Node>
           </Node>
           <Node id="55">
            <SimplePredicate field="ATSC5m" operator="greaterThan" value="-0.76722247654718279"/>
            <Node id="72">
             <SimplePredicate field="ATSC5m" operator="lessOrEqual" value="-0.50071256515132723"/>
             <Node id="94" score="1">
              <SimplePredicate field="ChiA_D" operator="lessOrEqual" value="2.5464683564871242"/>
             </Node>
             <Node id="95" score="0">
              <SimplePredicate field="ChiA_D" operator="greaterThan" value="2.5464683564871242"/>
             </Node>
            </Node>
            <Node id="73" score="0">
             <SimplePredicate field="ATSC5m" operator="greaterThan" value="-0.50071256515132723"/>
            </Node>
           </Node>
          </Node>
          <Node id="37" score="0">
           <SimplePredicate field="SpMin3_Bh.v." operator="greaterThan" value="-1.2731181100019442"/>
          </Node>
         </Node>
         <Node id="21" score="0">
          <SimplePredicate field="Si" operator="greaterThan" value="-0.87175580694109434"/>
         </Node>
        </Node>
       </Node>
      </Node>
      <Node id="3">
       <SimplePredicate field="Si" operator="greaterThan" value="0.32760422330776751"/>
       <Node id="6">
        <SimplePredicate field="ATSC5m" operator="lessOrEqual" value="2.1748787050239446"/>
        <Node id="12">
         <SimplePredicate field="SpMin3_Bh.v." operator="lessOrEqual" value="1.3482698630915579"/>
         <Node id="22">
          <SimplePredicate field="SpMin3_Bh.v." operator="lessOrEqual" value="1.2642253631908509"/>
          <Node id="38">
           <SimplePredicate field="ATSC5m" operator="lessOrEqual" value="0.33664836410958543"/>
           <Node id="56">
            <SimplePredicate field="SpMaxA_B.s." operator="lessOrEqual" value="-1.0859038640419834"/>
            <Node id="74" score="0">
             <SimplePredicate field="SpMaxA_B.s." operator="lessOrEqual" value="-1.1437931183783263"/>
            </Node>
            <Node id="75" score="1">
             <SimplePredicate field="SpMaxA_B.s." operator="greaterThan" value="-1.1437931183783263"/>
            </Node>
           </Node>
           <Node id="57" score="0">
            <SimplePredicate field="SpMaxA_B.s." operator="greaterThan" value="-1.0859038640419834"/>
           </Node>
          </Node>
          <Node id="39">
           <SimplePredicate field="ATSC5m" operator="greaterThan" value="0.33664836410958543"/>
           <Node id="58">
            <SimplePredicate field="SpMaxA_B.s." operator="lessOrEqual" value="-0.77208316948180866"/>
            <Node id="76">
             <SimplePredicate field="ATSC5m" operator="lessOrEqual" value="0.68494680479391956"/>
             <Node id="96">
              <SimplePredicate field="ChiA_D" operator="lessOrEqual" value="-0.46638183069346961"/>
              <Node id="116" score="1">
               <SimplePredicate field="Si" operator="lessOrEqual" value="1.2299359344106879"/>
              </Node>
              <Node id="117" score="0">
               <SimplePredicate field="Si" operator="greaterThan" value="1.2299359344106879"/>
              </Node>
             </Node>
             <Node id="97" score="0">
              <SimplePredicate field="ChiA_D" operator="greaterThan" value="-0.46638183069346961"/>
             </Node>
            </Node>
            <Node id="77">
             <SimplePredicate field="ATSC5m" operator="greaterThan" value="0.68494680479391956"/>
             <Node id="98" score="0">
              <SimplePredicate field="ATSC7e" operator="lessOrEqual" value="-0.16086498226713702"/>
             </Node>
             <Node id="99">
              <SimplePredicate field="ATSC7e" operator="greaterThan" value="-0.16086498226713702"/>
              <Node id="118">
               <SimplePredicate field="ChiA_D" operator="lessOrEqual" value="-0.75794797783997869"/>
               <Node id="134">
                <SimplePredicate field="SpMaxA_B.s." operator="lessOrEqual" value="-1.1102782869204435"/>
                <Node id="142">
                 <SimplePredicate field="SpMin3_Bh.v." operator="lessOrEqual" value="1.1641723871185792"/>
                 <Node id="152" score="1">
                  <SimplePredicate field="ATSC7e" operator="lessOrEqual" value="2.7834666624350488"/>
                 </Node>
                 <Node id="153" score="0">
                  <SimplePredicate field="ATSC7e" operator="greaterThan" value="2.7834666624350488"/>
                 </Node>
                </Node>
                <Node id="143" score="1">
                 <SimplePredicate field="SpMin3_Bh.v." operator="greaterThan" value="1.1641723871185792"/>
                </Node>
               </Node>
               <Node id="135" score="0">
                <SimplePredicate field="SpMaxA_B.s." operator="greaterThan" value="-1.1102782869204435"/>
               </Node>
              </Node>
              <Node id="119" score="1">
               <SimplePredicate field="ChiA_D" operator="greaterThan" value="-0.75794797783997869"/>
              </Node>
             </Node>
            </Node>
           </Node>
           <Node id="59">
            <SimplePredicate field="SpMaxA_B.s." operator="greaterThan" value="-0.77208316948180866"/>
            <Node id="78" score="1">
             <SimplePredicate field="SpMin3_Bh.v." operator="lessOrEqual" value="0.29371149528982049"/>
            </Node>
            <Node id="79">
             <SimplePredicate field="SpMin3_Bh.v." operator="greaterThan" value="0.29371149528982049"/>
             <Node id="100">
              <SimplePredicate field="ChiA_D" operator="lessOrEqual" value="-0.72555173926814431"/>
              <Node id="120" score="1">
               <SimplePredicate field="Si" operator="lessOrEqual" value="0.7448225044323229"/>
              </Node>
              <Node id="121" score="0">
               <SimplePredicate field="Si" operator="greaterThan" value="0.7448225044323229"/>
              </Node>
             </Node>
             <Node id="101" score="0">
              <SimplePredicate field="ChiA_D" operator="greaterThan" value="-0.72555173926814431"/>
             </Node>
            </Node>
           </Node>
          </Node>
         </Node>
         <Node id="23" score="0">
          <SimplePredicate field="SpMin3_Bh.v." operator="greaterThan" value="1.2642253631908509"/>
         </Node>
        </Node>
        <Node id="13">
         <SimplePredicate field="SpMin3_Bh.v." operator="greaterThan" value="1.3482698630915579"/>
         <Node id="24" score="1">
          <SimplePredicate field="ATSC5m" operator="lessOrEqual" value="1.0588470209961676"/>
         </Node>
         <Node id="25">
          <SimplePredicate field="ATSC5m" operator="greaterThan" value="1.0588470209961676"/>
          <Node id="40" score="1">
           <SimplePredicate field="ATSC7e" operator="lessOrEqual" value="0.3055171502536892"/>
          </Node>
          <Node id="41" score="0">
           <SimplePredicate field="ATSC7e" operator="greaterThan" value="0.3055171502536892"/>
          </Node>
         </Node>
        </Node>
       </Node>
       <Node id="7" score="0">
        <SimplePredicate field="ATSC5m" operator="greaterThan" value="2.1748787050239446"/>
       </Node>
      </Node>
     </Node>
    </TreeModel>
   </Segment>
   <Segment id="4">
    <True/>
    <TreeModel modelName="randomForest_Model" functionName="classification" algorithmName="randomForest" splitCharacteristic="binarySplit">
     <MiningSchema>
      <MiningField name="Exp" usageType="predicted" invalidValueTreatment="asIs"/>
      <MiningField name="ATSC5m" usageType="active" invalidValueTreatment="asIs"/>
      <MiningField name="SpMin3_Bh.v." usageType="active" invalidValueTreatment="asIs"/>
      <MiningField name="SpMaxA_B.s." usageType="active" invalidValueTreatment="asIs"/>
      <MiningField name="ChiA_D" usageType="active" invalidValueTreatment="asIs"/>
      <MiningField name="ATS7s" usageType="active" invalidValueTreatment="asIs"/>
      <MiningField name="ATSC7e" usageType="active" invalidValueTreatment="asIs"/>
      <MiningField name="Si" usageType="active" invalidValueTreatment="asIs"/>
     </MiningSchema>
     <Node id="1">
      <True/>
      <Node id="2">
       <SimplePredicate field="ATS7s" operator="lessOrEqual" value="0.33332015706971707"/>
       <Node id="4">
        <SimplePredicate field="SpMaxA_B.s." operator="lessOrEqual" value="0.17851932277813851"/>
        <Node id="8">
         <SimplePredicate field="ATSC5m" operator="lessOrEqual" value="0.33509397059599788"/>
         <Node id="14">
          <SimplePredicate field="ATS7s" operator="lessOrEqual" value="0.20394166791585028"/>
          <Node id="22">
           <SimplePredicate field="SpMaxA_B.s." operator="lessOrEqual" value="-0.4247476434637511"/>
           <Node id="34">
            <SimplePredicate field="ATSC7e" operator="lessOrEqual" value="-0.56694720270446253"/>
            <Node id="48" score="1">
             <SimplePredicate field="ATSC5m" operator="lessOrEqual" value="-0.49698659246434512"/>
            </Node>
            <Node id="49" score="0">
             <SimplePredicate field="ATSC5m" operator="greaterThan" value="-0.49698659246434512"/>
            </Node>
           </Node>
           <Node id="35">
            <SimplePredicate field="ATSC7e" operator="greaterThan" value="-0.56694720270446253"/>
            <Node id="50">
             <SimplePredicate field="ATS7s" operator="lessOrEqual" value="-0.031291948727543907"/>
             <Node id="66" score="1">
              <SimplePredicate field="ATSC7e" operator="lessOrEqual" value="-0.55375659693619672"/>
             </Node>
             <Node id="67" score="0">
              <SimplePredicate field="ATSC7e" operator="greaterThan" value="-0.55375659693619672"/>
             </Node>
            </Node>
            <Node id="51" score="1">
             <SimplePredicate field="ATS7s" operator="greaterThan" value="-0.031291948727543907"/>
            </Node>
           </Node>
          </Node>
          <Node id="23">
           <SimplePredicate field="SpMaxA_B.s." operator="greaterThan" value="-0.4247476434637511"/>
           <Node id="36">
            <SimplePredicate field="ATS7s" operator="lessOrEqual" value="0.10135367399081444"/>
            <Node id="52">
             <SimplePredicate field="ATSC5m" operator="lessOrEqual" value="-0.45193203929844483"/>
             <Node id="68">
              <SimplePredicate field="ATSC7e" operator="lessOrEqual" value="-0.53585506053640741"/>
              <Node id="90">
               <SimplePredicate field="ChiA_D" operator="lessOrEqual" value="0.21393917931505155"/>
               <Node id="110" score="0">
                <SimplePredicate field="ATS7s" operator="lessOrEqual" value="-0.10349560050280829"/>
               </Node>
               <Node id="111" score="1">
                <SimplePredicate field="ATS7s" operator="greaterThan" value="-0.10349560050280829"/>
               </Node>
              </Node>
              <Node id="91" score="1">
               <SimplePredicate field="ChiA_D" operator="greaterThan" value="0.21393917931505155"/>
              </Node>
             </Node>
             <Node id="69">
              <SimplePredicate field="ATSC7e" operator="greaterThan" value="-0.53585506053640741"/>
              <Node id="92" score="0">
               <SimplePredicate field="ChiA_D" operator="lessOrEqual" value="-0.17481568354696056"/>
              </Node>
              <Node id="93" score="1">
               <SimplePredicate field="ChiA_D" operator="greaterThan" value="-0.17481568354696056"/>
              </Node>
             </Node>
            </Node>
            <Node id="53" score="1">
             <SimplePredicate field="ATSC5m" operator="greaterThan" value="-0.45193203929844483"/>
            </Node>
           </Node>
           <Node id="37" score="1">
            <SimplePredicate field="ATS7s" operator="greaterThan" value="0.10135367399081444"/>
           </Node>
          </Node>
         </Node>
         <Node id="15">
          <SimplePredicate field="ATS7s" operator="greaterThan" value="0.20394166791585028"/>
          <Node id="24">
           <SimplePredicate field="ATSC7e" operator="lessOrEqual" value="-0.044976088731658995"/>
           <Node id="38">
            <SimplePredicate field="ATS7s" operator="lessOrEqual" value="0.31502420910856421"/>
            <Node id="54">
             <SimplePredicate field="ATSC7e" operator="lessOrEqual" value="-0.30596164571806073"/>
             <Node id="70" score="1">
              <SimplePredicate field="SpMin3_Bh.v." operator="lessOrEqual" value="0.89402935172344711"/>
             </Node>
             <Node id="71" score="0">
              <SimplePredicate field="SpMin3_Bh.v." operator="greaterThan" value="0.89402935172344711"/>
             </Node>
            </Node>
            <Node id="55" score="0">
             <SimplePredicate field="ATSC7e" operator="greaterThan" value="-0.30596164571806073"/>
            </Node>
           </Node>
           <Node id="39" score="1">
            <SimplePredicate field="ATS7s" operator="greaterThan" value="0.31502420910856421"/>
           </Node>
          </Node>
          <Node id="25">
           <SimplePredicate field="ATSC7e" operator="greaterThan" value="-0.044976088731658995"/>
           <Node id="40" score="0">
            <SimplePredicate field="SpMaxA_B.s." operator="lessOrEqual" value="-0.61060261791200987"/>
           </Node>
           <Node id="41" score="1">
            <SimplePredicate field="SpMaxA_B.s." operator="greaterThan" value="-0.61060261791200987"/>
           </Node>
          </Node>
         </Node>
        </Node>
        <Node id="9" score="0">
         <SimplePredicate field="ATSC5m" operator="greaterThan" value="0.33509397059599788"/>
        </Node>
       </Node>
       <Node id="5">
        <SimplePredicate field="SpMaxA_B.s." operator="greaterThan" value="0.17851932277813851"/>
        <Node id="10">
         <SimplePredicate field="SpMin3_Bh.v." operator="lessOrEqual" value="-0.43867628955920362"/>
         <Node id="16">
          <SimplePredicate field="SpMaxA_B.s." operator="lessOrEqual" value="1.9517585871861165"/>
          <Node id="26" score="0">
           <SimplePredicate field="ATSC5m" operator="lessOrEqual" value="-0.85909170494583986"/>
          </Node>
          <Node id="27">
           <SimplePredicate field="ATSC5m" operator="greaterThan" value="-0.85909170494583986"/>
           <Node id="42">
            <SimplePredicate field="ATSC7e" operator="lessOrEqual" value="-0.62442055640904925"/>
            <Node id="56">
             <SimplePredicate field="SpMaxA_B.s." operator="lessOrEqual" value="1.6958271469622841"/>
             <Node id="72" score="1">
              <SimplePredicate field="Si" operator="lessOrEqual" value="-1.0467024290449376"/>
             </Node>
             <Node id="73">
              <SimplePredicate field="Si" operator="greaterThan" value="-1.0467024290449376"/>
              <Node id="94" score="1">
               <SimplePredicate field="SpMin3_Bh.v." operator="lessOrEqual" value="-0.76084687251191618"/>
              </Node>
              <Node id="95" score="0">
               <SimplePredicate field="SpMin3_Bh.v." operator="greaterThan" value="-0.76084687251191618"/>
              </Node>
             </Node>
            </Node>
            <Node id="57">
             <SimplePredicate field="SpMaxA_B.s." operator="greaterThan" value="1.6958271469622841"/>
             <Node id="74" score="1">
              <SimplePredicate field="ATSC5m" operator="lessOrEqual" value="-0.83499860548523164"/>
             </Node>
             <Node id="75" score="0">
              <SimplePredicate field="ATSC5m" operator="greaterThan" value="-0.83499860548523164"/>
             </Node>
            </Node>
           </Node>
           <Node id="43">
            <SimplePredicate field="ATSC7e" operator="greaterThan" value="-0.62442055640904925"/>
            <Node id="58">
             <SimplePredicate field="ATS7s" operator="lessOrEqual" value="-0.10708944742374879"/>
             <Node id="76">
              <SimplePredicate field="SpMaxA_B.s." operator="lessOrEqual" value="0.73303744326310771"/>
              <Node id="96" score="0">
               <SimplePredicate field="ChiA_D" operator="lessOrEqual" value="0.73227899646440109"/>
              </Node>
              <Node id="97">
               <SimplePredicate field="ChiA_D" operator="greaterThan" value="0.73227899646440109"/>
               <Node id="112" score="1">
                <SimplePredicate field="Si" operator="lessOrEqual" value="-0.87165215022528708"/>
               </Node>
               <Node id="113" score="0">
                <SimplePredicate field="Si" operator="greaterThan" value="-0.87165215022528708"/>
               </Node>
              </Node>
             </Node>
             <Node id="77">
              <SimplePredicate field="SpMaxA_B.s." operator="greaterThan" value="0.73303744326310771"/>
              <Node id="98">
               <SimplePredicate field="ATSC5m" operator="lessOrEqual" value="-0.6247440240443638"/>
               <Node id="114" score="1">
                <SimplePredicate field="ATS7s" operator="lessOrEqual" value="-1.2881582309874573"/>
               </Node>
               <Node id="115">
                <SimplePredicate field="ATS7s" operator="greaterThan" value="-1.2881582309874573"/>
                <Node id="126">
                 <SimplePredicate field="ATSC5m" operator="lessOrEqual" value="-0.66991287085096896"/>
                 <Node id="136" score="0">
                  <SimplePredicate field="ATSC5m" operator="lessOrEqual" value="-0.78226351966395724"/>
                 </Node>
                 <Node id="137">
                  <SimplePredicate field="ATSC5m" operator="greaterThan" value="-0.78226351966395724"/>
                  <Node id="146" score="1">
                   <SimplePredicate field="ATSC7e" operator="lessOrEqual" value="-0.45671142592681269"/>
                  </Node>
                  <Node id="147" score="0">
                   <SimplePredicate field="ATSC7e" operator="greaterThan" value="-0.45671142592681269"/>
                  </Node>
                 </Node>
                </Node>
                <Node id="127" score="0">
                 <SimplePredicate field="ATSC5m" operator="greaterThan" value="-0.66991287085096896"/>
                </Node>
               </Node>
              </Node>
              <Node id="99" score="1">
               <SimplePredicate field="ATSC5m" operator="greaterThan" value="-0.6247440240443638"/>
              </Node>
             </Node>
            </Node>
            <Node id="59">
             <SimplePredicate field="ATS7s" operator="greaterThan" value="-0.10708944742374879"/>
             <Node id="78" score="1">
              <SimplePredicate field="SpMin3_Bh.v." operator="lessOrEqual" value="-0.57875045606038289"/>
             </Node>
             <Node id="79">
              <SimplePredicate field="SpMin3_Bh.v." operator="greaterThan" value="-0.57875045606038289"/>
              <Node id="100" score="0">
               <SimplePredicate field="SpMin3_Bh.v." operator="lessOrEqual" value="-0.46268900381654876"/>
              </Node>
              <Node id="101" score="1">
               <SimplePredicate field="SpMin3_Bh.v." operator="greaterThan" value="-0.46268900381654876"/>
              </Node>
             </Node>
            </Node>
           </Node>
          </Node>
         </Node>
         <Node id="17" score="0">
          <SimplePredicate field="SpMaxA_B.s." operator="greaterThan" value="1.9517585871861165"/>
         </Node>
        </Node>
        <Node id="11">
         <SimplePredicate field="SpMin3_Bh.v." operator="greaterThan" value="-0.43867628955920362"/>
         <Node id="18">
          <SimplePredicate field="SpMaxA_B.s." operator="lessOrEqual" value="0.62030573745022932"/>
          <Node id="28">
           <SimplePredicate field="SpMin3_Bh.v." operator="lessOrEqual" value="0.16564368591731385"/>
           <Node id="44" score="0">
            <SimplePredicate field="Si" operator="lessOrEqual" value="-0.57602319674274494"/>
           </Node>
           <Node id="45">
            <SimplePredicate field="Si" operator="greaterThan" value="-0.57602319674274494"/>
            <Node id="60">
             <SimplePredicate field="SpMaxA_B.s." operator="lessOrEqual" value="0.25164259141351913"/>
             <Node id="80" score="0">
              <SimplePredicate field="ATSC7e" operator="lessOrEqual" value="-0.25696796715021636"/>
             </Node>
             <Node id="81" score="1">
              <SimplePredicate field="ATSC7e" operator="greaterThan" value="-0.25696796715021636"/>
             </Node>
            </Node>
            <Node id="61">
             <SimplePredicate field="SpMaxA_B.s." operator="greaterThan" value="0.25164259141351913"/>
             <Node id="82" score="0">
              <SimplePredicate field="ChiA_D" operator="lessOrEqual" value="-0.077626967831457561"/>
             </Node>
             <Node id="83" score="1">
              <SimplePredicate field="ChiA_D" operator="greaterThan" value="-0.077626967831457561"/>
             </Node>
            </Node>
           </Node>
          </Node>
          <Node id="29" score="0">
           <SimplePredicate field="SpMin3_Bh.v." operator="greaterThan" value="0.16564368591731385"/>
          </Node>
         </Node>
         <Node id="19">
          <SimplePredicate field="SpMaxA_B.s." operator="greaterThan" value="0.62030573745022932"/>
          <Node id="30" score="1">
           <SimplePredicate field="SpMin3_Bh.v." operator="lessOrEqual" value="-0.42266781338764026"/>
          </Node>
          <Node id="31" score="0">
           <SimplePredicate field="SpMin3_Bh.v." operator="greaterThan" value="-0.42266781338764026"/>
          </Node>
         </Node>
        </Node>
       </Node>
      </Node>
      <Node id="3">
       <SimplePredicate field="ATS7s" operator="greaterThan" value="0.33332015706971707"/>
       <Node id="6" score="0">
        <SimplePredicate field="ATS7s" operator="lessOrEqual" value="0.38363401396288754"/>
       </Node>
       <Node id="7">
        <SimplePredicate field="ATS7s" operator="greaterThan" value="0.38363401396288754"/>
        <Node id="12">
         <SimplePredicate field="Si" operator="lessOrEqual" value="2.6747809818702897"/>
         <Node id="20" score="1">
          <SimplePredicate field="ChiA_D" operator="lessOrEqual" value="-1.0171178864146533"/>
         </Node>
         <Node id="21">
          <SimplePredicate field="ChiA_D" operator="greaterThan" value="-1.0171178864146533"/>
          <Node id="32">
           <SimplePredicate field="SpMaxA_B.s." operator="lessOrEqual" value="0.001804756909302048"/>
           <Node id="46">
            <SimplePredicate field="SpMin3_Bh.v." operator="lessOrEqual" value="0.48181109030569036"/>
            <Node id="62" score="0">
             <SimplePredicate field="ATS7s" operator="lessOrEqual" value="0.41630534960780352"/>
            </Node>
            <Node id="63">
             <SimplePredicate field="ATS7s" operator="greaterThan" value="0.41630534960780352"/>
             <Node id="84">
              <SimplePredicate field="SpMin3_Bh.v." operator="lessOrEqual" value="0.45779837604834567"/>
